{"type": "sequential", "layers": [{"type": "dense", "biases": [[0.0002766739673738946, 7.697750134803243e-06, 0.00041711634261778775, 0.00039561563514300274, 0.00027633973443575625, 0.000281246260513244, 4.75329169673168e-05, 0.0004085802929813409, 0.0003254645580781682, -8.254600774003738e-05, -0.00032969526285734073, 0.0002739065721639111, 7.707358446453447e-05, 0.00043909886932292817, 0.0007059954769459622, -2.149581074406106e-05, 0.0004805692614560666, -0.00011042674588636976, 0.0003065327835517159, 9.693271989109635e-05, -0.00011631146828193607, 0.00022876427812673993, 0.00027141362149598643, 5.779370891227402e-05, 3.892274037977008e-05, -0.00027966879074680864, -1.117727340376406e-06, 1.5791045463112843e-05, 0.00019250376416806217, -2.041048794068603e-06, 0.00031625756500813405, 8.323301811924385e-05, 8.747912692643076e-05, 0.0001423832008345267, -0.00030332535825981923, -0.00020833015624598997, 4.6361087778555785e-05, -0.00011945016449962615, 0.00015459813220475142, 2.592995443562389e-05, 0.0007630509759885989, 8.783505372576009e-05, -0.0001074524041246385, 0.00038155964371670636, 0.000289284943850955, -0.00044472573866981307, -0.0001880356031016242, 0.0001875396741410955, 0.00016903101466004901, 0.00015713590785297474, 0.00018382157136533528, 0.00028473215030497143, 0.000249064166499781, 0.00031472292356498726, 0.00038723598470651147, 1.2324500699422979e-05, 0.00042957969793356237, -1.8309718085624935e-05, 7.197899272854006e-06, 0.00024900914076467825, -4.7879191913807166e-05, 0.0003142851963073645, -0.00023005295684874923, 0.0003192208034113465, -0.00017837377758149795, -0.00033836094486042716, 0.00010481608483958865, 6.962934043492757e-05, 0.0005741655263669337, 0.00038365314355948366, -0.0004051202085745555, 0.0006384096240140259, -0.00010223231979682102, 0.00017175063591886097, 0.0003612924311036387, -0.0002224928822723282, -7.574386443137503e-05, 0.0003090083445338147, 5.040058999484253e-05, 3.116749791053364e-05, 0.00014964856727355813, 0.0001102812146722199, 0.00041330173570688303, -4.416577051037626e-05, -5.00537929224255e-05, 0.0001912772857566659, 9.579185806854384e-05, 9.530769305147008e-05, 0.00021814030002543854, 0.000217370282277401, 4.515453366465845e-05, 5.216543658943137e-05, -0.00018271310581149776, 0.00015344510374272832, 6.724213883958724e-05, 0.00010685529073878998, -1.0073378741935373e-05, 8.946897586146133e-05, 0.00025832039064534873, -0.00013195909954769858, 4.765422622548639e-05, 9.855584106923869e-05, -0.0001309531744293072, -0.0003061032465737375, -3.4892739426877045e-05, 0.0002792703860936117, 0.00021157640762697148, 9.696778971305132e-05, 0.0002649524388168091, 8.203063973145596e-06, 5.603186523954425e-05, 0.00018855391708090416, 0.00013261139833517396, 8.314706466591731e-06, 0.00020446251062693327, 0.0001972055417669004, 0.0002066633858110816, -0.00048186441303720376, -0.00016156187478276463, 0.00029742012934878283, -0.0002559234867449018, -4.3145419088382305e-05, 7.338123182124953e-05, 0.00018893583932299188, -0.0002581935593499639, 0.0003102522757640536, -0.00015877844466486384, 7.089434876368361e-05]], "weights": [[0.01340894914999693, 0.007685866857329068, -0.011423603852867465, 0.017433554089805715, 0.017773765931440373, 0.0006169281439625486, 0.014030993367415074, 0.0021980662218296356, 5.68477572748678e-05, 0.017021399383627896, 0.009931667655470041, -0.01377061625629831, -0.010697355688972898, -0.0036253381941357917, -0.000737265717236634, -0.0007774613575740729, 0.004835437324364564, 0.017295655073571094, -0.013704257922924375, -0.006432629864017237, -0.01791560577524546, 0.0058752982039962445, 0.010740441767229705, -0.0021949959234349764, 0.012152024827968769, -0.002043708696308024, 0.012678192130252187, 0.008049058827524479, 0.0008654903836564854, -0.000191857661321332, -0.006627053130419592, -0.003731534458211097, -0.0005931218941320108, -0.0009808185839513938, 0.012973745838659534, -0.002632572952817312, -0.005773141422835817, -0.017301483781528886, 0.007472758764850409, 0.01264784391399344, -0.005361144527389282, 0.005320194822312759, 0.00842470519595303, -0.006214450260641125, -0.009231136634671509, 0.00040785570512369537, -0.00826828187658682, 0.005428054138948023, 0.012992334525144708, 0.008403301055802916, 0.020092446757770374, -0.007855595473316448, 0.006438706656116324, -0.002209109085155885, 0.016711071601731495, -0.006647570536415457, 0.004559397625647608, -0.01220222895942127, -0.016205924212176214, 0.012379688820646809, 0.01039768497384339, -0.011522591287655625, 0.0033500262197944113, -0.006632490759770577, 0.0033023295437937003, -0.0038770799945772962, 0.0035343471841730667, -0.005238145994292862, 0.022714336333849967, 0.004922558813828718, 0.00026330438864027454, 0.021911685769742856, -0.002742263587434859, 0.020253362194846438, 0.002422600807888071, 0.014904017556524785, -0.0015934289566184245, -0.008662736411719683, -0.003082398856286821, -0.0018743110038085217, -0.002933059648474975, -0.015379220795015126, -0.012806999111821777, -0.010380943201154761, 0.015539156535255937, 0.017447682296509323, -0.009128014550342236, 0.004432652844374078, -0.010034538023407818, -0.02627171519074592, -0.01563575164996662, 0.012093748443872659, 0.004314318718937251, -0.006500253734080018, 0.00010070618284567908, -0.008129830964096989, -0.004643086913224634, 0.012247111647216279, 0.0054162003402392755, 0.005850313434431943, -0.022630248382200444, -0.008323118490869951, 0.007072388979478105, -0.0032718762743572157, 0.006504824319187925, -0.009283163273423193, -0.013326815365418082, 0.004765091542094614, -0.002997933380025095, -0.014274847713441908, -0.008348647004390575, -0.013190321483958142, -0.004567317386565938, -0.008614427665031486, -0.011714679020132868, 0.002797110758615008, 0.0011006963163491023, 0.004128115262687636, 0.0018985056841786482, -0.007730084521070819, 0.002194366402200525, 0.014832969345134037, 9.954473384029861e-05, 0.007829640710641038, -0.004814785050987063, -0.0030661664011185515, 0.0038314790189761362, -0.0019085606723696958], [0.006883696578239979, 0.017203651062017215, 0.012555668117800131, -0.00011872031646290944, 0.00019961173325708058, -0.01330337008826404, 0.010720040864551821, -0.007894107239340368, -0.009554303754071337, 0.02955056843059129, 0.00487493336912068, 0.009876689809404388, 0.020560306341573086, 0.0034844473845276726, -0.013736120062591362, -0.0010313138590373658, 0.010077828101933256, 0.009568349229264762, -0.00291454999105708, -0.006683469495212682, -0.0004379341666752172, -0.006656566618968877, -0.005928030545290471, 0.0006412400021143299, -0.007958769546412009, -0.015791363130124084, 0.001704993560784849, -0.013054266405356243, 0.0006811258222055296, -0.004383121027737345, -0.0015232775475638553, -0.004771870388402515, -0.010154324952064813, 0.007884936628409493, -0.01115247272060854, 0.006512770527486563, -0.028585378649699344, -0.0013564086726681594, -0.002014575988439873, 0.02141929779691902, 0.008776971410244314, 0.00018363490841025965, 0.02083882732463632, 0.0029136116032250654, -0.024669827967574165, 0.02594446126178197, -0.016545932059470053, -0.009854794656454575, -0.002250950490190764, 0.014022329838297607, -0.010313568362521633, 0.01239471752988871, -0.010583168971941661, -0.004312350913049474, 0.013086730343042724, 0.010048080593115518, -0.006316059379491467, -0.01411196382233632, 0.0085965758793454, -0.0016640028906319093, -0.01173276704466241, 0.007625108966179056, -0.005513879403101448, -0.00461417960600023, 0.016803482526063417, -0.005975540115518877, 0.0036188705634662287, 0.002271376164449674, -0.004633521845414826, -0.008001058409394338, 0.009918657120932636, -0.011761673527729624, -0.000658023128213059, -0.006795873477464796, 0.01716284043147208, -0.011786289061608033, -0.01082615692237601, 0.009319286002709506, -0.0058414460130010604, -0.011570632871913369, -0.004122931466127812, 0.00866308395618129, 0.0031003265417036603, -0.0028403650184960316, 0.004997620389709981, 0.016198144596091268, 0.01913142051472387, 0.0012549826880199776, 0.0052180744433863715, -0.00432770120071762, 0.002830178868582232, -0.003726017167717033, 0.0007841906697062647, -0.0006303584537365737, 0.0011617030175790832, 0.009508929594915377, -0.009292330600585689, -0.023244771579044345, 0.001664833517584549, -0.014117144559189556, -0.006935676047299001, -0.013446570775148624, 0.007462819898235221, 0.000778535659258174, 0.01707031411066884, -0.014423945799220007, 0.0018824271959671213, 0.012733648152227106, 0.021468081372482586, -0.014637106409761727, 0.010514917651716098, -0.007391626085693979, -0.021026534959712993, -0.00627906045669575, 0.02176790433307352, -0.008128048575176176, -0.0118723629644765, -0.00044000239976816854, 0.019507404948292534, 0.007322366996193636, 0.004834263758526754, -0.019698924770339014, -0.008744432303057964, 0.004208202530248347, 0.003787172605444506, -0.009543463980141397, 0.008949018050989146, -0.003226197972384173], [0.008097057609748328, -0.007494907966963627, -0.00868129703544431, -0.007849591009450324, -0.000812459466071285, 0.0018468285943539593, 0.012973395464113462, -0.009019407229929001, -0.01016672287858427, 0.005652325318009453, 0.017740411672122838, -0.0009843019415701722, -0.014414165219608316, 0.00016069353712340855, -0.006523475330495991, 0.0027856047377431393, -0.011587882614854226, -0.001663070319844909, 0.006724354179827712, -0.002819017065423657, -0.015949739730904175, -0.005921767991814926, -0.013022662424020113, -0.0059085704093964474, 0.0017276658278700258, -0.005397841350756177, -0.008187180656248249, 0.0008588711956918565, 0.007235902923791392, 0.0027391037018384963, 0.008506290855088165, 0.016543865544070255, 0.00031928394895142765, -0.01477579438825217, 0.014972559168688272, 0.0020222814416645707, -0.000829386771649617, 0.007210348104535952, -0.005428277532490321, 0.0022397477536311608, -0.008447616126381164, -0.01888649722654566, 0.0013834089211282787, -0.010836747581158377, 0.01575349289705622, -0.011461508038355068, 0.0006943325735048678, 0.009204183946586687, -0.0016235065713651878, -0.018739831387641542, -0.013557573809289918, -0.025875243210437875, -0.005698290629877129, 0.009489003595446103, 0.00585298545018443, -0.0030283230192467846, -0.002927845023009585, -0.017093824149911802, 0.0029746206493040566, 0.011531981217742966, -0.0038675156522815254, -0.011048161492038322, 0.006379912405593224, -0.007858493167767546, 0.009453543849524897, 0.013095023116113935, -0.0040489735034390986, 0.0016670513143455742, -0.011083107433757245, 0.011726058910025566, 0.004114757216994559, 0.00607311034835558, 0.005648659180121442, -0.008213369554310027, 0.007646285076908989, -0.006130586647463775, -0.007368953212665449, 0.0009345427939633503, 0.008561790431220007, 0.013972581335536624, 0.00038537440314901424, -0.0005464840847195723, 0.02654007236755692, -0.0017751930704303493, 0.00010889538170692322, -0.004139495903141847, 0.013529934144507774, 0.011260800525417653, 0.015443515008349099, -0.00660578669624406, 0.012825577929226471, -0.0027647246651725135, 0.011915760535017939, -0.002110991871048198, 0.013682522479200307, -0.003252796903306785, -0.008098010215808726, 0.006527289241414067, 0.000986599223426226, 0.007723171199996677, -0.003649903446760892, 0.017787902893492025, -0.007198799758100523, -0.017867067866701003, 0.007075393642905984, 0.002138819641779948, 0.017148043349894934, -0.015146472093138954, -0.008825936037889425, 0.011349424638313422, -0.004939111347530891, -0.012578891052103578, -0.02260861258496644, 0.002329213775171202, 0.00753786063682953, 0.013945460344129551, -0.007654738136532142, -0.010080869787036517, -0.010559233123014208, 0.003864504174626707, -0.008907514397318331, -0.0018648129162400784, -0.014870835888732208, -0.002252338343981878, -0.007728115841411796, -0.006032189119767288, -0.0029660847436908146, 0.008201541334283522], [-0.0015756340607005698, 0.004541182265690189, -0.0009766929385772844, -0.011910944010046031, -0.008638775554114778, -0.02196960397195098, 0.011661539971915505, -0.006419903314737027, 0.0035928928248715403, -0.00435090751241217, -0.006055078624777737, 0.0008369049114839423, -0.002653739104120676, 0.02020756770130007, 0.004715227850192165, 0.0027482172178388267, -0.0021501371625623, -0.004382750008422174, -0.016890345406838238, -0.012174643994459926, -0.00398421372261432, 0.011432550494663666, -0.01334456716912658, 0.012976546299678598, -0.00020354613793710207, 0.006354501790439837, 0.006211633015025525, -0.012270019743236524, 0.003855297663554433, 0.009905231839432444, 0.0007612890029424664, -0.013495669243599134, -0.004323999074157779, -0.008073869313361378, 0.012114665951513146, 0.011300559862572397, -0.0034183174915295455, -0.0070082950502529185, 0.021888876025815733, 0.01038173727006762, -0.0040152912047298275, 0.0003613883661827111, -0.013236471133537073, 0.012619563878589684, 0.02589007742305484, 0.011442203431166713, 0.0068332575154121675, 0.018595709104494613, 7.220010293754e-05, 0.0063961082679833406, 0.0029504923494570222, -0.00331567341806688, 0.006534808318375608, -0.008300350406544633, -0.007385424756111714, -0.006282155027792377, 0.021262876204739847, 0.0005684810234035217, 0.012337235220202483, 0.011634164844415092, -0.002073656875168022, -0.01768022139003359, 0.010807610795489354, -0.0073286202278206305, -0.0012172593005687336, -0.008438875223021102, 0.0008048282163521311, 0.015449085290529586, 0.0019262539285340994, 0.0032968923628670923, 0.0005272929125328684, 0.016982432307847645, 0.009736360488690574, 0.0013220126904835885, -0.01584946769809999, -0.014278514901071782, -0.0165203970722631, -0.011837532382384353, -0.007093627335732545, 0.001650403239059903, -0.022671452397298265, 0.010857111926477621, -0.002843251866360332, -0.0048908736225232044, -0.01455967957871279, 0.0022301407681264117, 0.012301955089726004, -0.005950281568860436, 0.0030253634110518337, 0.0016521796693346649, 0.007528807997358789, -0.0007141619304371259, -0.012278384525191342, 0.016778415398256332, 0.0022805404494855653, 0.009847033396038575, -0.002919058814963623, 0.001452288572409887, 0.02120841901439368, -0.0014937531819072866, 0.0035307827682296384, 0.003177075306619438, -0.018343430511327016, 0.008354089601140318, 0.005982417962886455, 0.004304596444506885, 0.017378002723021292, -0.0074097895382923135, 0.003438578386120586, -0.009318105906888573, 0.012317479115726416, 0.017656970759549005, 0.003673514129803014, -0.01769584458615533, 0.005570411180682533, 0.00956623725798935, -0.0011276994510705793, -0.0014282764825794695, -0.03387450218444847, -0.007299615396088882, 0.008962520527966474, 0.0006837700770724235, -0.0011153015730605348, 0.006793682351273342, 0.0012329799733141308, 0.012952167661865561, -0.005734538091623704, 0.013884507437913134], [-0.0003215330804373865, 0.010126440903202765, -0.005906164003367899, -0.011852752376183774, -0.005473015740003638, 0.001483531364921265, 0.02108318965327906, 0.012823541334803588, 0.0045987853074194365, 0.007645401131609375, -0.0006688092905743254, -0.012005926964609242, -0.0005684941592483635, -0.006393577663868334, -0.008168992892092008, 0.015512756969194436, 0.004881174956012623, -0.009470736018676543, 0.0006144772599984178, 0.015371713106245447, 0.031308463868519085, -0.004894395543923878, 0.0014908777622845283, 0.007002487644747451, -0.0071948096113623175, -0.004333746903260603, -0.005476273393910808, 0.015958387754465654, -0.008919486142334338, 0.0012672262039140458, 0.01430204909669934, -0.0055515797911136425, -0.01885494662591167, 0.0018262791358637643, 0.009656578854792198, -0.009465648574808777, 0.018517888369437213, 0.001918811513740349, -0.008006720605853525, -0.01961783521634829, 0.01958078378337722, 0.006842171341232327, 0.008912100549561094, -0.015766434353501804, -0.005280831595056268, 0.0005650021788617509, -0.01083299336570058, 0.005500553728051581, -0.008036124241360555, 0.004511267820299343, -0.011956152990849584, 0.006653719868191612, 0.007313954028455914, 0.003760306552816804, 0.0050579152955556855, 0.008547532766607883, -0.0034328292542277674, 0.004660390317120658, 0.00046554726509084106, 0.00731309954413044, -0.019013751388985395, 0.004126085191165646, 0.0056589806077762365, -0.003766181648106056, 0.011169405560104382, 0.0005814134143254109, 0.014485635158988746, -0.007535040880210985, 0.000497514968211539, 0.009924987893205308, -0.006277345259568784, 0.006446466721258345, 0.005619717973266282, 0.007612996126611129, 0.007697032103525702, 0.005911966387322453, 0.0022355080890729758, 5.211310551466264e-06, -0.011502475212860018, -0.00410545158272933, 0.003348786852222261, 0.025988286798587956, 0.01848926328242017, -0.003964130615391595, -0.002855775564943518, 0.0023229961096130933, 0.002020638471255727, -0.009653930480098405, 5.004305104111262e-05, -0.004616168617970147, 0.014718616116949235, 0.005695145808670726, -0.0010431373560749301, 0.008407230931404674, 0.007351849453962375, 0.006255840395456912, 0.0056737421486157315, -0.00331618355550974, 0.0022973943043194615, 0.001774515010276392, 0.007157921913589991, 0.02151868510715081, -0.011275091448582611, 0.011239574363152673, 0.005919819082009565, -0.0011028265256796082, 0.0039228882844795894, -0.00361924769575695, 0.02581785059255037, -0.006939841115650876, -0.009384953504761238, 0.01418990720549287, 0.0024178090156230132, -0.010704844254716064, 0.011357693719426229, 0.0072210886088159626, -0.009170956681120264, -0.002391107671790687, -0.0017188167668127261, 0.0007132316555527067, 0.004538667249893529, 0.015312566802688098, -0.005814402146229187, -0.01921369307217252, -0.012948034667500828, 0.0019170609985675999, 0.014310202009826254, -0.0017927105464370307], [0.005909967639846932, 0.002309624521526875, -0.008101845487709845, 0.0028119068175430167, -0.00487344091976383, 0.002111252823373261, 0.00971767733832988, -0.003043294164434474, 0.0063103715958197, -0.01493458194098976, -0.0019182413679878396, -0.0043493754972768, 0.00021057099250932504, -0.005865461598121846, 0.006352098845554333, -0.0015829227873246992, 0.024150989402598234, 0.013506479184230528, -0.00949128909051212, -0.014049386170075473, 0.004915365371961118, -0.0031711835612303254, 0.00653826456722238, 0.0006745755763086057, 0.020921392932705993, 0.010667506369384383, -0.019087710152425604, 0.0011962372872534584, 0.01781483814664785, -0.005355558288565032, -0.006574354504237623, -0.009829562479389714, -0.0038414800575636786, -0.005531961127907491, 0.005367712416060536, 0.00013000064660541755, -0.002603320823184841, -0.015416280489984153, -0.018463389926424788, 0.0010410576096647685, -0.009083128600473464, -0.004301865980780881, -0.015407552926731414, 0.0068561020418134435, -0.0048452448666316235, -0.004513764274071612, 0.0008088296437920687, 0.0016984217257110714, -0.014478424297128274, -0.016659382195179834, 0.003156638102810497, -0.0026926314602024972, -0.004645071827067802, 0.01855936006040263, 0.0030461881274277815, 0.00157532580357164, -0.00039600944435632155, -0.013028947282313479, -0.004412509952518486, 0.008167820173010579, -0.006147645365812935, 0.0057910858346945735, -0.010420492974829101, 0.0027520570436918245, 0.0034363652595629933, 0.008399292378762326, 0.005189632805165933, -0.013192163532077805, 0.015716732030638197, -0.0067987502724558, -0.009613721657405414, -0.006023214872136731, -0.0009189299569979856, 0.0030303914962307586, -0.018077802765639524, 0.013575011038400572, -0.011724944907904012, 2.1642759213969884e-05, 0.008299545505981266, 0.005625674702432285, -0.0029979194927740142, -0.010166043276081178, -0.013291086119054035, 0.0027437759459514413, -0.006369326276975622, -0.005996045574162341, -0.014745350569629896, 0.006302672048457544, -0.012572929579743201, -0.007576118521679754, -0.003529817698432527, -0.0019437818881453475, -0.012720866872311307, 0.005905152889854167, -0.009169350268957925, 0.0010421482808684345, -0.005654528268072346, 0.007528015898665898, -0.005401328562896766, 0.0031487422176870255, 0.0018153916696488671, 0.007558875183070495, 0.021703418430637306, 0.008944219726172452, -0.014322203120691074, 0.0037458294393368716, -0.005165299475615233, 0.0003387658087369696, -0.007587235065669769, 0.0015673175298933232, 0.0005302690839489548, -0.017854184900991523, -0.008782046406069858, 0.001755367116093222, 0.030788985281627945, -0.007183732511647405, -0.012017978551622253, -0.004723120732617646, 0.005991809573212781, 0.008567561025978087, 0.0031612744855905855, -0.0009596868346861518, 0.011145154991651193, 0.0014759058538904124, -0.022962704830942884, 0.000858147761464169, -0.003433213629519101, 0.002594826328109496], [0.023640607885716727, -0.003251031842485322, -0.0016113982473203584, 0.001977130179518516, -0.008984445285076038, -0.004068712581201624, -0.013187268687219556, -0.003951131693151719, -0.0074696058328114455, 0.008499070542949065, 0.0020980519726394435, -0.0011179169862400417, -0.005400235913556507, -0.025342318892948128, -0.009915630719062478, 0.0028161987825310116, -0.0005655798365892132, 0.005949007372375728, -0.0014889162430460803, -0.009079345692572481, -0.010575528813664511, 0.0012597918235503084, -0.018919996223513758, -0.03287328311421555, -0.01714979143919516, 0.010295844167883617, -0.0035082965066555285, 0.00599583105836224, -0.01764891171365965, 0.024292254776455708, -0.0025776125938985956, -0.004067069728259298, 0.006954007584266253, 0.01814949059191552, -0.004289674234116996, 0.003535623075614766, 0.012819614817915761, 0.01743197462222425, 0.004660948813109051, 0.010922435292337497, -0.0080329895901571, -0.0009465316417090598, 0.000323374977931955, -0.006951022417221643, 0.006871525818162486, -0.0029392959909948137, -0.005349240751039752, 0.011077005428136286, 0.0007762013929099403, -0.002560448317250381, 0.007450428044713115, 0.010054908099895534, -0.01110223015499687, -0.004616019426996055, -0.0045179583563206985, -0.008049613030487974, -0.005127737823302534, 0.009858220896324286, 0.004130622146323535, -0.004890060486285803, 0.0007546766853371693, -0.014155650914779435, 0.018485668498613977, 0.010436690453627486, 0.0018274379603950195, -0.01036210354418877, -0.003264575966891479, -0.009758198145306153, 0.006524169655240485, -0.013986236728346976, -0.010477120789810222, 0.008887283096271622, 0.011334954976596477, -0.005076092668987877, -0.0038319275885410494, 0.009931248473871846, -0.007846402295709647, -0.017046614966413035, -0.006950820239090537, 0.003368640639267615, -0.012950719498854636, 0.012579238746613035, -0.00023533229480066596, -0.019914704025367016, -0.01765386881059506, 0.011879655489592217, 0.013613655625815886, -0.01071888368116009, 0.010107285962170736, -0.004309105771091189, 0.007933177053675912, -0.009138616591769708, 0.0019137609241617248, -0.004848625644337649, 0.0014501921523597894, 0.007305567794570437, -0.011425224385106843, -0.012532579745526445, 0.015298718405291512, -0.005757180483470707, -0.013331444489166056, 0.003770137076674287, -0.009731662159520888, -0.009652530787941099, 0.0030872150206264167, -0.0065560660045027985, 0.021213971320926124, 0.015404300413814707, 0.01771125335926907, -0.009959094556762643, -0.0020086419239912206, -0.008240821043394133, 0.010263952566542136, 0.012584300379324809, -0.018652722316483926, -0.009509939450727234, 0.00419837806395519, 0.008099721775589935, 0.00017021907398965676, -0.014043478412549104, -0.019268727902686595, -0.009223353179760857, -0.002568778884509309, -0.0019344445817284616, 0.0036275280103278498, 0.013490368249428076, 0.0006448273742857602, 0.002642907873325559], [0.010591642515838686, 0.006542254915826626, 0.0010862059146848483, 0.017949647606469887, -0.016820264948129528, -0.008659355944036174, -0.001886099725479592, -0.004560567322094681, 0.005259643582734131, 0.005412420443131948, -0.0056663345436710685, -0.005969956255722483, 0.006433894874121118, -0.006591011737078399, -0.003095800324658371, 0.0077878904224484525, -0.01609431618758935, 0.008478324580257211, 0.008545257767298128, -0.004354487878421424, 0.011200553295510904, 0.01717567264858107, 0.021714786429161085, 0.007923485530879635, -0.0009255864382401434, 0.011084757044747838, 0.004499348983516756, 0.005398869031123641, -0.0011785810639667364, 0.021334376107471537, -0.010341505072907337, 0.005900485089419259, 0.014129433675276517, 0.012381757142739615, -0.012330198200713327, -0.003729307043677331, 0.007337340035205265, -0.00921183595182235, -0.003526423209258564, -0.001454774186159201, 0.007965185008807689, -0.002621215274956105, 0.006835771249662113, -0.008631088436823765, -0.0018655395421403108, -0.024503649242569175, 0.0013265261774756463, 0.0183052382442231, -0.006064997895354482, 0.006120291359345945, 0.0016036093904801979, 0.0037671367883308055, 0.0049953110292624515, 0.007761240922526307, 0.030247623150660544, 0.00029442567545660613, 0.019346059735656777, -0.00236810954147452, -0.01663079990429831, 0.0048225651751826895, 0.006907926396489359, -0.0017351775140556915, 0.011941297836399816, 0.008863386209788365, 0.019255069782949455, -0.003458605478771258, 0.004558915339403301, -0.01685824998595306, 0.005530358677777176, -0.011609144913921152, -0.0031256307836989095, -0.015190770681503707, 0.010042610788115669, -4.9795231307032034e-05, -0.011127247359916236, 0.008769585609679822, 0.00130425274703046, 0.009163411670403217, 0.005678370141030351, 0.007520428452567719, -0.007098429608793535, 0.006599122385650396, 0.0019265819015248356, -0.002176530578534152, 0.013147621024255228, -0.011750496554479224, 0.007700362395458532, 0.005392606252060602, 0.020015777338574434, 0.015051958246562759, -0.029164379315848695, 0.0015120617944329728, 0.0003883443885161072, 0.011120981926963995, 0.0050853439928453025, 0.003934839344966275, 0.0016071797754727364, 0.011841747714276296, -3.2856203509404016e-05, -0.005541993675353229, -0.019743277906856094, 0.009676377681038576, -0.011359871115116214, 0.0025415357873697962, 0.002933632795624805, -0.007564145351192714, 0.001744433991525495, -0.005327473323534411, -0.002651759844799752, -0.004280373093407481, 0.0068244375342161115, -0.004181141437426405, -0.03159341855031249, -0.0091436548237512, 0.0021752709009904255, 0.007755378410035353, -0.008168294508602075, -0.018574209310202018, 0.010756527553823555, -0.01756695998909543, 0.006173070399862386, 0.008934178038005718, -0.0007011139918365193, -0.002231322589015725, -0.0169617022445153, -0.0020068568406904665, -0.0032006846712735243, -0.0035165988181135592], [0.0005835669900049586, 0.001200994865709428, -0.011513506810559706, -0.0018288071895538865, 0.01511994671524916, 0.006819005758244222, 0.003994424461808745, 0.0007148985828684752, 0.00047895900464830935, -0.012422933174573715, 0.0020609188099015704, -0.0012381976085415647, -0.008178535600865088, -0.005699515215008638, 0.01194947817295418, 0.011926914419673243, -0.010268535632393213, -0.012589544562622453, 0.016303716831888547, -0.008934672315870985, 0.014516597762023294, 0.003621855896521987, 0.011047939711340986, 0.007468338509502089, -0.0001492050639547377, 0.011240136767230846, 0.002894139990529268, -0.00980721550584923, 0.0011330362498220728, 0.005243345548110872, -0.0027653434909319, 0.01917510541764781, 0.01941700049180783, -0.02642587494497333, -0.006901300648353825, 0.014883220741740049, 0.0011129574475400457, 0.0062067557646196085, -0.0010262741253248883, -0.002017298849593153, -0.014460491183334662, -0.0063350740538445, 0.020242189231890723, 0.006808730533141225, -0.022833067650240783, -0.008757592542572433, -0.002017413800887665, 0.010115102814145236, 0.0015444244780856591, -0.008734993761714334, 0.00032129783108885687, 0.003590985027652248, 0.001596822975905122, -0.004163657441903686, -0.0007353641353768207, -0.012000853392364648, 0.020987745594121067, 0.004357505669692683, 0.0017977071325144184, 0.011615324023849679, -0.0029363656957311552, -0.013220726204628835, 0.00024865809804056695, 0.008149910097252116, 0.014783907518622484, -0.01290574755143901, 0.018503015802448168, 0.0026821117541781783, 0.020852557595830795, 0.010608419957785293, -0.012465855593301886, 0.006024495533075039, 0.01469247823240649, -0.0072144186943313175, -0.0076551059464750396, 0.009182764260623557, -0.002760164442227001, 0.014306431240427917, -0.003097806694661825, 0.011470184363513618, 0.016584434078818436, 0.00536738058225991, -0.016096505985001917, 0.001843993524547339, -0.012103469284139681, -0.0011595537195034312, -0.012439136153406288, -0.0009051216234110779, 0.008116774422265733, -0.004230788399542975, -0.011114584786916988, -0.0026727193389125005, -0.006094229551130385, 0.011066645790952548, 0.020549326591796275, 0.005061322714798642, -0.015333354239527171, 0.01241612738189374, 0.006801009147380875, 0.006555832206579825, 0.009768684975744095, -0.011221854204639989, -0.011233169245416353, 0.010632403157881403, 0.003690867445151255, 0.01454935318966355, 0.005202400499009932, 0.0025422100099685547, -0.008640256424360669, 0.003121304512676305, 0.0070436122594802735, 0.008478117554464764, -0.023792422336599953, -0.016317586316121506, -0.003701759393988806, 0.006510555559376668, 0.003950434360759207, -0.004994161160586728, 0.0012416238509540406, -0.012708671988002714, 0.0026720533645468955, 0.009203013014457856, 0.0006944822841151583, 0.009494546606991169, -0.0012970553259208332, 0.001476925156394759, -0.014194379628158693, 0.016845708470778948], [-0.004225754810849384, 0.011279383355808305, -0.01254704808958574, 0.007731589806277116, -0.01619040644809215, -0.002911311048910121, 0.009177497089446264, 0.0008818400393255409, 0.008843917148646517, -0.0043306381281024405, 0.008202097576159443, -0.009887355150702241, 0.002180027241485095, -0.011463703931811986, 0.009426729902033852, -0.007378688304017531, 0.010070071840514316, 0.01777357352447578, -0.014365086762002906, 0.000804045242091436, -0.0032013720762367466, -0.0013714137507362288, 0.006203234578064542, -0.00047410986873125356, -0.010574584822461557, 0.005255499591437792, 0.0019519681057250026, 0.009122272460133054, -0.007142005580749641, -0.006951386932128596, 0.004235865544804327, -0.00295263115855671, 0.004917168435224461, 0.007056505055693384, 0.005007402184022957, -0.004084011456820257, 0.008326653648594827, 0.003153616095582703, -0.0025634628329591442, -0.004366447755051834, 0.0030184816485968632, -0.004586518192083325, -0.012454763761886076, -0.0184717365590167, -0.016041359884842156, -0.0026383279057424196, -0.010748345425651286, 0.0016098834927670172, 0.011577787444163979, -0.0012869138682038315, 0.0015555230764132389, 0.0028953159454470473, -0.009172423832021227, 0.005676972152778041, -0.011280485224750616, 0.008804656976572933, -0.007404112652139649, -0.00030448484541622796, 0.0010881800088797457, 0.006221111674923311, 0.016814361827871657, 0.003602965111949053, 0.005625426458438133, -0.008324673430538783, 0.006392102983384388, -0.001250062931534075, -0.009059393668580563, -0.0008663383585921419, 0.006066565275652057, 4.9278570397500566e-05, -0.012927492432102356, -0.003984953521186804, 0.018873318020149802, -0.0023678539271378704, -0.0008827278370559311, -0.01609585813584233, -0.004777693031122257, 0.007237805808678173, 0.0075051243117036865, 0.00021995789951148703, 0.007639416015266812, -0.010025229984800802, 0.008545349564339482, -0.001757554712105124, -0.021472159009091638, -0.009758436195499492, 0.00238756035545465, -0.005221517613790712, -0.019311825868063105, -0.013261701559973558, -0.0063017622170100695, -0.0021178686068834525, -0.0009696497931303249, 0.0062595335151772605, -0.0035008226490258025, -0.0037652717490605525, -0.014841048947920822, 0.009594925233241835, 0.014845283553191424, 0.002043744923784231, 0.01509931449980717, 0.00628197050116548, 0.011585194815270426, -0.004151285931262714, -0.0038824971704136788, 0.0035106877103272915, 0.006358547964028398, 0.0016724211913604968, 0.013555461825796629, -0.0013386741241945288, -0.0027547608349010374, -0.0019824760571406684, 0.00995474799530034, 0.011268418500349398, 0.01179218694990225, -0.012644655548449494, -0.007358156354392834, 0.009866689107380784, 0.016439007298747817, -0.00012032696206024863, -0.002769432465517617, -0.013089749577251435, 0.010539739095516157, -0.012878205582029635, -0.0033600488939630273, -0.010375782573631951, 0.000977241885676464, -0.007471594045063795], [0.010436983065682337, -0.006352191357420557, 0.013943496966096754, 0.0026352313379966992, 0.0024503107685739742, -0.00384668522241432, -0.0006692921785753181, -0.007552116237125216, -0.007532749104785985, 0.0034460859106785024, 0.015040098589112982, 0.004390319096786424, -0.012120476970702348, -0.0012078244216687118, -0.005246606438331696, 0.006261304898058316, -0.0167897078466104, -0.00024163766273398055, 0.001201523801839844, -0.009501911102247209, -0.001382552854435066, 0.016008672283486344, -0.0005083306024344392, 0.007225959563393688, 0.006954083918999268, -0.0068350328254392695, 0.007776454501638595, 0.0028605036086730602, -0.006067990874576948, 0.014252598616405168, -0.009102167359631935, -0.0038905599582941997, 0.007977589652479584, -0.031905358306083695, -0.012249380100536136, 0.004265072789442257, -0.0047189832175315435, 0.006783369665767793, -0.004838265847761386, -0.0009514679057078015, 0.003831927138528993, -0.0073477004273671724, 0.002875641600057748, -0.005829117018344004, -0.005923512785494166, 0.006814379999754983, -0.00213899490413375, -0.0009346620884803893, 0.00561975942126713, 0.00665147581381081, 0.0049580343898756865, 0.00549113736720646, -0.0037071636700419662, -0.01568476852106531, -0.002236164001980864, 0.0038147033092030265, 0.004098594799616839, 0.005925052587302074, 0.003481658730220832, -0.007896637804754962, -0.009266733100652512, -0.006028923887310374, 0.0027116631405575114, -0.0023835547481689395, 0.011353306075328829, 0.01138399474852763, -0.0029903609860898244, 0.008659048019749708, -0.0003937673197036254, -0.000613421270634777, 0.01536904768525008, 0.013419451728689018, 0.01487925871495502, -0.0013719669944504437, 0.004666939195084708, -0.0024812585566379654, 0.003477797912404549, -0.010105246768508163, 0.0027996410687543484, -0.01392827133426955, 0.007373991434384143, 0.0008079157579415565, -0.019941290244593984, -0.006498551059840645, -0.013639049651661943, 0.008704562457862343, -0.005278329644887685, -0.01469098595976922, -0.019681955387241882, 0.011987443607724666, 0.01119966490703646, 0.008194101483418315, -0.0004120017495290113, -0.013470221121601386, 0.0062939316888978745, 0.0020733523062164954, 0.006968413784832389, 0.0009963110140339371, 0.022000060093870576, -0.016289097926604424, 0.01031919109136154, -0.0035868056866928157, -0.0028685764701007798, 0.00162226283350584, 0.00534844075441801, 0.010372180695969855, -0.013861279955945839, -0.02611700032076985, -0.00669836461179979, 0.01074984895092682, 0.00019412521452540435, -0.007529724365488547, -0.008087898928293678, -0.0096502413201008, -0.0040349209331976875, -0.001867034694331137, -0.001722845036076681, 0.021753440564332746, 0.01152689231964825, 0.003203415084731346, -0.005058023397003625, 0.0037531115800069305, -0.0018197530602977205, -0.0077051254595581495, -0.01549302187271789, -0.005212781608088353, -0.004104556866672037, -0.0005754885097812744], [-0.0013252162552963383, 0.0028755137928187873, -0.0012613477488807943, 0.0052743621782071134, -0.006892006849953342, 0.005338957616680931, 0.0034954908478373194, 0.009190400862644306, -0.00255683424050573, 0.005638097266855472, -0.0008239458399658775, 0.0014434490765772678, 0.001295669237889832, -0.0028714931524947843, -0.008162377172137745, -0.011938883263260456, -0.005872595949359931, 0.006715868885890144, 0.012576092211685291, 0.0035148485904711656, 0.004689785437177595, 0.030240889603506363, 0.004051562332409111, -0.015734877244932964, -0.024222860935315477, -0.010668439257503465, 0.012108384533366379, 0.0029141220938187088, 0.010026127683968237, -0.0093929936153402, -0.01460222188514861, 0.0237044752370755, 0.015544296573369004, -0.00541676828949241, -0.002404666282032198, 0.007581756141098623, 0.009302436566700717, -0.005411351214746137, 0.005034182106598609, -0.0005618781144364805, -0.010828151011104119, -0.01453113618895195, 0.006076399954635409, 0.022606307087402626, -0.026887172580179794, -0.013772436690877167, -0.008401503865259119, 0.0033365934388490657, 0.0067845178604810374, 0.01003555421937544, 0.0012544474833552227, -0.006588831561055081, 0.0017808238043343567, 0.012680682329386772, -0.002682852466338075, 0.011948211067589065, 0.0011455442804819132, 0.002960790674315534, -0.009811730674616458, 0.009653831277393062, -0.004118111463240613, 0.00565668899484477, 0.00925516537747691, 0.004875732394277731, -0.005841423317301814, 0.006529665636046129, 0.0038047847565158984, 0.008186980306305212, 0.011505752382199853, -0.005976634784999125, 0.022584224938206606, -0.002295089649530531, 0.010866426940049105, 0.018427285508430192, 0.007139053510744675, -0.010873053520101789, -0.0034512465641004684, -0.010890777705960837, -0.004222670546124934, -0.007659603885976485, -0.020724695642739207, 0.005513929640303452, 0.009551086126125945, -0.0071717006095600505, -0.006009523091463323, -0.00174306331358913, 0.0075998890608899175, -0.018457036074260937, 0.005133900545242376, 0.017184910829715773, -0.009449396779266418, 0.0021790370260958308, -0.004135681498553552, 0.00019623542601728884, 0.009076134791715294, -0.004030869358910458, 0.006881315441395293, 0.0018295783304691092, -0.000262272404736798, -0.008238197710976461, 0.005942483754772754, 0.0011568701922713134, -0.0037860887321687913, 0.0013512399559680874, 0.005215008961912933, 0.009462111019026727, -0.010113321038560639, 0.03089604032303383, -0.000823100316770741, 0.01498327219276962, -0.0029478489109001633, 0.0010056996000503606, 0.01572526202812773, -0.0022711991825425304, -0.004013811951264184, 0.0034935565841888784, -0.0048052686168631635, 0.01812109268919311, 0.006821705348427785, 0.016566684680079918, 0.01135666082959013, -0.0031480566779681584, -0.0061729470165714515, 0.01722225428366104, -0.011543585397605367, 0.0010369382314980437, -0.0026042559498685213, 0.008375166039188912], [0.005609967466094902, 0.01863291334945023, -0.004121818752894749, -0.0014725329703933377, -0.003422182851357945, -0.004474065348352422, 0.009978905695379438, -0.007866654807830734, -0.0017395618782424145, 0.023139697357414012, 0.0019912058142958207, -0.009348436718953518, -0.020887663505469306, -0.007154767154889611, 0.004489392105306399, -0.014253866607592796, -0.0035652038765250794, -0.003997974697769235, 0.008984673361523813, 0.02564686258646009, -0.014401622937147397, 0.0005867143417465045, -0.00847197071246221, -0.00047658953023023366, 0.012444685417929568, 0.0028577050529984944, -0.00760883554476309, -0.00864292519864761, 0.0038995628491687666, -0.009608800287627752, 0.005402646889755478, 0.00010037551622435254, -0.009169683137183563, 0.004467437433236278, 0.0036597457344162416, 0.0027920269688442518, 0.004974308560296784, 0.013138569488861001, -0.013770846154800674, -0.0034516581006840117, 0.006780545615142093, 0.014794209071997761, -0.0029225614480080774, 0.013010670522448817, -0.016655714411321677, 0.0056800435757540894, -0.00936784963803471, 0.0065584688056378624, 0.009042448204377131, 0.00037236157926090046, 0.0035100660163541655, 0.006067041662089783, -0.00991539329106177, 0.02209056435041353, -0.009072068352200301, -0.0046104278973867294, 0.0001601632761336849, 0.012176187358407012, 5.122748370643082e-05, -0.0015253850885235836, -0.005841175299911653, 0.0029430318198432124, 0.0016882193577236132, 0.006036317416962244, 0.0008548583198607487, -0.011783777845406065, -0.005177651302899812, 0.012472762363748566, 0.02058189020923299, 0.020815342835046945, 0.02499741827394053, 0.0046830545229262855, 0.010493163588154839, 0.0015589326244663407, 0.002079760625848918, 0.004182866616460887, 0.00035748669819827124, -0.010850043372048469, 0.010262482468290906, 0.00898890468572029, 0.0013820979243753357, 0.020876067861738266, -0.0056811742788713164, -0.00657854299171982, 0.008220983668086167, 0.003937668144025488, 0.00811540909245622, 0.0023333105642906783, -0.005759501150855075, -0.010420466509883606, -0.003244180876311445, -0.004658252882553726, 0.013080854680081633, -0.0007740323419138047, -0.0052067410809702895, -0.007812193345759712, 0.005148668142174567, -0.0036933425127298213, -0.006268171447051754, -0.004281170915247162, -0.003278674491414822, -0.0014599652920638687, 0.005890331078421874, -0.011716819187668058, -0.0012058975196720884, -0.011088295041099485, -0.0027127794995911213, 0.012181848458657895, 0.0005144354974279843, -0.00260847141291332, 0.0015376549292896251, 0.015728535491412707, -0.013110044771355025, -0.0005259287081448376, 0.017552041871788115, -0.010348072656129902, 0.002115111237825061, -0.03339344345948797, 0.0021647559734364118, 0.00205177931089041, -0.007465818851078762, 0.007306074320702303, -0.001021414193841776, -0.007879495515334794, -0.00038150477107383197, -0.008243577079638156, 0.017539406200502466, -0.012976526723585034], [0.004816299238780922, -0.013369128373931012, 0.005197809043056135, -0.0069973315529616885, 0.004522751635922465, 0.0057426043624418275, -0.004947222348292251, 0.00854650172928599, 0.012791006316566883, -0.006966411435194466, 0.0003951413410329164, 0.012260465810940785, -0.009841905216225747, 0.005033638547639759, 0.011035569774078201, -0.001967946440640013, 0.009084811316032402, 0.009801480310102815, -0.008445852154753434, 0.0035527923685505177, -0.009369530344810488, 0.0019150724632133929, 0.01779444997272323, -0.0037405772632507278, 0.0016218516027478541, -0.014449666959914238, -0.009099532858589448, -0.017627753584582632, 0.001410939318565079, -0.003370746585594301, 0.0011467452797521524, -0.004139850399020259, 0.0020016753278428224, -0.010642357909117698, -0.002268613000485077, -0.00710431687475228, 0.008138139139338056, -0.013277859707621421, -0.0022744912137607613, -0.02127566716230645, -0.017909960738917992, 0.0011502788038384346, -0.01722300679349805, -0.0076503322768336, 0.009443613085409686, 0.00235255175022465, -0.001415538085989938, -0.004631332575003272, 0.010594943788615334, 0.00952212162952537, -0.003189232360630524, -0.008600080185553966, -0.0031253443698894164, -0.004390984612470747, -0.006373496891956945, -0.003341005937391841, 0.021316145499222307, -0.009687263654945197, -0.011266650272459593, 0.02490794606564586, 0.002352720622995949, 0.008589222774152822, -0.006759611449357274, 0.008751342630937676, 0.0017542612847466046, -0.0006203773832178474, 0.0030097198062543924, -0.005893172135385607, 0.010755962230108563, 0.013547564663588758, -0.01237113538949476, -0.002004881784559589, 0.011503658294450127, -0.00035905117384982824, 0.008366202583170976, 0.0025246007079249427, 0.0032517104572997208, 0.0023639509774399975, -0.02379189821769594, -0.00949288303450022, 0.002137647873265777, -0.0001345402687352165, 0.001416676733101711, 0.007913468983638594, 0.002705155705875922, -0.0015240178568727042, -0.006396879415159838, 0.008016142016078665, 0.0025193117976856556, 0.007506371856510296, -0.00013421895049684082, 0.005064571908574836, -0.0050399140903342856, 0.006308627180471689, 0.0026857634530123233, -0.006463724890769553, 0.028741090845508997, 0.0008949975337881171, -0.008679824596431043, 0.0041468345610501155, 0.0045746501911781805, -0.005829376282670159, -0.013352961713620904, 0.0004821666817797691, -0.00222129654867134, 0.00032122197253684056, 0.015239749190808602, 0.013774677971924864, 0.013610288626872986, -0.000895975780572251, -0.013648591732794708, -0.017152576406405124, 0.025467775846107082, -0.0113279214462319, -0.002441587866995024, -0.004541136965769988, -0.006442372289345847, 0.019446515468369337, -0.010174875102840458, -0.0048565912006179515, 0.00146739230938374, 0.008846036224956768, 0.0022833767023025353, 0.0038543083160563663, -0.0001506968055260283, 0.0041163783789496195, 0.006189085948065999, 0.009694831872399928], [0.009221916514817713, -0.009553578354664229, -0.011395621341949167, 0.009883636569381722, -0.004453298688145859, -0.000769117732128098, 0.007736576705273724, 0.003920413764342493, 0.0021849354564829147, -0.0012569980932949007, -0.0034532462204713986, -0.002616523595745187, -0.014071043155224512, 0.0018834369949007625, -0.006264449414352616, -0.002156556529609257, -0.013425008613392627, -0.01261030795635334, -0.002205446641709349, -0.014177703364813192, -0.0041542972163958825, 0.002746352310694012, 0.008633686130523748, -0.01681156412325404, 0.0036013392987063074, -0.002574009124114496, 0.0005623720933897345, 0.010829625968844875, 0.004434751787862254, -0.0045469153111937196, 0.012287894445206565, -0.006343441947746018, -0.010605112379425038, 0.009159202836961169, 0.00822721321807924, -0.0047673119691272895, 0.002074824247527748, -0.0026357185518371563, 0.0035137661272193633, 0.019500016123948593, 0.013980991202488646, -0.009012904434215674, 0.004607458840860067, 0.011268663291344926, 0.0017082752198236365, -0.012219008929983585, -0.005768350521072051, 0.012391028461643389, -0.021321169524126396, 0.0020844037058539186, -0.0029172219255350733, 0.004577021182412857, 0.0052288622747000794, -0.016761049559499624, 0.005137676705025742, -0.021648505092205075, -0.007447051180813011, 0.0010627135029965802, 0.0036885860400483754, 0.0017452313639783345, 0.00898112920878074, -0.000953423657913072, -0.0012281457418754946, -0.014300760021097696, -0.006856830878423201, -0.0007712463451075923, 0.01450909378495329, 0.0029123184285639618, -0.0059836770761847805, 0.00947528566672852, -0.00031369013417842145, 0.01594133861127111, 0.002241584089236153, 0.0004775689348181128, 0.016879645112478518, 0.00328361382772683, 0.004355302876517607, -0.012396384191701854, -0.006918710264922498, -0.008639056248671765, -0.011064140118709313, 0.025750335882807257, -0.011636108504623467, 0.0036650889719718467, 0.020320032273087773, -0.006329232268182996, -0.0026582258486177878, 0.0007818113856026781, -0.018058380802343055, -0.0006337297039006929, -0.0022832998827838316, 0.0024431377975562044, -0.006366685399261165, 0.011199809871973316, 0.011553372458204453, 0.011140064621793018, -0.009651473231287023, 0.02247574979900755, 0.012975689263642627, -0.001080709525574914, -0.009496325506503851, -0.0009383256320173637, -0.007065120099514112, -0.0043405123134122115, -0.004508697902881435, -0.012631139526004417, 0.006451544568956747, -0.009380942220729261, -0.018010731436368076, -0.01962584042493416, 0.0047847879080400125, 0.0022536612121341272, -0.00892174758742696, 0.011902329526638585, -0.0059882083671134664, -0.008707723858143473, -0.011160102896971762, 0.007214444069738213, -0.001033101578658576, 0.01057079907989462, 0.011646839946577826, -0.010279439136183321, 0.005133552090645483, 0.006108182424701685, 0.00033167263559320755, 0.009397452689112105, -0.006206677577281796, 0.009851531869498373], [-0.011169980437894923, 0.012267684971753914, -0.02660155555400025, -0.009949937434850249, -0.004130370283965977, 0.0004478865173185322, 0.008742818612200522, -0.0012108281451934269, 0.002330459503100278, -0.005669158639471209, 0.0032964831925659244, -0.028006677697522776, -0.004010607168482461, 0.012103621771334398, -0.019006531551745712, -0.00020044553176168267, 0.010564311344794882, -0.014144861509458127, -0.004061627295493821, 0.014212766381749117, -0.011603246611146147, 0.005898407856147659, 0.014068404174290726, -0.0003153299556601573, -0.0060925386357708715, -0.004513721979246694, 0.006690943614471667, 0.00900565804950923, 0.0016584460062321537, 0.006425345569714174, 0.002814618600433206, -0.004220679881718934, -0.010740349539910488, 0.00027689675537729473, -0.00446236141538811, -0.01751149561856903, -0.0060344281204910985, -0.004476386220902405, 0.0045248476610651326, -0.020802309320902088, 0.0033176004879943476, 0.01154235068172562, 0.008185529534633508, 0.0043895968446741335, -0.005547279924571626, -0.0006970426669843703, 0.011214990965654932, 0.003729196905289895, 0.015264642254833906, 0.003437295385458461, -0.00016451065237734798, -0.001548095795168884, -0.002217849839213284, -0.003334866437512079, 0.008632061452585316, -0.012146749534482502, -0.006556806510794068, 0.009973353966549152, 0.009138478733268446, 0.004977565869529143, 0.002625155371107805, -0.004137839120427902, -0.012899621577374929, -0.0022213611683627277, -0.007046214435699526, -0.001739509590329544, -0.00838059578714315, -0.0032610917033113977, 0.007662868079032588, -0.007574589836590774, 0.014025860488996912, -0.0013602233101938264, 0.010359227597507025, 0.015657782672638794, 0.00916729621269928, 0.009436023793083389, -0.011224612541393553, 0.004187555875371489, 0.0012235498794818589, -0.011881282194137003, -0.013090957471912173, 0.00036319025253714066, -0.006060320203658556, 0.000982434936539919, -0.0036257954742934134, 0.00015246697586047958, -0.0007288069374524272, 0.005186019370588258, -0.000995499073093918, -0.001371630575070996, -0.011358926949579223, 0.005891399822310707, -0.00430800448293201, -0.006208112883042493, -0.008058864489014233, -0.012954331977186394, 0.011841168349043424, -0.005097901017523519, 0.016191445832772534, 0.028071852516021917, -0.011422995919306778, 0.005240117242630705, 0.006396363495431293, -0.007347063359190823, -0.005451751217223785, -0.0031261567533783117, 0.005463440573505591, 0.016237538949029455, 0.004791811521881138, -0.0012864514489731931, 0.03060017835052789, 0.022927389737799817, 0.0039260920239052, 0.004534335318139952, -0.011315679180572549, 0.02322049325805927, -0.0008805639819435567, -0.0004268766726357576, 0.01563948539592655, 0.011171283620415069, 0.008374096852291889, 0.009637605462125543, 0.013203681591650949, 0.00670372749238983, 0.004369540045205879, -0.00044718945231793123, 0.008084242460243174, -0.004000751264028652], [0.02017305286737534, 0.011214469488123676, 0.0030195779224165098, -0.0059142885519296645, 0.004743185493934406, 0.015346449112974116, 0.00494002507764261, 0.010773974387026406, 0.002705062803370229, -0.008133101339003058, 0.005947719409013574, 0.002312310486669317, -0.006206806070998354, -0.001189288295718229, 0.006979377247067755, -0.0075600527435135175, 0.003214955042358386, 0.007744333154167034, -0.004612009157504327, 0.0076758610724844975, -0.005316640645090596, 0.01560449728779958, -0.0012091866730672015, 0.002832564766943475, -0.006958822398839064, 0.009733152274405814, -0.0130933457078262, 0.003469910474624715, 0.0132701542368055, -0.002477917473613461, -0.014730781532441005, 0.0016795845819024837, -0.0014585877005374992, 0.000273334616101471, -0.005919740769712321, 0.013586807228898816, 0.010739492262591821, 0.013658467153736567, 0.0024290565712566273, 0.008349078787964637, 0.0022761983614494907, 0.011276355235464393, -0.013667804396362794, -0.016794596783782898, -0.011120308892540086, 0.013698586393028843, 0.013249727181883176, 0.0057054537609021105, 0.01094780071488833, 0.010173559126608766, 0.010495598929632557, -0.0023839955174556554, -0.0076532070989279504, 0.006663379111883602, -0.008537325590267177, -0.01549396380143991, -0.0012335126735179471, -0.00939374689790304, -0.007293146184760547, 0.012514141037765, 0.001970792126979351, -0.003910829046365775, 0.008380900105601776, -0.01169548085180845, 0.012704490930421987, -0.002570063807064305, -0.004530695822870435, 0.0060019882306617004, 0.002927508985985346, 0.00114024198364849, 0.0077040130095625565, 0.006590101022917391, 0.0029586143567931333, -0.009856686312355667, 0.0039948190794515314, -0.0034705497344913066, 0.008998091279685948, -0.0107101517204502, -0.004971892500756981, 0.012108510518242218, -0.0017199604912266858, 0.0034273125040625145, -0.006408294891511263, 0.002070588537175103, 0.0034945480393259593, -0.014479465877744005, -0.0019552414320951946, 0.005192763555595252, 0.004074557353112756, -0.015130695809813664, 0.01045877921593405, 0.019746358014475062, 0.016722695622856384, 0.023047844682449855, -0.006620692235164112, 0.013175142074515799, -0.0024789841886908508, 0.002936040474910186, 0.004615752285275366, 0.02166422017585624, -0.0008826198438811098, -0.009633774018379478, 0.0019350533120644693, -0.0008892443577510849, 0.0012974814041265715, -0.011740316604359998, -0.00464052859593234, -0.009097792359838182, -0.001929932733372495, -0.0015788558362159698, -0.010351226103679194, -0.028638817106141346, 0.0168408559057427, -0.011726697660181706, -0.0016221729392196258, -0.002628005505735179, -0.012747700826404423, 0.008720998992807627, -0.01244823820828993, 0.005814457089949186, -0.005757777917242019, 0.0009408705712289524, 0.004020815909096127, -0.005067407816615691, -0.011921946489294925, -0.0026003907167360322, 0.014442006816972889, 0.011295334573015781], [0.0035330869862652426, -0.0131540595968411, -0.012726205814807084, -0.010384821877458678, 0.006405740541773098, 0.0030428569017282316, -0.0174456573189311, -0.009650877237680882, -0.002139533962729498, 0.014179410277044542, -0.02308849219202377, -0.012035065250136485, 0.005889996268285144, -0.002254202706017964, 0.016561110789053066, -0.0012405559435578885, -0.012655668855407648, 0.006806051917300411, -0.009494944870574213, -0.021015701728140226, -0.012525059367846769, -0.016254745412786344, 0.003421786630224097, 0.016100820685014117, 0.004437823450182286, 0.0004581568761462681, 0.0036664290222556692, 0.005843852773453555, 0.013678221674300679, -0.007675219993420014, 0.01723442980194195, 0.0027704456934475913, -0.0005062826378636203, -0.006044728047521929, -0.0023040770190497694, -0.007713388510136727, -0.0047536761619500455, -0.011035969042578503, -0.004278686326988514, 0.003403600023965136, 0.011647780730545959, -0.009233132492901227, 0.0061060105571571184, 0.0055278456817636325, 0.013254767559198723, 0.0023533585893283837, 0.003004962415002745, 0.003110883125887256, 0.007338350202694492, 0.013091176077478733, -0.007721498306398206, 0.008940732552973259, 0.010747210483201519, -0.012950591294190149, -0.0012682766254995756, 0.010214726664510348, 0.014738832748809107, -0.0026773194609688144, 0.007687546969556117, 0.0042825962440674985, 0.012352096227822143, 0.02285556639143115, 0.004076890056925627, -0.01668938542616392, 0.017919942544255184, 0.02291955072238145, 0.003990434672688182, -0.016671584486940293, 0.0006237752829982119, -0.0018960147667855495, 0.0013502145216573273, -0.0011033615487285482, -0.013191250374351336, 0.0021168433517134394, -0.00719651735935708, 0.005329876805383852, 0.0201889094761885, -0.016485138430332252, 0.011476256113275289, -0.0012898387952899684, 0.004146029178956449, 0.004907937529169636, 0.005269254237071578, -0.004234758337445138, -0.0017929248602678736, 0.0028585791018098574, -0.018222365916487897, 0.010574713759835382, 0.004959426933671872, 0.027045530384006467, -0.0005171268360097224, -0.008695158437815941, 0.010436157395931298, -0.01444928878398583, 0.013890104601910752, 0.014553974574890455, 0.005420021986987799, 0.009661755419054518, -0.0030486260189453392, -0.0001618953801840438, 0.00407119149526031, -0.00017355549097234122, -0.01596115067562216, 0.0077915803503800455, -0.015265706504442249, 0.00277454900479623, -0.011162427665066097, 0.012341804231941315, -0.005686594630245428, -2.3875430792329354e-05, -0.00930128296090564, 0.0007071466149683367, -0.0013504612241747687, 0.005837877421296393, -0.007068810278481797, 0.010188232992114611, -0.013451325845058256, 0.026877041958263598, 0.009145480682360131, -0.00975504178679603, 0.019641543912301735, -0.0019230540443981635, -0.012473652682823187, 0.01970737718835156, -0.007576272848599243, -0.0004681190788930055, 0.008078781709181072, -0.006613010822383692], [0.007195452470138571, -0.008916006175410045, -0.020970976197163257, -0.007538443151533136, 0.0011283427137395894, 0.008976403766504748, -0.003761740797549018, 0.01923965965056262, 0.007688318639796179, -0.003433799053417039, -0.010609295939248429, -0.011891757784522745, -0.004020160230991869, -0.013009063005075207, 0.010446286213514665, -0.007590402651952058, 0.0018074468680425158, -0.011841357785631834, -0.011739267136900945, -0.006357005698806424, 0.00028300384214489867, -0.0017636856969059235, -0.006940983697580856, 0.0209195339254437, 0.017332821527124325, 0.0009345209489913525, -0.01346842846436657, -0.0037268254342700457, -0.00137005429183397, 0.014398651985361652, 0.001587359780627038, 0.003304315636478835, -0.009398256709747947, 0.005323731618897974, 0.027001203258255235, 0.019460044222399678, 0.006107663327858754, 0.002131100167173078, 0.006075513854161307, -0.005357151586900975, 0.0032960999373712547, 0.006618712951829352, 0.0007795164130643185, -0.0070645751128397835, -0.01839367342122332, 0.018738122620759055, -0.005005089774094744, 0.015706537202052655, -0.010370382078432725, 0.019325675899963143, -0.030472608875082387, -0.007722131041907915, 0.014348407799301232, -0.0016692237201858117, -0.009482859792903895, 0.006709319606858609, -0.0016772670282212561, 0.0029679803723147357, -0.0040251040553733915, -0.00951670803202542, 0.017336702992220267, 0.00857299789927927, -0.010920227703821072, 0.0005480294528563487, 0.003877314341356424, 0.002716084349855073, -0.0012836833739688423, 0.0010024245752061928, 0.003787798398320949, -0.022266243851170646, 0.011439165847636584, 0.023801367076001233, 0.008285336665403216, 0.011328400740178716, 0.0003253393458534938, -0.0007742832141109586, 0.008576862754056228, 0.006335285749616235, 0.026886029242639387, 0.004899527480542008, 0.006221791655627152, 0.0053123123460842095, -0.0047878959254849685, 0.024584675015233703, -0.009990813212762297, -0.005532539175354028, -0.012488340568489091, -0.006614164075328994, -0.003385340236926241, 0.015382777803191942, 0.0007995608610292062, -0.005424426050520659, -0.007974151693154838, 0.0015865943713098305, 0.015589942187616787, -0.012230789291355628, -0.0017529301657041915, 0.008035315566170799, -0.020602365640162563, -0.02303850627401935, -0.013392540178671038, 0.014828997682078312, -0.02168956553737729, -0.008529641350236787, 0.005116662653029769, -0.0034946588372893514, 0.016484549645327747, -0.0036911492349035757, 0.015565616794417616, -0.004062112909652396, 0.008277059330560409, 0.010045115121683353, -0.0033967117159255187, -0.004474752521486794, -0.01098265142459165, -0.0020708302169182534, 0.017454429334538946, -0.015990970425580238, -0.00202355980540234, 0.01451320157333061, -0.01846658160732628, 0.023993315307738905, 0.01072308720679016, -0.00023808711302428825, 0.00217900324312304, 0.010500677558939906, -0.005249908502202908, 0.011229626245026533], [-0.01304403635716882, 0.012430690026249108, 0.007229759381566431, 0.028219312871078553, -0.0029969501229922487, 0.008401642783489227, 0.005766474741512147, -0.0063155719992877045, -0.00800800147445321, 0.01421196270655302, -0.0008515329551793538, -0.0013754403176984066, 0.01243562151753664, 0.0011425507470683295, 0.004049651859571973, -0.02339992268317011, 0.0014514283077281234, -0.011302289223818915, 0.017841092510611892, 0.008710232142064121, 0.0018864326749901755, 0.011462643756850945, 0.020500437703038686, -0.011263903490356879, -0.0059164215113440225, -0.017644898850763063, -0.0003493840876901197, -0.002063087414540816, 0.00219332888729848, 0.0028534372928229845, -0.011285670754190001, 0.0009874719400252761, 0.009662790444758384, -0.0028603870673813902, 0.021470590850529676, -0.0009192024912762066, 0.004220766094618607, -0.004248843046264952, -0.0023013330054549867, 0.005463452695618441, 0.002793123000536266, 0.006845583606346842, 0.012890903009632138, -0.008691452572251354, -0.009020528829681627, 0.015591674629566414, -0.004809661639070064, -0.00020807088621403375, -0.006562737128925187, -0.003775839770519338, 0.0015341894865051279, -0.009161885603568698, 0.0046622192705678975, 0.002710686751688741, -0.00738811019757364, -0.016012260262752605, -0.008676236731331938, -0.008529853140259442, 0.008378093796785039, 0.009970876294642024, 0.01690127075823764, -0.006719595477119756, 0.002016652388626899, -0.015216711857766461, -0.024799483060041035, 0.004871207867535448, 0.0034672469633718877, 0.010243894284424621, -0.0019025615248782304, 0.00541092572119977, -0.011955051792909507, -0.0019005875653140068, 0.004835772354311517, -0.012700676073964471, 0.0009802218400448287, 0.019013166110353908, -0.01884495222037151, -0.016686299821944958, 0.0020137154615279826, -0.01872680089562977, -0.0034264015095617703, 0.01231867400457726, 0.009239509187975241, -0.00980340135722539, -0.0017336069629935377, 0.00848184796453991, 0.001323530178148749, 0.01855279356531133, -0.00950776453526706, -0.01905680710100009, -1.7240326773072977e-05, 0.00563832935342869, -0.010214913812086803, 0.006996404966970821, -0.009013377161717998, -0.01843276479908286, 0.014506426760555224, -0.009107465243530769, -0.013291402485335882, -0.012062525790469706, 0.015316990323870962, -0.013385327430186961, 0.003737628968712248, -0.004176125215250095, -0.0022854218383863913, 0.004141663584842364, -0.0059263181085519616, 0.0012515922191536338, 0.005321935857001518, 0.01933494106222653, -0.0009578856296432436, -0.011933988699742876, 0.0007022921729315147, -0.010793862579683719, -0.017670868577626016, 0.01220037618356427, 0.009178870067533599, 0.002532511128953973, 0.0019032036487056918, 0.005162077001652932, -0.012920612001657226, 0.007580765902061455, -0.003566943793802861, 0.010357398813320769, 0.004958392849983807, 0.00645907895937746, -0.01175629056958872, -0.004602986472148646], [-0.011937013259684878, -0.007145572279938731, 0.018749188104108423, -0.002048727378162501, -0.0017339882406439747, -0.016586001969132288, -0.010141016197769971, -0.004907282245177972, -0.002603572814241837, 0.0073389470969770065, 0.005785196928962074, 0.0027217433051837177, -0.02158465146879234, -0.03562266852462183, -0.01567691909843515, -0.00567954443869182, -0.015786151942892537, 0.006242829599577202, 0.003137281940839673, -0.0021818528951769076, -0.002326784317581463, 0.005881804596539798, -0.019270742753175554, 0.011521926529448211, -0.0011624125626473064, -0.006397918403228955, 0.006872533393078967, 0.005257664341657794, 0.015542433811583416, -0.007591030481976862, 0.015427506776845982, 0.0029528554618943764, 0.01522952212168666, 0.011737378891993382, -0.0055186755738979906, -0.005110162095717004, -0.01198655770195374, 0.03551021158277794, -0.006552520940627784, 0.0001500130626051991, 0.0044249645801080675, 0.0016462549605305628, -0.0005545577283236223, -0.012979198748548318, 0.004002473566868063, 0.004721141507438985, 0.0031485230769472614, 0.008129195040680753, 0.0011883271561278612, 0.0046263710910551875, -0.004116136167078401, 0.0033160733538256403, 0.0011137431818493979, 0.00295732912539785, 0.0014322071515952737, -0.012515561274934292, -0.0030759479907641473, 0.0033988131450656783, 0.009967607453679798, -0.014773134204110411, -0.008141706332988961, -0.01309540066696479, -0.008489178071415901, -0.004360776500930171, -0.004130387601390759, -0.004615982045941113, 0.003804614873909661, 0.0044056521869674835, -0.015572664508116894, -0.01581107788631761, 0.0013652678121945012, 0.0004940033640543473, -0.019882052413885652, 0.0065598204902235936, -0.00533044057075433, 0.001965257686967708, 0.0053897593517809655, -0.012097326177748762, 0.019565455045836046, 0.020168906345454173, -0.010169572586937733, -1.4961393099902764e-05, 0.007731335653777262, -0.000389957947892965, -0.005066681702838359, -0.000674809747462582, 0.006597926672795299, -0.006143848467422534, -0.005808807937291531, 0.013832162070847923, -0.017744280691738782, -0.0057298779806986885, 0.013091123319201514, -0.005578124982702639, 0.0037768291558126998, 0.005642693539277853, 0.004393318233646731, 0.004625856712149591, -0.0047902088920470575, 0.006674951275388874, 0.011767244604539094, -0.006016007021021884, 0.01256147673779776, 0.00946763875769352, 0.023400535923340925, 0.02228111944073927, 0.00809688176424241, 0.0027998359815127475, 0.0018828409947758448, 0.01783503497004326, 0.014052328645611572, 0.0034073106869104653, -0.016038160002913995, -0.019637155089605316, -0.02188028852346619, -0.004967242688305826, 0.007710690604496377, -0.0062732269823352945, 0.0091329656846145, 0.011177898553873907, 0.005269414699975586, 0.004164296949452722, -0.0017748630373888427, -0.00029556115984472205, -0.004798178255493691, -0.0011659916110214285, 0.003926052353270229, 0.0015715970291048608], [-0.002673764834164616, -0.010930827409877981, -0.010897621270394143, -0.025566838706468423, -0.010956255065388438, 0.009619270811865923, -0.017301489066202137, 0.007066482513800006, 0.016720984642100443, -0.0018622754566628014, 0.0036142684950838436, 0.005092781887277517, 0.011299993356415457, -0.003579513835025694, 0.01826105474988775, 0.006868967310975374, -0.009990201814020837, -0.006194778361008788, -0.0013270573986527423, -0.0016283313046359306, -0.014150836444513626, 0.004161448622674728, -0.0005988076150595571, 0.0005454016546258847, -0.00399996344043992, 0.014357177950913643, -0.017402890632098118, -0.019144317525352852, -0.007739819198467975, -0.006106065425972465, -0.007891469232105439, 0.002982263257027936, -0.0009167103647615801, 0.014737866839661298, 0.003807937901961416, 0.0011890016137146332, -0.007913580881981522, 0.0004852974607543238, 0.008435853538791664, 0.015679132336810033, 0.0131832487403045, 0.006423069440820847, 0.0049126342490847736, 0.00417853805358893, 0.003873437033194234, -0.009620268689138676, -0.0024814672473544006, -0.00984673631272286, -0.004970577510470523, -0.005555278181515747, 0.0017505645676973189, 0.014284210262089488, 0.00778554050653129, -0.004713097671349233, -0.013142099749643553, -0.019508406060888488, -0.005904767798463235, 0.009009271309624844, -0.009842186306973127, -0.00941600516284295, 0.00735843547650899, 0.015031351642800434, 0.01826347458262649, -0.008038716995829469, 0.028122692595784815, -0.0059260033679369405, 0.009776077172346579, 0.00689423600057374, 0.0029589911931459083, -0.019543886721504932, -0.002020453946908845, -0.0024638724444615437, 0.018043837612558893, 0.0026411985139937456, -0.020522897510737645, 0.004945849980052194, -0.009427394555183885, -0.0024620204113064556, -0.0034432265901531522, 0.008380735190073004, -0.013846165890859316, 0.0018735902367395963, -0.018294268010135475, -0.005369989530921776, -0.004633488406741041, -0.009401003424738487, -0.0052869967713951044, 0.01345720401777531, -0.005063192038943443, -0.014702526403056033, 0.011837041516521193, 0.005291606838540945, 0.017607853895972404, 0.00527144927479789, -0.010989536188059902, -0.02197299726273608, 0.00572456674928037, 0.007537214538996935, 0.01855472362216747, -0.009277850464906544, -0.0019483915021887047, -0.00440753799602431, -0.0030355970538788043, 0.01510861509800409, -0.01856784050767843, -0.003852627537190619, 0.017015616889212104, 0.0003451418446401049, -0.006170402680907055, -0.011722353251773543, -0.0020079062941878723, -0.0005333233111980914, -0.01578187038626155, -0.006113422151276489, -0.00653208625302653, -0.010655502922000933, 0.008384246750820465, -0.001746262101889812, -0.009744787959899808, -0.006418798342554809, 0.005774935431076002, -0.011953233357105372, 0.006430607302884111, -0.007257955788389715, 0.0018246832988567953, 0.005197797348758197, 0.007080734253311047, 0.01712109661050464], [-0.004758719867112476, -0.011297775525158121, -0.0015512346138470208, 0.021819997366652428, -0.002522800403962445, -0.005824866651516567, -0.011934609194037209, 0.011061502465742, 0.02195660048892631, -0.003187208556176146, -0.006930996354555082, 0.008069861687686294, 0.002702915788933658, -0.004564313081799749, 0.018365895510131524, -0.005665535724504714, -0.0004227612578000318, -0.00388256293740087, -0.005897054021205142, 0.00964530339460702, -0.0013290267387031222, 0.0005386994508975975, 0.01186473627790876, 0.0105922685854598, -0.013504621112575499, 0.0032043673207467695, 0.004232832378708528, 0.007460123214725217, -0.005030619193315414, -0.0037233854753895563, -0.020829094065193045, 4.470109140315155e-05, -0.004065288804094592, 0.01975781000805522, -0.003764306962606459, -0.010267282474565091, -9.299863896813518e-05, 0.016909214138246947, -0.0018764514853014357, -0.0157828823197003, 0.008984951493131709, 0.010968535109044577, -0.005822911544888451, 0.004176651478152298, 0.007081892645739944, 0.010000997006930967, 0.013615828978012886, -0.0006825887822703912, 0.0029386857705029136, -0.008297656945614395, 0.007517101845065817, 0.02541188288994808, 0.00470831263018051, 0.0032255833401851736, 0.000545335837436493, 0.004897840307038518, 0.01440464045600105, -0.00502030324617776, -0.018437003812978376, -0.003286862429321187, -0.016886095769258723, 0.0005682576624420951, -0.002282469321522562, 0.0014818021982049723, 0.003121645476970457, -0.025606775661140415, -0.01208146401734022, 0.00942960929823608, -0.02092543196013538, -0.004059752771014705, 0.01696124320258445, -0.0023893894035406428, 0.00038377495433573595, -0.004394620954605485, -0.00656132955877693, 0.014467567010857968, 0.016225165957499017, -0.0004817874474847677, -0.009235434334014938, -0.00023353812510255696, -0.02274261791491883, -0.005543604157608126, 0.00907599083917381, 0.0016534977456479228, 0.010525078158136483, -0.007975866963174712, -0.01091206937894455, 0.0006103083716802929, -0.00043264683808768336, -0.00463494771250508, -0.0028483621483832017, -0.018120617875888187, -0.012258416836587864, 0.007229099899264477, -0.008310768855853178, 0.016326293751224435, -0.02248156665335911, -0.005666225259740384, 0.019497404284063324, -0.0015897676405753401, 0.005008545403070265, 0.015091444293916371, 0.0005491508885930867, -0.007720134367019722, 0.0034032578846742976, 0.0289419074551252, -0.010895076401273221, 0.014838665537376127, -0.007123440890632596, -0.008515501005294683, 0.015640189773876576, 0.0061644652842586314, -0.005889465094338063, 0.0017664254956367578, -0.029707024304420016, 0.000891051210461942, -0.008022347031519673, -0.010989714741115217, -0.01208610678684382, -0.0070839324442989425, -0.007336427786790473, -0.015024169614839235, -0.009539901667732413, 0.01572778624291066, -0.003202538393615331, 0.010256401350755983, -0.0065077292531472404, -0.0062541903395985044], [0.0025899953083404702, 0.008708261970407808, -0.005552981029525447, 0.022456551887928423, -0.0042768211311736155, 0.011477645301257371, 0.004585157933403785, 0.00337361684949183, -0.004394110348118297, -0.010590065802265923, 0.009859159100483825, 0.0032319033377978643, 0.022684417126511324, 0.002949958961153886, 0.007556832568672517, 0.008048961580773312, 0.005293226451567337, 0.011550869552360862, -0.0014793117015503444, -0.008698921728013329, 0.0063683862545863825, -0.009150332597564873, -0.0068826319262662436, -0.0022269204050898448, -0.0050094356517848436, -0.0082494084658136, -0.00010485773032733576, -0.0018302578611520382, -0.024289475306342397, -0.000621304848904773, -0.016658718282558924, 0.01856805431026624, -0.005019193965489326, 0.010548213544385919, -0.02197324732088682, -0.001413871115884414, -0.013818551576732414, -0.012923050803322901, -0.01541775878343927, -0.0013562187125079242, -0.008222085408254169, -0.007841322786764651, 0.006660926101770412, 0.008252503472291827, -0.001262713022037889, -0.000953711380312483, 0.0005546281451534716, 0.013217363813183156, -0.004561937943933201, -0.010316554675459003, -0.0037396441764902676, -0.0063249060238128735, -0.002512024254407639, 0.01593545180821086, -0.008127296819954194, 0.009448697711952215, -0.011313799573145617, -0.005371845627458883, 0.002223882741828224, -0.011672909822484407, 0.007101266217020509, -0.008929499267356377, 0.009471422089298865, 0.017336115740078536, 0.007755973448808226, 0.016085116475165986, -0.013827134345391165, 0.004867337668974315, 0.006843174824647767, 0.0002996521170005769, 0.010035130152956448, -0.0001700769628380805, -0.011392667192419584, 0.0038720927751014693, -0.011595730780723457, -0.024630464467672537, -0.0016469665457991538, 0.00255475325219776, 0.010837114084523309, -0.009809587076863758, 0.006607866845157232, -0.006085791165112542, -0.0006547554929269861, -0.0007545860381037502, 0.014490669337718849, 0.0026624376256693554, -0.003103380447155222, -0.006653237114627198, 0.014725729300425539, -0.0035585220504913756, 0.0007732799064217047, 0.0037404571643638676, 0.01591798925948142, -0.0044746216411706684, -0.019212026826808302, 0.009822657025016465, 0.004283798784258332, 0.010055955225195779, 0.013215023050434385, 0.0016413583471418987, 0.00403886570056128, 0.01004664065165618, -0.0022067982339094095, -0.01821555671750012, -0.013867459998646423, -0.011933444894209133, -0.00388672084589708, -0.010243774510819145, 0.01830493240618383, 0.01852156885932042, 0.011063234434807159, -0.012994026536420938, -0.009706611485185633, -0.004985557142294769, -0.0053797938105823425, 0.022674708314620304, -0.006208825508512155, 0.008090519334127287, -0.0015718934295557725, -0.0020894733896035063, -0.001647179284162905, -0.0059141239300484, -0.007621298131486618, 0.003066376220324348, -0.002670486611609664, 0.0024487833420053645, -0.011452295436266451, 0.004673305298189957], [-0.00043132351082965706, 0.0009550833797593135, -0.005704870181607944, -0.0031615054795741558, -0.0005496094150044142, 0.0010107189051203013, -0.010412547618533139, 0.01444688184205831, 0.006609650796835799, -0.0036221118787487924, -0.019112402420242102, 0.006751953988121764, 0.007803825078993324, -0.006697155782464716, -0.0024611254913396354, 0.002989190980292967, 0.00733006042054372, -0.01791168199493992, 0.0013727859416069867, -0.009338304298590628, 0.014692189187927278, 0.0021516747986981256, 0.006046358137340448, 0.0043079278696952165, -0.024609186887214227, 0.007238509482145355, 0.004402790504239089, -0.00387226326603463, -0.011215054210604161, -0.003876691263695299, -0.005534862944119152, 0.007942299774777895, 0.005139808521831233, -0.002062149723838534, 0.007122992808378565, 0.00300516832191475, -0.0022117399287110923, 0.002639341147237628, -0.004536919305719252, -0.027171827253975447, -0.0015526817815097176, -0.006349492613644004, -0.001949309003439823, 0.005702156569722888, -0.005653001689915593, -0.005105060141630235, 0.015184689332552594, 0.005482154380662302, 0.00892097334545415, 0.00864718070067606, 0.008603254487074254, -0.019594571635335033, -0.0029002767644678035, 0.028009971159883903, 0.008311440745051898, 0.004172564032212968, -0.0024890797475436077, 0.002015123907575746, 0.0019205871143939935, 5.676966449025242e-06, -0.016055511478824214, 0.010656262977433745, -0.013281202949778062, 0.005633154590415495, -0.012142720828256872, 0.002023107410585218, -0.004940955237789752, -0.018686253661635965, 0.016665423652530067, -0.001847716621812479, 0.0062701790888521946, 0.008247152246603176, -0.001017505120958715, -0.00096786968044437, -0.0062208234865575515, -0.012820960817843724, -0.0303196415740113, -0.01115120506715865, 0.010062970071173493, -0.021576905101844644, -0.011092974063948234, -0.007093454005876708, -0.002144629012952108, 0.006228452522694043, -0.015020513552945173, 0.007976315767630601, -0.0009133339291830441, -0.0030268728675129984, -0.0016496413353284446, 0.013798381848340856, 0.0010179488226142639, -0.002467856944046441, -0.01832163745762573, 0.001997327595606598, 0.0035528959711436468, -0.008734393804388795, -0.004539180043529325, 0.008267334929190611, -0.00718562135763582, -0.0062884943622010464, -0.0010579878042781797, 0.008500899236727689, -0.006502532729696389, 0.002806229903073557, -0.0007116939395425519, 0.0016319637785221772, 0.004434362053603893, -0.010283545632524762, 0.0025982119231160675, 0.008207256413096076, -0.004379347656902472, 0.01870055250152127, -0.0010018901942208493, 0.01963245382337002, 0.001220359745668582, 0.0011207447060207546, 0.004481316486436996, 0.008484644547620279, 0.0049688494743101675, -0.001705699684030582, 0.0015276951828937847, -0.01928475483099632, 0.0018998525653153443, 0.007506011516530135, 0.0021758402314470864, 0.006223246522696623, -0.0006321430002631746, -0.00656781601815053], [0.017126244431898117, -0.004234907641055112, 0.0036859434456677077, -0.005474961482532053, 0.00010312750289359938, -0.007961576430725864, -0.002077513146124299, 0.0008277517064643243, -0.009984030615693685, -0.022315681621921973, -0.01078638799054423, 0.004317191355333911, -0.01627606410908935, -0.006075296484915423, 0.002325360097559254, 0.013528490032477535, -0.011887039291618483, 0.009513867102361327, -0.014777455713604363, 0.01773219919946502, -0.00586495491166911, 0.005319375120718992, -0.005655931045053076, 0.006377961032165148, -0.0016801008254219345, 0.004112442579321406, 0.0047746513041622045, -0.0008114505368246134, 0.00980819853944882, 0.0015595652657529838, -0.009647895547253638, 0.002427282465401602, 0.006224437250075524, 0.02423569239211844, 0.01695869515448244, -0.01940959938663306, -0.003652392740775963, -0.008024771841376808, 0.007835678383758541, -0.0017699985424184698, 0.0050904169717425184, -0.027681536310438525, -0.006010821810412328, 0.0001458632523456346, 0.008090198653183446, 0.00641874686485989, 0.0010644654994263663, -0.0014006135595348815, 0.0004376116965128081, 0.0030053144244167524, -0.003955924458219136, -0.0010947467355371927, -0.0009683806705977836, 0.003340510351832175, 0.010555982838007415, 0.011318933667640299, -0.0045819484962953015, 0.0029169855347722772, -0.007104352088563279, -0.003942864237875716, 0.00016167809069461705, -0.02342114881606954, 0.005775206611974594, 0.0012519510987267812, -0.00016861480917692556, 0.011258595244333812, 0.017440713220904867, -0.00745503463743808, -0.008418361329457964, 0.0036354838316674356, 0.016401994306443957, -0.010553260719556553, -0.011803748091731856, 0.0031831332199296564, -0.026413773112484315, 0.006864839467722922, 0.003768098442872006, 0.001374910936956796, -0.0033089506056244375, 0.001703288520616774, 0.019540863027119222, 0.002482699188563037, -0.0058638876726979615, 0.01066428272563758, 0.0027307088913779507, -0.020249764124560036, 0.0038998809001798093, -0.0016606095321855952, 0.00822899960049822, -0.002242040231796148, -0.008951799413528002, 0.0050908267389507805, 0.0065692249934262495, 0.0005256204124306368, 0.00041369143800617646, -0.003617418400973763, 0.009869031125533742, 0.015527598534715937, 0.007548638017658642, -0.026010005715060607, -0.0004769401911173967, -0.009585063473117977, 0.01873431414256179, -0.0010860887941850747, 0.020978695298707647, 0.013022811422310597, -0.0018735667499794207, 0.005239249953960987, -0.0033170772735247236, 0.004847355573141391, -0.014797070344211275, 0.003412106224326605, 0.009071718856584256, -0.004827336877218623, -0.015971559756943542, -0.012840276919776884, -0.0104135878905811, -0.004265869363608097, -0.0005900416534122994, -0.01014096719612432, 0.011320166387953953, 0.01729869910765858, -0.00746281734952639, 0.0029629764314643143, 0.0038146248945627073, 0.002716952426596698, 0.006128007071718228, -0.011002672051529454], [0.005802869816979801, -0.0005301658805920047, -0.00019197711203886318, -0.008378920118603509, -0.005102175872761556, 0.0005032318775573038, 0.00034129810904510245, 0.005095143658706472, 0.008344993509911532, 0.0024022355881258874, -0.00750244790748452, 0.015145462335068452, -0.0037287141737049547, 0.027872295625579798, 0.010776961475732738, 0.020179075106283962, 0.012406877570596343, 0.004729786484571815, -0.010123618567392892, 0.010432128121422439, 0.006651428340408701, 0.008296139513183972, 0.0075532869108067505, -0.023065901415697896, -0.013869753251387817, 0.009086969551860294, 0.010921519062248863, -0.005344183252386701, -0.0038446220046749087, -0.010240560264657913, 0.0015684418739087568, 0.0032520517091093972, 0.0036898793888677497, -0.011620038911609468, 0.0011790412381298089, 0.009004684517285222, 0.005686243763173118, 0.012117473568208921, 0.000658663139167291, -0.009744520677416348, 0.013686255178757524, -0.016555592003225098, -0.007394019038805596, 0.002013884930689761, -0.021743809566325514, -0.010138474115783575, -0.019170982437433058, -0.004212227208297111, -0.015536341862888816, -0.01220645437581243, -0.01602015318654864, -0.007409440991629298, -0.011545404162187595, 0.003154959730683609, 0.004727878338414147, -0.0058357869572277605, -0.0005462345825685714, 0.005832610939528127, 0.005131924808395296, -0.0031998546623017133, 0.0024354721656646185, -0.004594212531728144, -0.0008846432378430876, 0.003696264655327656, 0.00538359773875827, -0.011993563805245019, 0.016027216323609986, 0.00011082555500407885, -0.011460189513614468, 0.006704600184715977, 0.00600144295138806, 0.001909385759160835, -0.01043890015040014, -0.009655483153660263, -0.0024243225653673645, -0.006954152229288531, -0.0037886656495146193, -0.012152211037556732, 0.004164050898798185, 0.011751845397937976, 0.0037404556304984175, -0.01797463855023449, -0.0036086315703074204, 0.017813633386482047, 0.009284901921798405, 0.00912313944045696, -0.019010311157154715, 0.016621894015271057, -0.0021464261011097815, 0.003920484708200518, 0.011821409716929946, 0.0097070652651372, 0.016869047217705914, 0.0033492516363751055, -0.0073942168688246775, -0.013543559583033757, -0.0019115556021451338, -0.008240563626063208, -0.01476204411811349, -0.012525945990317295, 0.0007425485613104137, 0.012868261246159087, 0.01678204571996288, -0.02167709407116162, -0.006144155750749855, -8.1707016050386e-05, -0.009143923718748715, 0.0008442360062703785, 0.008258907909315575, 0.003264166305811328, -0.004997990666597327, -0.0028766096307737948, 0.014605330584202351, 0.010242432201664396, 0.022356210204525988, 0.00933450035723176, -0.007318245483877246, 0.01006586698110476, -0.0022456307228804007, 0.006603952301102198, -0.015869205635215988, 0.018966257692044564, 0.015111957980049147, -0.007851205035988204, -0.008002504760150339, -0.006864625598616328, -0.001034659197605526, 0.024633875816315393], [-0.006922964492761463, 0.0030317372509573908, -0.009585663621166907, -0.010993813688004237, 0.020863495753207326, -0.012355384218865062, -0.0199275177668252, -0.007151088152405428, -0.0074924871801832615, -0.0007612092593896959, 0.003495563483816503, -0.007723937273599422, 0.009254616717085313, -0.014107519248189074, 0.0008703058780891722, 0.006379975947361913, -0.009237892321265175, -0.0011134624630945995, -0.0119271052560305, 0.0046650490940400025, -0.011253649039493751, -0.007918735702681593, -0.0015518044434585615, 0.017244656114082, 0.004230775027130313, 0.003919844637881464, 0.00032393600313870743, 0.0014491314955649268, 0.0020610461540394908, -0.00044930782067618914, -0.018606274865699386, -0.0060857500941635875, -0.004457932507566715, -0.013303609712844243, -0.004295081809837616, -0.008759774989200966, -0.007642744199073693, -0.007282328012771854, 0.0022180582994704603, 0.00767382427575974, 0.018966994843632547, -0.002325942379594778, 0.0030717350716521286, -0.009026548450750536, -0.0002817331005025518, 0.0033393693873582844, -0.0014397382070754122, -0.021058217874868487, 0.010094416070606092, 0.004316762543312134, 0.015797853604120452, 0.0004907219453689758, 0.005236752728520874, 0.009454072989224778, 0.014453990072258062, -0.025285270768057786, -0.001655315208368741, -0.003289329132110897, -0.0025301333084338023, 1.971194470323707e-05, 0.006740263052524715, 0.0043365980186854565, 0.0016359972053291275, 0.008257073387886556, -7.14545888423947e-05, 0.007133597527993108, -0.004565746835614298, -0.00580845421475623, 0.01062976391733995, -0.00033374587599848223, 0.005844002172510827, -0.01163225402081884, 0.004545375360239178, 0.006808410916214789, -0.013056021471087656, -0.012922630772197494, 0.0022490023284038652, 0.002504514465078267, 0.020196504300483902, 0.01291876666596733, -0.006052199568678966, -0.0021629092253348287, -0.007496414873006806, -0.005104833081857141, 0.010556398498741905, -0.014716006347626539, 0.00524651546744141, -0.020751594481442356, 0.015981644675117004, 0.00197965870795063, 0.006629227248404591, -0.013691087193655464, 0.012712689397189558, 0.005933196035460596, -0.001576335032399722, 0.006941923482562966, -0.0029866252763409607, -0.004180977399514657, -0.0016671188254992894, -0.008818976192897773, 0.011006004368458585, -0.010398954460639754, 0.0010825702958074976, -0.012148704499025994, -0.008109355140841166, -0.007784815756128152, -0.007230353962172455, 0.013083360762989946, -0.006302486788423062, -0.006476374855689371, -0.012768597599705816, 0.0030362365798951487, -0.0002705363907748497, -0.004913245832968491, 0.0037533524305624, 0.00387069312747867, -0.016204311143882873, -0.003971504503994131, -0.004619057394933404, 0.011194442476812339, -0.018053810059397393, -0.0057341058368991105, -0.011136665734407927, 0.003641503070115756, 0.005088992331854661, 0.007572223309581614, -0.0039450558581842435, 0.00923055163801261], [1.0668135477435883e-05, 0.02559748336654562, 0.010013333974347475, 0.002371508811515198, -0.003677444399576262, 0.007733759078127672, -0.013398675477353612, 0.007305518134075661, -0.010970847626164588, -0.009884571479594047, 0.003600994869167562, 0.0020059338800518453, -0.004973569696675308, -0.0001566309715535403, 0.002696407540823677, 0.001752952308565821, 0.008613897989052604, 0.008663155348929433, 0.00453372876448235, -0.0022748234959059635, 0.016562299836906075, -0.0187540960026008, 0.008641546073849246, -0.0041911623291919905, -0.010150126122025685, 0.016219392997534166, 0.003624794012768453, 0.009410202380017735, 0.0055352383810806805, -0.006904994995145772, -0.0028854695677320795, 6.716954141893456e-06, 0.009120460234241299, 0.0016662118775714726, 0.014097253182713725, -0.007068997235830892, 0.010099304381458282, 0.015277509542735511, -0.027456665165076524, 0.012936005635211419, 0.004421807329342873, 0.004934321106310381, -0.018402720454092022, -0.0007502612051854342, -0.0025214350095973453, -0.013054722004311257, -0.006363981917038767, -0.015737835922606566, 0.0043745435974911, -0.00868155848262985, 0.010364380545607938, -0.008271555459098183, -0.0016862595710332754, -0.001649255908078355, -0.021991287296487725, 0.01113952314626929, -0.00870041991929634, -0.01027792371785217, 0.002416897557231748, -0.008544990781032774, -0.003947713075767539, 0.0018468329351830875, 0.005252483511829768, 0.00613340805304929, -0.01606615136970162, 0.01145073305880634, 0.0025882138585101976, -0.01620353569506129, 0.012876456916409243, 0.008787355484400503, -0.016224546077863305, -0.00489778830687657, 0.01305184005518468, 0.008251915445034837, 0.006910477090094557, 0.009739119802466997, 0.0013136653216013568, -0.008104981217098125, 0.0038638338746881415, -0.0193704953119139, 0.017607495436333335, 0.013831311588236044, -0.0013102842464458191, -0.005553694617697846, 0.0015777905759549894, -0.0011761674127234252, 0.009980510522234629, 0.0055568867306220685, -0.0049782011476627724, 0.014795680535298792, -0.00562576897986161, -0.02394911081234891, 0.00839263319128182, 0.005330549653599205, -0.009520025674100707, 0.010570327443790089, 0.006774864872399854, -0.012230911456759749, 0.00033842537987433023, 0.0012250431446984037, -0.014119584104133966, -0.0003565883569106166, -0.005802540524593357, -0.009402215917044005, -0.0020350024878245123, 0.026660339602971966, -0.013135849925057928, -0.0029181055638434275, 0.0006873728063164686, -0.014351396062303873, 0.028693139309898426, -0.00924073855086495, 0.006852677295291967, -0.005288148685396211, 0.012984186979085474, 0.0035776341921511146, 0.020393176345384244, 0.010928639234491081, 0.0001974871072577243, -0.01146116751452408, -0.007719659677479387, 0.007611395421953398, 0.002950309291320708, 0.001405228122645507, 0.003219278130357627, 0.010808553580880684, -0.005444747525984787, -0.011187614084548568], [0.01027602380739269, 0.005512690779992021, -0.00584434460896513, 0.004008235693274454, -0.014172242989443817, -0.004713927346150362, -0.00433623932122902, -0.003293209343634467, 0.0054823492747441485, 0.00837788597044898, 0.015738502007968416, 0.013661687995582074, -0.006261129211390894, -0.006306185584564529, -0.005457050170232842, -0.004964903937089663, 0.007623069237521421, -0.007774941934604816, -0.009809165052299127, -0.009067753525890603, -0.00567655946259268, 0.002809246294256111, 0.006822991242492054, -0.01570226827948428, -0.008550399191186189, 0.007015357977593939, 0.0039645792624289555, 0.0026716951207939, -0.005643167525713353, -0.007635422960796657, -0.010241770644883035, 0.004334198862563529, -0.004892102566174084, -0.0032078147643120223, -0.006223518793798886, -0.0004293131221943104, -0.016941682331753864, 0.020783945193621485, 0.010537059170664186, -0.016792616723309183, 0.009090422496908213, -0.0012012600823286819, 0.010722607673319673, -0.022104824361503073, -0.015109388572822778, 0.01603242990047908, -0.004793624904854613, 0.000824552944312457, 0.005461922752257597, -0.009475605024050692, -0.006899844317539088, -0.004778911569253648, 0.00016474906572815263, -0.0007248450993238349, -0.003907815412757442, -0.0032819717377027325, -0.0021689316137592273, 0.006519751380995958, -0.007647669147296563, 0.007238849055100866, 0.010848234911368881, -0.006012284200468632, -0.0034992820475703897, 0.00565625465180135, -0.00017251216869924166, 0.011044832213031751, -0.008242096727516662, -0.002460144249289346, 0.003569951262122806, 0.01077365789232386, -0.0015752280254140005, -0.0004997957431365444, 0.003276350637177557, 0.0020006611876892447, 0.0038076258564648893, -0.011395666752214121, -0.010124141617106158, -0.005999582490704222, 0.008145121412161688, 0.014127789577453647, -0.005075462360315863, 0.007682760633253174, -0.020148334026377956, -0.0025147657494552387, 0.01358411143014088, 0.0003628739758927553, -0.003077793809682668, -0.005319760012058721, 0.017053195528994515, -0.008952759741055647, 0.01159289911382708, 0.0013567976213738626, -0.005081127381738244, -0.008237135121133174, -0.009673021680614905, 0.018250983353728097, -0.010021610517049587, -0.0052350210204700435, 0.007368440161786613, 0.005177473937847367, 0.011630659415024436, 0.010536253508349776, -0.0024689563807701372, 0.008941101913025048, -0.020290182014551898, -0.004306923601436158, -0.010599567160846991, 0.018680873858161324, -0.01321103724015782, 0.000544916746681793, 0.01324762477281563, -0.005811936421911059, -0.003729446901788987, 0.008385176215609694, -0.0018867392010561883, 0.007367310429025066, -0.0034762814125235356, -0.00010057904318684824, -0.011239154245396286, 0.004748398614119984, -0.004940378907462793, 0.009539146345763964, -0.011920289688001906, -0.0020277336366694623, 0.02572577238128128, 0.004839460657373649, -0.017968945914240097, -0.0016718015396955724], [-0.005756056140651867, -0.008224763806566598, -0.012272773874298131, -0.009740504663527159, 0.00046769974568872124, -0.0021521427013096468, 0.011378905722147292, 0.0013868122892008571, 0.010641298283956284, 0.002245729208648375, 0.01381002453482655, 0.013229568654240964, 0.012369107707423548, -0.0208273365675391, -0.005265434981326079, -0.0023791803739352233, 0.008288258419497858, -0.009294072974885515, 0.0007068123496891068, 0.0012961612898012092, 0.003004159468843951, 0.008037968197757437, 0.013389150256790395, -0.016739929346619893, 0.0026776034545119326, -0.012109979440103119, -0.0009454739295182817, -0.0014909638330021914, -0.013875314397493612, -0.008505998266535244, -0.003943577273642345, 0.0014210666040768212, 0.0022156312792390737, 0.0015311886809164475, -0.008495234822873279, -0.01330355217245236, 0.011272235912634057, 0.008949370582627769, -0.01024498827606978, -0.000715400186869981, 0.005761618856197745, 0.007960498289473553, -0.016352855221672426, 0.011924955749228755, 0.005801418910296327, 0.0025510172141050536, 0.013141518392224287, 0.005618604899556637, 0.01056303251651699, 0.022036318143312954, 0.014267222667725201, 0.01779096645108032, -0.0011291283118999888, -0.0023326672829116464, -0.008429188184830842, 0.0012517369446149753, -0.00459443833447366, 0.000515418203420909, -0.0036383665729529664, 0.009978769939584055, 0.011427894179569539, 0.005567551954014469, -0.0015198078558231127, 0.0010148609463163847, 0.010930758800906834, -0.0005671923929348997, 0.009797856564889514, -0.011978519400568304, -0.009054965559808477, 0.0028960813566550965, -0.003883450671474273, -0.0059366374572545864, -0.002086773137036082, 0.0071201728311585935, -0.004273037158235537, -0.006813196448765649, -0.014067688782617533, -0.0007216004760371103, 0.0085472979234712, -0.006882363830951828, 0.009655673893229688, -0.009778637367029016, 0.0028423105704867523, -0.006325369496740699, 0.00811245101937017, -0.00040976090012928714, -0.0031388095335187663, -0.01901337485063621, 0.026226899528060607, -0.004887329407690923, -0.00604934992546201, 0.01039370202791347, 0.0009783504207026804, -0.008026635226244236, -0.0060505393756610385, -0.007112340349547677, -0.013034377212966857, 3.3890471560466495e-06, 0.013192778196923409, 0.007403229074878232, -0.003981895746245855, 0.017892423751043295, 0.009041066649700143, -0.000626132925840472, 0.013629459117584362, -0.0026020677200919214, 0.008048690269649154, -0.01058994508890766, 0.011683184596475158, -0.011560951339917504, 0.010054893601521588, -0.004273721843985865, 0.01710742392089922, 0.002654056234091201, -0.0029693177221368134, 0.00931366245450415, 0.01071905256577064, 0.0076581417174446074, 0.011615245029942437, 0.028732855053833693, -0.0012042945646692498, 0.010323076466002102, 0.012027373520449617, -0.012393442308458794, -0.0017185608392816887, 0.0073845597209057715, 0.018276790992470822, 0.0022729779647744012], [0.0023068032773187275, 0.0023673288796924046, 0.007465075068097149, -0.0038915819453793823, 0.007047124928467322, 0.021169611158292207, -0.006717184715503298, 0.004800698673726831, -0.009527710420921967, 0.003258128508337442, 0.0014233832721538373, 0.0029520878078403627, -0.0048428037201333745, 0.01700613790964263, -0.005167033793303778, 0.010840261104064214, 0.0016569964666310428, -0.01759111237856471, 0.007393368472499968, -0.011425191480593592, 0.0025515917115967236, 0.014062683494705804, -0.003479470370405866, 0.007813645166951249, -0.008541522249149905, -0.01554964584078017, -0.002208739262573868, 0.007941315161739928, 0.0011327314896162751, -0.0067793147764502295, -0.007256788554428314, -0.0005447025147598566, -0.0027901812660420236, 0.006081088252246799, 0.004755214782039487, -0.00935675855814211, -0.006218226841788553, 0.003998367642368485, -0.007674731898452797, 0.002772832708263249, -0.008425680234148516, 0.0018257874775377781, 0.002948587291967926, -0.01623886960592551, -0.01003599200845882, 0.013883859909993721, 0.001378454488419256, -0.005303968159570893, -0.004604609981103749, -0.005031988121117496, 0.003580322112374749, -0.003625819302586695, 0.004144509172272176, 0.00014706710016289124, 0.0007014599750452743, 0.019617498872903292, 0.00745162303632171, 0.005529965602652758, 0.015554565739367707, 0.0021642784136754515, -0.00218028795845334, 0.021828631535067942, 0.006686721167341831, -0.02161477689508364, -0.01125312635547106, -0.017435087762116497, -0.01168309437875334, 0.0024103212348636645, -0.01969297192786937, -0.012541424423492252, 0.00966006565771122, -0.024613290792789056, -0.002564616370562388, 0.012203883664365648, 0.013022555997474983, -0.0026295130755150586, 0.004927560411628555, -0.008114111440384009, -0.015212543541116084, 0.004466554503765648, 0.003026673390255857, 0.002185181034240647, -0.0037929591864580615, 0.0022602998963424797, -0.014503578257524156, -0.012054080606060467, 0.023000436170522182, -0.0030529358197636546, -0.0036089300063627547, -0.011693843539747915, 0.0073910956646830814, 0.00037606360849763373, 0.004381463042706967, -0.0045577462433695455, -0.004064014737295811, -0.0019003359608802085, 0.013961161051266636, -0.013473333513871154, -0.013190344048387424, 0.0007915350184996504, 0.004229775531943237, -0.003047837038523094, 0.0007910633262387372, 0.013851477142882866, 0.003738594273265622, -0.013346353331759066, 0.00628001994442301, -0.004108639670139378, 0.0038404463713982906, -0.005168137461003912, -0.0024508441915107415, 0.02083420688652639, 0.0022920540423919306, 0.008959225413772845, -0.0027246946341734734, -0.0072561992640066495, -0.007168628923882569, 0.001126535581850569, -0.002092401704695223, 0.013665236570240862, -0.0033598071969866616, 0.004966413940964747, -0.0028803050627627504, -0.010471228268883848, 0.0089669671039114, 0.017834794765139654, 0.0017063368866584033, 0.0012238175388865824], [-0.0059925775170206405, -0.010200419585769126, -0.005212728015168421, 0.006052178542744609, -0.010998811519653437, -0.011269971893515163, 0.0039877485654458075, -0.006200434162364577, -0.02049258096658929, 0.014918075880263946, -0.011704867483679259, 0.00048488587933909677, 0.005563757183443731, 0.010342113096502634, 0.002118845002888952, 0.00277815626750467, 0.013336414106728919, -0.007005701334433133, 0.007151597074765329, 0.00222371438128819, -0.004344645409831636, 0.009075185687696316, -0.007945395574014942, 0.008004592533190465, -0.00584017863336468, 0.012869148932181766, 0.021857468437372265, -0.001007487946865342, 0.006378024104470095, -0.0010372440429113627, -0.007167701922403042, 0.005478510894607704, -0.006895633433919038, 0.008472191622444294, -0.0013450073307500067, -0.002556105494194234, -0.021148264635294286, 0.008980259937010876, 0.009829302407968709, 0.025455891230012313, -0.012191900619061159, -0.00731554319676247, 0.008916768279219238, 0.004347705038446648, 0.0038518229422156917, 0.012914746670807326, 0.0012332671609029179, 0.0046781221966881534, -0.001743970589567751, 0.005393447370424144, 0.007610563732233881, -0.012715868822173121, -0.023869233185110347, 0.016564690593676185, -0.006895475897220845, 0.0006707568512665064, 0.01434805593950211, 0.0009300652819358267, -0.008616264718706208, -0.0051146226008405874, -0.0046365274492941025, -0.01036020654678872, 0.030683232974022402, -0.01049949689352366, 0.0023144640761477943, -0.0015163007847554027, 0.002563710281356236, 0.010528315595836663, -0.0012896818710320583, 0.010556354951857694, -0.007042110542483596, -0.009255770578356857, -0.013187496715494405, -0.01189538939599974, 0.015038469060834368, -0.010078679696308318, 0.00868783913024272, 0.001969198070895525, 0.009249599623615476, 0.009896892760100428, 0.014140167774571031, -0.020278417256702312, 0.005741919522857027, 0.0005349803167793679, 0.016544568812569334, -0.0034785613661971844, 0.005502890105957135, 0.008820116481809973, 0.004476634511800278, -8.29698839758566e-05, -0.00946964035978306, 0.006731556323243475, -0.002985944038068957, -0.010765532917170495, 0.0034585554268927537, 0.005863069301584474, -0.007829475318949154, 0.005095464374558705, 0.0027026988674538656, 0.004834833185418168, -0.013185255075207578, 0.0028988242262086767, 0.003837128063722508, -0.012930560091600209, 0.004764263839721887, 0.0012829079201830589, -0.011255893898466823, 0.010279230568170126, 0.016329470375693576, -0.0199410586655958, 0.01856457746229511, -0.006185344000998163, 0.015367150957511972, -0.020435681597972634, 0.0037066730928280813, -0.02269309259536228, 0.002147011292081746, 0.004094253705502675, -0.018501917221126266, 0.02653488876409042, -0.0036561243105761184, -0.001875400271308349, -0.0016475766421309697, 0.005611540804432082, -0.005339323744034868, -0.016462675648464986, 0.004020738396732064, -0.007175525250312142], [0.01827491038762275, 0.01948974187282878, -0.01296878531153269, -0.012880859793026736, 0.021718478197313283, -0.0003503810330101641, 0.012480728052181632, -0.004530987663220309, -0.008957854503525528, 0.000945420029489717, -0.008443702005475997, 0.011353265596299162, -0.007484115409213185, -0.015137659564851157, -0.005517102798160896, -0.008153490839657367, 0.0007124249701342602, 0.0027089855137146456, 0.0075575713734752125, -0.0070831773826366224, 0.0027839606303319067, -0.0063877252061193416, -0.00331392479266778, 0.004254870880413536, -0.00530082244663541, 0.01356964020991746, -0.0033488335581560577, 0.0011238326969024884, 0.010006575324124207, 0.0029184835081647654, -0.009469116826140656, 0.0010013582571423635, 0.017270224401952042, 0.009977378063448184, 0.006263637485324273, -0.008500325550638474, 0.015607274215921264, 0.0006442385465804556, -0.009575618051902194, 0.003948882713229567, -0.014881104683353958, -0.005582065902603995, 0.008136209946558138, -0.014943273042779275, 0.026392168008638726, 0.005626654648607381, 0.010868376616643194, -0.006936851835796667, -0.010050924400254223, 0.016282861941010692, -0.005660744010693478, -0.003907439258153047, -0.009170277879690084, -0.003810128512998181, -0.0013452322163474224, -0.013851406999706085, 