{"type": "sequential", "layers": [{"type": "dense", "biases": [[0.00027300810946433146, 9.758490590606297e-06, 0.00041334761931334323, 0.0003881174906924309, 0.00027372325775621077, 0.000281860752095178, 4.5162347020986666e-05, 0.0004055819030001611, 0.00031899433694912167, -8.268587920187044e-05, -0.00032921223539192606, 0.0002713163473704658, 7.916839430675183e-05, 0.00043112703197874117, 0.0006976962531375243, -1.753400386886527e-05, 0.00047662429935324075, -0.00010946774995773964, 0.0003063263015781792, 9.525768978519501e-05, -0.00011871628837093985, 0.00022529506873445894, 0.0002700531620963208, 5.563116311116832e-05, 3.2795238636976696e-05, -0.0002783050635036442, 1.1578956924878912e-06, 1.4768933049329404e-05, 0.00019113756864157336, 2.577893951787955e-07, 0.00031346141415039867, 8.063510425441022e-05, 8.477269525054823e-05, 0.00014117885296475527, -0.00030153731801190137, -0.00020378308451433707, 5.120807922880918e-05, -0.00011629766117978237, 0.00015382202486547862, 2.5381144298833048e-05, 0.0007537997224759207, 8.729285412411532e-05, -0.00010587605040481048, 0.0003743644890872152, 0.0002899909751148388, -0.00043957508118048225, -0.0001827122580649408, 0.00018359733681181127, 0.00017015081587168024, 0.00015682275966189484, 0.00018176633717807337, 0.00028032957539003944, 0.00024395223631873105, 0.0003119374591271031, 0.00038565734154260564, 1.384717991313125e-05, 0.00042437575378560674, -1.7817441382902093e-05, 7.2758252600426765e-06, 0.00024214458020424472, -4.5040030839231216e-05, 0.0003100407725186928, -0.00022350320841767435, 0.00031526347570434243, -0.00016773408560982338, -0.0003414536036013012, 9.978040356822911e-05, 6.966442857407852e-05, 0.0005685989964316725, 0.00038152718944126253, -0.0004064585695721509, 0.0006285361490516852, -0.00010129755959107102, 0.00017067731308069287, 0.00035685255835468996, -0.0002262140766961658, -7.785218756676026e-05, 0.00030407237675785084, 4.808760173666505e-05, 2.8937038716852723e-05, 0.00015355856571955118, 0.0001118770774063197, 0.00040638100336758495, -4.2510860269404775e-05, -4.547299091510007e-05, 0.00019116300109890696, 9.384374839288585e-05, 9.257113907633436e-05, 0.00021730655769590723, 0.000215687202007481, 4.4990819668624906e-05, 5.3304341899742774e-05, -0.00018167285857051006, 0.00015225669044927794, 6.490159371566973e-05, 0.00010072603542538018, -1.1668983574834359e-05, 9.093670605884857e-05, 0.0002547177150528209, -0.00012750829326869627, 4.7412597451912324e-05, 9.673256471106356e-05, -0.00012675823896502697, -0.000312928409400073, -3.422345726931056e-05, 0.0002776986623747013, 0.0002076481106385945, 9.733271918332845e-05, 0.00026655686626905046, 1.3507372711529633e-05, 5.1095980456814876e-05, 0.0001845192340104155, 0.0001335560515701557, 1.4789616124256903e-05, 0.0002014563299872485, 0.0001958079252192654, 0.00020461250686587069, -0.00047219314150770094, -0.00015708017706669053, 0.00029097506158646023, -0.00025043983438076097, -4.255303626722644e-05, 7.902831727021957e-05, 0.00018969662567813535, -0.0002587151141237915, 0.00030589342497008013, -0.00015852191555910483, 6.604615880252522e-05]], "weights": [[0.01340894914999693, 0.007685866857329068, -0.011423603852867465, 0.017433554089805715, 0.017773765931440373, 0.0006169281439625486, 0.014030993367415074, 0.0021980662218296356, 5.68477572748678e-05, 0.017021399383627896, 0.009931667655470041, -0.01377061625629831, -0.010697355688972898, -0.0036253381941357917, -0.000737265717236634, -0.0007774613575740729, 0.004835437324364564, 0.017295655073571094, -0.013704257922924375, -0.006432629864017237, -0.01791560577524546, 0.0058752982039962445, 0.010740441767229705, -0.0021949959234349764, 0.012152024827968769, -0.002043708696308024, 0.012678192130252187, 0.008049058827524479, 0.0008654903836564854, -0.000191857661321332, -0.006627053130419592, -0.003731534458211097, -0.0005931218941320108, -0.0009808185839513938, 0.012973745838659534, -0.002632572952817312, -0.005773141422835817, -0.017301483781528886, 0.007472758764850409, 0.01264784391399344, -0.005361144527389282, 0.005320194822312759, 0.00842470519595303, -0.006214450260641125, -0.009231136634671509, 0.00040785570512369537, -0.00826828187658682, 0.005428054138948023, 0.012992334525144708, 0.008403301055802916, 0.020092446757770374, -0.007855595473316448, 0.006438706656116324, -0.002209109085155885, 0.016711071601731495, -0.006647570536415457, 0.004559397625647608, -0.01220222895942127, -0.016205924212176214, 0.012379688820646809, 0.01039768497384339, -0.011522591287655625, 0.0033500262197944113, -0.006632490759770577, 0.0033023295437937003, -0.0038770799945772962, 0.0035343471841730667, -0.005238145994292862, 0.022714336333849967, 0.004922558813828718, 0.00026330438864027454, 0.021911685769742856, -0.002742263587434859, 0.020253362194846438, 0.002422600807888071, 0.014904017556524785, -0.0015934289566184245, -0.008662736411719683, -0.003082398856286821, -0.0018743110038085217, -0.002933059648474975, -0.015379220795015126, -0.012806999111821777, -0.010380943201154761, 0.015539156535255937, 0.017447682296509323, -0.009128014550342236, 0.004432652844374078, -0.010034538023407818, -0.02627171519074592, -0.01563575164996662, 0.012093748443872659, 0.004314318718937251, -0.006500253734080018, 0.00010070618284567908, -0.008129830964096989, -0.004643086913224634, 0.012247111647216279, 0.0054162003402392755, 0.005850313434431943, -0.022630248382200444, -0.008323118490869951, 0.007072388979478105, -0.0032718762743572157, 0.006504824319187925, -0.009283163273423193, -0.013326815365418082, 0.004765091542094614, -0.002997933380025095, -0.014274847713441908, -0.008348647004390575, -0.013190321483958142, -0.004567317386565938, -0.008614427665031486, -0.011714679020132868, 0.002797110758615008, 0.0011006963163491023, 0.004128115262687636, 0.0018985056841786482, -0.007730084521070819, 0.002194366402200525, 0.014832969345134037, 9.954473384029861e-05, 0.007829640710641038, -0.004814785050987063, -0.0030661664011185515, 0.0038314790189761362, -0.0019085606723696958], [0.006883696578239979, 0.017203651062017215, 0.012555668117800131, -0.00011872031646290944, 0.00019961173325708058, -0.01330337008826404, 0.010720040864551821, -0.007894107239340368, -0.009554303754071337, 0.02955056843059129, 0.00487493336912068, 0.009876689809404388, 0.020560306341573086, 0.0034844473845276726, -0.013736120062591362, -0.0010313138590373658, 0.010077828101933256, 0.009568349229264762, -0.00291454999105708, -0.006683469495212682, -0.0004379341666752172, -0.006656566618968877, -0.005928030545290471, 0.0006412400021143299, -0.007958769546412009, -0.015791363130124084, 0.001704993560784849, -0.013054266405356243, 0.0006811258222055296, -0.004383121027737345, -0.0015232775475638553, -0.004771870388402515, -0.010154324952064813, 0.007884936628409493, -0.01115247272060854, 0.006512770527486563, -0.028585378649699344, -0.0013564086726681594, -0.002014575988439873, 0.02141929779691902, 0.008776971410244314, 0.00018363490841025965, 0.02083882732463632, 0.0029136116032250654, -0.024669827967574165, 0.02594446126178197, -0.016545932059470053, -0.009854794656454575, -0.002250950490190764, 0.014022329838297607, -0.010313568362521633, 0.01239471752988871, -0.010583168971941661, -0.004312350913049474, 0.013086730343042724, 0.010048080593115518, -0.006316059379491467, -0.01411196382233632, 0.0085965758793454, -0.0016640028906319093, -0.01173276704466241, 0.007625108966179056, -0.005513879403101448, -0.00461417960600023, 0.016803482526063417, -0.005975540115518877, 0.0036188705634662287, 0.002271376164449674, -0.004633521845414826, -0.008001058409394338, 0.009918657120932636, -0.011761673527729624, -0.000658023128213059, -0.006795873477464796, 0.01716284043147208, -0.011786289061608033, -0.01082615692237601, 0.009319286002709506, -0.0058414460130010604, -0.011570632871913369, -0.004122931466127812, 0.00866308395618129, 0.0031003265417036603, -0.0028403650184960316, 0.004997620389709981, 0.016198144596091268, 0.01913142051472387, 0.0012549826880199776, 0.0052180744433863715, -0.00432770120071762, 0.002830178868582232, -0.003726017167717033, 0.0007841906697062647, -0.0006303584537365737, 0.0011617030175790832, 0.009508929594915377, -0.009292330600585689, -0.023244771579044345, 0.001664833517584549, -0.014117144559189556, -0.006935676047299001, -0.013446570775148624, 0.007462819898235221, 0.000778535659258174, 0.01707031411066884, -0.014423945799220007, 0.0018824271959671213, 0.012733648152227106, 0.021468081372482586, -0.014637106409761727, 0.010514917651716098, -0.007391626085693979, -0.021026534959712993, -0.00627906045669575, 0.02176790433307352, -0.008128048575176176, -0.0118723629644765, -0.00044000239976816854, 0.019507404948292534, 0.007322366996193636, 0.004834263758526754, -0.019698924770339014, -0.008744432303057964, 0.004208202530248347, 0.003787172605444506, -0.009543463980141397, 0.008949018050989146, -0.003226197972384173], [0.008097057609748328, -0.007494907966963627, -0.00868129703544431, -0.007849591009450324, -0.000812459466071285, 0.0018468285943539593, 0.012973395464113462, -0.009019407229929001, -0.01016672287858427, 0.005652325318009453, 0.017740411672122838, -0.0009843019415701722, -0.014414165219608316, 0.00016069353712340855, -0.006523475330495991, 0.0027856047377431393, -0.011587882614854226, -0.001663070319844909, 0.006724354179827712, -0.002819017065423657, -0.015949739730904175, -0.005921767991814926, -0.013022662424020113, -0.0059085704093964474, 0.0017276658278700258, -0.005397841350756177, -0.008187180656248249, 0.0008588711956918565, 0.007235902923791392, 0.0027391037018384963, 0.008506290855088165, 0.016543865544070255, 0.00031928394895142765, -0.01477579438825217, 0.014972559168688272, 0.0020222814416645707, -0.000829386771649617, 0.007210348104535952, -0.005428277532490321, 0.0022397477536311608, -0.008447616126381164, -0.01888649722654566, 0.0013834089211282787, -0.010836747581158377, 0.01575349289705622, -0.011461508038355068, 0.0006943325735048678, 0.009204183946586687, -0.0016235065713651878, -0.018739831387641542, -0.013557573809289918, -0.025875243210437875, -0.005698290629877129, 0.009489003595446103, 0.00585298545018443, -0.0030283230192467846, -0.002927845023009585, -0.017093824149911802, 0.0029746206493040566, 0.011531981217742966, -0.0038675156522815254, -0.011048161492038322, 0.006379912405593224, -0.007858493167767546, 0.009453543849524897, 0.013095023116113935, -0.0040489735034390986, 0.0016670513143455742, -0.011083107433757245, 0.011726058910025566, 0.004114757216994559, 0.00607311034835558, 0.005648659180121442, -0.008213369554310027, 0.007646285076908989, -0.006130586647463775, -0.007368953212665449, 0.0009345427939633503, 0.008561790431220007, 0.013972581335536624, 0.00038537440314901424, -0.0005464840847195723, 0.02654007236755692, -0.0017751930704303493, 0.00010889538170692322, -0.004139495903141847, 0.013529934144507774, 0.011260800525417653, 0.015443515008349099, -0.00660578669624406, 0.012825577929226471, -0.0027647246651725135, 0.011915760535017939, -0.002110991871048198, 0.013682522479200307, -0.003252796903306785, -0.008098010215808726, 0.006527289241414067, 0.000986599223426226, 0.007723171199996677, -0.003649903446760892, 0.017787902893492025, -0.007198799758100523, -0.017867067866701003, 0.007075393642905984, 0.002138819641779948, 0.017148043349894934, -0.015146472093138954, -0.008825936037889425, 0.011349424638313422, -0.004939111347530891, -0.012578891052103578, -0.02260861258496644, 0.002329213775171202, 0.00753786063682953, 0.013945460344129551, -0.007654738136532142, -0.010080869787036517, -0.010559233123014208, 0.003864504174626707, -0.008907514397318331, -0.0018648129162400784, -0.014870835888732208, -0.002252338343981878, -0.007728115841411796, -0.006032189119767288, -0.0029660847436908146, 0.008201541334283522], [-0.0015756340607005698, 0.004541182265690189, -0.0009766929385772844, -0.011910944010046031, -0.008638775554114778, -0.02196960397195098, 0.011661539971915505, -0.006419903314737027, 0.0035928928248715403, -0.00435090751241217, -0.006055078624777737, 0.0008369049114839423, -0.002653739104120676, 0.02020756770130007, 0.004715227850192165, 0.0027482172178388267, -0.0021501371625623, -0.004382750008422174, -0.016890345406838238, -0.012174643994459926, -0.00398421372261432, 0.011432550494663666, -0.01334456716912658, 0.012976546299678598, -0.00020354613793710207, 0.006354501790439837, 0.006211633015025525, -0.012270019743236524, 0.003855297663554433, 0.009905231839432444, 0.0007612890029424664, -0.013495669243599134, -0.004323999074157779, -0.008073869313361378, 0.012114665951513146, 0.011300559862572397, -0.0034183174915295455, -0.0070082950502529185, 0.021888876025815733, 0.01038173727006762, -0.0040152912047298275, 0.0003613883661827111, -0.013236471133537073, 0.012619563878589684, 0.02589007742305484, 0.011442203431166713, 0.0068332575154121675, 0.018595709104494613, 7.220010293754e-05, 0.0063961082679833406, 0.0029504923494570222, -0.00331567341806688, 0.006534808318375608, -0.008300350406544633, -0.007385424756111714, -0.006282155027792377, 0.021262876204739847, 0.0005684810234035217, 0.012337235220202483, 0.011634164844415092, -0.002073656875168022, -0.01768022139003359, 0.010807610795489354, -0.0073286202278206305, -0.0012172593005687336, -0.008438875223021102, 0.0008048282163521311, 0.015449085290529586, 0.0019262539285340994, 0.0032968923628670923, 0.0005272929125328684, 0.016982432307847645, 0.009736360488690574, 0.0013220126904835885, -0.01584946769809999, -0.014278514901071782, -0.0165203970722631, -0.011837532382384353, -0.007093627335732545, 0.001650403239059903, -0.022671452397298265, 0.010857111926477621, -0.002843251866360332, -0.0048908736225232044, -0.01455967957871279, 0.0022301407681264117, 0.012301955089726004, -0.005950281568860436, 0.0030253634110518337, 0.0016521796693346649, 0.007528807997358789, -0.0007141619304371259, -0.012278384525191342, 0.016778415398256332, 0.0022805404494855653, 0.009847033396038575, -0.002919058814963623, 0.001452288572409887, 0.02120841901439368, -0.0014937531819072866, 0.0035307827682296384, 0.003177075306619438, -0.018343430511327016, 0.008354089601140318, 0.005982417962886455, 0.004304596444506885, 0.017378002723021292, -0.0074097895382923135, 0.003438578386120586, -0.009318105906888573, 0.012317479115726416, 0.017656970759549005, 0.003673514129803014, -0.01769584458615533, 0.005570411180682533, 0.00956623725798935, -0.0011276994510705793, -0.0014282764825794695, -0.03387450218444847, -0.007299615396088882, 0.008962520527966474, 0.0006837700770724235, -0.0011153015730605348, 0.006793682351273342, 0.0012329799733141308, 0.012952167661865561, -0.005734538091623704, 0.013884507437913134], [-0.0003215330804373865, 0.010126440903202765, -0.005906164003367899, -0.011852752376183774, -0.005473015740003638, 0.001483531364921265, 0.02108318965327906, 0.012823541334803588, 0.0045987853074194365, 0.007645401131609375, -0.0006688092905743254, -0.012005926964609242, -0.0005684941592483635, -0.006393577663868334, -0.008168992892092008, 0.015512756969194436, 0.004881174956012623, -0.009470736018676543, 0.0006144772599984178, 0.015371713106245447, 0.031308463868519085, -0.004894395543923878, 0.0014908777622845283, 0.007002487644747451, -0.0071948096113623175, -0.004333746903260603, -0.005476273393910808, 0.015958387754465654, -0.008919486142334338, 0.0012672262039140458, 0.01430204909669934, -0.0055515797911136425, -0.01885494662591167, 0.0018262791358637643, 0.009656578854792198, -0.009465648574808777, 0.018517888369437213, 0.001918811513740349, -0.008006720605853525, -0.01961783521634829, 0.01958078378337722, 0.006842171341232327, 0.008912100549561094, -0.015766434353501804, -0.005280831595056268, 0.0005650021788617509, -0.01083299336570058, 0.005500553728051581, -0.008036124241360555, 0.004511267820299343, -0.011956152990849584, 0.006653719868191612, 0.007313954028455914, 0.003760306552816804, 0.0050579152955556855, 0.008547532766607883, -0.0034328292542277674, 0.004660390317120658, 0.00046554726509084106, 0.00731309954413044, -0.019013751388985395, 0.004126085191165646, 0.0056589806077762365, -0.003766181648106056, 0.011169405560104382, 0.0005814134143254109, 0.014485635158988746, -0.007535040880210985, 0.000497514968211539, 0.009924987893205308, -0.006277345259568784, 0.006446466721258345, 0.005619717973266282, 0.007612996126611129, 0.007697032103525702, 0.005911966387322453, 0.0022355080890729758, 5.211310551466264e-06, -0.011502475212860018, -0.00410545158272933, 0.003348786852222261, 0.025988286798587956, 0.01848926328242017, -0.003964130615391595, -0.002855775564943518, 0.0023229961096130933, 0.002020638471255727, -0.009653930480098405, 5.004305104111262e-05, -0.004616168617970147, 0.014718616116949235, 0.005695145808670726, -0.0010431373560749301, 0.008407230931404674, 0.007351849453962375, 0.006255840395456912, 0.0056737421486157315, -0.00331618355550974, 0.0022973943043194615, 0.001774515010276392, 0.007157921913589991, 0.02151868510715081, -0.011275091448582611, 0.011239574363152673, 0.005919819082009565, -0.0011028265256796082, 0.0039228882844795894, -0.00361924769575695, 0.02581785059255037, -0.006939841115650876, -0.009384953504761238, 0.01418990720549287, 0.0024178090156230132, -0.010704844254716064, 0.011357693719426229, 0.0072210886088159626, -0.009170956681120264, -0.002391107671790687, -0.0017188167668127261, 0.0007132316555527067, 0.004538667249893529, 0.015312566802688098, -0.005814402146229187, -0.01921369307217252, -0.012948034667500828, 0.0019170609985675999, 0.014310202009826254, -0.0017927105464370307], [0.005909967639846932, 0.002309624521526875, -0.008101845487709845, 0.0028119068175430167, -0.00487344091976383, 0.002111252823373261, 0.00971767733832988, -0.003043294164434474, 0.0063103715958197, -0.01493458194098976, -0.0019182413679878396, -0.0043493754972768, 0.00021057099250932504, -0.005865461598121846, 0.006352098845554333, -0.0015829227873246992, 0.024150989402598234, 0.013506479184230528, -0.00949128909051212, -0.014049386170075473, 0.004915365371961118, -0.0031711835612303254, 0.00653826456722238, 0.0006745755763086057, 0.020921392932705993, 0.010667506369384383, -0.019087710152425604, 0.0011962372872534584, 0.01781483814664785, -0.005355558288565032, -0.006574354504237623, -0.009829562479389714, -0.0038414800575636786, -0.005531961127907491, 0.005367712416060536, 0.00013000064660541755, -0.002603320823184841, -0.015416280489984153, -0.018463389926424788, 0.0010410576096647685, -0.009083128600473464, -0.004301865980780881, -0.015407552926731414, 0.0068561020418134435, -0.0048452448666316235, -0.004513764274071612, 0.0008088296437920687, 0.0016984217257110714, -0.014478424297128274, -0.016659382195179834, 0.003156638102810497, -0.0026926314602024972, -0.004645071827067802, 0.01855936006040263, 0.0030461881274277815, 0.00157532580357164, -0.00039600944435632155, -0.013028947282313479, -0.004412509952518486, 0.008167820173010579, -0.006147645365812935, 0.0057910858346945735, -0.010420492974829101, 0.0027520570436918245, 0.0034363652595629933, 0.008399292378762326, 0.005189632805165933, -0.013192163532077805, 0.015716732030638197, -0.0067987502724558, -0.009613721657405414, -0.006023214872136731, -0.0009189299569979856, 0.0030303914962307586, -0.018077802765639524, 0.013575011038400572, -0.011724944907904012, 2.1642759213969884e-05, 0.008299545505981266, 0.005625674702432285, -0.0029979194927740142, -0.010166043276081178, -0.013291086119054035, 0.0027437759459514413, -0.006369326276975622, -0.005996045574162341, -0.014745350569629896, 0.006302672048457544, -0.012572929579743201, -0.007576118521679754, -0.003529817698432527, -0.0019437818881453475, -0.012720866872311307, 0.005905152889854167, -0.009169350268957925, 0.0010421482808684345, -0.005654528268072346, 0.007528015898665898, -0.005401328562896766, 0.0031487422176870255, 0.0018153916696488671, 0.007558875183070495, 0.021703418430637306, 0.008944219726172452, -0.014322203120691074, 0.0037458294393368716, -0.005165299475615233, 0.0003387658087369696, -0.007587235065669769, 0.0015673175298933232, 0.0005302690839489548, -0.017854184900991523, -0.008782046406069858, 0.001755367116093222, 0.030788985281627945, -0.007183732511647405, -0.012017978551622253, -0.004723120732617646, 0.005991809573212781, 0.008567561025978087, 0.0031612744855905855, -0.0009596868346861518, 0.011145154991651193, 0.0014759058538904124, -0.022962704830942884, 0.000858147761464169, -0.003433213629519101, 0.002594826328109496], [0.023640607885716727, -0.003251031842485322, -0.0016113982473203584, 0.001977130179518516, -0.008984445285076038, -0.004068712581201624, -0.013187268687219556, -0.003951131693151719, -0.0074696058328114455, 0.008499070542949065, 0.0020980519726394435, -0.0011179169862400417, -0.005400235913556507, -0.025342318892948128, -0.009915630719062478, 0.0028161987825310116, -0.0005655798365892132, 0.005949007372375728, -0.0014889162430460803, -0.009079345692572481, -0.010575528813664511, 0.0012597918235503084, -0.018919996223513758, -0.03287328311421555, -0.01714979143919516, 0.010295844167883617, -0.0035082965066555285, 0.00599583105836224, -0.01764891171365965, 0.024292254776455708, -0.0025776125938985956, -0.004067069728259298, 0.006954007584266253, 0.01814949059191552, -0.004289674234116996, 0.003535623075614766, 0.012819614817915761, 0.01743197462222425, 0.004660948813109051, 0.010922435292337497, -0.0080329895901571, -0.0009465316417090598, 0.000323374977931955, -0.006951022417221643, 0.006871525818162486, -0.0029392959909948137, -0.005349240751039752, 0.011077005428136286, 0.0007762013929099403, -0.002560448317250381, 0.007450428044713115, 0.010054908099895534, -0.01110223015499687, -0.004616019426996055, -0.0045179583563206985, -0.008049613030487974, -0.005127737823302534, 0.009858220896324286, 0.004130622146323535, -0.004890060486285803, 0.0007546766853371693, -0.014155650914779435, 0.018485668498613977, 0.010436690453627486, 0.0018274379603950195, -0.01036210354418877, -0.003264575966891479, -0.009758198145306153, 0.006524169655240485, -0.013986236728346976, -0.010477120789810222, 0.008887283096271622, 0.011334954976596477, -0.005076092668987877, -0.0038319275885410494, 0.009931248473871846, -0.007846402295709647, -0.017046614966413035, -0.006950820239090537, 0.003368640639267615, -0.012950719498854636, 0.012579238746613035, -0.00023533229480066596, -0.019914704025367016, -0.01765386881059506, 0.011879655489592217, 0.013613655625815886, -0.01071888368116009, 0.010107285962170736, -0.004309105771091189, 0.007933177053675912, -0.009138616591769708, 0.0019137609241617248, -0.004848625644337649, 0.0014501921523597894, 0.007305567794570437, -0.011425224385106843, -0.012532579745526445, 0.015298718405291512, -0.005757180483470707, -0.013331444489166056, 0.003770137076674287, -0.009731662159520888, -0.009652530787941099, 0.0030872150206264167, -0.0065560660045027985, 0.021213971320926124, 0.015404300413814707, 0.01771125335926907, -0.009959094556762643, -0.0020086419239912206, -0.008240821043394133, 0.010263952566542136, 0.012584300379324809, -0.018652722316483926, -0.009509939450727234, 0.00419837806395519, 0.008099721775589935, 0.00017021907398965676, -0.014043478412549104, -0.019268727902686595, -0.009223353179760857, -0.002568778884509309, -0.0019344445817284616, 0.0036275280103278498, 0.013490368249428076, 0.0006448273742857602, 0.002642907873325559], [0.010591642515838686, 0.006542254915826626, 0.0010862059146848483, 0.017949647606469887, -0.016820264948129528, -0.008659355944036174, -0.001886099725479592, -0.004560567322094681, 0.005259643582734131, 0.005412420443131948, -0.0056663345436710685, -0.005969956255722483, 0.006433894874121118, -0.006591011737078399, -0.003095800324658371, 0.0077878904224484525, -0.01609431618758935, 0.008478324580257211, 0.008545257767298128, -0.004354487878421424, 0.011200553295510904, 0.01717567264858107, 0.021714786429161085, 0.007923485530879635, -0.0009255864382401434, 0.011084757044747838, 0.004499348983516756, 0.005398869031123641, -0.0011785810639667364, 0.021334376107471537, -0.010341505072907337, 0.005900485089419259, 0.014129433675276517, 0.012381757142739615, -0.012330198200713327, -0.003729307043677331, 0.007337340035205265, -0.00921183595182235, -0.003526423209258564, -0.001454774186159201, 0.007965185008807689, -0.002621215274956105, 0.006835771249662113, -0.008631088436823765, -0.0018655395421403108, -0.024503649242569175, 0.0013265261774756463, 0.0183052382442231, -0.006064997895354482, 0.006120291359345945, 0.0016036093904801979, 0.0037671367883308055, 0.0049953110292624515, 0.007761240922526307, 0.030247623150660544, 0.00029442567545660613, 0.019346059735656777, -0.00236810954147452, -0.01663079990429831, 0.0048225651751826895, 0.006907926396489359, -0.0017351775140556915, 0.011941297836399816, 0.008863386209788365, 0.019255069782949455, -0.003458605478771258, 0.004558915339403301, -0.01685824998595306, 0.005530358677777176, -0.011609144913921152, -0.0031256307836989095, -0.015190770681503707, 0.010042610788115669, -4.9795231307032034e-05, -0.011127247359916236, 0.008769585609679822, 0.00130425274703046, 0.009163411670403217, 0.005678370141030351, 0.007520428452567719, -0.007098429608793535, 0.006599122385650396, 0.0019265819015248356, -0.002176530578534152, 0.013147621024255228, -0.011750496554479224, 0.007700362395458532, 0.005392606252060602, 0.020015777338574434, 0.015051958246562759, -0.029164379315848695, 0.0015120617944329728, 0.0003883443885161072, 0.011120981926963995, 0.0050853439928453025, 0.003934839344966275, 0.0016071797754727364, 0.011841747714276296, -3.2856203509404016e-05, -0.005541993675353229, -0.019743277906856094, 0.009676377681038576, -0.011359871115116214, 0.0025415357873697962, 0.002933632795624805, -0.007564145351192714, 0.001744433991525495, -0.005327473323534411, -0.002651759844799752, -0.004280373093407481, 0.0068244375342161115, -0.004181141437426405, -0.03159341855031249, -0.0091436548237512, 0.0021752709009904255, 0.007755378410035353, -0.008168294508602075, -0.018574209310202018, 0.010756527553823555, -0.01756695998909543, 0.006173070399862386, 0.008934178038005718, -0.0007011139918365193, -0.002231322589015725, -0.0169617022445153, -0.0020068568406904665, -0.0032006846712735243, -0.0035165988181135592], [0.0005835669900049586, 0.001200994865709428, -0.011513506810559706, -0.0018288071895538865, 0.01511994671524916, 0.006819005758244222, 0.003994424461808745, 0.0007148985828684752, 0.00047895900464830935, -0.012422933174573715, 0.0020609188099015704, -0.0012381976085415647, -0.008178535600865088, -0.005699515215008638, 0.01194947817295418, 0.011926914419673243, -0.010268535632393213, -0.012589544562622453, 0.016303716831888547, -0.008934672315870985, 0.014516597762023294, 0.003621855896521987, 0.011047939711340986, 0.007468338509502089, -0.0001492050639547377, 0.011240136767230846, 0.002894139990529268, -0.00980721550584923, 0.0011330362498220728, 0.005243345548110872, -0.0027653434909319, 0.01917510541764781, 0.01941700049180783, -0.02642587494497333, -0.006901300648353825, 0.014883220741740049, 0.0011129574475400457, 0.0062067557646196085, -0.0010262741253248883, -0.002017298849593153, -0.014460491183334662, -0.0063350740538445, 0.020242189231890723, 0.006808730533141225, -0.022833067650240783, -0.008757592542572433, -0.002017413800887665, 0.010115102814145236, 0.0015444244780856591, -0.008734993761714334, 0.00032129783108885687, 0.003590985027652248, 0.001596822975905122, -0.004163657441903686, -0.0007353641353768207, -0.012000853392364648, 0.020987745594121067, 0.004357505669692683, 0.0017977071325144184, 0.011615324023849679, -0.0029363656957311552, -0.013220726204628835, 0.00024865809804056695, 0.008149910097252116, 0.014783907518622484, -0.01290574755143901, 0.018503015802448168, 0.0026821117541781783, 0.020852557595830795, 0.010608419957785293, -0.012465855593301886, 0.006024495533075039, 0.01469247823240649, -0.0072144186943313175, -0.0076551059464750396, 0.009182764260623557, -0.002760164442227001, 0.014306431240427917, -0.003097806694661825, 0.011470184363513618, 0.016584434078818436, 0.00536738058225991, -0.016096505985001917, 0.001843993524547339, -0.012103469284139681, -0.0011595537195034312, -0.012439136153406288, -0.0009051216234110779, 0.008116774422265733, -0.004230788399542975, -0.011114584786916988, -0.0026727193389125005, -0.006094229551130385, 0.011066645790952548, 0.020549326591796275, 0.005061322714798642, -0.015333354239527171, 0.01241612738189374, 0.006801009147380875, 0.006555832206579825, 0.009768684975744095, -0.011221854204639989, -0.011233169245416353, 0.010632403157881403, 0.003690867445151255, 0.01454935318966355, 0.005202400499009932, 0.0025422100099685547, -0.008640256424360669, 0.003121304512676305, 0.0070436122594802735, 0.008478117554464764, -0.023792422336599953, -0.016317586316121506, -0.003701759393988806, 0.006510555559376668, 0.003950434360759207, -0.004994161160586728, 0.0012416238509540406, -0.012708671988002714, 0.0026720533645468955, 0.009203013014457856, 0.0006944822841151583, 0.009494546606991169, -0.0012970553259208332, 0.001476925156394759, -0.014194379628158693, 0.016845708470778948], [-0.004225754810849384, 0.011279383355808305, -0.01254704808958574, 0.007731589806277116, -0.01619040644809215, -0.002911311048910121, 0.009177497089446264, 0.0008818400393255409, 0.008843917148646517, -0.0043306381281024405, 0.008202097576159443, -0.009887355150702241, 0.002180027241485095, -0.011463703931811986, 0.009426729902033852, -0.007378688304017531, 0.010070071840514316, 0.01777357352447578, -0.014365086762002906, 0.000804045242091436, -0.0032013720762367466, -0.0013714137507362288, 0.006203234578064542, -0.00047410986873125356, -0.010574584822461557, 0.005255499591437792, 0.0019519681057250026, 0.009122272460133054, -0.007142005580749641, -0.006951386932128596, 0.004235865544804327, -0.00295263115855671, 0.004917168435224461, 0.007056505055693384, 0.005007402184022957, -0.004084011456820257, 0.008326653648594827, 0.003153616095582703, -0.0025634628329591442, -0.004366447755051834, 0.0030184816485968632, -0.004586518192083325, -0.012454763761886076, -0.0184717365590167, -0.016041359884842156, -0.0026383279057424196, -0.010748345425651286, 0.0016098834927670172, 0.011577787444163979, -0.0012869138682038315, 0.0015555230764132389, 0.0028953159454470473, -0.009172423832021227, 0.005676972152778041, -0.011280485224750616, 0.008804656976572933, -0.007404112652139649, -0.00030448484541622796, 0.0010881800088797457, 0.006221111674923311, 0.016814361827871657, 0.003602965111949053, 0.005625426458438133, -0.008324673430538783, 0.006392102983384388, -0.001250062931534075, -0.009059393668580563, -0.0008663383585921419, 0.006066565275652057, 4.9278570397500566e-05, -0.012927492432102356, -0.003984953521186804, 0.018873318020149802, -0.0023678539271378704, -0.0008827278370559311, -0.01609585813584233, -0.004777693031122257, 0.007237805808678173, 0.0075051243117036865, 0.00021995789951148703, 0.007639416015266812, -0.010025229984800802, 0.008545349564339482, -0.001757554712105124, -0.021472159009091638, -0.009758436195499492, 0.00238756035545465, -0.005221517613790712, -0.019311825868063105, -0.013261701559973558, -0.0063017622170100695, -0.0021178686068834525, -0.0009696497931303249, 0.0062595335151772605, -0.0035008226490258025, -0.0037652717490605525, -0.014841048947920822, 0.009594925233241835, 0.014845283553191424, 0.002043744923784231, 0.01509931449980717, 0.00628197050116548, 0.011585194815270426, -0.004151285931262714, -0.0038824971704136788, 0.0035106877103272915, 0.006358547964028398, 0.0016724211913604968, 0.013555461825796629, -0.0013386741241945288, -0.0027547608349010374, -0.0019824760571406684, 0.00995474799530034, 0.011268418500349398, 0.01179218694990225, -0.012644655548449494, -0.007358156354392834, 0.009866689107380784, 0.016439007298747817, -0.00012032696206024863, -0.002769432465517617, -0.013089749577251435, 0.010539739095516157, -0.012878205582029635, -0.0033600488939630273, -0.010375782573631951, 0.000977241885676464, -0.007471594045063795], [0.010436983065682337, -0.006352191357420557, 0.013943496966096754, 0.0026352313379966992, 0.0024503107685739742, -0.00384668522241432, -0.0006692921785753181, -0.007552116237125216, -0.007532749104785985, 0.0034460859106785024, 0.015040098589112982, 0.004390319096786424, -0.012120476970702348, -0.0012078244216687118, -0.005246606438331696, 0.006261304898058316, -0.0167897078466104, -0.00024163766273398055, 0.001201523801839844, -0.009501911102247209, -0.001382552854435066, 0.016008672283486344, -0.0005083306024344392, 0.007225959563393688, 0.006954083918999268, -0.0068350328254392695, 0.007776454501638595, 0.0028605036086730602, -0.006067990874576948, 0.014252598616405168, -0.009102167359631935, -0.0038905599582941997, 0.007977589652479584, -0.031905358306083695, -0.012249380100536136, 0.004265072789442257, -0.0047189832175315435, 0.006783369665767793, -0.004838265847761386, -0.0009514679057078015, 0.003831927138528993, -0.0073477004273671724, 0.002875641600057748, -0.005829117018344004, -0.005923512785494166, 0.006814379999754983, -0.00213899490413375, -0.0009346620884803893, 0.00561975942126713, 0.00665147581381081, 0.0049580343898756865, 0.00549113736720646, -0.0037071636700419662, -0.01568476852106531, -0.002236164001980864, 0.0038147033092030265, 0.004098594799616839, 0.005925052587302074, 0.003481658730220832, -0.007896637804754962, -0.009266733100652512, -0.006028923887310374, 0.0027116631405575114, -0.0023835547481689395, 0.011353306075328829, 0.01138399474852763, -0.0029903609860898244, 0.008659048019749708, -0.0003937673197036254, -0.000613421270634777, 0.01536904768525008, 0.013419451728689018, 0.01487925871495502, -0.0013719669944504437, 0.004666939195084708, -0.0024812585566379654, 0.003477797912404549, -0.010105246768508163, 0.0027996410687543484, -0.01392827133426955, 0.007373991434384143, 0.0008079157579415565, -0.019941290244593984, -0.006498551059840645, -0.013639049651661943, 0.008704562457862343, -0.005278329644887685, -0.01469098595976922, -0.019681955387241882, 0.011987443607724666, 0.01119966490703646, 0.008194101483418315, -0.0004120017495290113, -0.013470221121601386, 0.0062939316888978745, 0.0020733523062164954, 0.006968413784832389, 0.0009963110140339371, 0.022000060093870576, -0.016289097926604424, 0.01031919109136154, -0.0035868056866928157, -0.0028685764701007798, 0.00162226283350584, 0.00534844075441801, 0.010372180695969855, -0.013861279955945839, -0.02611700032076985, -0.00669836461179979, 0.01074984895092682, 0.00019412521452540435, -0.007529724365488547, -0.008087898928293678, -0.0096502413201008, -0.0040349209331976875, -0.001867034694331137, -0.001722845036076681, 0.021753440564332746, 0.01152689231964825, 0.003203415084731346, -0.005058023397003625, 0.0037531115800069305, -0.0018197530602977205, -0.0077051254595581495, -0.01549302187271789, -0.005212781608088353, -0.004104556866672037, -0.0005754885097812744], [-0.0013252162552963383, 0.0028755137928187873, -0.001261373964160636, 0.0052743621782071134, -0.006892006849953342, 0.005338957616680931, 0.0034954908478373194, 0.009190400862644306, -0.0025557431671694927, 0.005639227283709885, -0.0008237014055685769, 0.0014431786556949467, 0.001295669237889832, -0.002872419030010937, -0.00816134038925388, -0.011938883263260456, -0.005872595949359931, 0.006715023461417129, 0.012576092211685291, 0.0035148485904711656, 0.004689785437177595, 0.030240485201424624, 0.004052785915779115, -0.015736046940671617, -0.024223323742131625, -0.010668855719097977, 0.012108559839731584, 0.0029140421888032815, 0.010026786954167068, -0.0093929936153402, -0.01460222188514861, 0.0237044752370755, 0.015543744327854157, -0.00541676828949241, -0.002404661110367135, 0.007581756141098623, 0.009302436566700717, -0.005411351214746137, 0.005034182106598609, -0.0005625898449214808, -0.010828151011104119, -0.01453113618895195, 0.006075586908578827, 0.022606307087402626, -0.026888608255169685, -0.013771742948505765, -0.008400233164849946, 0.0033357344095723837, 0.0067845178604810374, 0.01003555421937544, 0.0012552245024139662, -0.006588831561055081, 0.0017807070859930847, 0.012680682329386772, -0.002682852466338075, 0.011948075377565261, 0.0011460046745200249, 0.002960790674315534, -0.009812119053961219, 0.009653644785324673, -0.004118111463240613, 0.0056551934149099824, 0.00925533926534904, 0.004875419388254972, -0.005841423317301814, 0.006529164966322161, 0.003805532667433013, 0.008186681952864455, 0.011506622470713272, -0.005976634784999125, 0.022583429004346105, -0.0022949344558855387, 0.010866065777943244, 0.018426331654800548, 0.007140205161418979, -0.010873554408946029, -0.0034513624403083717, -0.010890777705960837, -0.004222670546124934, -0.007659603885976485, -0.020724695642739207, 0.005514117131384967, 0.009551086126125945, -0.007171502709198399, -0.006009355201090083, -0.00174306331358913, 0.0075998890608899175, -0.018457036074260937, 0.005134708580352498, 0.017184967555980476, -0.009449396779266418, 0.0021790370260958308, -0.004136287897867213, 0.00019623542601728884, 0.009076772386063501, -0.004030869358910458, 0.006880456943560692, 0.0018304484677530558, -0.00026162018313221773, -0.008237898458149314, 0.0059429970848996405, 0.001157111424304758, -0.003785161650259308, 0.0013512399559680874, 0.005214145055645358, 0.009461695586947665, -0.010113321038560639, 0.03089604032303383, -0.000823100316770741, 0.01498327219276962, -0.0029493151344376664, 0.0010050887570845807, 0.01572674045380165, -0.0022711991825425304, -0.004013811951264184, 0.0034935565841888784, -0.004805430881744441, 0.01812109268919311, 0.006821602000699825, 0.016568097144694746, 0.01135666082959013, -0.0031480566779681584, -0.006173881884516388, 0.01722225428366104, -0.011543585397605367, 0.0010369382314980437, -0.0026048086213706053, 0.008375166039188912], [0.005609967466094902, 0.01863291334945023, -0.004122178425154358, -0.0014725329703933377, -0.0034220208670178013, -0.004474051395868815, 0.009978905695379438, -0.007866654807830734, -0.001726250783540302, 0.023153483563037824, 0.0019945025205142268, -0.009351607481842123, -0.020888240638862174, -0.0071659876904025845, 0.0045020408564893505, -0.014253836133360537, -0.0035652022192849296, -0.004008432228232558, 0.008984673361523813, 0.02564686258646009, -0.014401622937147397, 0.0005819109233040189, -0.008456930680118551, -0.0004909060537149778, 0.012439093569284977, 0.0028525095354702775, -0.00760644440610281, -0.00864390764502124, 0.003907605945594443, -0.009609039939415216, 0.0054027542777179945, 0.00010037551622435254, -0.009176420532464608, 0.004467437433236278, 0.003659808828730072, 0.0027920269688442518, 0.004974308560296784, 0.013138517283030397, -0.013770846154800674, -0.0034604028653469434, 0.006780545615142093, 0.014794188228444569, -0.0029324806098983947, 0.013010670522448817, -0.016673530328685036, 0.005688514884309512, -0.009352347093042774, 0.006547988648462351, 0.009042448204377131, 0.00037236157926090046, 0.003519545648870816, 0.006067041662089783, -0.009916787828859077, 0.02209056435041353, -0.009072068352200301, -0.0046123306038664295, 0.0001657800833986807, 0.012176263814595011, 4.6489255700356215e-05, -0.001527288730115767, -0.005841175299911653, 0.002924954934260837, 0.0016903407897635285, 0.006032498743484578, 0.000854160036222486, -0.01178966391242722, -0.005168526789711007, 0.012469084798806955, 0.02059263484246327, 0.020815342835046945, 0.024987902142521074, 0.004684947885395203, 0.010488706447842796, 0.0015472475235953438, 0.0020938498043773664, 0.0041767996897497835, 0.0003560480208665584, -0.010850043372048469, 0.010262482468290906, 0.00898890468572029, 0.0013820979243753357, 0.020878318711713403, -0.0056811742788713164, -0.006576060783787288, 0.008223074638931308, 0.003937668144025488, 0.00811540909245622, 0.002333158545878989, -0.005749642278163924, -0.010419774449454139, -0.0032442127019498353, -0.004658252882553726, 0.013073394330244582, -0.0007740323419138047, -0.005198719810376752, -0.007812193345759712, 0.0051381178986687846, -0.003682726837865674, -0.006260268137052245, -0.004277791205254641, -0.0032723167580842455, -0.0014571579405417423, 0.005901460944387698, -0.011716692813972555, -0.0012168933087709465, -0.011093441154248254, -0.0027127794995911213, 0.012181848458657895, 0.0005143085230668693, -0.00260847141291332, 0.0015197021152879601, 0.015721255692234707, -0.013092106248070966, -0.0005259287081448376, 0.017552193105208787, -0.010348072656129902, 0.0021131022193238594, -0.03339344345948797, 0.0021635319312417176, 0.0020691781177666797, -0.007465818851078762, 0.007306082241579861, -0.0010328195827699514, -0.007879495515334794, -0.00038150477107383197, -0.008243577079638156, 0.017532392113457907, -0.012976526723585034], [0.004814368812760106, -0.013369128373931012, 0.005196827352180001, -0.0069973315529616885, 0.004527405704493188, 0.005739362977376854, -0.004944413080515311, 0.00854650172928599, 0.012791115423900497, -0.006965259609601116, 0.0004028986857860957, 0.012263593049226732, -0.009856086208164628, 0.00503630806018893, 0.011032211095632306, -0.001965832769855385, 0.009084852036790433, 0.009797711552998804, -0.008445852154753434, 0.0035527923685505177, -0.009367031685586658, 0.0019182333596086771, 0.017798331129093774, -0.0037414088926001096, 0.0016217482783107218, -0.014453175142552323, -0.009093313474691242, -0.017627131102965196, 0.0014110052455849603, -0.003375116135283295, 0.001149383955402516, -0.0041407786747756714, 0.002003546085425682, -0.010642357909117698, -0.0022674508652032782, -0.007103782643549633, 0.008138139139338056, -0.013280447948037823, -0.0022758800377306165, -0.021277253231397796, -0.017909960738917992, 0.0011497666479601374, -0.017223361918180802, -0.0076503322768336, 0.009437088773710332, 0.002349942280407992, -0.001413625212677126, -0.0046314184779309405, 0.010591277225721398, 0.00952212162952537, -0.003185969238797461, -0.008600080185553966, -0.0031237954126596, -0.0043913029313056105, -0.006373496891956945, -0.0033460771257922757, 0.021320329645745446, -0.009685385017182567, -0.011268494509003859, 0.02491705721679208, 0.0023535508662992422, 0.008591356973147047, -0.006760566275923867, 0.008750451738181904, 0.0017416653044776847, -0.0006149700471696546, 0.003011597398824721, -0.005894127157860064, 0.010760344933321625, 0.013547564663588758, -0.012367881453643712, -0.002002179295224696, 0.011502024729175157, -0.0003603281154111035, 0.008365662560039011, 0.0025263317822211626, 0.0032491072748738687, 0.0023639509774399975, -0.02379444932291928, -0.00949288303450022, 0.002137647873265777, -0.00013691705484994296, 0.001419208520353144, 0.007912051188394427, 0.0027062218986503134, -0.0015240178568727042, -0.006396879415159838, 0.008012406706534286, 0.0025198648524122286, 0.007506858811390294, -0.00013500095189725246, 0.005064571908574836, -0.0050406492055603625, 0.006308627180471689, 0.002693320847397325, -0.006462724693859931, 0.028741247436129047, 0.0008950845475165113, -0.00868108115929004, 0.0041402013415117395, 0.0045770384091337445, -0.00583268599334933, -0.013357304967250886, 0.00048354801519825497, -0.0022325907697443785, 0.0003192677454895768, 0.01523888293026898, 0.013771683251830676, 0.013607168685428456, -0.0008931477487828897, -0.013648909897542008, -0.017148399287733818, 0.025465509055910926, -0.011326541296672989, -0.0024376535759555312, -0.004541136965769988, -0.00644626962602804, 0.019446515468369337, -0.010173981206917924, -0.004852352949160366, 0.00146739230938374, 0.008844371340168855, 0.002284744803975901, 0.0038543083160563663, -0.00015200739095968483, 0.0041163783789496195, 0.006183270149821821, 0.009693501104819228], [0.009221943357136766, -0.00955363856052202, -0.011396439279608978, 0.009883636569381722, -0.0044497723984300176, -0.0007688187503365233, 0.007736471637979454, 0.003920413764342493, 0.002184922110938391, -0.0012569402760399797, -0.0034464211299093214, -0.0026137727698374775, -0.014083410299357273, 0.0018848744222752065, -0.006264636973429777, -0.00215592021812304, -0.01342501549901298, -0.012613356888725842, -0.002205446641709349, -0.014177703364813192, -0.004154281089525932, 0.002749144174010983, 0.008636093901063962, -0.01681266376573793, 0.0036025664023818273, -0.0025765157446383385, 0.0005678739322913743, 0.010829544778700143, 0.004434751787862254, -0.004552043205014102, 0.012289995165590447, -0.006343442271438901, -0.010605084590367818, 0.009159177112175374, 0.008227286494398073, -0.004767258595186564, 0.0020748001998409722, -0.002636799836985393, 0.0035137881763768345, 0.019498648762676637, 0.013980894956141698, -0.009013380865261359, 0.004607410511885013, 0.011268663291344926, 0.001701797989495901, -0.012218781160992074, -0.005768304174755804, 0.012391028461643389, -0.021321177212041194, 0.0020843957466917472, -0.0029172062017024, 0.004577001773153888, 0.005229535230143681, -0.016761049110598027, 0.00513767913303366, -0.02165386693038464, -0.007447079025013795, 0.0010643674605602667, 0.0036885803982538877, 0.001753297645960007, 0.008981137183066689, -0.0009498401868858422, -0.0012281688882386033, -0.014300813073558932, -0.006871875306318345, -0.00076635502856684, 0.014509219427351783, 0.0029114452340284, -0.005980953526785977, 0.009475266600133116, -0.00030945119021143924, 0.015941370513827727, 0.0022405583443662635, 0.00047649013756090054, 0.016880511857608197, 0.003284636423582321, 0.004354724246964875, -0.012396384191701854, -0.0069186861191241145, -0.008639070716531114, -0.011064254182285994, 0.025749626150307674, -0.011636116371014856, 0.0036665216964531324, 0.020320951935602235, -0.006329232268182996, -0.0026582258486177878, 0.0007784313936836771, -0.018058308419415057, -0.000633950785257983, -0.0022841050334909186, 0.002443142963494849, -0.006368061892337051, 0.011199856244129829, 0.011558630016778502, 0.01114006988376895, -0.00965324672682965, 0.022475748033414702, 0.012974397141292192, -0.00108651075893185, -0.009494378588091656, -0.0009413207651898974, -0.007068997937780646, -0.0043376446470982715, -0.004518537949861823, -0.012632831758785582, 0.006451544568956747, -0.00938099379525438, -0.01801349147989357, -0.01962583899817501, 0.004783321432651751, 0.0022573838177528645, -0.008923836426364148, 0.011902109055562165, -0.005984891855682592, -0.008707755999503785, -0.011160850725466702, 0.007214429324670856, -0.0010323647795210057, 0.010574449388066547, 0.011646839946577826, -0.010279210919418275, 0.005133447011460892, 0.006108167750870245, 0.0003316434174144656, 0.009397464285291873, -0.006212475652081232, 0.009851522345062758], [-0.011169863002749037, 0.012272803840846908, -0.026602646334207922, -0.009949937434850249, -0.004124525935269028, 0.0004482338103257735, 0.008742240354519664, -0.0012108281451934269, 0.0023319974761080793, -0.005661947920280808, 0.003303336225513437, -0.02800456416571032, -0.004023036790824936, 0.012096792395541523, -0.019007624953412537, -0.00020282281191785312, 0.010565693605978399, -0.014149269352873015, -0.004061627295493821, 0.014211782160459879, -0.011600570582431701, 0.0059013536028132375, 0.014070946788861758, -0.00031998265227275134, -0.006089585389019632, -0.004519437682912351, 0.006697343194522441, 0.009006213394532036, 0.0016609563320609793, 0.006423755543956435, 0.002813197783774632, -0.004220681297875277, -0.010738143769728946, 0.0002767842094394423, -0.0044604271240722216, -0.017510916031331283, -0.006035024062522072, -0.004477920386642371, 0.0045249554186584835, -0.020802971907045605, 0.0033162163556331526, 0.01154482173455284, 0.008185301142026563, 0.0043895968446741335, -0.005555623126551022, -0.0006934935557969038, 0.011219310329075761, 0.003729196905289895, 0.015264608620206671, 0.0034364994692412014, -0.00016441780688916335, -0.0015481807106768552, -0.0022134278795520983, -0.003334864473567714, 0.008632763109502862, -0.012154537991101966, -0.006557339873667281, 0.009976398321191262, 0.0091379145538197, 0.004984732999395615, 0.002622767991187867, -0.00413902730281221, -0.012906409820543202, -0.0022227728620230654, -0.007060921096142527, -0.0017372432117816695, -0.00837742305386168, -0.0032594478562182074, 0.007666428199121189, -0.007574673252945598, 0.014029616242629547, -0.0013592295781393263, 0.010357484950495321, 0.0156522636968769, 0.009171101503010868, 0.009438691240077443, -0.01122658397699069, 0.004187555875371489, 0.001225808067742298, -0.01188134549102162, -0.013091681919105964, 0.0003692801537598165, -0.00605910103499803, 0.0009842831432060794, -0.003622957456994025, 0.00015246697586047958, -0.0007285594716686564, 0.005182345435796044, -0.0009910782384235945, -0.0013765160881382876, -0.011361108784456118, 0.005891422423292258, -0.004313290163365942, -0.0062042724118992155, -0.008053520815227679, -0.012954308956041695, 0.011835671808862564, -0.005095226972328963, 0.016187619546815385, 0.02806913054526144, -0.011420468551001917, 0.005237022835469216, 0.0063924708996188325, -0.007345400474348994, -0.00546087977821172, -0.0031282209778637727, 0.005463440573505591, 0.016232944085457945, 0.004786993650545737, -0.001286085536636333, 0.03059298684370054, 0.02293043429891151, 0.003923845165730713, 0.0045324144068999055, -0.011313910075857043, 0.023220352639607846, -0.0008817178417248476, -0.00042744205809031884, 0.015637727679051965, 0.01118088268383056, 0.008374096852291889, 0.009641378106947814, 0.013195149850139249, 0.00669650667074729, 0.004366618227331693, -0.00044713871903145376, 0.008080741744545192, -0.004002446083185697], [0.020173505831509477, 0.011215791043834513, 0.0030162043320829403, -0.0059142885519296645, 0.0047397127635114954, 0.015346980874600904, 0.004939479017268671, 0.010773974387026406, 0.0027173025328392853, -0.008126681271810468, 0.005959911528833366, 0.002313219421327954, -0.006223978380709607, -0.0011957722559835123, 0.006979034976911172, -0.007559865301163061, 0.003209869072781497, 0.007742189552990773, -0.004612009157504327, 0.007671410680567948, -0.005316515346083605, 0.015609165449127356, -0.0012084363819116583, 0.002829683911852135, -0.006964183675914237, 0.009729489474291177, -0.013083592866367856, 0.0034577989169206074, 0.013281505275335847, -0.0024838042666679317, -0.014726109671431179, 0.0016795791195851441, -0.0014609695469270838, 0.0002729005103411827, -0.005915010964215216, 0.013586874251452996, 0.010736867489454054, 0.013654059382247603, 0.002429432414965426, 0.008344710763607712, 0.0022730802194095303, 0.011281937180444533, -0.013666701088086446, -0.016794596783782898, -0.011122583840860878, 0.013702401140126634, 0.013248799839183256, 0.0057054537609021105, 0.010947670981326147, 0.010173519330797916, 0.010495615402219154, -0.002384323048700683, -0.007652801780775797, 0.006663386687097587, -0.008534368343570816, -0.015498840213549523, -0.0012266959651881595, -0.00939231405325064, -0.007293174393732983, 0.012519748513980161, 0.0019597924600061097, -0.0039096355408794504, 0.008380884892455363, -0.011695582569147824, 0.012686623553039188, -0.002561212294346002, -0.004530560551836604, 0.006001294865948942, 0.0029362150629229384, 0.0011399202348513153, 0.007704555723971742, 0.006593291942502932, 0.0029554515202921015, -0.009856888058422083, 0.003995784340372045, -0.003470456808197295, 0.008990028996808161, -0.0107101517204502, -0.00496381391500606, 0.012108266373115843, -0.0017215299444884877, 0.0034321790154899895, -0.006404732640552264, 0.0020723390006725756, 0.0034947501807272995, -0.014479465877744005, -0.001954331631419569, 0.005189723194147854, 0.004075236548311742, -0.015131077796721107, 0.01045401679744834, 0.01974644518968962, 0.016728825115465064, 0.023050381004343302, -0.006617733591063898, 0.013175230870359662, -0.0024817553297851267, 0.0029487564697777153, 0.004615630372226514, 0.021666003286193492, -0.0008755810300958936, -0.009638750381799125, 0.0019337432441996886, -0.000894871875614086, 0.0012936706566746144, -0.011739458804158321, -0.00464052859593234, -0.009098120096449691, -0.0019423467150621126, -0.0015772378755590987, -0.010366551978418228, -0.028633992321210756, 0.01683709416960474, -0.011731182818720778, -0.0016247345417381136, -0.002628547891190686, -0.012748360779501368, 0.008718820710306144, -0.012447415069786194, 0.0058206416011313275, -0.005757777917242019, 0.0009493931093121686, 0.0040133438304617115, -0.005067722853483096, -0.011922092580188637, -0.0026001950312024742, 0.01443568087566807, 0.011287971570966657], [0.003531770877757092, -0.013151307780941793, -0.012732016282249486, -0.0103826595833348, 0.006400897787747925, 0.003042972962313265, -0.017443477733949865, -0.009652408958489166, -0.00212686006860891, 0.014188747930703807, -0.02307690189037222, -0.012034988019514562, 0.0058740274678925905, -0.0022618685173608688, 0.016558170189470024, -0.0012402257851457724, -0.012662431379671844, 0.006806181709073959, -0.009495174019452995, -0.021020326552946944, -0.012524758677986862, -0.016250410132303817, 0.003423554021078825, 0.016098637695393138, 0.004429851062692794, 0.000455170986961565, 0.003674605273607753, 0.005832300820290154, 0.013691755604856106, -0.007681424951053105, 0.017239665165101118, 0.0027688476629357185, -0.0005088925970632764, -0.0060447409099148265, -0.00229940291142064, -0.007713246089475466, -0.004756333878913654, -0.011042217130873036, -0.004278813239342822, 0.0033987860538424153, 0.011642961965549587, -0.009226803009024185, 0.0061067160226675864, 0.00552842193817198, 0.013252724920152862, 0.0023563658892502707, 0.003004269641165547, 0.0031108530699686205, 0.007334792751416164, 0.013091176077478733, -0.007721039295738274, 0.00894072284834377, 0.010747570692332406, -0.012950657239720997, -0.0012648381452475869, 0.010210632060078889, 0.014748484883283525, -0.0026758196485911585, 0.007687196636690514, 0.004286120600829207, 0.012338972772021933, 0.022854382590642805, 0.00407661488328013, -0.016690671556529733, 0.017909831825323685, 0.022929477642026234, 0.003989873497779651, -0.016672021759628897, 0.0006332631425784628, -0.001896024300083242, 0.0013484850798311926, -0.001099073345786743, -0.013194890446861519, 0.002115345316103932, -0.00719646341502172, 0.005330781753462003, 0.020179545730492777, -0.0164848586268943, 0.011484333451753636, -0.0012898460292196385, 0.00414535473909327, 0.004913337736587108, 0.005273786989695777, -0.004235271834182184, -0.0017949659537984852, 0.0028585791018098574, -0.018221444278877494, 0.010572231682534853, 0.0049595831477868835, 0.02704382732060766, -0.0005221980407910136, -0.008694467253976913, 0.010443513829375339, -0.01444841619139455, 0.013890349486080963, 0.01455408833886837, 0.005418835371682244, 0.00967716937494089, -0.0030467364523448013, -0.00015756541453535824, 0.004078727785230208, -0.000177884681821263, -0.01596148572325771, 0.007785594210932853, -0.015263885641448824, 0.0027766307454837203, -0.011162594461388203, 0.012340752592885456, -0.005701209616169681, -2.2765808896720503e-05, -0.009318380840068407, 0.0007111131007582953, -0.0013551039877955958, 0.0058343628049229, -0.007071269917171512, 0.010185909705048811, -0.013451708000852021, 0.026874463193112492, 0.009144325759934098, -0.00975041296424359, 0.01964140387421517, -0.0019140128853725757, -0.012479377756115663, 0.019707355298825946, -0.007576444087883066, -0.0004719475168293975, 0.008075009712929073, -0.006621075470230162], [0.007193240115683316, -0.008913415740818572, -0.020975817197216272, -0.007538573496994874, 0.0011240277936092839, 0.008972468971868113, -0.0037595396509623722, 0.019239383656875317, 0.00770087096429822, -0.0034252557723267727, -0.010598088802501461, -0.011891757241985719, -0.004035736180350488, -0.013015574502804841, 0.01044181494429521, -0.007589157835357362, 0.0018009127730678638, -0.011841586298076806, -0.011740323226065752, -0.006362272368228408, 0.0002860548313567286, -0.0017585899085378507, -0.006938209005886812, 0.020917676898629146, 0.017324291253527656, 0.000930940563337665, -0.013459444229771455, -0.003738154922285742, -0.0013565724412348225, 0.014396104602261863, 0.0015925004411891514, 0.0033032660931997734, -0.009398679267015398, 0.005323169350203521, 0.02700731190061532, 0.019460753937793767, 0.00610316643142688, 0.002124290887662639, 0.006073851283709809, -0.005362081079276163, 0.003293352633732935, 0.0066240126941476555, 0.0007801070752133642, -0.007063764015371998, -0.01839329478107618, 0.018738397624185988, -0.005002648830906546, 0.01570676619636519, -0.01037485256676916, 0.019325675899963143, -0.030469125934237878, -0.007722131041907915, 0.0143493189598353, -0.0016696334724019288, -0.009481243250401302, 0.006707176454289811, -0.0016634908337245017, 0.0029680809716376225, -0.004027342203503373, -0.009514998301934667, 0.017325193254524977, 0.00857105248109558, -0.01092138799782809, 0.0005472614255008665, 0.0038737122116826585, 0.002722396989590902, -0.0012823237971698296, 0.001001927920232333, 0.0037981951001701277, -0.022266243026637433, 0.011435156632938358, 0.02380867799235074, 0.008280959653866844, 0.011328366961240635, 0.00032470066460593244, -0.0007748375543921896, 0.008566225992846122, 0.006335309042261611, 0.026892467542021858, 0.004899527480542008, 0.006221072397895259, 0.005315918931021149, -0.0047810803508971395, 0.02458118870056387, -0.009991600744232432, -0.005532539175354028, -0.012487816842175422, -0.006614920547876602, -0.0033847952763874103, 0.01538194208359901, 0.000794520115607331, -0.005424394421562574, -0.00796621127601052, 0.0015893808452303148, 0.015591161229008053, -0.012229600974196281, -0.0017506804339790928, 0.00805030184946708, -0.020600044437715046, -0.023033831287254964, -0.013384116379847003, 0.014824482514744318, -0.021691088219972194, -0.008540151096304979, 0.005119255769039723, -0.003492594691716504, 0.016483387036093092, -0.0036945844513360704, 0.015553041965852128, -0.0040568874335727, 0.00826190633267777, 0.010047959770536857, -0.0034013339069177357, -0.004476757554358223, -0.01098745418602958, -0.002071001075672231, 0.01745062193937819, -0.015996126963904796, -0.0020236985523786545, 0.014517095050507373, -0.018466613441066256, 0.023999781195457683, 0.010716707846039628, -0.00023810535429562537, 0.002177429760956127, 0.010500644125767263, -0.005253320494872709, 0.011219426851915586], [-0.01304383332093886, 0.012433430759304212, 0.007221928519065315, 0.028225331258359118, -0.002985594281725605, 0.00840028769267864, 0.005767123854493873, -0.006327298761791499, -0.00799765880821201, 0.014230478045239935, -0.0008422676374587789, -0.0013754403176984066, 0.012423048941829976, 0.00113602053628901, 0.004055582200616057, -0.023409587142311644, 0.0014509271547991345, -0.011301657785401117, 0.01783700839217891, 0.008705631853929198, 0.0018864326749901755, 0.011475792885664988, 0.02050371247218535, -0.011266831023093424, -0.005916332708561302, -0.017642315301359266, -0.000346693257113095, -0.002055999412633463, 0.0022053393091735016, 0.002847940557382733, -0.011281216657928124, 0.0009867391388278482, 0.009659886842079721, -0.0028641369861972126, 0.021471111186564435, -0.0009197706941701684, 0.004201469678694029, -0.004256793094456425, -0.0023010572840610403, 0.005462437389460191, 0.002801716841276814, 0.006848576926692377, 0.012886967715627579, -0.008675645674723445, -0.009021133869130228, 0.015599426105168561, -0.0048102847780615385, -0.00020603638240350374, -0.006560843492731972, -0.003775839770519338, 0.0015163342600685306, -0.009161884279989131, 0.004655948052256808, 0.0027110261086716303, -0.007385731936012111, -0.016022643496946317, -0.0086911253154538, -0.008538217567975173, 0.008378326913706421, 0.009974661976682462, 0.016888806444521228, -0.006712446951035656, 0.0020169625280075263, -0.015205526336994787, -0.024814247131139923, 0.004866219743283618, 0.003466610537208325, 0.010248461752607468, -0.001898541269951555, 0.00540976144618825, -0.011954450955973013, -0.0018982986483084806, 0.004825879202837169, -0.0127021456426765, 0.0009880131638928195, 0.019007504083179055, -0.01885059869886997, -0.01668628972500304, 0.0020237987333670293, -0.0187268307721862, -0.003434348209555352, 0.01232367536921132, 0.00924329034280518, -0.009810373895134955, -0.0017316213731251838, 0.00848184796453991, 0.0013228336558214276, 0.018556098153831718, -0.009506941608935645, -0.01906079800840945, -2.172118347600801e-05, 0.005638322906129343, -0.010209688307169704, 0.00700105754543583, -0.009014935503161849, -0.018433325309551083, 0.014506335914284947, -0.009094171593046412, -0.013289263578781081, -0.012059038775687519, 0.015326824146912235, -0.01338761882741554, 0.0037260026611621528, -0.004178253600711315, -0.0022770968492712355, 0.004143525435683877, -0.00592602927791911, 0.0012516094110818588, 0.00531484543389824, 0.019329335814747557, -0.0009599461203957123, -0.011929325027450383, 0.0006919549193498153, -0.01079730196747828, -0.017671864899568825, 0.012195885454650624, 0.009187954412311839, 0.0025006978873334976, 0.001910202814800272, 0.005166428725079372, -0.012920637015270985, 0.007584382181336678, -0.0036027805259837248, 0.010357383764271928, 0.004959676299680923, 0.0064568471192564285, -0.011765932209170438, -0.0046006087461361285], [-0.01194229527416736, -0.007145148287813095, 0.01875030050859904, -0.0020484612709164934, -0.0017249915311437851, -0.01658905105979815, -0.010138755852749379, -0.004920638050846737, -0.0026020684264249343, 0.007345783642797869, 0.005782522284738354, 0.0027217433051837177, -0.021578636008532763, -0.03562361837346243, -0.015676577023907408, -0.005698192488231015, -0.015781657992190067, 0.006245576354499714, 0.0031309938814042715, -0.0021823136354137147, -0.0023267625350095232, 0.005883683522960171, -0.019268922387381784, 0.01151866492897936, -0.0011599853849167303, -0.0063954661463691016, 0.006862376125762944, 0.005266943615993568, 0.015544189156677782, -0.007590350073228185, 0.015427589279196852, 0.002948782780217707, 0.015228293447173706, 0.011739088551893711, -0.005518899416257046, -0.005112838035119907, -0.011992475452453, 0.03551542581941541, -0.006550706400422255, 0.00015066270824083084, 0.004434269713604532, 0.0016443806408910117, -0.000555917464210871, -0.012979139258541305, 0.0040025563979939425, 0.00472037846154975, 0.0031506463162303674, 0.008126751680153095, 0.0011964322817225772, 0.00462642401974379, -0.004122089679716464, 0.00331607600098477, 0.0011140455374210924, 0.0029590042492282803, 0.001434174725744604, -0.012519662115467468, -0.0030834091151240558, 0.003387756845039381, 0.009967422626392207, -0.014765738575271798, -0.008134638066338034, -0.013091095796766974, -0.008487609397264471, -0.004360516794746873, -0.004131699287938276, -0.004621476167772102, 0.003804525713772097, 0.004405067092744296, -0.015582808714305698, -0.015813482191324706, 0.0013707354345735528, 0.0004977868391298639, -0.019883523737792487, 0.006553925679024184, -0.005324245510988276, 0.0019693106064671718, 0.005391936788171246, -0.012097305983864961, 0.019571576014539033, 0.020168846592341375, -0.010170079096578582, -1.2820766171047729e-05, 0.007731897609650092, -0.00040234921290971035, -0.0050742338795666765, -0.0006748100325375485, 0.006596577559149383, -0.00614416827744716, -0.005808703105911727, 0.013827814720922522, -0.01774493837148551, -0.005732805422487042, 0.013083790094155332, -0.005577496103145341, 0.0037768725595515485, 0.005641519792541302, 0.004394009140413574, 0.004627754400932966, -0.004789893408324399, 0.006671182941198848, 0.011766402548590245, -0.006015391716629698, 0.012557194607619553, 0.009477045768499176, 0.023401129314916475, 0.022281396310490132, 0.008101156260106235, 0.002801105040124771, 0.0018967438684443802, 0.01783261068814917, 0.014058138014631526, 0.0034103531579522776, -0.016037979440924385, -0.01963767780375443, -0.021880866093045067, -0.00496439266238122, 0.007720317697850037, -0.006270648132183713, 0.009134528122375368, 0.011183892774121431, 0.005269413896786151, 0.004164025570772163, -0.001793337879344262, -0.00029564487885825876, -0.004795488591345842, -0.0011765133306708675, 0.003923471908870985, 0.0015788251835939314], [-0.002670118392761458, -0.010930491378233688, -0.01089934191886388, -0.02556773430337787, -0.010955039818594992, 0.009619270811865923, -0.01730639621882316, 0.007068530477341449, 0.016720984642100443, -0.0018565076267895886, 0.003615612808082158, 0.005092781887277517, 0.01130005053792609, -0.003579513835025694, 0.018260437985740348, 0.006869314292005897, -0.009989874320432095, -0.006196125097345237, -0.0013284274148202678, -0.0016283313046359306, -0.014150638421132346, 0.004161703988326838, -0.0005973553977526629, 0.0005441184098320305, -0.004001112068935754, 0.014356919641466834, -0.01740182965480858, -0.01914263600425349, -0.007739819198467975, -0.006107111655652187, -0.007891993025561659, 0.0029831852248682193, -0.0009167276482507413, 0.014739970318292576, 0.003807174380233647, 0.0011863672555044317, -0.007917103435879713, 0.0004821432547921094, 0.008435618518614435, 0.015680325568419258, 0.013184674590221377, 0.006423703250639728, 0.004910718537220593, 0.004178859661444082, 0.003873437033194234, -0.009617674030261803, -0.002481713378446444, -0.009846703539264869, -0.004970612636727286, -0.005554797011619379, 0.0017477500962768963, 0.014284210262089488, 0.007783717577597765, -0.004711328682821407, -0.01314283649738937, -0.019510371458509552, -0.005907307084165307, 0.009008780219184664, -0.009841766473523559, -0.009413979565240906, 0.007357040843164739, 0.015030904179993828, 0.018264706114303857, -0.008038716995829469, 0.028121166099287227, -0.005927613803890153, 0.009776077172346579, 0.00689423600057374, 0.002959888265628386, -0.019543286886730363, -0.0020215273414469904, -0.0024643913981989996, 0.01804224886007552, 0.0026400122515917545, -0.020519531796931834, 0.004942307241907592, -0.009426980428764407, -0.0024618546518230004, -0.003439407618440515, 0.008380735190073004, -0.013846703456211418, 0.0018756912275637947, -0.01829413238525293, -0.005371266041106851, -0.004633079875831513, -0.009401006016329093, -0.0052866830635202935, 0.0134575043260881, -0.005063192038943443, -0.014702734730513407, 0.011836942160309588, 0.005291551815582439, 0.017607430388058315, 0.005273288328143816, -0.010990483623865233, -0.02197299726273608, 0.005721760296206717, 0.007537214538996935, 0.018554650915794446, -0.00927769498961797, -0.001946812485375689, -0.004407012256963447, -0.0030370179119586045, 0.015106785597541857, -0.01856784050767843, -0.0038526787700881356, 0.017016392067946296, 0.00034451145857437686, -0.0061698545724816105, -0.011723636212691693, -0.0020087890029776606, -0.0005322180462459072, -0.015781582799770693, -0.00611365077193557, -0.006532055552169079, -0.010657202599546908, 0.008385306702113042, -0.001747548706362706, -0.009742997197800106, -0.006418404095424141, 0.0057755754403939225, -0.011952122515848084, 0.0064239900429314606, -0.007258716870330947, 0.001825494321526919, 0.005197403168448636, 0.007077285539365454, 0.017121258554018443], [-0.004758543299307458, -0.011297775525158121, -0.0015514922971333592, 0.021819787893775908, -0.0025225573944472612, -0.005824866651516567, -0.011935498324731618, 0.011061458724065538, 0.02195660048892631, -0.0031867943223228713, -0.006930648546031561, 0.008069861687686294, 0.002702915788933658, -0.004564313081799749, 0.018364992219763992, -0.005665067765804927, -0.000422648454452804, -0.0038826148416188973, -0.005897090330131907, 0.00964530339460702, -0.0013290267387031222, 0.0005387874101777685, 0.011864829410392184, 0.010592071079744617, -0.013504900452350041, 0.0032043471888738915, 0.004233007466942613, 0.007459980440640403, -0.005030619193315414, -0.0037238202446182285, -0.02082938381056577, 4.478034121665511e-05, -0.004065377578379828, 0.019757989519869523, -0.0037644571044622237, -0.010267515146801232, -9.339210777929355e-05, 0.016909013753880996, -0.0018765368474544643, -0.01578328766898876, 0.008984973626954263, 0.010968300281942445, -0.005823034900852534, 0.004176847249256605, 0.007081892645739944, 0.010001245405008151, 0.01361531660541936, -0.0006822579611598909, 0.002938247774260291, -0.008297656945614395, 0.0075168748990383566, 0.02541188288994808, 0.0047081638196553215, 0.0032257277474119334, 0.000545677383915623, 0.004897325859159847, 0.014404435922231855, -0.005021074832165601, -0.018437003812978376, -0.003286852733641439, -0.016885991861799645, 0.000568443867902043, -0.002282306750976504, 0.0014818021982049723, 0.003120877179584775, -0.025607141754304875, -0.01208146401734022, 0.00942960929823608, -0.020925522484185232, -0.004059710138513801, 0.01696149239148069, -0.0023894951943132297, 0.00038363354466764863, -0.004395155857348731, -0.006561096451779597, 0.014467418526506124, 0.016225340818778005, -0.00048093604650155115, -0.009234896564316877, -0.00023353812510255696, -0.022742869291768893, -0.005543310110577017, 0.00907599083917381, 0.0016530905476746314, 0.010525335331168626, -0.007975866963174712, -0.010911612351699731, 0.0006103811089351607, -0.00043264683808768336, -0.004634955026283531, -0.0028488724780155066, -0.018120167350774312, -0.012257991069114951, 0.007229886028767149, -0.008310802295853669, 0.016326293751224435, -0.02248216201813287, -0.005666225259740384, 0.019497030837692764, -0.0015894472578881942, 0.005008447932254917, 0.015091375464795696, 0.0005488482136171161, -0.007719830946471042, 0.0034032578846742976, 0.028941644304333415, -0.010895006211352242, 0.014838665537376127, -0.0071236450178686446, -0.008515534035677712, 0.015639813546946917, 0.006164981804648735, -0.005889199345894345, 0.0017653832640263942, -0.029706612331604723, 0.0008909867822775457, -0.008022137089355438, -0.010989714741115217, -0.012085900102969421, -0.0070839324442989425, -0.00733620733913652, -0.015023724951493242, -0.009540769093934467, 0.01572778624291066, -0.003202259041362288, 0.010256275044380932, -0.0065081778061824615, -0.006254385302418146], [0.002588632966924064, 0.008708261970407808, -0.0055497731901296525, 0.022448158099700476, -0.004276344999818147, 0.011475293031945773, 0.004578075363213431, 0.0033698218621375157, -0.004394110348118297, -0.010591491701857433, 0.00986382944402783, 0.0032319033377978643, 0.022684417126511324, 0.002949958961153886, 0.007556208172601252, 0.008050522400456277, 0.005295794958764736, 0.011553529106159338, -0.0014875432332014191, -0.008698921728013329, 0.006364088248220352, -0.009150328706942766, -0.006883874454063138, -0.0022279622977378873, -0.005007276638628586, -0.008248395715945758, -0.00010027506364002157, -0.0018344461328221133, -0.024291827601980252, -0.0006249796981063168, -0.016658718282558924, 0.01856905858255331, -0.005019463041848288, 0.010548213544385919, -0.021974180444260635, -0.0014137887326324972, -0.013818551576732414, -0.012918883299795974, -0.01541775878343927, -0.0013561296195617736, -0.008222150807562643, -0.007843957053895815, 0.006660897354644851, 0.00825436896295461, -0.0012631587687163403, -0.0009503375069454979, 0.0005557713172184384, 0.013217264272225611, -0.004560129353409483, -0.010316554675459003, -0.0037397917583711407, -0.0063240635389315795, -0.002516090061141184, 0.015935768053870328, -0.008128722276531488, 0.009447235867701876, -0.011314083542951847, -0.005372391335974246, 0.0022228509455280094, -0.011673109433245643, 0.007102961287672079, -0.008925142167469365, 0.009477572404104545, 0.017336130619858038, 0.007750128565428215, 0.016084674818839084, -0.013827134345391165, 0.004867355870772735, 0.006843174824647767, 0.0002996746676084865, 0.010036751471748429, -0.00017008870360298036, -0.011391916968126853, 0.003872454549487113, -0.011597873703412412, -0.02462939024998993, -0.0016495032139699779, 0.0025659751068816865, 0.010842706679305612, -0.009808232232864138, 0.00660677950909824, -0.006083611030423025, -0.0006547554929269861, -0.0007541208777448855, 0.014492860094604876, 0.002662612655232177, -0.003103380447155222, -0.006653458466921695, 0.014725836711722333, -0.003558922991191749, 0.000771868783170815, 0.003740544674578144, 0.015918689852990137, -0.00447678041205631, -0.01921249192345518, 0.009822868722636801, 0.004280200403999848, 0.01005510300965963, 0.013215686777330262, 0.0016428680528658523, 0.004038966599457939, 0.01004891382995703, -0.0022069372874920475, -0.018214481933324575, -0.013867415986107365, -0.01193357193442018, -0.00388672084589708, -0.010244381835399536, 0.01830917427866066, 0.018521425313202285, 0.011064968344195228, -0.012996025664721734, -0.009710770529227239, -0.004985557142294769, -0.005380194954381097, 0.022675331630018173, -0.006208825508512155, 0.008090509422660567, -0.0015683684385061035, -0.0020857464865986003, -0.001647179284162905, -0.005914673633012407, -0.0076205045129160405, 0.0030703921229578227, -0.0026677511652612074, 0.00245091518683785, -0.011454867682886026, 0.004671785757070408], [-0.0004314489896443266, 0.0009550833797593135, -0.005698709244433812, -0.0031768103371436224, -0.0005487717677275081, 0.0010105022487363405, -0.010425689861989258, 0.014440511862529046, 0.006609650796835799, -0.003622238259462557, -0.019103241322284536, 0.006751953988121764, 0.007803825078993324, -0.006697155782464716, -0.0024622360974664104, 0.0029924287655470035, 0.007334628994821055, -0.01790544036330491, 0.0013579634653294943, -0.009338304298590628, 0.014684544373325429, 0.0021516747986981256, 0.006046933391722886, 0.004304599184701031, -0.024607252783524405, 0.007238598492448772, 0.004410970595909282, -0.0038791153154623154, -0.01121637719625901, -0.0038832658865032735, -0.005534862944119152, 0.007943968245836572, 0.005139777220430267, -0.002062149723838534, 0.007121400208286628, 0.00300516832191475, -0.0022117399287110923, 0.002647137769599487, -0.004536919305719252, -0.027171695757568646, -0.0015526817815097176, -0.006354171760078998, -0.001949309003439823, 0.005705513889038642, -0.005655710325242472, -0.0050980302853283945, 0.015191867168619356, 0.005482074527408544, 0.00892113895319763, 0.00864718070067606, 0.00860323564681827, -0.019594494038043385, -0.0029076818374378314, 0.02801000028777357, 0.008308827844345697, 0.004170017401893531, -0.0024890797475436077, 0.00201415326210168, 0.0019205033120871294, 9.766587941789527e-06, -0.01605391936859225, 0.010664122910249745, -0.013270171051114724, 0.005633154590415495, -0.012154856121405246, 0.002023077410423705, -0.004940955237789752, -0.018686253661635965, 0.016665423652530067, -0.001847716621812479, 0.006272932040326665, 0.008247763385013547, -0.0010182289206473252, -0.0009678363591193768, -0.006221020861015742, -0.012820861876741379, -0.030319880234660805, -0.011131244883007735, 0.010073854338451075, -0.021576780313581522, -0.011093348624943865, -0.007089576225322413, -0.002144629012952108, 0.0062292167291217015, -0.01502030592506441, 0.007976315767630601, -0.0009133339291830441, -0.0030272237352545386, -0.0016496413353284446, 0.013798093040542908, 0.0010141485172390377, -0.002467848883895126, -0.01832157292927624, 0.0019935728470575247, 0.0035523537139931526, -0.008734374305923765, -0.004548958336350444, 0.008267256435654392, -0.007185540186217825, -0.0062883553103580524, -0.0010579785109587517, 0.008501108608413297, -0.006502532729696389, 0.002806872137969338, -0.0007116939395425519, 0.0016319520774501048, 0.004434362053603893, -0.010283595174131447, 0.0026048840553885063, 0.008207256413096076, -0.004379216482342145, 0.018697002228171458, -0.0010047662885452095, 0.01963245382337002, 0.0012195327543353634, 0.0011208021166495066, 0.004481316486436996, 0.008484644547620279, 0.004972217505855368, -0.0016989882362589254, 0.0015276951828937847, -0.01928480473737028, 0.0018999256617626367, 0.007516265646752008, 0.0021803100328028754, 0.006227342155031341, -0.0006384256763401978, -0.006570518808502506], [0.017126244431898117, -0.004234907641055112, 0.0036895630036333864, -0.005483918703321555, 0.0001036177388575028, -0.007961576430725864, -0.0020852046895294923, 0.0008240236539287648, -0.009984030615693685, -0.022315681621921973, -0.010781002653180929, 0.004317191355333911, -0.01627606410908935, -0.006075296484915423, 0.0023247101114850575, 0.013530384957487956, -0.011884365517732679, 0.00951756785030145, -0.014786130619075532, 0.01773219919946502, -0.00586942906583702, 0.005319375120718992, -0.00565550223164218, 0.0063759653545156355, -0.001679020974058211, 0.004112442579321406, 0.004779438731084394, -0.0008154235602626227, 0.009807507772106374, 0.0015557174450312647, -0.009647895547253638, 0.0024282500408008834, 0.006224437250075524, 0.02423569239211844, 0.0169577675577971, -0.01940959938663306, -0.003652392740775963, -0.008020191357035663, 0.007835678383758541, -0.001769921583691889, 0.0050904169717425184, -0.027684274797061748, -0.006010821810412328, 0.00014782813507882093, 0.008088546139934406, 0.006422893993623295, 0.0010688283044452708, -0.0014006602939276357, 0.0004376116965128081, 0.0030053144244167524, -0.003955924458219136, -0.0010947467355371927, -0.0009727145151470655, 0.003340510351832175, 0.01055445362883834, 0.011317443243444124, -0.0045819484962953015, 0.0029164174611538167, -0.007104352088563279, -0.003940335969264728, 0.00016256773269359735, -0.023416548763223306, 0.005781654479854633, 0.0012519510987267812, -0.0001757646652279013, 0.011258595244333812, 0.017440713220904867, -0.00745503463743808, -0.008418361329457964, 0.0036354838316674356, 0.016403608417793487, -0.010552878570496938, -0.011804233784777844, 0.0031831332199296564, -0.026413773112484315, 0.006864839467722922, 0.003768098442872006, 0.0013865927037179336, -0.003302551449405295, 0.001703288520616774, 0.019540693656293434, 0.0024849686730349088, -0.0058638876726979615, 0.010664729980090642, 0.0027307088913779507, -0.020249764124560036, 0.0038998809001798093, -0.0016608148787440077, 0.00822899960049822, -0.00224220925755807, -0.008954064796499694, 0.0050908267389507805, 0.0065692249934262495, 0.0005234229328650487, 0.00041338004294457886, -0.003617418400973763, 0.009863208387740845, 0.015527598534715937, 0.007548638017658642, -0.026010005715060607, -0.0004769401911173967, -0.009585063473117977, 0.01873431414256179, -0.001085742842606987, 0.020978695298707647, 0.013022811422310597, -0.0018735667499794207, 0.005239249953960987, -0.003313191555716485, 0.004847355573141391, -0.014797070344211275, 0.00341002841457812, 0.009070178086318442, -0.004827336877218623, -0.01597204375647959, -0.012840276919776884, -0.0104135878905811, -0.004265869363608097, -0.0005881668592066489, -0.010137039298119713, 0.011320166387953953, 0.01729869910765858, -0.00746281734952639, 0.0029690688267748175, 0.0038172269789843644, 0.0027193591175570927, 0.00612427903277327, -0.011004253868924379], [0.005802869816979801, -0.0005301658805920047, -0.00019194861158244064, -0.008378990647901055, -0.005102172012635855, 0.0005032318775573038, 0.00034123754571120267, 0.005095114303962095, 0.008344993509911532, 0.0024022355881258874, -0.007502405503253308, 0.015145462335068452, -0.0037287141737049547, 0.027872295625579798, 0.010776956357732173, 0.02017909002695333, 0.012406898623934041, 0.004729815624319374, -0.010123686873735174, 0.010432128121422439, 0.006651393110848323, 0.008296139513183972, 0.007553290287290299, -0.023065917129695128, -0.013869744748621165, 0.009086969551860294, 0.010921556758523838, -0.00534421453603581, -0.0038446274437878426, -0.010240590562458856, 0.0015684418739087568, 0.0032520593278133284, 0.0036898793888677497, -0.011620038911609468, 0.0011790339342189022, 0.009004684517285222, 0.005686243763173118, 0.012117509635014751, 0.000658663139167291, -0.00974452007144212, 0.013686255178757524, -0.016555613566111894, -0.007394019038805596, 0.0020139004022073415, -0.02174382257824086, -0.01013844146122639, -0.019170948084637655, -0.00421222757628445, -0.015536341862888816, -0.01220645437581243, -0.01602015318654864, -0.007409440991629298, -0.011545438286947842, 0.003154959730683609, 0.004727866297397057, -0.005835798692851357, -0.0005462345825685714, 0.005832606466507509, 0.005131924808395296, -0.003199834754674853, 0.0024354791707197295, -0.004594176310839587, -0.000884592467229859, 0.003696264655327656, 0.0053835414406791255, -0.011993563805245019, 0.016027216323609986, 0.00011082555500407885, -0.011460189513614468, 0.006704600184715977, 0.006001455660926238, 0.001909388768208549, -0.010438903974754832, -0.009655483153660263, -0.0024243225653673645, -0.006954152229288531, -0.0037886656495146193, -0.012152119055141295, 0.004164101285855028, 0.011751845397937976, 0.003740454296869872, -0.01797462068027802, -0.0036086315703074204, 0.01781363690817066, 0.009284901921798405, 0.00912313944045696, -0.019010311157154715, 0.016621892398369018, -0.0021464261011097815, 0.0039204833772890045, 0.011821391879268756, 0.0097070652651372, 0.016869047217705914, 0.0033492343333864, -0.007394219320754295, -0.013543559583033757, -0.0019116014504742126, -0.008240563626063208, -0.01476204411811349, -0.012525945990317295, 0.0007425485613104137, 0.012868261246159087, 0.01678204571996288, -0.02167709134713345, -0.006144155750749855, -8.1707016050386e-05, -0.009143923718748715, 0.0008442360062703785, 0.008258938505518787, 0.003264166305811328, -0.004997990666597327, -0.002876625991480477, 0.014605318452153024, 0.010242432201664396, 0.022356206393506012, 0.00933450035723176, -0.007318245483877246, 0.01006586698110476, -0.0022456159607213023, 0.006603983229432946, -0.015869205635215988, 0.018966257692044564, 0.015111957980049147, -0.007851157064371594, -0.008002484271296626, -0.006864606648293805, -0.0010346885522428866, 0.024633863361060316], [-0.006922964492761463, 0.0030317372509573908, -0.009585663621166907, -0.010993813688004237, 0.020863495753207326, -0.012355384218865062, -0.0199275177668252, -0.007151088152405428, -0.0074924871801832615, -0.0007612092593896959, 0.003495563483816503, -0.007723937273599422, 0.009254616717085313, -0.014107519248189074, 0.0008703058780891722, 0.006379975947361913, -0.009237892321265175, -0.0011134624630945995, -0.0119271052560305, 0.0046650490940400025, -0.011253649039493751, -0.007918735702681593, -0.0015518044434585615, 0.017244656114082, 0.004230775027130313, 0.003919844637881464, 0.00032393600313870743, 0.0014491314955649268, 0.0020610461540394908, -0.00044930782067618914, -0.018606274865699386, -0.0060857500941635875, -0.004457932507566715, -0.013303609712844243, -0.004295081809837616, -0.008759774989200966, -0.007642744199073693, -0.007282328012771854, 0.0022180582994704603, 0.00767382427575974, 0.018966994843632547, -0.002325942379594778, 0.0030717350716521286, -0.009026548450750536, -0.0002817331005025518, 0.0033393693873582844, -0.0014397382070754122, -0.021058217874868487, 0.010094416070606092, 0.004316762543312134, 0.015797853604120452, 0.0004907219453689758, 0.005236752728520874, 0.009454072989224778, 0.014453990072258062, -0.025285270768057786, -0.001655315208368741, -0.003289329132110897, -0.0025301333084338023, 1.971194470323707e-05, 0.006740263052524715, 0.0043365980186854565, 0.0016359972053291275, 0.008257073387886556, -7.14545888423947e-05, 0.007133597527993108, -0.004565746835614298, -0.00580845421475623, 0.01062976391733995, -0.00033374587599848223, 0.005844002172510827, -0.01163225402081884, 0.004545375360239178, 0.006808410916214789, -0.013056021471087656, -0.012922630772197494, 0.0022490023284038652, 0.002504514465078267, 0.020196504300483902, 0.01291876666596733, -0.006052199568678966, -0.0021629092253348287, -0.007496414873006806, -0.005104833081857141, 0.010556398498741905, -0.014716006347626539, 0.00524651546744141, -0.020751594481442356, 0.015981644675117004, 0.00197965870795063, 0.006629227248404591, -0.013691087193655464, 0.012712689397189558, 0.005933196035460596, -0.001576335032399722, 0.006941923482562966, -0.0029866252763409607, -0.004180977399514657, -0.0016671188254992894, -0.008818976192897773, 0.011006004368458585, -0.010398954460639754, 0.0010825702958074976, -0.012148704499025994, -0.008109355140841166, -0.007784815756128152, -0.007230353962172455, 0.013083360762989946, -0.006302486788423062, -0.006476374855689371, -0.012768597599705816, 0.0030362365798951487, -0.0002705363907748497, -0.004913245832968491, 0.0037533524305624, 0.00387069312747867, -0.016204311143882873, -0.003971504503994131, -0.004619057394933404, 0.011194442476812339, -0.018053810059397393, -0.0057341058368991105, -0.011136665734407927, 0.003641503070115756, 0.005088992331854661, 0.007572223309581614, -0.0039450558581842435, 0.00923055163801261], [1.0668135477435883e-05, 0.02559748336654562, 0.010013333974347475, 0.002371508811515198, -0.003677444399576262, 0.007733759078127672, -0.013398675477353612, 0.007305518134075661, -0.010970847626164588, -0.009884571479594047, 0.003600994869167562, 0.0020059338800518453, -0.004973569696675308, -0.0001566309715535403, 0.002696407540823677, 0.001752952308565821, 0.008613897989052604, 0.008663155348929433, 0.00453372876448235, -0.0022748234959059635, 0.016562299836906075, -0.0187540960026008, 0.008641546073849246, -0.0041911623291919905, -0.010150126122025685, 0.016219392997534166, 0.003624794012768453, 0.009410202380017735, 0.0055352383810806805, -0.006904994995145772, -0.0028854695677320795, 6.716954141893456e-06, 0.009120460234241299, 0.0016662118775714726, 0.014097253182713725, -0.007068997235830892, 0.010099304381458282, 0.015277509542735511, -0.027456665165076524, 0.012936005635211419, 0.004421807329342873, 0.004934321106310381, -0.018402720454092022, -0.0007502612051854342, -0.0025214350095973453, -0.013054722004311257, -0.006363981917038767, -0.015737835922606566, 0.0043745435974911, -0.00868155848262985, 0.010364380545607938, -0.008271555459098183, -0.0016862595710332754, -0.001649255908078355, -0.021991287296487725, 0.01113952314626929, -0.00870041991929634, -0.01027792371785217, 0.002416897557231748, -0.008544990781032774, -0.003947713075767539, 0.0018468329351830875, 0.005252483511829768, 0.00613340805304929, -0.01606615136970162, 0.01145073305880634, 0.0025882138585101976, -0.01620353569506129, 0.012876456916409243, 0.008787355484400503, -0.016224546077863305, -0.00489778830687657, 0.01305184005518468, 0.008251915445034837, 0.006910477090094557, 0.009739119802466997, 0.0013136653216013568, -0.008104981217098125, 0.0038638338746881415, -0.0193704953119139, 0.017607495436333335, 0.013831311588236044, -0.0013102842464458191, -0.005553694617697846, 0.0015777905759549894, -0.0011761674127234252, 0.009980510522234629, 0.0055568867306220685, -0.0049782011476627724, 0.014795680535298792, -0.00562576897986161, -0.02394911081234891, 0.00839263319128182, 0.005330549653599205, -0.009520025674100707, 0.010570327443790089, 0.006774864872399854, -0.012230911456759749, 0.00033842537987433023, 0.0012250431446984037, -0.014119584104133966, -0.0003565883569106166, -0.005802540524593357, -0.009402215917044005, -0.0020350024878245123, 0.026660339602971966, -0.013135849925057928, -0.0029181055638434275, 0.0006873728063164686, -0.014351396062303873, 0.028693139309898426, -0.00924073855086495, 0.006852677295291967, -0.005288148685396211, 0.012984186979085474, 0.0035776341921511146, 0.020393176345384244, 0.010928639234491081, 0.0001974871072577243, -0.01146116751452408, -0.007719659677479387, 0.007611395421953398, 0.002950309291320708, 0.001405228122645507, 0.003219278130357627, 0.010808553580880684, -0.005444747525984787, -0.011187614084548568], [0.010276046136038067, 0.00551266974358294, -0.005844343846507669, 0.0040082356947758035, -0.014172242892630466, -0.004713895996710716, -0.004336216907100786, -0.003293211425182473, 0.005482351547002739, 0.008378040646838726, 0.015738559589239844, 0.01366160921205452, -0.006261246232524907, -0.006306213976026573, -0.005457111933521319, -0.004964848983736475, 0.007623135747807139, -0.007774946982584817, -0.009809224787996297, -0.009067850827423807, -0.0056766309738004485, 0.0028092921622021707, 0.0068229069191220884, -0.015702245109957158, -0.008550295300546401, 0.007015396757482522, 0.003964600508583644, 0.002671658054030901, -0.005643143008883138, -0.007635443778724824, -0.010241833434065723, 0.004334165311218563, -0.004892157475386143, -0.0032077261140144903, -0.006223518240012032, -0.0004293595500275232, -0.016941682475278486, 0.020783987753198098, 0.0105370749874097, -0.0167925381724135, 0.009090422420159061, -0.0012012484682563168, 0.010722607953685542, -0.022104743556854208, -0.015109502333721853, 0.016032483858806828, -0.00479367639796581, 0.0008246453720935099, 0.005461923817448975, -0.009475516013819421, -0.0068998456723330485, -0.004778905078815089, 0.00016470117803753668, -0.0007248460777837477, -0.003907842945267991, -0.003281961310532568, -0.0021688642477068172, 0.006519735490166821, -0.007647702743639566, 0.007238931015271664, 0.010848234762757415, -0.006012239431786578, -0.003499288508159018, 0.005656225745312544, -0.00017250411968663612, 0.011044961017609012, -0.00824216089919704, -0.0024601742680844876, 0.003569952915526309, 0.010773666474549744, -0.0015751486714891036, -0.00049986747612215, 0.003276353257772641, 0.0020006696078161404, 0.003807626261234903, -0.011395679245998198, -0.0101240931504386, -0.005999508142790957, 0.008145094311862238, 0.014127789726806237, -0.0050755667644510295, 0.0076827506483077845, -0.02014842336440669, -0.002514736370269283, 0.013584102347559704, 0.0003629161146070807, -0.003077681962859074, -0.00531975691941214, 0.01705319344439363, -0.008952759147987986, 0.011592902067414784, 0.0013567939323919551, -0.0050811038401906115, -0.00823708174679225, -0.009673025734433944, 0.01825103560029948, -0.010021574632739765, -0.005234992221360085, 0.0073683141332537465, 0.005177381174650388, 0.011630646126352614, 0.01053622167316411, -0.0024689484394975697, 0.00894111452181503, -0.020290185759023686, -0.0043069717794240545, -0.010599598373833782, 0.018680918678442633, -0.013211040676897554, 0.0005450026637042264, 0.013247624766627823, -0.005811874184318833, -0.003729513225227661, 0.008385010045067807, -0.0018867381137086248, 0.007367322442346102, -0.003476269749969788, -0.00010064153258140704, -0.011239129869827504, 0.004748449530949412, -0.004940416551713813, 0.0095392965086459, -0.011920255450583254, -0.0020276591506349787, 0.025725795538601045, 0.00483940687599866, -0.017968947796200622, -0.0016717532024724284], [-0.005754315667146391, -0.008226054405743834, -0.012272693191460862, -0.009738994518675412, 0.0004678241594216947, -0.002152549956167782, 0.011379419119448597, 0.0013866712357128964, 0.010642508759479804, 0.0022462533704259865, 0.013811944568464313, 0.013229669417137416, 0.012365876200973624, -0.020828913337006153, -0.0052653735996959486, -0.0023773465635760676, 0.00828927757852044, -0.009294831698087412, 0.0007064673192452893, 0.0012921388489780855, 0.0030019470778899155, 0.008037870683089813, 0.01338627356163041, -0.01673670572098886, 0.0026799177569038508, -0.012109680514791587, -0.0009428574523372151, -0.001492958494724415, -0.013874094903460159, -0.008506522404533872, -0.003944024269009141, 0.0014202929970411604, 0.0022135803785735737, 0.001533832918903432, -0.00849510687621354, -0.01330526088418839, 0.011272698275486236, 0.008951550060437415, -0.010245195503693533, -0.0007137396574559158, 0.005760144425306649, 0.007961053018627422, -0.01635198078490067, 0.011925250251791952, 0.005801341427687492, 0.0025523034372856835, 0.013140616989085401, 0.0056191578571394086, 0.010562487792360738, 0.02203683623099271, 0.014266471361849454, 0.017790918078314906, -0.001128611445650691, -0.0023310076781168482, -0.008429143740885324, 0.0012517331699124941, -0.004594099839106295, 0.0005154149793077914, -0.0036386021268489236, 0.009977946463615543, 0.011427470328886904, 0.0055672985316929996, -0.0015198211242361927, 0.0010143904901092936, 0.010929478027766783, -0.0005676889283868241, 0.009795577128891356, -0.0119782497613849, -0.009053751740447587, 0.002896711810528707, -0.0038833636341481428, -0.005938808757526288, -0.002085844384717087, 0.007120577709920437, -0.0042728506344565575, -0.006814406725577159, -0.014067366355354324, -0.0007221775714057014, 0.008546421149107742, -0.006883068127811817, 0.009655590481498296, -0.009778052704911569, 0.00284024622449914, -0.006322771399794358, 0.008114462772505496, -0.00041016118672168394, -0.0031386357618737107, -0.019014360270315087, 0.026227378515409183, -0.004887282207280327, -0.006049258973580407, 0.010393611007241947, 0.0009790555682884614, -0.00802563232096329, -0.006050656616863268, -0.007112512839627032, -0.0130342476627155, 3.898521292629391e-06, 0.013192498598371637, 0.007402948871457167, -0.003981776704850592, 0.01789379754889368, 0.009040763995842428, -0.0006245304302258059, 0.013630669698634964, -0.002604175647377704, 0.008048665405579521, -0.010588992515257821, 0.0116832909499474, -0.011559345271086327, 0.010055160598408623, -0.004272981989845666, 0.01710750163649301, 0.0026491880323843936, -0.002969046287024117, 0.009314423811525455, 0.01071860879581009, 0.0076588759640038055, 0.011616017971804877, 0.02873275384780495, -0.0012046661844864386, 0.010324881241038263, 0.012027876942098325, -0.012393318176960754, -0.0017191251618369169, 0.007384471143093645, 0.018277169960433454, 0.00227378376402099], [0.0023114013221555065, 0.0023674352313582474, 0.007468449238069257, -0.003888619709862461, 0.007044824803769218, 0.021170893430400715, -0.006723152272019668, 0.00480863552502742, -0.00951722197552703, 0.0032576259472582585, 0.001423546309576584, 0.00295811007045572, -0.004847546502102076, 0.01700867623389181, -0.0051686046792240635, 0.010846976558119758, 0.0016641719687619314, -0.017601246298994944, 0.007398663543119708, -0.01143379478027559, 0.002538253316927048, 0.014062141513273282, -0.0034848897698930652, 0.007814077901282614, -0.008541049079016342, -0.015547109553463914, -0.0021997541403336327, 0.00792170596294529, 0.0011407753769153255, -0.006774958755501082, -0.007257245193891189, -0.000544560177823465, -0.002801123570844188, 0.006090002116697618, 0.004761394930088352, -0.009355776639486947, -0.006213274133814826, 0.004002959650153587, -0.007674376202183758, 0.0027718755892897876, -0.008433095926297292, 0.0018281565567313698, 0.0029601587509573515, -0.016236554755445533, -0.01003332348425592, 0.01388134448386722, 0.0013846845148262003, -0.0053065193779549815, -0.004604769059617552, -0.0050273910194954235, 0.0035849231616960336, -0.003631810704038747, 0.004145469761126652, 0.00013989008323119553, 0.0007021173013209584, 0.019615754750803866, 0.0074572649957106, 0.005532675066224037, 0.015550490247175287, 0.0021512429129793642, -0.002181412031719012, 0.02182545856432858, 0.006687362612017143, -0.02161738302508142, -0.011249431073227454, -0.017435059335089095, -0.011690842348861929, 0.002413764716767107, -0.01969069035221469, -0.012537690561993347, 0.009645822477102864, -0.024623325350545622, -0.0025621855920482995, 0.012205733861315748, 0.013025319382912435, -0.00263006788354735, 0.004926269093500899, -0.008116557060439006, -0.015219138491693405, 0.004462683299070497, 0.003027695240035763, 0.00218373328835757, -0.003792679437552069, 0.0022754142249208032, -0.014494106969211096, -0.012055908120068091, 0.022995622478731725, -0.003056939087921231, -0.0036018742528087623, -0.011692100617931125, 0.007392553626139448, 0.0003796679749901682, 0.004382073605123418, -0.004554562571247324, -0.004063564918100484, -0.0019030962550363644, 0.013953749082852821, -0.013473052719502653, -0.01318403279635561, 0.0007917697932245266, 0.004233254279493963, -0.003043528482751207, 0.000791423599130767, 0.013846520627542862, 0.0037426546155346807, -0.013347335583896218, 0.006288648396711387, -0.004107084404485423, 0.0038422708860392824, -0.005155645267386378, -0.0024489530000291796, 0.0208337927431166, 0.0023028357819590184, 0.008951855784489865, -0.0027223145289150363, -0.007251198027118827, -0.007167191473716966, 0.0011315805178624065, -0.0020933574696264277, 0.013665330325785834, -0.0033591130370848534, 0.004968018788323088, -0.002873866731107156, -0.01046768724228128, 0.008966819071423052, 0.017836000546757415, 0.0017073139914904497, 0.0012196356363587773], [-0.005991042961875023, -0.010196803752413986, -0.005207945113211259, 0.0060580910394907456, -0.011000786634720485, -0.01126914929507641, 0.003984866837633192, -0.006190040564158886, -0.020477313503900512, 0.01491154042397741, -0.011701781024351331, 0.0004980929702792026, 0.005562328113674291, 0.010350920809561298, 0.0021196435026491272, 0.0027832307129419696, 0.013336983199816669, -0.007019931646110207, 0.007161173778826531, 0.002215172879376663, -0.004353125651851279, 0.009082072362797147, -0.007946391941534863, 0.00800378031645329, -0.005843056659081125, 0.012867720208167644, 0.021863892482205466, -0.001020461557327925, 0.006390830445424719, -0.0010340046137465853, -0.007171149220721065, 0.0054786365625629566, -0.006892975174904652, 0.008480290384888386, -0.0013380507746284117, -0.002560615435225803, -0.021150441467469226, 0.008975424452965109, 0.009827734217297822, 0.025458872893657367, -0.012199695962774612, -0.007298819985597579, 0.008924873691620984, 0.004349530544484239, 0.0038639275154888535, 0.012901638704639347, 0.0012384050912639102, 0.004676333812530259, -0.001746437984732049, 0.005389619532416528, 0.007622764911551549, -0.01272312493896774, -0.023873316962861983, 0.01655596472762177, -0.0068995752900758624, 0.0006725495686995031, 0.014358215567390848, 0.0009355698813946143, -0.008620278399094348, -0.005128605013121599, -0.004636369137279542, -0.010365040405544068, 0.030681812608238792, -0.010503146624273131, 0.002317767468592156, -0.0015045381010174133, 0.0025568651230976134, 0.01053218977533829, -0.0012865654814289559, 0.010559563118705742, -0.007042925270144613, -0.009255676248276272, -0.013182074130332608, -0.01189757323019335, 0.015041216294118443, -0.010076888367781832, 0.008681327126730318, 0.0019686545788114842, 0.009242469812772753, 0.009893200346075586, 0.014138658448552142, -0.020280948897987917, 0.005747700079355909, 0.0005413281277144047, 0.016548961130907213, -0.0034856315586807934, 0.005491846276154167, 0.008814472120643534, 0.004482898102925089, -7.686581262242645e-05, -0.009466448589425004, 0.006735087577508669, -0.0029924628459295326, -0.010764429223416234, 0.003454685404481131, 0.0058624761082452905, -0.007844120584078839, 0.005100498678627327, 0.002715175696917474, 0.0048328964812439975, -0.013190693289033108, 0.002895211080814217, 0.0038369569961010297, -0.012938161187411984, 0.004766857320356295, 0.0012786977431699916, -0.011247799118861758, 0.010279177241267642, 0.016322477881146952, -0.01993758421571917, 0.01856824865682554, -0.006180594755057974, 0.015372179740474938, -0.02043604085166082, 0.003706837379369514, -0.02268444318791731, 0.0021431322551578643, 0.004111462990914179, -0.018510843185847916, 0.02653148133332134, -0.003654012558077816, -0.0018758702824750294, -0.0016384704499649975, 0.0056137175444932125, -0.005333193218718251, -0.016457719493685262, 0.004031517569055602, -0.007177001220065694], [0.018274657263604086, 0.019494401674844744, -0.012971231198163513, -0.012872330601640844, 0.021716552355216804, -0.0003557292559734243, 0.012477776636997055, -0.004529847050343386, -0.008935649719937357, 0.0009470062703128434, -0.008438648316960395, 0.011360497138211951, -0.007472114114688816, -0.015125308066019886, -0.005520190425411287, -0.008147915498368649, 0.0007069968801996469, 0.002695680674372872, 0.007573247284540097, -0.007091102945879306, 0.002781932216440697, -0.0063867391798591135, -0.0033169347582766265, 0.004254347580131515, -0.005304879935878023, 0.01356592028077417, -0.003341891476179886, 0.0011021560841379388, 0.010012759268610344, 0.0029238890845821024, -0.009474120639291539, 0.0009999889745545667, 0.017268438045993678, 0.009972828343533002, 0.006279552553605477, -0.008500382002547786, 0.015613808813606906, 0.0006426660538109235, -0.009570008851002171, 0.003951818274943162, -0.014891641718490884, -0.0055656078725063104, 0.008148023769868926, -0.014943884967256122, 0.02639793966364793, 0.00561348029523822, 0.01087237671689585, -0.006927548850021523, -0.010077834509561468, 0.016283688177547925, -0.005642945145399021, -0.00391037937275214, -0.00916189237646639, -0.0038114649885991293, -0.0013523229298260156, 