{"type": "sequential", "layers": [{"type": "dense", "biases": [[0.00015381286421895201, 5.568606980505956e-05, 0.00030341379654599425, 0.00021423192396179727, 0.00014086910464155812, 0.00031357420768811763, 4.7613218523107575e-06, 0.00030872264813425817, 0.00013491598500393355, -4.7946081331913506e-05, -0.0003141278520007792, 0.00016478754359896218, 7.941000650523545e-05, 0.00022751757502713203, 0.0004713463545220642, 0.00010387104546022414, 0.00032140498623718075, -5.780494008699761e-05, 0.000312083362540215, 5.09992952270926e-05, -0.00016036736929800227, 0.0001114371657670308, 0.0001866263925829555, 5.339387981133099e-06, -0.00011358819894806952, -0.0002032179300540962, 6.41217843994977e-05, -2.473317831851132e-05, 0.00017950561457434231, 5.7767465357957075e-05, 0.00022793799432266058, 3.4117296685502526e-05, 2.5255077873870317e-05, 0.00011577377767908895, -0.00023921384797004631, -6.259615253976207e-05, 0.0001185382503294305, -4.031624287249274e-05, 0.00011289322855659428, 4.787547252052437e-06, 0.00046145574962557564, 9.602081232401211e-05, -4.7299982653955516e-05, 0.00013718734742759945, 0.0003163292755004942, -0.0002727326892990674, -8.436605884370278e-05, 9.260544848688072e-05, 0.00017989475671264236, 0.0001374291162053239, 0.00010091603166386739, 0.00016688742346876055, 0.00012525036625325516, 0.00023829717339125104, 0.00032016157093793475, 2.396043899184642e-05, 0.00026907969549303526, -1.1922819331086506e-05, 4.5890101533369034e-06, 6.845300646545586e-05, 9.525849562995165e-06, 0.00020592132739084812, -3.165127863393236e-05, 0.0001979827575244625, 5.9992721015724004e-05, -0.00039116280922249573, -8.942802192838694e-06, 6.963751659254734e-05, 0.00040718809397464236, 0.00031938569658663044, -0.0003709421492493219, 0.00031432893129907616, -5.960506573212747e-05, 0.00013474533288490315, 0.0001944994220392698, -0.0002770259546595747, -0.00014222969270311653, 0.00017449910379010764, -8.893669804993777e-06, -4.014706700218545e-05, 0.00018458625023432603, 0.00015303842448574447, 0.0002169004002643344, 7.049305645767122e-05, 3.375331388435562e-05, 0.00017819082442416153, 4.520263825085475e-05, 3.715558266807225e-05, 0.0001814521673843096, 0.00014888314068339808, 2.445948258597539e-05, 6.498437146946855e-05, -0.0001331708858342523, 9.560102055769752e-05, -3.37733439127808e-06, -2.094170561812828e-05, -6.964040978373329e-05, 0.00011725380579805401, 0.0001389758438567548, -3.0011983660118424e-05, 3.279353589740871e-05, 4.547330998004653e-05, -1.9519475532774125e-05, -0.0004152745831055193, 9.539194451173086e-07, 0.00021545656920630957, 9.887075193396204e-05, 0.00010480826258472582, 0.00027600855511044806, 0.00012869065364768347, -4.722105390588807e-05, 4.822773320581779e-05, 0.00014013105587085738, 0.00015200546638064884, 0.0001316983347007215, 0.00014758438580549104, 0.00012283965557731457, -0.00017475742931827512, -2.0756288173016227e-05, 0.0001231661271274707, -0.00011163823130204698, -2.214785282761062e-05, 0.00017755688779620539, 0.0001803752757238185, -0.0002459303572001997, 0.00019180639968046552, -0.00013772689747721916, -4.672911445405441e-05]], "weights": [[0.01340894914999693, 0.007685866857329068, -0.011423603852867465, 0.017433554089805715, 0.017773765931440373, 0.0006169281439625486, 0.014030993367415074, 0.0021980662218296356, 5.68477572748678e-05, 0.017021399383627896, 0.009931667655470041, -0.01377061625629831, -0.010697355688972898, -0.0036253381941357917, -0.000737265717236634, -0.0007774613575740729, 0.004835437324364564, 0.017295655073571094, -0.013704257922924375, -0.006432629864017237, -0.01791560577524546, 0.0058752982039962445, 0.010740441767229705, -0.0021949959234349764, 0.012152024827968769, -0.002043708696308024, 0.012678192130252187, 0.008049058827524479, 0.0008654903836564854, -0.000191857661321332, -0.006627053130419592, -0.003731534458211097, -0.0005931218941320108, -0.0009808185839513938, 0.012973745838659534, -0.002632572952817312, -0.005773141422835817, -0.017301483781528886, 0.007472758764850409, 0.01264784391399344, -0.005361144527389282, 0.005320194822312759, 0.00842470519595303, -0.006214450260641125, -0.009231136634671509, 0.00040785570512369537, -0.00826828187658682, 0.005428054138948023, 0.012992334525144708, 0.008403301055802916, 0.020092446757770374, -0.007855595473316448, 0.006438706656116324, -0.002209109085155885, 0.016711071601731495, -0.006647570536415457, 0.004559397625647608, -0.01220222895942127, -0.016205924212176214, 0.012379688820646809, 0.01039768497384339, -0.011522591287655625, 0.0033500262197944113, -0.006632490759770577, 0.0033023295437937003, -0.0038770799945772962, 0.0035343471841730667, -0.005238145994292862, 0.022714336333849967, 0.004922558813828718, 0.00026330438864027454, 0.021911685769742856, -0.002742263587434859, 0.020253362194846438, 0.002422600807888071, 0.014904017556524785, -0.0015934289566184245, -0.008662736411719683, -0.003082398856286821, -0.0018743110038085217, -0.002933059648474975, -0.015379220795015126, -0.012806999111821777, -0.010380943201154761, 0.015539156535255937, 0.017447682296509323, -0.009128014550342236, 0.004432652844374078, -0.010034538023407818, -0.02627171519074592, -0.01563575164996662, 0.012093748443872659, 0.004314318718937251, -0.006500253734080018, 0.00010070618284567908, -0.008129830964096989, -0.004643086913224634, 0.012247111647216279, 0.0054162003402392755, 0.005850313434431943, -0.022630248382200444, -0.008323118490869951, 0.007072388979478105, -0.0032718762743572157, 0.006504824319187925, -0.009283163273423193, -0.013326815365418082, 0.004765091542094614, -0.002997933380025095, -0.014274847713441908, -0.008348647004390575, -0.013190321483958142, -0.004567317386565938, -0.008614427665031486, -0.011714679020132868, 0.002797110758615008, 0.0011006963163491023, 0.004128115262687636, 0.0018985056841786482, -0.007730084521070819, 0.002194366402200525, 0.014832969345134037, 9.954473384029861e-05, 0.007829640710641038, -0.004814785050987063, -0.0030661664011185515, 0.0038314790189761362, -0.0019085606723696958], [0.006883696578239979, 0.017203651062017215, 0.012555668117800131, -0.00011872031646290944, 0.00019961173325708058, -0.01330337008826404, 0.010720040864551821, -0.007894107239340368, -0.009554303754071337, 0.02955056843059129, 0.00487493336912068, 0.009876689809404388, 0.020560306341573086, 0.0034844473845276726, -0.013736120062591362, -0.0010313138590373658, 0.010077828101933256, 0.009568349229264762, -0.00291454999105708, -0.006683469495212682, -0.0004379341666752172, -0.006656566618968877, -0.005928030545290471, 0.0006412400021143299, -0.007958769546412009, -0.015791363130124084, 0.001704993560784849, -0.013054266405356243, 0.0006811258222055296, -0.004383121027737345, -0.0015232775475638553, -0.004771870388402515, -0.010154324952064813, 0.007884936628409493, -0.01115247272060854, 0.006512770527486563, -0.028585378649699344, -0.0013564086726681594, -0.002014575988439873, 0.02141929779691902, 0.008776971410244314, 0.00018363490841025965, 0.02083882732463632, 0.0029136116032250654, -0.024669827967574165, 0.02594446126178197, -0.016545932059470053, -0.009854794656454575, -0.002250950490190764, 0.014022329838297607, -0.010313568362521633, 0.01239471752988871, -0.010583168971941661, -0.004312350913049474, 0.013086730343042724, 0.010048080593115518, -0.006316059379491467, -0.01411196382233632, 0.0085965758793454, -0.0016640028906319093, -0.01173276704466241, 0.007625108966179056, -0.005513879403101448, -0.00461417960600023, 0.016803482526063417, -0.005975540115518877, 0.0036188705634662287, 0.002271376164449674, -0.004633521845414826, -0.008001058409394338, 0.009918657120932636, -0.011761673527729624, -0.000658023128213059, -0.006795873477464796, 0.01716284043147208, -0.011786289061608033, -0.01082615692237601, 0.009319286002709506, -0.0058414460130010604, -0.011570632871913369, -0.004122931466127812, 0.00866308395618129, 0.0031003265417036603, -0.0028403650184960316, 0.004997620389709981, 0.016198144596091268, 0.01913142051472387, 0.0012549826880199776, 0.0052180744433863715, -0.00432770120071762, 0.002830178868582232, -0.003726017167717033, 0.0007841906697062647, -0.0006303584537365737, 0.0011617030175790832, 0.009508929594915377, -0.009292330600585689, -0.023244771579044345, 0.001664833517584549, -0.014117144559189556, -0.006935676047299001, -0.013446570775148624, 0.007462819898235221, 0.000778535659258174, 0.01707031411066884, -0.014423945799220007, 0.0018824271959671213, 0.012733648152227106, 0.021468081372482586, -0.014637106409761727, 0.010514917651716098, -0.007391626085693979, -0.021026534959712993, -0.00627906045669575, 0.02176790433307352, -0.008128048575176176, -0.0118723629644765, -0.00044000239976816854, 0.019507404948292534, 0.007322366996193636, 0.004834263758526754, -0.019698924770339014, -0.008744432303057964, 0.004208202530248347, 0.003787172605444506, -0.009543463980141397, 0.008949018050989146, -0.003226197972384173], [0.008097057609748328, -0.007494907966963627, -0.00868129703544431, -0.007849591009450324, -0.000812459466071285, 0.0018468285943539593, 0.012973395464113462, -0.009019407229929001, -0.01016672287858427, 0.005652325318009453, 0.017740411672122838, -0.0009843019415701722, -0.014414165219608316, 0.00016069353712340855, -0.006523475330495991, 0.0027856047377431393, -0.011587882614854226, -0.001663070319844909, 0.006724354179827712, -0.002819017065423657, -0.015949739730904175, -0.005921767991814926, -0.013022662424020113, -0.0059085704093964474, 0.0017276658278700258, -0.005397841350756177, -0.008187180656248249, 0.0008588711956918565, 0.007235902923791392, 0.0027391037018384963, 0.008506290855088165, 0.016543865544070255, 0.00031928394895142765, -0.01477579438825217, 0.014972559168688272, 0.0020222814416645707, -0.000829386771649617, 0.007210348104535952, -0.005428277532490321, 0.0022397477536311608, -0.008447616126381164, -0.01888649722654566, 0.0013834089211282787, -0.010836747581158377, 0.01575349289705622, -0.011461508038355068, 0.0006943325735048678, 0.009204183946586687, -0.0016235065713651878, -0.018739831387641542, -0.013557573809289918, -0.025875243210437875, -0.005698290629877129, 0.009489003595446103, 0.00585298545018443, -0.0030283230192467846, -0.002927845023009585, -0.017093824149911802, 0.0029746206493040566, 0.011531981217742966, -0.0038675156522815254, -0.011048161492038322, 0.006379912405593224, -0.007858493167767546, 0.009453543849524897, 0.013095023116113935, -0.0040489735034390986, 0.0016670513143455742, -0.011083107433757245, 0.011726058910025566, 0.004114757216994559, 0.00607311034835558, 0.005648659180121442, -0.008213369554310027, 0.007646285076908989, -0.006130586647463775, -0.007368953212665449, 0.0009345427939633503, 0.008561790431220007, 0.013972581335536624, 0.00038537440314901424, -0.0005464840847195723, 0.02654007236755692, -0.0017751930704303493, 0.00010889538170692322, -0.004139495903141847, 0.013529934144507774, 0.011260800525417653, 0.015443515008349099, -0.00660578669624406, 0.012825577929226471, -0.0027647246651725135, 0.011915760535017939, -0.002110991871048198, 0.013682522479200307, -0.003252796903306785, -0.008098010215808726, 0.006527289241414067, 0.000986599223426226, 0.007723171199996677, -0.003649903446760892, 0.017787902893492025, -0.007198799758100523, -0.017867067866701003, 0.007075393642905984, 0.002138819641779948, 0.017148043349894934, -0.015146472093138954, -0.008825936037889425, 0.011349424638313422, -0.004939111347530891, -0.012578891052103578, -0.02260861258496644, 0.002329213775171202, 0.00753786063682953, 0.013945460344129551, -0.007654738136532142, -0.010080869787036517, -0.010559233123014208, 0.003864504174626707, -0.008907514397318331, -0.0018648129162400784, -0.014870835888732208, -0.002252338343981878, -0.007728115841411796, -0.006032189119767288, -0.0029660847436908146, 0.008201541334283522], [-0.0015756340607005698, 0.004541182265690189, -0.0009766929385772844, -0.011910944010046031, -0.008638775554114778, -0.02196960397195098, 0.011661539971915505, -0.006419903314737027, 0.0035928928248715403, -0.00435090751241217, -0.006055078624777737, 0.0008369049114839423, -0.002653739104120676, 0.02020756770130007, 0.004715227850192165, 0.0027482172178388267, -0.0021501371625623, -0.004382750008422174, -0.016890345406838238, -0.012174643994459926, -0.00398421372261432, 0.011432550494663666, -0.01334456716912658, 0.012976546299678598, -0.00020354613793710207, 0.006354501790439837, 0.006211633015025525, -0.012270019743236524, 0.003855297663554433, 0.009905231839432444, 0.0007612890029424664, -0.013495669243599134, -0.004323999074157779, -0.008073869313361378, 0.012114665951513146, 0.011300559862572397, -0.0034183174915295455, -0.0070082950502529185, 0.021888876025815733, 0.01038173727006762, -0.0040152912047298275, 0.0003613883661827111, -0.013236471133537073, 0.012619563878589684, 0.02589007742305484, 0.011442203431166713, 0.0068332575154121675, 0.018595709104494613, 7.220010293754e-05, 0.0063961082679833406, 0.0029504923494570222, -0.00331567341806688, 0.006534808318375608, -0.008300350406544633, -0.007385424756111714, -0.006282155027792377, 0.021262876204739847, 0.0005684810234035217, 0.012337235220202483, 0.011634164844415092, -0.002073656875168022, -0.01768022139003359, 0.010807610795489354, -0.0073286202278206305, -0.0012172593005687336, -0.008438875223021102, 0.0008048282163521311, 0.015449085290529586, 0.0019262539285340994, 0.0032968923628670923, 0.0005272929125328684, 0.016982432307847645, 0.009736360488690574, 0.0013220126904835885, -0.01584946769809999, -0.014278514901071782, -0.0165203970722631, -0.011837532382384353, -0.007093627335732545, 0.001650403239059903, -0.022671452397298265, 0.010857111926477621, -0.002843251866360332, -0.0048908736225232044, -0.01455967957871279, 0.0022301407681264117, 0.012301955089726004, -0.005950281568860436, 0.0030253634110518337, 0.0016521796693346649, 0.007528807997358789, -0.0007141619304371259, -0.012278384525191342, 0.016778415398256332, 0.0022805404494855653, 0.009847033396038575, -0.002919058814963623, 0.001452288572409887, 0.02120841901439368, -0.0014937531819072866, 0.0035307827682296384, 0.003177075306619438, -0.018343430511327016, 0.008354089601140318, 0.005982417962886455, 0.004304596444506885, 0.017378002723021292, -0.0074097895382923135, 0.003438578386120586, -0.009318105906888573, 0.012317479115726416, 0.017656970759549005, 0.003673514129803014, -0.01769584458615533, 0.005570411180682533, 0.00956623725798935, -0.0011276994510705793, -0.0014282764825794695, -0.03387450218444847, -0.007299615396088882, 0.008962520527966474, 0.0006837700770724235, -0.0011153015730605348, 0.006793682351273342, 0.0012329799733141308, 0.012952167661865561, -0.005734538091623704, 0.013884507437913134], [-0.0003215330804373865, 0.010126440903202765, -0.005906164003367899, -0.011852752376183774, -0.005473015740003638, 0.001483531364921265, 0.02108318965327906, 0.012823541334803588, 0.0045987853074194365, 0.007645401131609375, -0.0006688092905743254, -0.012005926964609242, -0.0005684941592483635, -0.006393577663868334, -0.008168992892092008, 0.015512756969194436, 0.004881174956012623, -0.009470736018676543, 0.0006144772599984178, 0.015371713106245447, 0.031308463868519085, -0.004894395543923878, 0.0014908777622845283, 0.007002487644747451, -0.0071948096113623175, -0.004333746903260603, -0.005476273393910808, 0.015958387754465654, -0.008919486142334338, 0.0012672262039140458, 0.01430204909669934, -0.0055515797911136425, -0.01885494662591167, 0.0018262791358637643, 0.009656578854792198, -0.009465648574808777, 0.018517888369437213, 0.001918811513740349, -0.008006720605853525, -0.01961783521634829, 0.01958078378337722, 0.006842171341232327, 0.008912100549561094, -0.015766434353501804, -0.005280831595056268, 0.0005650021788617509, -0.01083299336570058, 0.005500553728051581, -0.008036124241360555, 0.004511267820299343, -0.011956152990849584, 0.006653719868191612, 0.007313954028455914, 0.003760306552816804, 0.0050579152955556855, 0.008547532766607883, -0.0034328292542277674, 0.004660390317120658, 0.00046554726509084106, 0.00731309954413044, -0.019013751388985395, 0.004126085191165646, 0.0056589806077762365, -0.003766181648106056, 0.011169405560104382, 0.0005814134143254109, 0.014485635158988746, -0.007535040880210985, 0.000497514968211539, 0.009924987893205308, -0.006277345259568784, 0.006446466721258345, 0.005619717973266282, 0.007612996126611129, 0.007697032103525702, 0.005911966387322453, 0.0022355080890729758, 5.211310551466264e-06, -0.011502475212860018, -0.00410545158272933, 0.003348786852222261, 0.025988286798587956, 0.01848926328242017, -0.003964130615391595, -0.002855775564943518, 0.0023229961096130933, 0.002020638471255727, -0.009653930480098405, 5.004305104111262e-05, -0.004616168617970147, 0.014718616116949235, 0.005695145808670726, -0.0010431373560749301, 0.008407230931404674, 0.007351849453962375, 0.006255840395456912, 0.0056737421486157315, -0.00331618355550974, 0.0022973943043194615, 0.001774515010276392, 0.007157921913589991, 0.02151868510715081, -0.011275091448582611, 0.011239574363152673, 0.005919819082009565, -0.0011028265256796082, 0.0039228882844795894, -0.00361924769575695, 0.02581785059255037, -0.006939841115650876, -0.009384953504761238, 0.01418990720549287, 0.0024178090156230132, -0.010704844254716064, 0.011357693719426229, 0.0072210886088159626, -0.009170956681120264, -0.002391107671790687, -0.0017188167668127261, 0.0007132316555527067, 0.004538667249893529, 0.015312566802688098, -0.005814402146229187, -0.01921369307217252, -0.012948034667500828, 0.0019170609985675999, 0.014310202009826254, -0.0017927105464370307], [0.005909967639846932, 0.002309624521526875, -0.008101845487709845, 0.0028119068175430167, -0.00487344091976383, 0.002111252823373261, 0.00971767733832988, -0.003043294164434474, 0.0063103715958197, -0.01493458194098976, -0.0019182413679878396, -0.0043493754972768, 0.00021057099250932504, -0.005865461598121846, 0.006352098845554333, -0.0015829227873246992, 0.024150989402598234, 0.013506479184230528, -0.00949128909051212, -0.014049386170075473, 0.004915365371961118, -0.0031711835612303254, 0.00653826456722238, 0.0006745755763086057, 0.020921392932705993, 0.010667506369384383, -0.019087710152425604, 0.0011962372872534584, 0.01781483814664785, -0.005355558288565032, -0.006574354504237623, -0.009829562479389714, -0.0038414800575636786, -0.005531961127907491, 0.005367712416060536, 0.00013000064660541755, -0.002603320823184841, -0.015416280489984153, -0.018463389926424788, 0.0010410576096647685, -0.009083128600473464, -0.004301865980780881, -0.015407552926731414, 0.0068561020418134435, -0.0048452448666316235, -0.004513764274071612, 0.0008088296437920687, 0.0016984217257110714, -0.014478424297128274, -0.016659382195179834, 0.003156638102810497, -0.0026926314602024972, -0.004645071827067802, 0.01855936006040263, 0.0030461881274277815, 0.00157532580357164, -0.00039600944435632155, -0.013028947282313479, -0.004412509952518486, 0.008167820173010579, -0.006147645365812935, 0.0057910858346945735, -0.010420492974829101, 0.0027520570436918245, 0.0034363652595629933, 0.008399292378762326, 0.005189632805165933, -0.013192163532077805, 0.015716732030638197, -0.0067987502724558, -0.009613721657405414, -0.006023214872136731, -0.0009189299569979856, 0.0030303914962307586, -0.018077802765639524, 0.013575011038400572, -0.011724944907904012, 2.1642759213969884e-05, 0.008299545505981266, 0.005625674702432285, -0.0029979194927740142, -0.010166043276081178, -0.013291086119054035, 0.0027437759459514413, -0.006369326276975622, -0.005996045574162341, -0.014745350569629896, 0.006302672048457544, -0.012572929579743201, -0.007576118521679754, -0.003529817698432527, -0.0019437818881453475, -0.012720866872311307, 0.005905152889854167, -0.009169350268957925, 0.0010421482808684345, -0.005654528268072346, 0.007528015898665898, -0.005401328562896766, 0.0031487422176870255, 0.0018153916696488671, 0.007558875183070495, 0.021703418430637306, 0.008944219726172452, -0.014322203120691074, 0.0037458294393368716, -0.005165299475615233, 0.0003387658087369696, -0.007587235065669769, 0.0015673175298933232, 0.0005302690839489548, -0.017854184900991523, -0.008782046406069858, 0.001755367116093222, 0.030788985281627945, -0.007183732511647405, -0.012017978551622253, -0.004723120732617646, 0.005991809573212781, 0.008567561025978087, 0.0031612744855905855, -0.0009596868346861518, 0.011145154991651193, 0.0014759058538904124, -0.022962704830942884, 0.000858147761464169, -0.003433213629519101, 0.002594826328109496], [0.023640607885716727, -0.003251031842485322, -0.0016113982473203584, 0.001977130179518516, -0.008984445285076038, -0.004068712581201624, -0.013187268687219556, -0.003951131693151719, -0.0074696058328114455, 0.008499070542949065, 0.0020980519726394435, -0.0011179169862400417, -0.005400235913556507, -0.025342318892948128, -0.009915630719062478, 0.0028161987825310116, -0.0005655798365892132, 0.005949007372375728, -0.0014889162430460803, -0.009079345692572481, -0.010575528813664511, 0.0012597918235503084, -0.018919996223513758, -0.03287328311421555, -0.01714979143919516, 0.010295844167883617, -0.0035082965066555285, 0.00599583105836224, -0.01764891171365965, 0.024292254776455708, -0.0025776125938985956, -0.004067069728259298, 0.006954007584266253, 0.01814949059191552, -0.004289674234116996, 0.003535623075614766, 0.012819614817915761, 0.01743197462222425, 0.004660948813109051, 0.010922435292337497, -0.0080329895901571, -0.0009465316417090598, 0.000323374977931955, -0.006951022417221643, 0.006871525818162486, -0.0029392959909948137, -0.005349240751039752, 0.011077005428136286, 0.0007762013929099403, -0.002560448317250381, 0.007450428044713115, 0.010054908099895534, -0.01110223015499687, -0.004616019426996055, -0.0045179583563206985, -0.008049613030487974, -0.005127737823302534, 0.009858220896324286, 0.004130622146323535, -0.004890060486285803, 0.0007546766853371693, -0.014155650914779435, 0.018485668498613977, 0.010436690453627486, 0.0018274379603950195, -0.01036210354418877, -0.003264575966891479, -0.009758198145306153, 0.006524169655240485, -0.013986236728346976, -0.010477120789810222, 0.008887283096271622, 0.011334954976596477, -0.005076092668987877, -0.0038319275885410494, 0.009931248473871846, -0.007846402295709647, -0.017046614966413035, -0.006950820239090537, 0.003368640639267615, -0.012950719498854636, 0.012579238746613035, -0.00023533229480066596, -0.019914704025367016, -0.01765386881059506, 0.011879655489592217, 0.013613655625815886, -0.01071888368116009, 0.010107285962170736, -0.004309105771091189, 0.007933177053675912, -0.009138616591769708, 0.0019137609241617248, -0.004848625644337649, 0.0014501921523597894, 0.007305567794570437, -0.011425224385106843, -0.012532579745526445, 0.015298718405291512, -0.005757180483470707, -0.013331444489166056, 0.003770137076674287, -0.009731662159520888, -0.009652530787941099, 0.0030872150206264167, -0.0065560660045027985, 0.021213971320926124, 0.015404300413814707, 0.01771125335926907, -0.009959094556762643, -0.0020086419239912206, -0.008240821043394133, 0.010263952566542136, 0.012584300379324809, -0.018652722316483926, -0.009509939450727234, 0.00419837806395519, 0.008099721775589935, 0.00017021907398965676, -0.014043478412549104, -0.019268727902686595, -0.009223353179760857, -0.002568778884509309, -0.0019344445817284616, 0.0036275280103278498, 0.013490368249428076, 0.0006448273742857602, 0.002642907873325559], [0.010591642515838686, 0.006542254915826626, 0.0010862059146848483, 0.017949647606469887, -0.016820264948129528, -0.008659355944036174, -0.001886099725479592, -0.004560567322094681, 0.005259643582734131, 0.005412420443131948, -0.0056663345436710685, -0.005969956255722483, 0.006433894874121118, -0.006591011737078399, -0.003095800324658371, 0.0077878904224484525, -0.01609431618758935, 0.008478324580257211, 0.008545257767298128, -0.004354487878421424, 0.011200553295510904, 0.01717567264858107, 0.021714786429161085, 0.007923485530879635, -0.0009255864382401434, 0.011084757044747838, 0.004499348983516756, 0.005398869031123641, -0.0011785810639667364, 0.021334376107471537, -0.010341505072907337, 0.005900485089419259, 0.014129433675276517, 0.012381757142739615, -0.012330198200713327, -0.003729307043677331, 0.007337340035205265, -0.00921183595182235, -0.003526423209258564, -0.001454774186159201, 0.007965185008807689, -0.002621215274956105, 0.006835771249662113, -0.008631088436823765, -0.0018655395421403108, -0.024503649242569175, 0.0013265261774756463, 0.0183052382442231, -0.006064997895354482, 0.006120291359345945, 0.0016036093904801979, 0.0037671367883308055, 0.0049953110292624515, 0.007761240922526307, 0.030247623150660544, 0.00029442567545660613, 0.019346059735656777, -0.00236810954147452, -0.01663079990429831, 0.0048225651751826895, 0.006907926396489359, -0.0017351775140556915, 0.011941297836399816, 0.008863386209788365, 0.019255069782949455, -0.003458605478771258, 0.004558915339403301, -0.01685824998595306, 0.005530358677777176, -0.011609144913921152, -0.0031256307836989095, -0.015190770681503707, 0.010042610788115669, -4.9795231307032034e-05, -0.011127247359916236, 0.008769585609679822, 0.00130425274703046, 0.009163411670403217, 0.005678370141030351, 0.007520428452567719, -0.007098429608793535, 0.006599122385650396, 0.0019265819015248356, -0.002176530578534152, 0.013147621024255228, -0.011750496554479224, 0.007700362395458532, 0.005392606252060602, 0.020015777338574434, 0.015051958246562759, -0.029164379315848695, 0.0015120617944329728, 0.0003883443885161072, 0.011120981926963995, 0.0050853439928453025, 0.003934839344966275, 0.0016071797754727364, 0.011841747714276296, -3.2856203509404016e-05, -0.005541993675353229, -0.019743277906856094, 0.009676377681038576, -0.011359871115116214, 0.0025415357873697962, 0.002933632795624805, -0.007564145351192714, 0.001744433991525495, -0.005327473323534411, -0.002651759844799752, -0.004280373093407481, 0.0068244375342161115, -0.004181141437426405, -0.03159341855031249, -0.0091436548237512, 0.0021752709009904255, 0.007755378410035353, -0.008168294508602075, -0.018574209310202018, 0.010756527553823555, -0.01756695998909543, 0.006173070399862386, 0.008934178038005718, -0.0007011139918365193, -0.002231322589015725, -0.0169617022445153, -0.0020068568406904665, -0.0032006846712735243, -0.0035165988181135592], [0.0005835669900049586, 0.001200994865709428, -0.011513506810559706, -0.0018288071895538865, 0.01511994671524916, 0.006819005758244222, 0.003994424461808745, 0.0007148985828684752, 0.00047895900464830935, -0.012422933174573715, 0.0020609188099015704, -0.0012381976085415647, -0.008178535600865088, -0.005699515215008638, 0.01194947817295418, 0.011926914419673243, -0.010268535632393213, -0.012589544562622453, 0.016303716831888547, -0.008934672315870985, 0.014516597762023294, 0.003621855896521987, 0.011047939711340986, 0.007468338509502089, -0.0001492050639547377, 0.011240136767230846, 0.002894139990529268, -0.00980721550584923, 0.0011330362498220728, 0.005243345548110872, -0.0027653434909319, 0.01917510541764781, 0.01941700049180783, -0.02642587494497333, -0.006901300648353825, 0.014883220741740049, 0.0011129574475400457, 0.0062067557646196085, -0.0010262741253248883, -0.002017298849593153, -0.014460491183334662, -0.0063350740538445, 0.020242189231890723, 0.006808730533141225, -0.022833067650240783, -0.008757592542572433, -0.002017413800887665, 0.010115102814145236, 0.0015444244780856591, -0.008734993761714334, 0.00032129783108885687, 0.003590985027652248, 0.001596822975905122, -0.004163657441903686, -0.0007353641353768207, -0.012000853392364648, 0.020987745594121067, 0.004357505669692683, 0.0017977071325144184, 0.011615324023849679, -0.0029363656957311552, -0.013220726204628835, 0.00024865809804056695, 0.008149910097252116, 0.014783907518622484, -0.01290574755143901, 0.018503015802448168, 0.0026821117541781783, 0.020852557595830795, 0.010608419957785293, -0.012465855593301886, 0.006024495533075039, 0.01469247823240649, -0.0072144186943313175, -0.0076551059464750396, 0.009182764260623557, -0.002760164442227001, 0.014306431240427917, -0.003097806694661825, 0.011470184363513618, 0.016584434078818436, 0.00536738058225991, -0.016096505985001917, 0.001843993524547339, -0.012103469284139681, -0.0011595537195034312, -0.012439136153406288, -0.0009051216234110779, 0.008116774422265733, -0.004230788399542975, -0.011114584786916988, -0.0026727193389125005, -0.006094229551130385, 0.011066645790952548, 0.020549326591796275, 0.005061322714798642, -0.015333354239527171, 0.01241612738189374, 0.006801009147380875, 0.006555832206579825, 0.009768684975744095, -0.011221854204639989, -0.011233169245416353, 0.010632403157881403, 0.003690867445151255, 0.01454935318966355, 0.005202400499009932, 0.0025422100099685547, -0.008640256424360669, 0.003121304512676305, 0.0070436122594802735, 0.008478117554464764, -0.023792422336599953, -0.016317586316121506, -0.003701759393988806, 0.006510555559376668, 0.003950434360759207, -0.004994161160586728, 0.0012416238509540406, -0.012708671988002714, 0.0026720533645468955, 0.009203013014457856, 0.0006944822841151583, 0.009494546606991169, -0.0012970553259208332, 0.001476925156394759, -0.014194379628158693, 0.016845708470778948], [-0.004225754810849384, 0.011279383355808305, -0.01254704808958574, 0.007731589806277116, -0.01619040644809215, -0.002911311048910121, 0.009177497089446264, 0.0008818400393255409, 0.008843917148646517, -0.0043306381281024405, 0.008202097576159443, -0.009887355150702241, 0.002180027241485095, -0.011463703931811986, 0.009426729902033852, -0.007378688304017531, 0.010070071840514316, 0.01777357352447578, -0.014365086762002906, 0.000804045242091436, -0.0032013720762367466, -0.0013714137507362288, 0.006203234578064542, -0.00047410986873125356, -0.010574584822461557, 0.005255499591437792, 0.0019519681057250026, 0.009122272460133054, -0.007142005580749641, -0.006951386932128596, 0.004235865544804327, -0.00295263115855671, 0.004917168435224461, 0.007056505055693384, 0.005007402184022957, -0.004084011456820257, 0.008326653648594827, 0.003153616095582703, -0.0025634628329591442, -0.004366447755051834, 0.0030184816485968632, -0.004586518192083325, -0.012454763761886076, -0.0184717365590167, -0.016041359884842156, -0.0026383279057424196, -0.010748345425651286, 0.0016098834927670172, 0.011577787444163979, -0.0012869138682038315, 0.0015555230764132389, 0.0028953159454470473, -0.009172423832021227, 0.005676972152778041, -0.011280485224750616, 0.008804656976572933, -0.007404112652139649, -0.00030448484541622796, 0.0010881800088797457, 0.006221111674923311, 0.016814361827871657, 0.003602965111949053, 0.005625426458438133, -0.008324673430538783, 0.006392102983384388, -0.001250062931534075, -0.009059393668580563, -0.0008663383585921419, 0.006066565275652057, 4.9278570397500566e-05, -0.012927492432102356, -0.003984953521186804, 0.018873318020149802, -0.0023678539271378704, -0.0008827278370559311, -0.01609585813584233, -0.004777693031122257, 0.007237805808678173, 0.0075051243117036865, 0.00021995789951148703, 0.007639416015266812, -0.010025229984800802, 0.008545349564339482, -0.001757554712105124, -0.021472159009091638, -0.009758436195499492, 0.00238756035545465, -0.005221517613790712, -0.019311825868063105, -0.013261701559973558, -0.0063017622170100695, -0.0021178686068834525, -0.0009696497931303249, 0.0062595335151772605, -0.0035008226490258025, -0.0037652717490605525, -0.014841048947920822, 0.009594925233241835, 0.014845283553191424, 0.002043744923784231, 0.01509931449980717, 0.00628197050116548, 0.011585194815270426, -0.004151285931262714, -0.0038824971704136788, 0.0035106877103272915, 0.006358547964028398, 0.0016724211913604968, 0.013555461825796629, -0.0013386741241945288, -0.0027547608349010374, -0.0019824760571406684, 0.00995474799530034, 0.011268418500349398, 0.01179218694990225, -0.012644655548449494, -0.007358156354392834, 0.009866689107380784, 0.016439007298747817, -0.00012032696206024863, -0.002769432465517617, -0.013089749577251435, 0.010539739095516157, -0.012878205582029635, -0.0033600488939630273, -0.010375782573631951, 0.000977241885676464, -0.007471594045063795], [0.010436983065682337, -0.006352191357420557, 0.013943496966096754, 0.0026352313379966992, 0.0024503107685739742, -0.00384668522241432, -0.0006692921785753181, -0.007552116237125216, -0.007532749104785985, 0.0034460859106785024, 0.015040098589112982, 0.004390319096786424, -0.012120476970702348, -0.0012078244216687118, -0.005246606438331696, 0.006261304898058316, -0.0167897078466104, -0.00024163766273398055, 0.001201523801839844, -0.009501911102247209, -0.001382552854435066, 0.016008672283486344, -0.0005083306024344392, 0.007225959563393688, 0.006954083918999268, -0.0068350328254392695, 0.007776454501638595, 0.0028605036086730602, -0.006067990874576948, 0.014252598616405168, -0.009102167359631935, -0.0038905599582941997, 0.007977589652479584, -0.031905358306083695, -0.012249380100536136, 0.004265072789442257, -0.0047189832175315435, 0.006783369665767793, -0.004838265847761386, -0.0009514679057078015, 0.003831927138528993, -0.0073477004273671724, 0.002875641600057748, -0.005829117018344004, -0.005923512785494166, 0.006814379999754983, -0.00213899490413375, -0.0009346620884803893, 0.00561975942126713, 0.00665147581381081, 0.0049580343898756865, 0.00549113736720646, -0.0037071636700419662, -0.01568476852106531, -0.002236164001980864, 0.0038147033092030265, 0.004098594799616839, 0.005925052587302074, 0.003481658730220832, -0.007896637804754962, -0.009266733100652512, -0.006028923887310374, 0.0027116631405575114, -0.0023835547481689395, 0.011353306075328829, 0.01138399474852763, -0.0029903609860898244, 0.008659048019749708, -0.0003937673197036254, -0.000613421270634777, 0.01536904768525008, 0.013419451728689018, 0.01487925871495502, -0.0013719669944504437, 0.004666939195084708, -0.0024812585566379654, 0.003477797912404549, -0.010105246768508163, 0.0027996410687543484, -0.01392827133426955, 0.007373991434384143, 0.0008079157579415565, -0.019941290244593984, -0.006498551059840645, -0.013639049651661943, 0.008704562457862343, -0.005278329644887685, -0.01469098595976922, -0.019681955387241882, 0.011987443607724666, 0.01119966490703646, 0.008194101483418315, -0.0004120017495290113, -0.013470221121601386, 0.0062939316888978745, 0.0020733523062164954, 0.006968413784832389, 0.0009963110140339371, 0.022000060093870576, -0.016289097926604424, 0.01031919109136154, -0.0035868056866928157, -0.0028685764701007798, 0.00162226283350584, 0.00534844075441801, 0.010372180695969855, -0.013861279955945839, -0.02611700032076985, -0.00669836461179979, 0.01074984895092682, 0.00019412521452540435, -0.007529724365488547, -0.008087898928293678, -0.0096502413201008, -0.0040349209331976875, -0.001867034694331137, -0.001722845036076681, 0.021753440564332746, 0.01152689231964825, 0.003203415084731346, -0.005058023397003625, 0.0037531115800069305, -0.0018197530602977205, -0.0077051254595581495, -0.01549302187271789, -0.005212781608088353, -0.004104556866672037, -0.0005754885097812744], [-0.0013252162552963383, 0.0028965177969991047, -0.0012559344530112513, 0.0052743621782071134, -0.006892006849953342, 0.005338957616680931, 0.0034954908478373194, 0.009190400862644306, -0.002530221573400321, 0.005657934860551489, -0.0008291634897402096, 0.0014408320284079524, 0.001295669237889832, -0.002892434935740829, -0.008142999098738744, -0.011938883263260456, -0.005872595949359931, 0.006692450639639408, 0.012576092211685291, 0.0035148485904711656, 0.004689785437177595, 0.03022846468585326, 0.004081326473388004, -0.015758813180585713, -0.02423104588031652, -0.010683402940552995, 0.012115509553858723, 0.0029077903622391796, 0.010032830876424394, -0.0093929936153402, -0.01460222188514861, 0.0237044752370755, 0.015530845202075632, -0.00541676828949241, -0.002410325695486379, 0.007581756141098623, 0.009302436566700717, -0.005411351214746137, 0.005034182106598609, -0.0005823100744871959, -0.010828151011104119, -0.01453113618895195, 0.006059075397371885, 0.022606307087402626, -0.026900848835418753, -0.013755480360856893, -0.008365516542627774, 0.00331033283616798, 0.0067845178604810374, 0.01003555421937544, 0.0012783918909123906, -0.006588831561055081, 0.0017904977102619199, 0.012680682329386772, -0.002682852466338075, 0.011945574346399195, 0.001177124044713326, 0.002960790674315534, -0.009816785262466673, 0.009646311636472827, -0.004118111463240613, 0.005619800605157275, 0.009255624414459249, 0.004873226033487122, -0.005841423317301814, 0.00652001077385945, 0.003816753806836037, 0.008184617514321984, 0.011534445990963992, -0.005976634784999125, 0.022559365060124816, -0.0022917933155168894, 0.010850977734471155, 0.018405815938565655, 0.0071661269484846616, -0.010887493023813078, -0.003459776256858385, -0.010890777705960837, -0.004222670546124934, -0.007659603885976485, -0.020724695642739207, 0.005520362132771304, 0.009551086126125945, -0.00716756186345567, -0.006003324864615865, -0.00174306331358913, 0.0075998890608899175, -0.018457036074260937, 0.005155786387634839, 0.017194823427575768, -0.009449396779266418, 0.0021790370260958308, -0.004155075534569478, 0.00019623542601728884, 0.009089482293421408, -0.004030869358910458, 0.006856737019726153, 0.0018444360785909845, -0.00023797099039117933, -0.008230530507437255, 0.005949543097024071, 0.0011619236410046522, -0.0037579006380110704, 0.0013512399559680874, 0.005191993290473554, 0.009452906859748148, -0.010113321038560639, 0.03089604032303383, -0.0008082809800391462, 0.01498327219276962, -0.002985139367138631, 0.0009907712684631698, 0.015773183647285294, -0.0022711991825425304, -0.004013811951264184, 0.0034935565841888784, -0.0048107831042310395, 0.01812109268919311, 0.006817820822912008, 0.01660350990891559, 0.01135666082959013, -0.003150038661526253, -0.00618204174655672, 0.01722225428366104, -0.011543585397605367, 0.0010369382314980437, -0.002615875147283, 0.008369303366897517], [0.005609967466094902, 0.018889162200450095, -0.004058232281424739, -0.0014763268519413612, -0.0034201658026506857, -0.004472369099467607, 0.009978905695379438, -0.007866654807830734, -0.0014148873395563885, 0.02338171600050538, 0.001938662578252256, -0.009376089255579813, -0.020904400425378403, -0.007408910220596266, 0.004725804600774056, -0.014253639539922753, -0.003565661047656158, -0.004286071603135924, 0.008984673361523813, 0.02564674440301148, -0.014401622937147397, 0.0004399082702198873, -0.008102026337828257, -0.0007700532002509538, 0.012345673300975897, 0.0026704220725178892, -0.007513767098802786, -0.008722558177309042, 0.003981341797133921, -0.009617537323584004, 0.005408470978763834, 0.00010037551622435254, -0.009333789866962724, 0.004467437433236278, 0.003590700890275355, 0.0027920269688442518, 0.004974308560296784, 0.013136639940753918, -0.013770846154800674, -0.0037034095177949054, 0.006780545615142093, 0.014793168993769201, -0.0031339210466231776, 0.013010670522448817, -0.01683184867684662, 0.005887935780226621, -0.008928804301932308, 0.006238089452928615, 0.009042448204377131, 0.00037236157926090046, 0.0038021877885515893, 0.006067041662089783, -0.009795581542956948, 0.02209056435041353, -0.009072068352200301, -0.004648893799385094, 0.000545436399756949, 0.01217819904840778, -1.0438488066198456e-05, -0.0016080310090299352, -0.005841175299911653, 0.0024963517264127953, 0.0016938196089080137, 0.0060057398153167876, 0.0008358263893216902, -0.011894601221098828, -0.005031628888994141, 0.012443330329585622, 0.020937413580036587, 0.020815342835046945, 0.02469952809872197, 0.0047232697978927375, 0.010301415971413838, 0.001294569209051753, 0.002411997259559564, 0.004009321217400545, 0.0002522979942230043, -0.010850043372048469, 0.010262482468290906, 0.00898890468572029, 0.0013820979243753357, 0.020951663676653184, -0.0056811742788713164, -0.006527142341956998, 0.008296777471197505, 0.003937668144025488, 0.00811540909245622, 0.002330332638564299, -0.005492665618597322, -0.010299532815991675, -0.0032465058756308116, -0.004658252882553726, 0.012842786347067021, -0.0007740323419138047, -0.005039101065483663, -0.007812193345759712, 0.0048433196823040444, -0.0035120779856429554, -0.005972844432110741, -0.004194562362379669, -0.003187917488132761, -0.0014012913461595195, 0.006229125158764245, -0.01171271406001745, -0.001498721126556532, -0.01120115738984071, -0.0027127794995911213, 0.012181848458657895, 0.0006913186320426954, -0.00260847141291332, 0.0010806011306849174, 0.015550649154681405, -0.012529603785450557, -0.0005259287081448376, 0.017553858690061153, -0.010348072656129902, 0.0020493397691036036, -0.03339344345948797, 0.002118184862472604, 0.002505443009518003, -0.007465818851078762, 0.007282817228064211, -0.001132369899662037, -0.007879495515334794, -0.00038150477107383197, -0.008243577079638156, 0.017391310787891155, -0.013048051325540072], [0.004736471161310295, -0.013367027973512984, 0.005138009378384676, -0.007090552642427415, 0.004612802681276009, 0.0056685880059603785, -0.004841087433652046, 0.00854650172928599, 0.01279366758327742, -0.006932114817693775, 0.0006454608602787759, 0.012365258045947479, -0.01025315524827667, 0.00510991387260789, 0.0109069675958568, -0.00187430314424953, 0.009073577968240282, 0.009700969274124002, -0.008445852154753434, 0.0035498884323847055, -0.009296095655455673, 0.0020312303858364454, 0.017963254158602466, -0.003765571344979622, 0.0015641683318486815, -0.014591479940761144, -0.008898730398820333, -0.01764819594323314, 0.0014116096378106928, -0.003515592605167079, 0.0012898514668145005, -0.004176207106293722, 0.0020760466296849594, -0.010642357909117698, -0.0022257560548143923, -0.007057628256953136, 0.008138139139338056, -0.013397571220022074, -0.0023102287838826386, -0.021338684468690396, -0.017909960738917992, 0.001124722595936771, -0.01719186986131112, -0.0076503322768336, 0.009253242640550972, 0.0022468499849433595, -0.0013584151219333555, -0.004645823613482394, 0.010417596897269107, 0.00952212162952537, -0.0030475631562296213, -0.008600080185553966, -0.0030532045917102215, -0.0044164193164273995, -0.006373496891956945, -0.003470746039797183, 0.021544570162580563, -0.009640693978744185, -0.011351108785995724, 0.025130639270123323, 0.0024286902937591037, 0.008599693367822512, -0.006805809179116644, 0.00868836467404688, 0.0014876950565184234, -0.0004501796989544222, 0.0031004230758554354, -0.005908298011506331, 0.010961871509911738, 0.013547564663588758, -0.012310894619373802, -0.0019166979084198857, 0.011428769907803457, -0.0004210212804860802, 0.008371159932244215, 0.0025768848294273083, 0.003111585210682392, 0.0023639509774399975, -0.02392296681114753, -0.00949288303450022, 0.002137647873265777, -0.0002558185395243978, 0.0015416423434063563, 0.00782485706689754, 0.002710086231195004, -0.0015240178568727042, -0.006396879415159838, 0.007942970126801837, 0.002536220950458757, 0.007571786131659146, -0.000191347505201221, 0.005064571908574836, -0.005058552925090255, 0.006308627180471689, 0.0028153068590669335, -0.0063841505558626275, 0.028693775243260344, 0.00089955024588661, -0.008705657496852672, 0.00397728859377186, 0.0046891962374522615, -0.005902047813010179, -0.013475473613016856, 0.00046177594919520474, -0.0025192517494919053, 0.0003062563918485277, 0.015217444466682353, 0.013673072240023829, 0.013515628125710728, -0.0007710691147133861, -0.013632875547100956, -0.017049903370311127, 0.025391569580583778, -0.011241457736553358, -0.0023714560367801953, -0.004541136965769988, -0.006505149443070703, 0.019446515468369337, -0.010155112518744583, -0.0047448949669931535, 0.00146739230938374, 0.008804081797958496, 0.00229404242377872, 0.0038543083160563663, -0.00024756788124332644, 0.0041163783789496195, 0.006040006571095503, 0.009673737760383796], [0.009222904038137164, -0.00955383867273778, -0.011446806984415157, 0.009802339107638358, -0.00440826222238856, -0.0007327695417393391, 0.00773420309361364, 0.003920413764342493, 0.0021845382107400922, -0.0012561034576182026, -0.0032122970646305685, -0.002524824059702049, -0.014429691438989848, 0.0019083465963113794, -0.006269665350897864, -0.002152547261072132, -0.013436689548436926, -0.012661602686106516, -0.002205446641709349, -0.014180235867283375, -0.004153839794180352, 0.0028485990071419787, 0.00877959173154259, -0.016845591835991776, 0.0036214656334526054, -0.0026753602353244456, 0.0007391611747980481, 0.010780207643101232, 0.004434751787862254, -0.00473549425546948, 0.012408936919713731, -0.006343466255154448, -0.010604538847327285, 0.009158279736478366, 0.008228471831748642, -0.004764523206891969, 0.0020738421337486716, -0.0026758465270499718, 0.003514365155770374, 0.019445595903603147, 0.013977650635579963, -0.009035830004808445, 0.0046048402442858275, 0.011268663291344926, 0.0015086623566256774, -0.012195937805354131, -0.005767411599443013, 0.012391028461643389, -0.021321250165401744, 0.002084571383971452, -0.002917334016268362, 0.004576020366295927, 0.00526809232133348, -0.01676106206848718, 0.005137772132675192, -0.02178510238508104, -0.00744837369638912, 0.0011062908521762588, 0.003688696106234404, 0.0019432254436067013, 0.008981763281401834, -0.0008819766470534907, -0.0012276510839033113, -0.014302352366064468, -0.007268538043869963, -0.000617553772838439, 0.014511802270951371, 0.002896965521700841, -0.005868054089140522, 0.00947457775563796, -0.00019507908317344745, 0.01594313588991221, 0.0021732536680637584, 0.00042449347607024043, 0.016922033987012544, 0.0033426431378526626, 0.004330221287139441, -0.012395603806329092, -0.006917948641771643, -0.008639467353641671, -0.011068499016334716, 0.02568976689016489, -0.01163642148722456, 0.003683640298943909, 0.02032404942070991, -0.006329232268182996, -0.0026582258486177878, 0.0007151185901977358, -0.018060729700523796, -0.0006391472624685037, -0.002336537917052485, 0.0024434529403848954, -0.006399037923509752, 0.011200674199740832, 0.011658051434818083, 0.011140481246325886, -0.009772881371917234, 0.022475941052307172, 0.012947125568960882, -0.0012291983053928928, -0.009400690874177255, -0.0010049579107385546, -0.007174574147402269, -0.004247852325927658, -0.004770602562098229, -0.012644647714104822, 0.006451544568956747, -0.00938178292987433, -0.01809528530919479, -0.019626316927931726, 0.004737881401980081, 0.002346429861357575, -0.009011223040313992, 0.011895616090094317, -0.005946838685322747, -0.008708971667279962, -0.011130683061812325, 0.007213880500866755, -0.0010158255257041438, 0.010666990665917085, 0.011646839946577826, -0.010257727218048926, 0.005130588911810794, 0.006108094301436299, 0.000331180912631303, 0.009397651703688075, -0.006341765731342708, 0.009852606690280707], [-0.011165660023372255, 0.01238329094421076, -0.026656702882265026, -0.01001226548885349, -0.0040528937002286885, 0.0004919573841490495, 0.008730020871638369, -0.0012108281451934269, 0.0023987005101847652, -0.00554781948084343, 0.003510262895416327, -0.02791314810253996, -0.004362452999645948, 0.011904392077354987, -0.019036964409269812, -0.0002805847960891264, 0.01061230696666773, -0.01424661340617961, -0.004061627295493821, 0.014199599644078192, -0.011537462636949212, 0.005993602803004859, 0.014197903131890751, -0.0004350428177612359, -0.006028367541453897, -0.004654251010921329, 0.006881185806746677, 0.008975708369233136, 0.001722713835349577, 0.006297749005593091, 0.002867117690618516, -0.004220786226630794, -0.010706369563907492, 0.00027285819076500314, -0.004441218252104423, -0.01745284668868088, -0.006063606244443319, -0.004533001098980895, 0.00452763670631372, -0.02082825569822854, 0.003296404346619999, 0.011617313585211404, 0.008146717809343045, 0.0043895968446741335, -0.005766906285555771, -0.0006110371721690757, 0.011307073481104447, 0.0037425992337727105, 0.015264289449254257, 0.0034540631972116756, -0.00016517252146912818, -0.001552474365680416, -0.0021083356482285557, -0.003332605514400527, 0.008648420566036862, -0.01233209866023953, -0.0065450819280050004, 0.010044260102932188, 0.009149485351871491, 0.005147458294726583, 0.0025684234988809012, -0.004137914075584538, -0.013005580520136688, -0.0022545677790087827, -0.007461556113086648, -0.0016381887717734456, -0.008320407065036372, -0.0032434475998393054, 0.007794687293193528, -0.007580661370601188, 0.014125188137965546, -0.0013358484023771903, 0.010255998710180706, 0.015531176817340436, 0.00928182661784992, 0.009518420187359438, -0.011323073643026786, 0.004190970061377294, 0.0012701530081338601, -0.011883080778380333, -0.013123776764537113, 0.0004632436037519792, -0.00602064283408256, 0.0010203229535642533, -0.003555170447893983, 0.00015246697586047958, -0.0007234069369505707, 0.005107414946296635, -0.0009016601835618985, -0.0014769991702975472, -0.011432065472504738, 0.0058927785721862025, -0.0044517129788308836, -0.006127910964544593, -0.007953273939498502, -0.012952509244855121, 0.011651047064321742, -0.005032895847627149, 0.01613348361322362, 0.027994198528180848, -0.011319559621338484, 0.005200435930022112, 0.006297165687211869, -0.007311194126726514, -0.005742846360293767, -0.0031522319704935194, 0.005463440573505591, 0.016153447339833992, 0.004645351388948446, -0.0013230529738587629, 0.030380432073772997, 0.0230063875524447, 0.0038351098046674023, 0.004492031410590439, -0.011316573454895621, 0.02321503409308704, -0.0008718625314270234, -0.00046544550330767607, 0.0156654241690437, 0.011384488124347178, 0.008374096852291889, 0.009762674192241255, 0.013001066917332953, 0.006542549040941907, 0.00432036774901546, -0.000446318763548061, 0.0079733910771966, -0.004026363621095887], [0.020189717323391348, 0.011234947657618987, 0.0028980146068368785, -0.005940845722765831, 0.004618233994505908, 0.015417896093644985, 0.004924937972363282, 0.010773974387026406, 0.003159448154985549, -0.007990602500077333, 0.006314011402040986, 0.002439098998991578, -0.006670990586656704, -0.00140007561431267, 0.006970126124612144, -0.007558889318042438, 0.0030629317306698194, 0.0076630401795228205, -0.004612009157504327, 0.00762427657729403, -0.00531351169926121, 0.015772122896995717, -0.001147579841871885, 0.0027438974495458536, -0.007121388279393633, 0.009595040320546637, -0.012838020762130533, 0.0030832919469613125, 0.013560756594553849, -0.0027060700013964165, -0.014536567759280175, 0.0016791743943852324, -0.001550400448882935, 0.00025775729545406107, -0.005779420358481222, 0.013591500602133863, 0.010610412000328551, 0.013507032492027919, 0.0024392212765008865, 0.008299292705967, 0.002271880853706751, 0.011482392933793939, -0.013677700309118567, -0.016794596783782898, -0.011188651768749775, 0.01383539582400036, 0.013247768674385232, 0.005765714285855695, 0.010946439893366843, 0.010174397517196444, 0.010495481501245286, -0.0024008842894287018, -0.007636615345807243, 0.0066628804583474715, -0.008466240194100513, -0.015673875772847557, -0.001024853252912663, -0.00933007021189742, -0.0072925958538303986, 0.012618721046804067, 0.0016980000592381422, -0.0038902910344166177, 0.00839181466338438, -0.011698148895194667, 0.012161353694474103, -0.0022701915671422012, -0.0045206592457609045, 0.005989120820095501, 0.0031906926056415137, 0.001117360605358452, 0.0077665996316480254, 0.006661734963936871, 0.0027904920012251986, -0.009865095808963402, 0.004021198487145638, -0.003501084516474624, 0.008733015439080973, -0.010696982717284946, -0.004746801762130946, 0.012101573121875136, -0.001804475832865775, 0.003561790857713501, -0.006334226077605248, 0.0021412760212792766, 0.003482994590097278, -0.014479465877744005, -0.001935388489073665, 0.005154903716366052, 0.004093855965421665, -0.015139453570917387, 0.010369359208857344, 0.0197516760497091, 0.016878886759777587, 0.02320398190237292, -0.006570733139230969, 0.013182172613507898, -0.0025589940169924224, 0.0032726998806928494, 0.0046660170179757795, 0.02168429557505693, -0.0006549434596535851, -0.009756175543946935, 0.0018985785777226455, -0.0009981984929558108, 0.0011101689513943322, -0.011702347965526619, -0.00464052859593234, -0.009101993335634486, -0.002315069194186721, -0.0015877138155899891, -0.010837038152953296, -0.02847052326412605, 0.016706975715096727, -0.011796803763801544, -0.0017670296202715475, -0.0026490622849137443, -0.012748348772350091, 0.00856105756864603, -0.01236392094337429, 0.00595649195993903, -0.005757777917242019, 0.0012226047008916355, 0.003692566832666862, -0.005074248427055703, -0.011924405104104455, -0.0025970323457665304, 0.014222200351402373, 0.011163383908731436], [0.00348550960420778, -0.013110697106148933, -0.012921807338953028, -0.01031384759910484, 0.006275842975496486, 0.003066117875026249, -0.01738884321238218, -0.009679372465041764, -0.0016869206163337743, 0.014402157746356134, -0.02276384067604214, -0.011942334809731756, 0.005466728804844593, -0.002484143076914293, 0.0164682444557818, -0.001217861533574079, -0.012852874090597613, 0.006771883878423845, -0.009483520897714209, -0.021070699078444867, -0.012515369169282793, -0.01610746918076767, 0.003478071521326546, 0.016030549447014073, 0.004214956765411224, 0.00037077232320391324, 0.003833820763313551, 0.005501482382367448, 0.014034118614486413, -0.00787787214737871, 0.017411650322379794, 0.0027275448444359467, -0.0005844735318904455, -0.0060451895977633304, -0.0021748029223442344, -0.0077042088289175584, -0.004888310290358078, -0.011245720470919273, -0.0042823688580898075, 0.0033505335551226, 0.011599906558506285, -0.009000782777643317, 0.006080776818620574, 0.005528874803008698, 0.013202805479579026, 0.0024696439759863183, 0.003002236375444069, 0.0031679022020587445, 0.007222117922009394, 0.013091176077478733, -0.007701508816808744, 0.008940232144914795, 0.010766183597356482, -0.012952637475128972, -0.0012197430259406155, 0.01006308185282665, 0.015038600798299714, -0.002626008684404423, 0.007674115384658792, 0.004303403975676474, 0.012032431761954681, 0.022799619752267544, 0.004061535534822572, -0.01672965349164555, 0.01762177074309965, 0.023235054292215312, 0.003997640472831432, -0.016682048226215954, 0.0009025209546149973, -0.0019007428737855656, 0.0013515232681566005, -0.00100862998780849, -0.013348030367536384, 0.0020714890884146334, -0.007199923339108636, 0.0053031535469662714, 0.01988826670282956, -0.016474478350517106, 0.011694199363436766, -0.0012900443477749171, 0.00401565435296695, 0.0050724843762410595, 0.005372078763983809, -0.004227732246495022, -0.0018426866008000675, 0.0028585791018098574, -0.018201519158332388, 0.010547368094777153, 0.004964398777268614, 0.02702865603402989, -0.0005981197715359011, -0.008675350826341606, 0.010618624104147146, -0.014315204069847173, 0.013880819895824278, 0.014563024479924327, 0.005404969852839175, 0.010057134288482832, -0.0029480028231307714, -6.566195468428142e-05, 0.004286689177021568, -0.000275689688971477, -0.015952431358881147, 0.00765323109382293, -0.015293609605409495, 0.0028309400827411938, -0.01116557161125307, 0.012316025014405523, -0.006122409391206505, -3.509477359513145e-05, -0.009812461104414114, 0.0008502713848613974, -0.0015058369024748852, 0.005820949259131284, -0.007192683160475433, 0.010126868990357425, -0.013464311053804707, 0.026687046512917735, 0.009176249158433245, -0.009672247512609752, 0.019640672420333814, -0.0016480253697532868, -0.012765776932251038, 0.019711847635668446, -0.007598441605817322, -0.0004949867138961246, 0.007912723689851438, -0.006756314218218138], [0.00710204660354047, -0.008879820680685619, -0.021128627344728864, -0.007541140981235651, 0.0010375559186326523, 0.008842758955279171, -0.0036621998304054364, 0.019232989644154437, 0.008121078862706556, -0.0032232954732673846, -0.010323692312971398, -0.011812006481839884, -0.004432195580887345, -0.013177177355307, 0.010280806493454935, -0.007491536922900534, 0.0016124804480352466, -0.011912061015100214, -0.01176591114820917, -0.006417130863028019, 0.00037312159097162783, -0.0016092063309980525, -0.006890045387094729, 0.02085405063261756, 0.017068749776270015, 0.0008365255499841553, -0.013280127908545039, -0.0040372684688078295, -0.0010246531141884108, 0.014317329227945411, 0.0017511459086155144, 0.0032621029451382275, -0.00938284761953577, 0.00531124269549852, 0.02717387110467298, 0.01951958436218751, 0.005936770240826804, 0.001885554645129055, 0.006032756124903051, -0.005412119147172518, 0.0033033550759799524, 0.006819589682296388, 0.0007995260826420643, -0.0070555535784818475, -0.01836722192518631, 0.0187068397555802, -0.004924413843025491, 0.015761079512026942, -0.010587242922535331, 0.019325675899963143, -0.030314573592610645, -0.007722131041907915, 0.014379246653135589, -0.0016987048699121665, -0.00943369510063879, 0.006609725800307602, -0.0011507830446735108, 0.0029748710812209727, -0.00413025539858634, -0.009528252417723154, 0.01711201650499741, 0.008494842034729338, -0.010973056101205629, 0.00047286863870443004, 0.0038398546077649393, 0.0029330891523348984, -0.0011802941829921931, 0.0009913831697685846, 0.004136389883768835, -0.022267003652894204, 0.011340451653570569, 0.023998589329593444, 0.008139338691668125, 0.011327242441047701, 0.00030401246040733963, -0.0008743180864289321, 0.008195491052099359, 0.006335888814725526, 0.02699621520222236, 0.004899527480542008, 0.006166659802172146, 0.0054137672518128925, -0.004554962202804686, 0.024478912897496836, -0.010007327399297878, -0.005532539175354028, -0.01247618755228539, -0.006610734457494119, -0.0033633892118512766, 0.015427846464337225, 0.0007197385679551901, -0.0054237477309935795, -0.007786168643294678, 0.0017676333622583256, 0.015578590435494333, -0.012135979499282993, -0.001649885058377573, 0.00841593240176163, -0.020498468865257368, -0.022942128399619604, -0.0131646935681167, 0.014720275241918128, -0.021727747987206888, -0.008863639976578387, 0.005106057774820103, -0.00344562681370291, 0.016456748998576493, -0.0038075938827533407, 0.015199784719304235, -0.003920731019439971, 0.007866602156490068, 0.010152701385727287, -0.003529143387523385, -0.004398102819301087, -0.01113540014094916, -0.002075534336397147, 0.01733177115714785, -0.016244621020972298, -0.001954147581259421, 0.01458482580298021, -0.01846704197453798, 0.024177946224643414, 0.010457859584631177, -0.000234356682352467, 0.002063012427170711, 0.010500980751716115, -0.005413996007417179, 0.01104274238404536], [-0.01301057265743493, 0.012472196235713284, 0.007024978157785521, 0.028452846296044228, -0.002727879853962287, 0.008376861772964685, 0.005746061472439574, -0.00652086129807523, -0.007648454586021633, 0.014644197601983402, -0.0005860997377873461, -0.0013058826062977119, 0.012099222286424884, 0.0009507991111047228, 0.004185913890823247, -0.023581941508725626, 0.001351591381737053, -0.011310017838980582, 0.017762283192499128, 0.008659818081387593, 0.001886481220722535, 0.011789148234752257, 0.0206066210145515, -0.011346208071848758, -0.0059595990525417005, -0.01757217071318891, -0.00032390624082045494, -0.001981485012421654, 0.0024922150386988804, 0.0026506045667124395, -0.011035895263504505, 0.0009753863766641943, 0.00959728289625676, -0.0029334793708477394, 0.02149967629313694, -0.0009319969447217101, 0.0036188679905597115, -0.004450651958454075, -0.00230375861649571, 0.005479011550646085, 0.003024702153157817, 0.006975630976734174, 0.012762965177287934, -0.008306709367623582, -0.009036969103394766, 0.015835357844658414, -0.004808563796443694, -8.419383645456029e-05, -0.006535916712676131, -0.003775839770519338, 0.0010894946535442004, -0.009161894222709426, 0.0045008833448425475, 0.002720180010278662, -0.007321238540293518, -0.016271179763228116, -0.009054996920853072, -0.008722501305000054, 0.008391497225956196, 0.009890488515650286, 0.01655318152494837, -0.006521159256607484, 0.00202634069111466, -0.015221611203972264, -0.025113205121777078, 0.004805307664080195, 0.003465022149101256, 0.010401150688451115, -0.001707512478371096, 0.005392279662458427, -0.01187829518224438, -0.001945695494224268, 0.004584916661830458, -0.012731695535262978, 0.0011869852597583303, 0.018836380965119907, -0.019034453735939077, -0.016686480740975118, 0.0022654898924116245, -0.018727343214453906, -0.0036087545539517547, 0.012481373596346613, 0.00931399504157192, -0.009935389765681271, -0.0016864679040537811, 0.00848184796453991, 0.0013083960040712757, 0.018644098313015188, -0.009504351912552254, -0.019098577378629113, -8.793115041372218e-05, 0.005631221363550642, -0.010133100842720982, 0.007240389385531778, -0.009083121163961275, -0.01843885498410614, 0.014516447032560916, -0.008777629320879703, -0.013198111476689709, -0.011992965621918707, 0.015572845533489959, -0.013436877686974984, 0.003445495897528865, -0.004212842618364486, -0.002148049068623022, 0.004189651208063515, -0.0059196525466209335, 0.0012515732236296063, 0.005045613218107517, 0.01918447185054929, -0.0010811737264793957, -0.01176469357045012, 0.00033871852501815705, -0.010824938777567168, -0.017737613955495824, 0.012084458971401915, 0.009393528350967252, 0.001537153994901022, 0.002177766904578944, 0.005161911839233175, -0.012921001125271002, 0.007678549647951552, -0.00457665347068071, 0.01036047224585113, 0.004988000277610085, 0.006420323920163166, -0.01206453192375978, -0.0045387257188103025], [-0.012042066804316541, -0.0071382259898197424, 0.018745715649537437, -0.001955998052547841, -0.0015438997318912464, -0.01664746113203831, -0.010070162767738044, -0.005226654128287787, -0.0025512750850154218, 0.0075308987053180195, 0.005793206534803521, 0.002731860790478363, -0.021487327673737237, -0.035650306955300526, -0.01570332387283139, -0.00606050760896551, -0.015739935043207105, 0.0062612639635830575, 0.0030105211882219857, -0.002182805873453437, -0.0023264955817110236, 0.005881168790362413, -0.01919367631633931, 0.011431933010928206, -0.0011121243007487112, -0.006324753288060554, 0.006663889162255165, 0.005514038246565925, 0.01557064156333754, -0.007605578098625343, 0.015417807882666919, 0.002874258585716634, 0.015224550941529361, 0.011764867583124559, -0.005524143901838767, -0.005172795378276964, -0.012156653942952449, 0.035595470538525964, -0.006552644296767235, 0.00013966994219812096, 0.004553228179009985, 0.0016164876116542253, -0.0006131925451082241, -0.01297678106157293, 0.004000582108968406, 0.004752252736281467, 0.003227719955152259, 0.008082164882178887, 0.0012978010143134993, 0.004628047701500177, -0.004263382024968062, 0.0033160561155442104, 0.0011061768779530767, 0.0030041894656715096, 0.001454489329462007, -0.012571552590794873, -0.0032401849270759448, 0.0031764125034872952, 0.00997736133828816, -0.014697757275728774, -0.008044473785508176, -0.013034688427229445, -0.008441357206128977, -0.004369407934228366, -0.004130774913693398, -0.0047095197306373055, 0.003804347295105678, 0.004392346961269456, -0.015781557810265013, -0.015848857520738335, 0.0015209419079819507, 0.0005206027729318229, -0.01989694531787533, 0.0064318117921674444, -0.005217959588086156, 0.0020572908261571082, 0.005408937737407279, -0.012097846348972765, 0.019636485461141967, 0.020167821707805973, -0.010180895276410817, 5.0299693727224836e-05, 0.007722401295930159, -0.0006423322926906109, -0.005255017258563398, -0.0006747427033555489, 0.006553886186512788, -0.00614630821152695, -0.005792864624579196, 0.013753736504873156, -0.01775474361568986, -0.0057885362133550935, 0.012980233693311596, -0.0055529361685241405, 0.0037477062783770726, 0.005629940236028077, 0.00443769640949611, 0.004672799017643815, -0.0047765872127874184, 0.006617286855219923, 0.011763898067818664, -0.00598184095227534, 0.012490197365391783, 0.009673282613029228, 0.023405886242778583, 0.022288036537353405, 0.008168416241873123, 0.0027997094818526264, 0.0021401212117266237, 0.017785507603845015, 0.014112036563786646, 0.0034842169187730906, -0.01607108089854416, -0.019642956480798748, -0.021891088507918675, -0.004920885728637933, 0.007844985193218555, -0.0062517867309204184, 0.009169045731988073, 0.011270054867053752, 0.005269402205180643, 0.0041250035885262186, -0.0020605772811620004, -0.0002989073287760745, -0.004727897278333454, -0.001404389514682929, 0.0038560005935020895, 0.0017245982600557685], [-0.0025905937130760383, -0.010915862695914212, -0.01096729674408467, -0.025566486810510238, -0.01086078909903231, 0.009619270811865923, -0.017418950238078816, 0.007099200109754086, 0.016720984642100443, -0.001697442027634531, 0.0036754590466260956, 0.005092781887277517, 0.011308383765571616, -0.003579513835025694, 0.018247298225460756, 0.006870293549507271, -0.009983627755509199, -0.006236333465172768, -0.0013714687618935236, -0.0016283313046359306, -0.01414913643632372, 0.004168839045985628, -0.0005375969284320827, 0.0005000466866077184, -0.004014238954732187, 0.014369902908508191, -0.017389054400391228, -0.019068441418042155, -0.007739819198467975, -0.006147708429898088, -0.007906945406632606, 0.003002228079597665, -0.000917104042797669, 0.014762634254810881, 0.0037956453155062906, 0.0011240194825731713, -0.008050684880246252, 0.0003966151135916219, 0.008427897167282776, 0.015717740985925106, 0.013216474189710599, 0.0064324537508505366, 0.004838216369385504, 0.004190916986906375, 0.003873437033194234, -0.009534410503755125, -0.002486458394584086, -0.00985561471113371, -0.004972545313894312, -0.0055400362683794835, 0.0016632705117853573, 0.014284210262089488, 0.007731725285318735, -0.004663611536146444, -0.013170536554919001, -0.019558406876037163, -0.006012237843133342, 0.008968367692187005, -0.009833823788948072, -0.009393220393724448, 0.007323017790193168, 0.01501608849006139, 0.01828816468154731, -0.008038716995829469, 0.02809183609880541, -0.005966366843438336, 0.009776077172346579, 0.006893761689019078, 0.0029850798588275094, -0.019523911745178306, -0.0020349689224610657, -0.002483800104869019, 0.0179992019212686, 0.0025983490077515644, -0.02042131394773706, 0.004854432456317398, -0.00942356394184904, -0.0024581623582618415, -0.0034103989067081272, 0.008380735190073004, -0.013842234404142234, 0.001934657193736673, -0.018315252824777258, -0.00539839833464795, -0.0046262769487157756, -0.00940039393285637, -0.005271597074902142, 0.013456994122471156, -0.005063192038943443, -0.014720787185167889, 0.011832897268109543, 0.005291481326838198, 0.0175905436827772, 0.005331526623235518, -0.011024748444294767, -0.021971795463538463, 0.005661926665268885, 0.007537214538996935, 0.018551190079857675, -0.009276611314105817, -0.001910196435266352, -0.004383889944486052, -0.003068032399678745, 0.01507909548575081, -0.018568552491345956, -0.003853341482078175, 0.017032961979246468, 0.0003244550702316242, -0.006154668364873493, -0.011754301666234113, -0.002028560552946423, -0.0005038301644701167, -0.015770058572010567, -0.006127919926669593, -0.006523765259126564, -0.010719767729789902, 0.008404100613370337, -0.0018069095243885378, -0.009688267407905656, -0.006397012885565469, 0.005793875982809314, -0.011950796466141722, 0.006385320006011605, -0.0072883384146239525, 0.0018518865266933112, 0.005185001671982627, 0.006996377392309636, 0.017134122452387636], [-0.00475588539077117, -0.011297775525158121, -0.001561815138041764, 0.02181937884464806, -0.0025093196351136764, -0.005824866651516567, -0.011959298851953475, 0.011056223172773766, 0.02195660048892631, -0.0031766019504678267, -0.006911321169468717, 0.008069861687686294, 0.0027054627311381323, -0.004564313081799749, 0.018328910447514116, -0.005661889629693877, -0.0004204968598682532, -0.0038843772278819642, -0.0058978432079841775, 0.00964530339460702, -0.0013290267387031222, 0.0005412227185670655, 0.011868980704829583, 0.010585178267681648, -0.013504139364427322, 0.00320497727471052, 0.004232702894150416, 0.007459462809914164, -0.005030619193315414, -0.003740349272032262, -0.020834111548773588, 4.639946040354832e-05, -0.004067462078189187, 0.019759748359810824, -0.00376026309883731, -0.010272694108017438, -0.0001096916094174986, 0.016903185040146734, -0.001879203422258015, -0.015791770966961938, 0.008979287232683012, 0.010955225038220398, -0.005827653028437653, 0.004183486935531983, 0.007081892645739944, 0.010003725840212313, 0.013601108964699557, -0.0006789697154790588, 0.00292520895773794, -0.008297656945614395, 0.007510064534703913, 0.02541188288994808, 0.004703919550897842, 0.0032296230246915206, 0.0005484023943504772, 0.004880375294452976, 0.01438951680810449, -0.00504576189508659, -0.018437003812978376, -0.003289079228443814, -0.01688208231383728, 0.000569259840815747, -0.002287480274445071, 0.0014818021982049723, 0.0030992738056115454, -0.025618271554843402, -0.01208146401734022, 0.00942960929823608, -0.02092938355825746, -0.004063161481054626, 0.016974600380146906, -0.002390090901114505, 0.0003808992842753625, -0.004410955166794389, -0.006555269472589914, 0.01447174704922255, 0.016229716687617152, -0.0004619710841192474, -0.00922267925441805, -0.00023353812510255696, -0.022755932486210283, -0.005545720911522808, 0.009074240892560608, 0.0016477183577182399, 0.010529229093072445, -0.007975866963174712, -0.010895231490933547, 0.0006114479743888416, -0.00043264683808768336, -0.004635308664001949, -0.0028696485152248327, -0.0181139716297992, -0.01224863136346199, 0.00724523735273183, -0.00831241005255932, 0.016332466628921283, -0.022498308819033676, -0.005666225259740384, 0.01948504940229537, -0.0015900843520932596, 0.0050065763858908085, 0.015089390192035633, 0.0005402280682292522, -0.007705018220989897, 0.0033996008776546885, 0.028938240374566424, -0.010893334101617892, 0.014838665537376127, -0.007132991500917559, -0.008515534084690406, 0.01563416701860935, 0.006180470713415233, -0.005887855263615692, 0.0017302421945799304, -0.029698235811249595, 0.0008889529788474785, -0.008016536811191861, -0.010989714741115217, -0.012079712209018769, -0.0070839324442989425, -0.007329903818971215, -0.01501322626691409, -0.009553197297408299, 0.01572797675743593, -0.003193204549686186, 0.010252261228000714, -0.006516066510904505, -0.006255862785193998], [0.0025576927527559195, 0.008686387606364454, -0.005415229435528634, 0.022219908654877236, -0.004254953086991761, 0.011430187886414473, 0.004419036538240512, 0.003231048793349087, -0.004394110348118297, -0.010627053205401336, 0.009950589231039142, 0.0032319033377978643, 0.022684417126511324, 0.002949958961153886, 0.0075335056739675, 0.008107505444651905, 0.005342782136836266, 0.011609555206486422, -0.0017299341123101352, -0.008698921728013329, 0.006347083365150474, -0.009150068597261802, -0.00688722076113325, -0.002254513907600603, -0.004959476840224226, -0.008228709687369808, 9.79244220443576e-06, -0.00195334603608692, -0.024394886580213215, -0.0007577128339094723, -0.016658718282558924, 0.01859116028411845, -0.005019360746039207, 0.010548213544385919, -0.02202596703567669, -0.0014137316815144186, -0.013818551576732414, -0.012784406918180787, -0.015425037861754688, -0.0013557365254829943, -0.008224255479909218, -0.007868441120806105, 0.006660822673685531, 0.008341543820392004, -0.0013112208640756176, -0.0008639307671974556, 0.0006065462334747592, 0.013186280500927699, -0.004519793351944583, -0.010316554675459003, -0.003740345060755812, -0.006311300791293993, -0.00264514836695662, 0.015932807778809965, -0.008136590548934747, 0.009420878829229082, -0.011319184176145972, -0.005373200270372521, 0.002205037000665557, -0.011650624023506674, 0.00713196342400448, -0.008785048168977546, 0.00965869093827525, 0.017336322297211437, 0.007553249844958037, 0.016079068803521123, -0.01382640469851276, 0.004867831937593093, 0.006843174824647767, 0.0002998167483636824, 0.0100737534223019, -0.0001911717339308078, -0.01136138778011293, 0.0038802823961660384, -0.011638596850494325, -0.024606433056702365, -0.001695770239767458, 0.0028449039116990433, 0.01101464551877149, -0.009773437055203902, 0.006618072347592741, -0.006025708848898777, -0.0006547554929269861, -0.0007554501083000223, 0.01453537621513708, 0.002666168462642558, -0.003103380447155222, -0.006658863045779719, 0.014728005889697224, -0.003560562164737889, 0.0007049214814788203, 0.003743720318714229, 0.015930256644934634, -0.004523077100573626, -0.019220226875626478, 0.009829191847308408, 0.004210030188572236, 0.010028741426660926, 0.013227199087455139, 0.0016681498328010055, 0.004039099865937872, 0.01009641009413834, -0.0022115395567505114, -0.01817705336532077, -0.013866317041898803, -0.011931802602339472, -0.00388672084589708, -0.010164464659369519, 0.018438226526928926, 0.018515707393486784, 0.011100420027139664, -0.013032681597490475, -0.009794567797539224, -0.004987312008279076, -0.005394411908476615, 0.022687616698753667, -0.006208825508512155, 0.00809009940359176, -0.0014902536979761727, -0.002000853590412245, -0.0016771412829867415, -0.005924789443690265, -0.007606860929136357, 0.0032423700187539507, -0.002589984380846023, 0.002547563903297812, -0.011513470479963064, 0.0046306742206235355], [-0.0004342987462124455, 0.0009530620597308781, -0.005447710639764593, -0.0035922422250369212, -0.0005106205245447426, 0.0010063478274374039, -0.01071942095300227, 0.014202085579222742, 0.006609650796835799, -0.0036254036269561074, -0.018929785502006177, 0.006751953988121764, 0.007803825078993324, -0.006697155782464716, -0.0025026167712657844, 0.0031060365116680286, 0.0074038104565862, -0.017784359243256453, 0.0009217190319240056, -0.009338304298590628, 0.014654297982947047, 0.0021516747986981256, 0.006098460807716485, 0.004233252195034103, -0.024546320550560934, 0.007240375980666663, 0.004607823998409428, -0.004065971334900109, -0.011341689960704312, -0.00412223414196523, -0.005534862944119152, 0.007984555535165073, 0.005139531456985028, -0.002062149723838534, 0.007032659030576665, 0.00300516832191475, -0.0022117399287110923, 0.002888939943530885, -0.004537589747143038, -0.02717136533101277, -0.0015526817815097176, -0.006397390780412512, -0.001949309003439823, 0.005861648328355523, -0.005772278731492003, -0.004925970557872809, 0.015370829175774089, 0.0054290467986223955, 0.008924809759787761, 0.00864718070067606, 0.008603076825702173, -0.019593318521813615, -0.003139841864073377, 0.028009727630860112, 0.008292777378089422, 0.004121691814616907, -0.0024890797475436077, 0.0020127144197703293, 0.0019191599166265712, 0.00013845503538033102, -0.016031776812645702, 0.010914050714629463, -0.012935208352049782, 0.005633154590415495, -0.012553470011639721, 0.0020228108919872053, -0.004940955237789752, -0.018686253661635965, 0.016665423652530067, -0.001847716621812479, 0.006332969592690772, 0.008220968917313413, -0.0010055441075481483, -0.000967115373241055, -0.0062247716771943375, -0.012818747398412272, -0.030324265238376443, -0.010635117418701455, 0.010405723779542258, -0.021573575494586484, -0.011049555704736591, -0.006986586279496493, -0.002144629012952108, 0.006225527955121475, -0.015016150980928056, 0.007976315767630601, -0.0009133339291830441, -0.0030368860274578354, -0.001649719652932679, 0.013805260013749604, 0.00087649125328583, -0.0024670965766239498, -0.018320507566860298, 0.0019135862165603134, 0.003549333863575526, -0.008733791912861905, -0.004751949667765419, 0.008264828395115048, -0.007184219241073722, -0.006286026725364025, -0.0010579662364145486, 0.008505483264324732, -0.006502532729696389, 0.002849288175751425, -0.0007116939395425519, 0.0016321150422470097, 0.004434362053603893, -0.010124257275371855, 0.0028060771028078526, 0.00820276665987348, -0.004376610274111011, 0.018633621903832363, -0.0010730239605243564, 0.01963245382337002, 0.0011912894441014222, 0.0011219279655125488, 0.004481316486436996, 0.008484644547620279, 0.0050850886155305005, -0.0015418529031977772, 0.0014743889761224267, -0.01928567123273475, 0.0019011823076370835, 0.00788759099781885, 0.0023160434690849573, 0.006398724452836251, -0.0007749101041196313, -0.0066421436469871085], [0.017126244431898117, -0.004234907641055112, 0.0038369054139702156, -0.0057270516515356105, 0.00012594588578935162, -0.007961576430725864, -0.0022571118257444767, 0.0006844838475697781, -0.009984030615693685, -0.022315681621921973, -0.010678874500910634, 0.004317191355333911, -0.01627606410908935, -0.006075296484915423, 0.002301077182579434, 0.013596874283558779, -0.011844336878031199, 0.00958912262575429, -0.015041444181483354, 0.01773219919946502, -0.005887130870344185, 0.005319375120718992, -0.0056235113475534525, 0.006333395870514651, -0.0016438678411768352, 0.004112442579321406, 0.004894647865266506, -0.0009235957410910593, 0.009735860491637004, 0.001415860447595007, -0.009647895547253638, 0.002451924692726772, 0.006224437250075524, 0.02423569239211844, 0.0169060399282876, -0.01940959938663306, -0.003652392740775963, -0.007878495436089566, 0.007835678383758541, -0.0017697282004080364, 0.0050904169717425184, -0.027709568878086427, -0.006010821810412328, 0.00023920635532418308, 0.00801918921937753, 0.00652417963742463, 0.0011763443254144844, -0.001431694955475288, 0.0004376116965128081, 0.0030053144244167524, -0.003955924458219136, -0.0010947467355371927, -0.001108586973131925, 0.003340510351832175, 0.010545060037987903, 0.011289102864550185, -0.0045819484962953015, 0.0029155753737064322, -0.007104352088563279, -0.003862319961722356, 0.00017465883061298454, -0.023270277651904286, 0.00597777373145769, 0.0012519510987267812, -0.0004103658613512384, 0.011258595244333812, 0.017440713220904867, -0.00745503463743808, -0.008418361329457964, 0.0036354838316674356, 0.016438760515185454, -0.010568125376580677, -0.011797977774215346, 0.0031831332199296564, -0.026413773112484315, 0.006864839467722922, 0.003768098442872006, 0.0016769530169294456, -0.0031075547403142134, 0.001703288520616774, 0.01956708129745082, 0.002545243894785565, -0.0058638876726979615, 0.01066257111235779, 0.0027307088913779507, -0.020249764124560036, 0.0038998809001798093, -0.0016664697686510049, 0.00822899960049822, -0.002238014761718209, -0.009035224642860423, 0.005091113253001093, 0.0065692249934262495, 0.00047661048091506806, 0.00041186979733815534, -0.003617418400973763, 0.009742075601626125, 0.015527598534715937, 0.007548638017658642, -0.026010005715060607, -0.0004769401911173967, -0.009585063473117977, 0.01873431414256179, -0.0010613974512236528, 0.020978695298707647, 0.013022811422310597, -0.0018735667499794207, 0.0053328649057243155, -0.0031961285669056655, 0.0048447279295502875, -0.014797070344211275, 0.003372934860702253, 0.009032753580682649, -0.004827336877218623, -0.01598857325140913, -0.012840276919776884, -0.0104135878905811, -0.004265869363608097, -0.0005230654793755706, -0.010044872482798922, 0.01128896874620297, 0.01729869910765858, -0.00746281734952639, 0.003188200666939333, 0.0038965701459751753, 0.0028196443988897494, 0.006043547590639905, -0.0110461246187103], [0.005802869816979801, -0.0005301658805920047, -0.00019078843512309546, -0.008380905080564148, -0.005101996200455285, 0.0005032318775573038, 0.00033988394621344654, 0.005094015565329347, 0.008344993509911532, 0.0024022355881258874, -0.00750160134457402, 0.015145462335068452, -0.0037287141737049547, 0.027872295625579798, 0.010776770271677795, 0.020179613564953878, 0.012407213810073429, 0.004730379047748132, -0.010125697216746261, 0.010432128121422439, 0.006651253726560865, 0.008296139513183972, 0.007553542184015405, -0.023066252322482522, -0.013869467952299262, 0.009086969551860294, 0.010922463917060705, -0.005345066285491147, -0.0038451915956025633, -0.010241691798659148, 0.0015684418739087568, 0.0032522457423954224, 0.0036898793888677497, -0.011620038911609468, 0.0011786266300495346, 0.009004684517285222, 0.005686243763173118, 0.01211862535092771, 0.000658663139167291, -0.009744518548739086, 0.013686255178757524, -0.01655581273210421, -0.007394019038805596, 0.0020146199157525806, -0.02174436869572554, -0.010137643936472053, -0.01917010150179539, -0.0042124719436982105, -0.015536341862888816, -0.01220645437581243, -0.01602015318654864, -0.007409440991629298, -0.011546508148821744, 0.003154959730683609, 0.004727792332114774, -0.00583602184544107, -0.0005462345825685714, 0.005832599835897685, 0.005131924808395296, -0.0031992204554028643, 0.0024355743762151574, -0.004593024569805578, -0.0008830482211542441, 0.003696264655327656, 0.005381694187166338, -0.011993563805245019, 0.016027216323609986, 0.00011082555500407885, -0.011460189513614468, 0.006704600184715977, 0.006001732449094677, 0.0019092687146173369, -0.01043885471482915, -0.009655483153660263, -0.0024243225653673645, -0.006954152229288531, -0.0037886656495146193, -0.012149832753462469, 0.0041656366930132235, 0.011751845397937976, 0.0037406620735719, -0.017974146072232775, -0.0036086315703074204, 0.017813619909212167, 0.009284901921798405, 0.00912313944045696, -0.019010311157154715, 0.01662184787167679, -0.0021464261011097815, 0.003920516404815299, 0.01182075282536039, 0.009707067521153344, 0.016869047217705914, 0.0033488657314025387, -0.007394231212451983, -0.013543559583033757, -0.0019125552519396823, -0.008240563626063208, -0.01476204411811349, -0.012525945990317295, 0.0007425485613104137, 0.012868261246159087, 0.01678204571996288, -0.02167689965113828, -0.006144155750749855, -8.1707016050386e-05, -0.009143923718748715, 0.0008449731318748142, 0.0082598602613362, 0.003264145615704311, -0.004997990666597327, -0.002876918066707847, 0.014605023771006273, 0.010242432201664396, 0.022356076240002628, 0.00933450035723176, -0.007318245483877246, 0.01006586698110476, -0.002245103351431295, 0.006604708952388228, -0.015869451285938443, 0.018966257692044564, 0.015111957980049147, -0.007849431616811252, -0.008001859521950249, -0.006863817000409295, -0.0010353242328896045, 0.024633533670117128], [-0.006922964492761463, 0.0030317372509573908, -0.009585663621166907, -0.010993813688004237, 0.020863495753207326, -0.012355384218865062, -0.0199275177668252, -0.007151088152405428, -0.0074924871801832615, -0.0007612092593896959, 0.003495563483816503, -0.007723937273599422, 0.009254616717085313, -0.014107519248189074, 0.0008703058780891722, 0.006379975947361913, -0.009237892321265175, -0.0011134624630945995, -0.0119271052560305, 0.0046650490940400025, -0.011253649039493751, -0.007918735702681593, -0.0015518044434585615, 0.017244656114082, 0.004230775027130313, 0.003919844637881464, 0.00032393600313870743, 0.0014491314955649268, 0.0020610461540394908, -0.00044930782067618914, -0.018606274865699386, -0.0060857500941635875, -0.004457932507566715, -0.013303609712844243, -0.004295081809837616, -0.008759774989200966, -0.007642744199073693, -0.007282328012771854, 0.0022180582994704603, 0.00767382427575974, 0.018966994843632547, -0.002325942379594778, 0.0030717350716521286, -0.009026548450750536, -0.0002817331005025518, 0.0033393693873582844, -0.0014397382070754122, -0.021058217874868487, 0.010094416070606092, 0.004316762543312134, 0.015797853604120452, 0.0004907219453689758, 0.005236752728520874, 0.009454072989224778, 0.014453990072258062, -0.025285270768057786, -0.001655315208368741, -0.003289329132110897, -0.0025301333084338023, 1.971194470323707e-05, 0.006740263052524715, 0.0043365980186854565, 0.0016359972053291275, 0.008257073387886556, -7.14545888423947e-05, 0.007133597527993108, -0.004565746835614298, -0.00580845421475623, 0.01062976391733995, -0.00033374587599848223, 0.005844002172510827, -0.01163225402081884, 0.004545375360239178, 0.006808410916214789, -0.013056021471087656, -0.012922630772197494, 0.0022490023284038652, 0.002504514465078267, 0.020196504300483902, 0.01291876666596733, -0.006052199568678966, -0.0021629092253348287, -0.007496414873006806, -0.005104833081857141, 0.010556398498741905, -0.014716006347626539, 0.00524651546744141, -0.020751594481442356, 0.015981644675117004, 0.00197965870795063, 0.006629227248404591, -0.013691087193655464, 0.012712689397189558, 0.005933196035460596, -0.001576335032399722, 0.006941923482562966, -0.0029866252763409607, -0.004180977399514657, -0.0016671188254992894, -0.008818976192897773, 0.011006004368458585, -0.010398954460639754, 0.0010825702958074976, -0.012148704499025994, -0.008109355140841166, -0.007784815756128152, -0.007230353962172455, 0.013083360762989946, -0.006302486788423062, -0.006476374855689371, -0.012768597599705816, 0.0030362365798951487, -0.0002705363907748497, -0.004913245832968491, 0.0037533524305624, 0.00387069312747867, -0.016204311143882873, -0.003971504503994131, -0.004619057394933404, 0.011194442476812339, -0.018053810059397393, -0.0057341058368991105, -0.011136665734407927, 0.003641503070115756, 0.005088992331854661, 0.007572223309581614, -0.0039450558581842435, 0.00923055163801261], [1.0668135477435883e-05, 0.02559748336654562, 0.010013333974347475, 0.002371508811515198, -0.003677444399576262, 0.007733759078127672, -0.013398675477353612, 0.007305518134075661, -0.010970847626164588, -0.009884571479594047, 0.003600994869167562, 0.0020059338800518453, -0.004973569696675308, -0.0001566309715535403, 0.002696407540823677, 0.001752952308565821, 0.008613897989052604, 0.008663155348929433, 0.00453372876448235, -0.0022748234959059635, 0.016562299836906075, -0.0187540960026008, 0.008641546073849246, -0.0041911623291919905, -0.010150126122025685, 0.016219392997534166, 0.003624794012768453, 0.009410202380017735, 0.0055352383810806805, -0.006904994995145772, -0.0028854695677320795, 6.716954141893456e-06, 0.009120460234241299, 0.0016662118775714726, 0.014097253182713725, -0.007068997235830892, 0.010099304381458282, 0.015277509542735511, -0.027456665165076524, 0.012936005635211419, 0.004421807329342873, 0.004934321106310381, -0.018402720454092022, -0.0007502612051854342, -0.0025214350095973453, -0.013054722004311257, -0.006363981917038767, -0.015737835922606566, 0.0043745435974911, -0.00868155848262985, 0.010364380545607938, -0.008271555459098183, -0.0016862595710332754, -0.001649255908078355, -0.021991287296487725, 0.01113952314626929, -0.00870041991929634, -0.01027792371785217, 0.002416897557231748, -0.008544990781032774, -0.003947713075767539, 0.0018468329351830875, 0.005252483511829768, 0.00613340805304929, -0.01606615136970162, 0.01145073305880634, 0.0025882138585101976, -0.01620353569506129, 0.012876456916409243, 0.008787355484400503, -0.016224546077863305, -0.00489778830687657, 0.01305184005518468, 0.008251915445034837, 0.006910477090094557, 0.009739119802466997, 0.0013136653216013568, -0.008104981217098125, 0.0038638338746881415, -0.0193704953119139, 0.017607495436333335, 0.013831311588236044, -0.0013102842464458191, -0.005553694617697846, 0.0015777905759549894, -0.0011761674127234252, 0.009980510522234629, 0.0055568867306220685, -0.0049782011476627724, 0.014795680535298792, -0.00562576897986161, -0.02394911081234891, 0.00839263319128182, 0.005330549653599205, -0.009520025674100707, 0.010570327443790089, 0.006774864872399854, -0.012230911456759749, 0.00033842537987433023, 0.0012250431446984037, -0.014119584104133966, -0.0003565883569106166, -0.005802540524593357, -0.009402215917044005, -0.0020350024878245123, 0.026660339602971966, -0.013135849925057928, -0.0029181055638434275, 0.0006873728063164686, -0.014351396062303873, 0.028693139309898426, -0.00924073855086495, 0.006852677295291967, -0.005288148685396211, 0.012984186979085474, 0.0035776341921511146, 0.020393176345384244, 0.010928639234491081, 0.0001974871072577243, -0.01146116751452408, -0.007719659677479387, 0.007611395421953398, 0.002950309291320708, 0.001405228122645507, 0.003219278130357627, 0.010808553580880684, -0.005444747525984787, -0.011187614084548568], [0.010276654159172468, 0.005512165738994264, -0.005844234086029053, 0.004008235741267098, -0.014172222437335038, -0.0047130142204900435, -0.00433789672321225, -0.003292808053625878, 0.005482448840433674, 0.008380373947940192, 0.01574064294336246, 0.013659784860671592, -0.006265410111046533, -0.006306791334356925, -0.005458721340565617, -0.0049631934116753295, 0.007625072650372311, -0.007775359317760065, -0.009810974276570707, -0.009071006841572459, -0.00567996012514805, 0.0028117341232757266, 0.006820789873799043, -0.01570159905712528, -0.008546260944582034, 0.007016845728194444, 0.00396599709933141, 0.0026702814245187067, -0.005642594508646698, -0.007635766782700925, -0.010243609683828663, 0.004333335271012851, -0.004894398511163171, -0.0032047787062383843, -0.006223949204566283, -0.0004302364494917533, -0.016942106802130957, 0.020785352922894244, 0.010537663234921552, -0.01678968404067605, 0.009090419363682045, -0.001200997917367074, 0.010722621483225097, -0.02210334854944088, -0.015113702781819338, 0.01603315681595301, -0.00479458026853797, 0.0008282128406049803, 0.005461992174468605, -0.009473133941511497, -0.00689992188470764, -0.004778589510947772, 0.0001632836944628653, -0.0007247863841426371, -0.00390792442592644, -0.0032817153893461726, -0.0021654286655019553, 0.006519397641001115, -0.007648692245896008, 0.007243079447325023, 0.010848223968712654, -0.006009451806970355, -0.003498517394042448, 0.0056555077411355355, -0.00017245544831978303, 0.01104859763476112, -0.00824382704250731, -0.0024611083876828893, 0.003570007422933099, 0.01077411477202762, -0.0015713496383832988, -0.0005022326014485974, 0.0032765216509169004, 0.0020008028003534284, 0.0038076650151864237, -0.011395414153261825, -0.01012260598377332, -0.005996817146448906, 0.008144362876396366, 0.014127790480204294, -0.0050775201378049405, 0.007682299318255912, -0.02015025033036114, -0.0025142969523254885, 0.013583679918555022, 0.00036469219828985113, -0.0030729858067724885, -0.005319690482275512, 0.017053201556231985, -0.008952705765928786, 0.011592786113397481, 0.0013568060229365774, -0.005081333907370829, -0.008236288778859232, -0.009673091892768135, 0.018252521476698504, -0.010020561544163684, -0.005233354263934366, 0.00736362950462096, 0.005173600489488644, 0.01163033924880145, 0.010534568691746444, -0.002468761357343791, 0.008941400193885455, -0.020290279791637566, -0.004309756044590483, -0.010600183033508069, 0.018682296991704945, -0.013211488050049675, 0.0005470099772051088, 0.0132476301976736, -0.005810279931354974, -0.003732311633945701, 0.00837759110640865, -0.0018861842067269426, 0.007368762377945134, -0.0034760536801861147, -0.00010298830729700576, -0.011238573556027955, 0.004749593833284496, -0.0049411196805657955, 0.009543912248122123, -0.011919252695062665, -0.002024906338155167, 0.025727703240707698, 0.004837558849511137, -0.017968901647669917, -0.0016688828452898791], [-0.005716461555822037, -0.008262223994148136, -0.012268582366431191, -0.009700545404340885, 0.0004681922482507541, -0.002156927879592874, 0.011377420968898242, 0.0013962792610067803, 0.010673286202265878, 0.0022483345952003654, 0.013851797299285967, 0.013234880149528706, 0.012298899426482823, -0.02086639577377591, -0.005268686223108199, -0.0023238885370962365, 0.008319319160433923, -0.009311599877506651, 0.0006891024653500193, 0.0011986617159871885, 0.0029514103038580657, 0.00805085231884264, 0.013331347386004805, -0.016666949206867634, 0.0027446695075720976, -0.01210159457329273, -0.0008742244035360578, -0.0015433231851406301, -0.013831538281815667, -0.008515857980155243, -0.0039614757191580256, 0.0014041974473824798, 0.002163295316236217, 0.0015406048076902535, -0.008513692111463968, -0.013341445665072395, 0.01128007427842773, 0.009007871437869837, -0.01023967426501309, -0.0006612009947350418, 0.005724855236230968, 0.007973763054088137, -0.01633235127318477, 0.011902342671117113, 0.005785221380892906, 0.0025696951004567513, 0.013122212233396754, 0.005645687424684446, 0.010552772044039004, 0.02203936674315459, 0.014257146963681798, 0.017797904367882363, -0.0011093637194529628, -0.0022986599703332484, -0.008425721591255882, 0.0012521564683265073, -0.0045673477284800534, 0.0005348277777071027, -0.003648932490096638, 0.009986055142990825, 0.011418759749954772, 0.00557728843144198, -0.0015124454325666078, 0.0010021129234315895, 0.010856929031427947, -0.0005712205490086746, 0.009744793303079058, -0.011972035048704923, -0.00902545450172862, 0.002912967497478901, -0.003859930811565557, -0.00599868395163959, -0.0020535734002716903, 0.007132476958027279, -0.00426544332547904, -0.00684533018529746, -0.014061982316702111, -0.0007441317646468131, 0.008526547138812688, -0.006904648046082297, 0.009648093141421864, -0.009774130802461041, 0.0028060581783023886, -0.006264258011038351, 0.008152646991374253, -0.0004172796761239247, -0.00312077261713298, -0.019036407974318596, 0.026233126557218593, -0.004876610663765043, -0.006042520586618137, 0.010394224188650974, 0.0009812900899409738, -0.008002780154819257, -0.006049199944881747, -0.007114400684052462, -0.013022410665343244, 3.161206587195975e-05, 0.013175350137430748, 0.0073784880692636815, -0.003984766024144198, 0.017914891716472835, 0.009038895199163809, -0.0005814289007416902, 0.013657215200514525, -0.0026705103826375003, 0.008043941364039098, -0.010563768915143358, 0.01168036662697207, -0.011533033381820223, 0.010062751407335873, -0.0042462439463535175, 0.017088275353386473, 0.002504628613080506, -0.0029604243328263664, 0.009356756157193459, 0.010705589135041264, 0.007671322293291699, 0.011652703009941163, 0.028729408650788536, -0.0012358323854719316, 0.010389201145893465, 0.012030663157653974, -0.01239558130642091, -0.0017322776936595878, 0.007387545417742302, 0.01828862643059099, 0.0023080979477982273], [0.002357214339410012, 0.0023537166162090448, 0.007563409229539081, -0.0038180100905126, 0.0069408997931617875, 0.02120493752624759, -0.007004669280821212, 0.005192375975124726, -0.00935846334858463, 0.003284834184850576, 0.0014773953738803469, 0.0031030582516688586, -0.004912577450587198, 0.017057657871114868, -0.005231384188725546, 0.01098936533263602, 0.0019428686939100019, -0.01783464128201592, 0.007500524319671079, -0.011610623464672834, 0.002297240591879133, 0.014049130305541386, -0.0036933980077261896, 0.007824066994055549, -0.008572842680217197, -0.015536061367337288, -0.0020115963246378063, 0.007291078840765135, 0.0013860042568575445, -0.006686599747573441, -0.007279379992824171, -0.0005080814371516783, -0.002970959017847151, 0.006323501699773094, 0.00490981591569863, -0.009319471320851588, -0.006087350817848117, 0.004136119082975276, -0.007609050045014212, 0.0027711166830546937, -0.008560484190765593, 0.0018521053636144879, 0.0033568092953853014, -0.016305946022443035, -0.009993570794002161, 0.013789287311491032, 0.0015833964185270537, -0.005346852961395287, -0.0045327137361665685, -0.00488988050344376, 0.003758570322502137, -0.0039013101801244187, 0.0041532128263251636, -2.2453167788932488e-05, 0.0007205726248216846, 0.01959935924063156, 0.00766556334450013, 0.0056879433830956715, 0.015463154690016086, 0.0019407929322471714, -0.0021900921932284214, 0.021755480032789473, 0.006700827166997622, -0.021699196055793932, -0.011226698801230131, -0.017417967742235425, -0.011883821037916893, 0.0025072829172930913, -0.019600699374245197, -0.012388017255075394, 0.009338370046801839, -0.02487604124602502, -0.002408755276287943, 0.0122563618817274, 0.013105151445716846, -0.0027864037451426995, 0.004847359576943387, -0.00823151644098108, -0.015410880366051071, 0.0043654639473138315, 0.0031147160110413592, 0.002121681155331265, -0.003745172909064464, 0.002638941496230172, -0.014345847250027462, -0.012128593311579084, 0.02294884201143875, -0.0031243126511409877, -0.0034419458956404343, -0.011620581664626527, 0.007408667992189585, 0.00046805983234176875, 0.004318812255278115, -0.00446320327544623, -0.004034616746682241, -0.0018822265212355067, 0.013650934315296046, -0.013445828823075464, -0.013052501738594801, 0.0007720533002405483, 0.004311758775976411, -0.00296009132413421, 0.0008265495988419302, 0.013708326389046607, 0.003820903838928211, -0.013448151249507947, 0.006498956584891711, -0.004063087564709464, 0.003913191502741409, -0.0049091302713390635, -0.0023867785498417698, 0.02073226208956063, 0.0025160688348502946, 0.008794146970056503, -0.002662411031750099, -0.0070251172551699615, -0.00706766529056697, 0.0012703716192573582, -0.0021119308722733826, 0.013687089957585384, -0.003382988340873084, 0.005042581529401578, -0.0026622642764022996, -0.010385877939391342, 0.008962162640439983, 0.017892452585876944, 0.001756383898534637, 0.0010537837022654996], [-0.005994713780973594, -0.010119553377088154, -0.005062764552748477, 0.00619022850594329, -0.011108061338523574, -0.011292821797492882, 0.0036870955069878437, -0.005713002144725871, -0.020209039464578304, 0.014795332565680797, -0.011617720255330055, 0.0007385236665215064, 0.005608529349606775, 0.010472873265265055, 0.002099689853026975, 0.0029224624076133097, 0.013432690165845203, -0.0074378629253614, 0.007407830895950051, 0.0020300070984338482, -0.004510583072897296, 0.009243169978212213, -0.00806333035435953, 0.00789757518112267, -0.005998048997759442, 0.012796420748792423, 0.021946558736711162, -0.0016837367367744929, 0.006755886385722548, -0.0009447262349568163, -0.007184008662954787, 0.00550585141986387, -0.006812809045437405, 0.008829560860552279, -0.001154155308990087, -0.0025935343647295623, -0.021204214850016393, 0.00886884840590166, 0.00987392042116799, 0.025605237151615137, -0.012353097803374942, -0.0069656819513377165, 0.009244950316636746, 0.004271419384922963, 0.004084624953091975, 0.012531394663951782, 0.0014052739218203061, 0.00463835947067787, -0.001587224560172311, 0.005293437125927042, 0.00797473408685557, -0.013007787350302105, -0.02398252656835963, 0.016316312706191247, -0.007015924749098826, 0.0007575421568821816, 0.014580171914716058, 0.0010455693461897907, -0.008704546989497665, -0.005402736302645877, -0.004629846703801382, -0.010503389840405167, 0.030649843961099515, -0.010597022907405928, 0.002336451658334702, -0.001257162771207378, 0.0023992748349942776, 0.010624046646365952, -0.0011625043739890717, 0.010738420965884829, -0.007052647143722056, -0.009279204144157907, -0.012976051106841009, -0.011936588833863997, 0.015117290931393749, -0.010136769991815033, 0.008431489835770254, 0.001983905852901835, 0.009041477054030198, 0.009857913102160788, 0.014257612363520009, -0.020330776633582685, 0.005970766392478321, 0.000682253778886013, 0.01665869987844275, -0.003671035818051997, 0.005287630508102106, 0.00872054090009234, 0.00462886382732067, 0.0001390088656397295, -0.009441935896189904, 0.006828945171927744, -0.003206234429391301, -0.010701814507435138, 0.0033775344696193536, 0.005948351123530537, -0.008339609411353378, 0.00521941495866779, 0.0029676132689205443, 0.004773967191675506, -0.013319328495089312, 0.0028897910079424675, 0.003869158960856741, -0.01319137032770482, 0.0047213778688046885, 0.0011522045898506882, -0.011071300363895165, 0.01029172354109193, 0.01624185503678306, -0.0198671255619437, 0.0186703380529489, -0.006134525183487892, 0.015521285278899762, -0.020398559816453447, 0.0037415128844725688, -0.022310036862062052, 0.002143424186625631, 0.004559858311238027, -0.018684621009901137, 0.02646977968404204, -0.0036293685779464806, -0.001776701998034708, -0.0013904371178168344, 0.005657071651100781, -0.005234521876019126, -0.016276668640517574, 0.004260804244395323, -0.007387431937726938], [0.01822063626944752, 0.01963762312136231, -0.012992451002716269, -0.012743548964485088, 0.021617737158881132, -0.0005385890717205333, 0.01218861569457063, -0.004302555313856365, -0.008484337337797094, 0.0010673602374729099, -0.008303505361746883, 0.01155777750571343, -0.007150551711037473, -0.014804537079741331, -0.0055638671722946466, -0.007987871704639412, 0.0007073559304993792, 0.002267106622397473, 0.007979395384398711, -0.007232833185887419, 0.002768661328831877, -0.006372142997609704, -0.003565447470100067, 0.004252660759532144, -0.0055387645552187415, 0.013474920807762678, -0.003404013721095543, 0.0001657479744217473, 0.010311814291263103, 0.00306195547093925, -0.00944133439362303, 0.0009964466490562905, 0.017261264362776016, 0.010029319362463674, 0.00667066788044906, -0.008471387986284367, 0.015792151282927387, 0.0005166479777820237, -0.009342516466659286, 0.004022713185143208, -0.015071023260960097, -0.005218858761737876, 0.008697232486618764, -0.015052574798101235, 0.02654458952040166, 0.00529048349351141, 0.011021072142609131, -0.0067460003615713166, -0.010548187652781812, 0.01636645471786363, -0.005042413428774504, -0.004139802468924957, -0.009000394900420391, -0.0038342953906701817, -0.001599620313975634, -0.013789737731065212, 0.001530483591110053, -0.015825755848100774, 