{"type": "sequential", "layers": [{"type": "dense", "biases": [[0.00027646223091428097, 7.803981756024825e-06, 0.0004168967080622738, 0.00039519638966709726, 0.0002761970659489126, 0.0002812749698309026, 4.7401664591612085e-05, 0.000408407022025882, 0.0003251102915165931, -8.259785588677588e-05, -0.0003296786126037923, 0.00027375961448523737, 7.718699621752255e-05, 0.0004386605326888399, 0.0007055468990413813, -2.1285921523188555e-05, 0.0004803464702078928, -0.00011036957389108991, 0.0003065208020787695, 9.684163385324347e-05, -0.00011644008596218055, 0.0002285748479982318, 0.0002713417599676093, 5.767501524225045e-05, 3.857288222230922e-05, -0.0002796120214375512, -9.82891288002111e-07, 1.5715770150144112e-05, 0.0001924179481093257, -1.9159642156511336e-06, 0.0003160881807262651, 8.3082982281655e-05, 8.730800665321282e-05, 0.00014232003576852172, -0.00030324403726974966, -0.00020805585251052004, 4.666897568751917e-05, -0.00011926141954424606, 0.00015456578267252343, 2.5902618034633498e-05, 0.0007625215464229031, 8.779022747738937e-05, -0.00010737645516949371, 0.00038114909374968326, 0.0002893215670983844, -0.0004444516724010899, -0.0001877408311778915, 0.00018730791517233554, 0.0001691039917142608, 0.000157106817145723, 0.000183718022230426, 0.0002844961650770107, 0.0002487988678322454, 0.0003145651645506226, 0.0003871739118537911, 1.242018286073285e-05, 0.0004292699071254173, -1.8274500358364938e-05, 7.200751765237455e-06, 0.00024859925219733285, -4.770253315193972e-05, 0.0003140396967140767, -0.00022969249699636237, 0.00031900146351289323, -0.00017777311761480317, -0.00033855333881057395, 0.00010454291884164934, 6.962891017833182e-05, 0.0005738286966640435, 0.0003835333541471053, -0.0004052155689087661, 0.0006378427602227719, -0.00010217750017256497, 0.00017167938148257678, 0.0003610463943250854, -0.00022271426025527818, -7.585498324324811e-05, 0.0003087141664684633, 5.028793195665965e-05, 3.104047504644014e-05, 0.0001499066034579564, 0.00011037409486255326, 0.00041291310442077774, -4.40668621984199e-05, -4.979441520045839e-05, 0.00019126558725988916, 9.566778749486935e-05, 9.515554091626856e-05, 0.0002181152465757452, 0.00021727378227840666, 4.514804487572262e-05, 5.223491814327846e-05, -0.0001826505887663053, 0.00015336115304582994, 6.71119895260576e-05, 0.00010647380416451559, -1.0165763562248941e-05, 8.953561767757291e-05, 0.0002581120125188796, -0.0001316961907129651, 4.764837871734329e-05, 9.846914830363856e-05, -0.00013070109929335405, -0.00030651729369184327, -3.488119786442746e-05, 0.0002791832421240556, 0.00021135203033371567, 9.698780390860362e-05, 0.0002650685095017843, 8.48135443391289e-06, 5.575558372852539e-05, 0.0001883301621952804, 0.00013268003454063797, 8.701166618628854e-06, 0.00020428984293283063, 0.0001971317203686738, 0.00020655437368237163, -0.0004812920736618215, -0.00016131340721683987, 0.00029705929203995723, -0.00025561298543825287, -4.3123076382612665e-05, 7.372284058694794e-05, 0.0001889765663516077, -0.0002582023181434342, 0.00030999488416053446, -0.00015878165654454885, 7.060532775229959e-05]], "weights": [[0.01340894914999693, 0.007685866857329068, -0.011423603852867465, 0.017433554089805715, 0.017773765931440373, 0.0006169281439625486, 0.014030993367415074, 0.0021980662218296356, 5.68477572748678e-05, 0.017021399383627896, 0.009931667655470041, -0.01377061625629831, -0.010697355688972898, -0.0036253381941357917, -0.000737265717236634, -0.0007774613575740729, 0.004835437324364564, 0.017295655073571094, -0.013704257922924375, -0.006432629864017237, -0.01791560577524546, 0.0058752982039962445, 0.010740441767229705, -0.0021949959234349764, 0.012152024827968769, -0.002043708696308024, 0.012678192130252187, 0.008049058827524479, 0.0008654903836564854, -0.000191857661321332, -0.006627053130419592, -0.003731534458211097, -0.0005931218941320108, -0.0009808185839513938, 0.012973745838659534, -0.002632572952817312, -0.005773141422835817, -0.017301483781528886, 0.007472758764850409, 0.01264784391399344, -0.005361144527389282, 0.005320194822312759, 0.00842470519595303, -0.006214450260641125, -0.009231136634671509, 0.00040785570512369537, -0.00826828187658682, 0.005428054138948023, 0.012992334525144708, 0.008403301055802916, 0.020092446757770374, -0.007855595473316448, 0.006438706656116324, -0.002209109085155885, 0.016711071601731495, -0.006647570536415457, 0.004559397625647608, -0.01220222895942127, -0.016205924212176214, 0.012379688820646809, 0.01039768497384339, -0.011522591287655625, 0.0033500262197944113, -0.006632490759770577, 0.0033023295437937003, -0.0038770799945772962, 0.0035343471841730667, -0.005238145994292862, 0.022714336333849967, 0.004922558813828718, 0.00026330438864027454, 0.021911685769742856, -0.002742263587434859, 0.020253362194846438, 0.002422600807888071, 0.014904017556524785, -0.0015934289566184245, -0.008662736411719683, -0.003082398856286821, -0.0018743110038085217, -0.002933059648474975, -0.015379220795015126, -0.012806999111821777, -0.010380943201154761, 0.015539156535255937, 0.017447682296509323, -0.009128014550342236, 0.004432652844374078, -0.010034538023407818, -0.02627171519074592, -0.01563575164996662, 0.012093748443872659, 0.004314318718937251, -0.006500253734080018, 0.00010070618284567908, -0.008129830964096989, -0.004643086913224634, 0.012247111647216279, 0.0054162003402392755, 0.005850313434431943, -0.022630248382200444, -0.008323118490869951, 0.007072388979478105, -0.0032718762743572157, 0.006504824319187925, -0.009283163273423193, -0.013326815365418082, 0.004765091542094614, -0.002997933380025095, -0.014274847713441908, -0.008348647004390575, -0.013190321483958142, -0.004567317386565938, -0.008614427665031486, -0.011714679020132868, 0.002797110758615008, 0.0011006963163491023, 0.004128115262687636, 0.0018985056841786482, -0.007730084521070819, 0.002194366402200525, 0.014832969345134037, 9.954473384029861e-05, 0.007829640710641038, -0.004814785050987063, -0.0030661664011185515, 0.0038314790189761362, -0.0019085606723696958], [0.006883696578239979, 0.017203651062017215, 0.012555668117800131, -0.00011872031646290944, 0.00019961173325708058, -0.01330337008826404, 0.010720040864551821, -0.007894107239340368, -0.009554303754071337, 0.02955056843059129, 0.00487493336912068, 0.009876689809404388, 0.020560306341573086, 0.0034844473845276726, -0.013736120062591362, -0.0010313138590373658, 0.010077828101933256, 0.009568349229264762, -0.00291454999105708, -0.006683469495212682, -0.0004379341666752172, -0.006656566618968877, -0.005928030545290471, 0.0006412400021143299, -0.007958769546412009, -0.015791363130124084, 0.001704993560784849, -0.013054266405356243, 0.0006811258222055296, -0.004383121027737345, -0.0015232775475638553, -0.004771870388402515, -0.010154324952064813, 0.007884936628409493, -0.01115247272060854, 0.006512770527486563, -0.028585378649699344, -0.0013564086726681594, -0.002014575988439873, 0.02141929779691902, 0.008776971410244314, 0.00018363490841025965, 0.02083882732463632, 0.0029136116032250654, -0.024669827967574165, 0.02594446126178197, -0.016545932059470053, -0.009854794656454575, -0.002250950490190764, 0.014022329838297607, -0.010313568362521633, 0.01239471752988871, -0.010583168971941661, -0.004312350913049474, 0.013086730343042724, 0.010048080593115518, -0.006316059379491467, -0.01411196382233632, 0.0085965758793454, -0.0016640028906319093, -0.01173276704466241, 0.007625108966179056, -0.005513879403101448, -0.00461417960600023, 0.016803482526063417, -0.005975540115518877, 0.0036188705634662287, 0.002271376164449674, -0.004633521845414826, -0.008001058409394338, 0.009918657120932636, -0.011761673527729624, -0.000658023128213059, -0.006795873477464796, 0.01716284043147208, -0.011786289061608033, -0.01082615692237601, 0.009319286002709506, -0.0058414460130010604, -0.011570632871913369, -0.004122931466127812, 0.00866308395618129, 0.0031003265417036603, -0.0028403650184960316, 0.004997620389709981, 0.016198144596091268, 0.01913142051472387, 0.0012549826880199776, 0.0052180744433863715, -0.00432770120071762, 0.002830178868582232, -0.003726017167717033, 0.0007841906697062647, -0.0006303584537365737, 0.0011617030175790832, 0.009508929594915377, -0.009292330600585689, -0.023244771579044345, 0.001664833517584549, -0.014117144559189556, -0.006935676047299001, -0.013446570775148624, 0.007462819898235221, 0.000778535659258174, 0.01707031411066884, -0.014423945799220007, 0.0018824271959671213, 0.012733648152227106, 0.021468081372482586, -0.014637106409761727, 0.010514917651716098, -0.007391626085693979, -0.021026534959712993, -0.00627906045669575, 0.02176790433307352, -0.008128048575176176, -0.0118723629644765, -0.00044000239976816854, 0.019507404948292534, 0.007322366996193636, 0.004834263758526754, -0.019698924770339014, -0.008744432303057964, 0.004208202530248347, 0.003787172605444506, -0.009543463980141397, 0.008949018050989146, -0.003226197972384173], [0.008097057609748328, -0.007494907966963627, -0.00868129703544431, -0.007849591009450324, -0.000812459466071285, 0.0018468285943539593, 0.012973395464113462, -0.009019407229929001, -0.01016672287858427, 0.005652325318009453, 0.017740411672122838, -0.0009843019415701722, -0.014414165219608316, 0.00016069353712340855, -0.006523475330495991, 0.0027856047377431393, -0.011587882614854226, -0.001663070319844909, 0.006724354179827712, -0.002819017065423657, -0.015949739730904175, -0.005921767991814926, -0.013022662424020113, -0.0059085704093964474, 0.0017276658278700258, -0.005397841350756177, -0.008187180656248249, 0.0008588711956918565, 0.007235902923791392, 0.0027391037018384963, 0.008506290855088165, 0.016543865544070255, 0.00031928394895142765, -0.01477579438825217, 0.014972559168688272, 0.0020222814416645707, -0.000829386771649617, 0.007210348104535952, -0.005428277532490321, 0.0022397477536311608, -0.008447616126381164, -0.01888649722654566, 0.0013834089211282787, -0.010836747581158377, 0.01575349289705622, -0.011461508038355068, 0.0006943325735048678, 0.009204183946586687, -0.0016235065713651878, -0.018739831387641542, -0.013557573809289918, -0.025875243210437875, -0.005698290629877129, 0.009489003595446103, 0.00585298545018443, -0.0030283230192467846, -0.002927845023009585, -0.017093824149911802, 0.0029746206493040566, 0.011531981217742966, -0.0038675156522815254, -0.011048161492038322, 0.006379912405593224, -0.007858493167767546, 0.009453543849524897, 0.013095023116113935, -0.0040489735034390986, 0.0016670513143455742, -0.011083107433757245, 0.011726058910025566, 0.004114757216994559, 0.00607311034835558, 0.005648659180121442, -0.008213369554310027, 0.007646285076908989, -0.006130586647463775, -0.007368953212665449, 0.0009345427939633503, 0.008561790431220007, 0.013972581335536624, 0.00038537440314901424, -0.0005464840847195723, 0.02654007236755692, -0.0017751930704303493, 0.00010889538170692322, -0.004139495903141847, 0.013529934144507774, 0.011260800525417653, 0.015443515008349099, -0.00660578669624406, 0.012825577929226471, -0.0027647246651725135, 0.011915760535017939, -0.002110991871048198, 0.013682522479200307, -0.003252796903306785, -0.008098010215808726, 0.006527289241414067, 0.000986599223426226, 0.007723171199996677, -0.003649903446760892, 0.017787902893492025, -0.007198799758100523, -0.017867067866701003, 0.007075393642905984, 0.002138819641779948, 0.017148043349894934, -0.015146472093138954, -0.008825936037889425, 0.011349424638313422, -0.004939111347530891, -0.012578891052103578, -0.02260861258496644, 0.002329213775171202, 0.00753786063682953, 0.013945460344129551, -0.007654738136532142, -0.010080869787036517, -0.010559233123014208, 0.003864504174626707, -0.008907514397318331, -0.0018648129162400784, -0.014870835888732208, -0.002252338343981878, -0.007728115841411796, -0.006032189119767288, -0.0029660847436908146, 0.008201541334283522], [-0.0015756340607005698, 0.004541182265690189, -0.0009766929385772844, -0.011910944010046031, -0.008638775554114778, -0.02196960397195098, 0.011661539971915505, -0.006419903314737027, 0.0035928928248715403, -0.00435090751241217, -0.006055078624777737, 0.0008369049114839423, -0.002653739104120676, 0.02020756770130007, 0.004715227850192165, 0.0027482172178388267, -0.0021501371625623, -0.004382750008422174, -0.016890345406838238, -0.012174643994459926, -0.00398421372261432, 0.011432550494663666, -0.01334456716912658, 0.012976546299678598, -0.00020354613793710207, 0.006354501790439837, 0.006211633015025525, -0.012270019743236524, 0.003855297663554433, 0.009905231839432444, 0.0007612890029424664, -0.013495669243599134, -0.004323999074157779, -0.008073869313361378, 0.012114665951513146, 0.011300559862572397, -0.0034183174915295455, -0.0070082950502529185, 0.021888876025815733, 0.01038173727006762, -0.0040152912047298275, 0.0003613883661827111, -0.013236471133537073, 0.012619563878589684, 0.02589007742305484, 0.011442203431166713, 0.0068332575154121675, 0.018595709104494613, 7.220010293754e-05, 0.0063961082679833406, 0.0029504923494570222, -0.00331567341806688, 0.006534808318375608, -0.008300350406544633, -0.007385424756111714, -0.006282155027792377, 0.021262876204739847, 0.0005684810234035217, 0.012337235220202483, 0.011634164844415092, -0.002073656875168022, -0.01768022139003359, 0.010807610795489354, -0.0073286202278206305, -0.0012172593005687336, -0.008438875223021102, 0.0008048282163521311, 0.015449085290529586, 0.0019262539285340994, 0.0032968923628670923, 0.0005272929125328684, 0.016982432307847645, 0.009736360488690574, 0.0013220126904835885, -0.01584946769809999, -0.014278514901071782, -0.0165203970722631, -0.011837532382384353, -0.007093627335732545, 0.001650403239059903, -0.022671452397298265, 0.010857111926477621, -0.002843251866360332, -0.0048908736225232044, -0.01455967957871279, 0.0022301407681264117, 0.012301955089726004, -0.005950281568860436, 0.0030253634110518337, 0.0016521796693346649, 0.007528807997358789, -0.0007141619304371259, -0.012278384525191342, 0.016778415398256332, 0.0022805404494855653, 0.009847033396038575, -0.002919058814963623, 0.001452288572409887, 0.02120841901439368, -0.0014937531819072866, 0.0035307827682296384, 0.003177075306619438, -0.018343430511327016, 0.008354089601140318, 0.005982417962886455, 0.004304596444506885, 0.017378002723021292, -0.0074097895382923135, 0.003438578386120586, -0.009318105906888573, 0.012317479115726416, 0.017656970759549005, 0.003673514129803014, -0.01769584458615533, 0.005570411180682533, 0.00956623725798935, -0.0011276994510705793, -0.0014282764825794695, -0.03387450218444847, -0.007299615396088882, 0.008962520527966474, 0.0006837700770724235, -0.0011153015730605348, 0.006793682351273342, 0.0012329799733141308, 0.012952167661865561, -0.005734538091623704, 0.013884507437913134], [-0.0003215330804373865, 0.010126440903202765, -0.005906164003367899, -0.011852752376183774, -0.005473015740003638, 0.001483531364921265, 0.02108318965327906, 0.012823541334803588, 0.0045987853074194365, 0.007645401131609375, -0.0006688092905743254, -0.012005926964609242, -0.0005684941592483635, -0.006393577663868334, -0.008168992892092008, 0.015512756969194436, 0.004881174956012623, -0.009470736018676543, 0.0006144772599984178, 0.015371713106245447, 0.031308463868519085, -0.004894395543923878, 0.0014908777622845283, 0.007002487644747451, -0.0071948096113623175, -0.004333746903260603, -0.005476273393910808, 0.015958387754465654, -0.008919486142334338, 0.0012672262039140458, 0.01430204909669934, -0.0055515797911136425, -0.01885494662591167, 0.0018262791358637643, 0.009656578854792198, -0.009465648574808777, 0.018517888369437213, 0.001918811513740349, -0.008006720605853525, -0.01961783521634829, 0.01958078378337722, 0.006842171341232327, 0.008912100549561094, -0.015766434353501804, -0.005280831595056268, 0.0005650021788617509, -0.01083299336570058, 0.005500553728051581, -0.008036124241360555, 0.004511267820299343, -0.011956152990849584, 0.006653719868191612, 0.007313954028455914, 0.003760306552816804, 0.0050579152955556855, 0.008547532766607883, -0.0034328292542277674, 0.004660390317120658, 0.00046554726509084106, 0.00731309954413044, -0.019013751388985395, 0.004126085191165646, 0.0056589806077762365, -0.003766181648106056, 0.011169405560104382, 0.0005814134143254109, 0.014485635158988746, -0.007535040880210985, 0.000497514968211539, 0.009924987893205308, -0.006277345259568784, 0.006446466721258345, 0.005619717973266282, 0.007612996126611129, 0.007697032103525702, 0.005911966387322453, 0.0022355080890729758, 5.211310551466264e-06, -0.011502475212860018, -0.00410545158272933, 0.003348786852222261, 0.025988286798587956, 0.01848926328242017, -0.003964130615391595, -0.002855775564943518, 0.0023229961096130933, 0.002020638471255727, -0.009653930480098405, 5.004305104111262e-05, -0.004616168617970147, 0.014718616116949235, 0.005695145808670726, -0.0010431373560749301, 0.008407230931404674, 0.007351849453962375, 0.006255840395456912, 0.0056737421486157315, -0.00331618355550974, 0.0022973943043194615, 0.001774515010276392, 0.007157921913589991, 0.02151868510715081, -0.011275091448582611, 0.011239574363152673, 0.005919819082009565, -0.0011028265256796082, 0.0039228882844795894, -0.00361924769575695, 0.02581785059255037, -0.006939841115650876, -0.009384953504761238, 0.01418990720549287, 0.0024178090156230132, -0.010704844254716064, 0.011357693719426229, 0.0072210886088159626, -0.009170956681120264, -0.002391107671790687, -0.0017188167668127261, 0.0007132316555527067, 0.004538667249893529, 0.015312566802688098, -0.005814402146229187, -0.01921369307217252, -0.012948034667500828, 0.0019170609985675999, 0.014310202009826254, -0.0017927105464370307], [0.005909967639846932, 0.002309624521526875, -0.008101845487709845, 0.0028119068175430167, -0.00487344091976383, 0.002111252823373261, 0.00971767733832988, -0.003043294164434474, 0.0063103715958197, -0.01493458194098976, -0.0019182413679878396, -0.0043493754972768, 0.00021057099250932504, -0.005865461598121846, 0.006352098845554333, -0.0015829227873246992, 0.024150989402598234, 0.013506479184230528, -0.00949128909051212, -0.014049386170075473, 0.004915365371961118, -0.0031711835612303254, 0.00653826456722238, 0.0006745755763086057, 0.020921392932705993, 0.010667506369384383, -0.019087710152425604, 0.0011962372872534584, 0.01781483814664785, -0.005355558288565032, -0.006574354504237623, -0.009829562479389714, -0.0038414800575636786, -0.005531961127907491, 0.005367712416060536, 0.00013000064660541755, -0.002603320823184841, -0.015416280489984153, -0.018463389926424788, 0.0010410576096647685, -0.009083128600473464, -0.004301865980780881, -0.015407552926731414, 0.0068561020418134435, -0.0048452448666316235, -0.004513764274071612, 0.0008088296437920687, 0.0016984217257110714, -0.014478424297128274, -0.016659382195179834, 0.003156638102810497, -0.0026926314602024972, -0.004645071827067802, 0.01855936006040263, 0.0030461881274277815, 0.00157532580357164, -0.00039600944435632155, -0.013028947282313479, -0.004412509952518486, 0.008167820173010579, -0.006147645365812935, 0.0057910858346945735, -0.010420492974829101, 0.0027520570436918245, 0.0034363652595629933, 0.008399292378762326, 0.005189632805165933, -0.013192163532077805, 0.015716732030638197, -0.0067987502724558, -0.009613721657405414, -0.006023214872136731, -0.0009189299569979856, 0.0030303914962307586, -0.018077802765639524, 0.013575011038400572, -0.011724944907904012, 2.1642759213969884e-05, 0.008299545505981266, 0.005625674702432285, -0.0029979194927740142, -0.010166043276081178, -0.013291086119054035, 0.0027437759459514413, -0.006369326276975622, -0.005996045574162341, -0.014745350569629896, 0.006302672048457544, -0.012572929579743201, -0.007576118521679754, -0.003529817698432527, -0.0019437818881453475, -0.012720866872311307, 0.005905152889854167, -0.009169350268957925, 0.0010421482808684345, -0.005654528268072346, 0.007528015898665898, -0.005401328562896766, 0.0031487422176870255, 0.0018153916696488671, 0.007558875183070495, 0.021703418430637306, 0.008944219726172452, -0.014322203120691074, 0.0037458294393368716, -0.005165299475615233, 0.0003387658087369696, -0.007587235065669769, 0.0015673175298933232, 0.0005302690839489548, -0.017854184900991523, -0.008782046406069858, 0.001755367116093222, 0.030788985281627945, -0.007183732511647405, -0.012017978551622253, -0.004723120732617646, 0.005991809573212781, 0.008567561025978087, 0.0031612744855905855, -0.0009596868346861518, 0.011145154991651193, 0.0014759058538904124, -0.022962704830942884, 0.000858147761464169, -0.003433213629519101, 0.002594826328109496], [0.023640607885716727, -0.003251031842485322, -0.0016113982473203584, 0.001977130179518516, -0.008984445285076038, -0.004068712581201624, -0.013187268687219556, -0.003951131693151719, -0.0074696058328114455, 0.008499070542949065, 0.0020980519726394435, -0.0011179169862400417, -0.005400235913556507, -0.025342318892948128, -0.009915630719062478, 0.0028161987825310116, -0.0005655798365892132, 0.005949007372375728, -0.0014889162430460803, -0.009079345692572481, -0.010575528813664511, 0.0012597918235503084, -0.018919996223513758, -0.03287328311421555, -0.01714979143919516, 0.010295844167883617, -0.0035082965066555285, 0.00599583105836224, -0.01764891171365965, 0.024292254776455708, -0.0025776125938985956, -0.004067069728259298, 0.006954007584266253, 0.01814949059191552, -0.004289674234116996, 0.003535623075614766, 0.012819614817915761, 0.01743197462222425, 0.004660948813109051, 0.010922435292337497, -0.0080329895901571, -0.0009465316417090598, 0.000323374977931955, -0.006951022417221643, 0.006871525818162486, -0.0029392959909948137, -0.005349240751039752, 0.011077005428136286, 0.0007762013929099403, -0.002560448317250381, 0.007450428044713115, 0.010054908099895534, -0.01110223015499687, -0.004616019426996055, -0.0045179583563206985, -0.008049613030487974, -0.005127737823302534, 0.009858220896324286, 0.004130622146323535, -0.004890060486285803, 0.0007546766853371693, -0.014155650914779435, 0.018485668498613977, 0.010436690453627486, 0.0018274379603950195, -0.01036210354418877, -0.003264575966891479, -0.009758198145306153, 0.006524169655240485, -0.013986236728346976, -0.010477120789810222, 0.008887283096271622, 0.011334954976596477, -0.005076092668987877, -0.0038319275885410494, 0.009931248473871846, -0.007846402295709647, -0.017046614966413035, -0.006950820239090537, 0.003368640639267615, -0.012950719498854636, 0.012579238746613035, -0.00023533229480066596, -0.019914704025367016, -0.01765386881059506, 0.011879655489592217, 0.013613655625815886, -0.01071888368116009, 0.010107285962170736, -0.004309105771091189, 0.007933177053675912, -0.009138616591769708, 0.0019137609241617248, -0.004848625644337649, 0.0014501921523597894, 0.007305567794570437, -0.011425224385106843, -0.012532579745526445, 0.015298718405291512, -0.005757180483470707, -0.013331444489166056, 0.003770137076674287, -0.009731662159520888, -0.009652530787941099, 0.0030872150206264167, -0.0065560660045027985, 0.021213971320926124, 0.015404300413814707, 0.01771125335926907, -0.009959094556762643, -0.0020086419239912206, -0.008240821043394133, 0.010263952566542136, 0.012584300379324809, -0.018652722316483926, -0.009509939450727234, 0.00419837806395519, 0.008099721775589935, 0.00017021907398965676, -0.014043478412549104, -0.019268727902686595, -0.009223353179760857, -0.002568778884509309, -0.0019344445817284616, 0.0036275280103278498, 0.013490368249428076, 0.0006448273742857602, 0.002642907873325559], [0.010591642515838686, 0.006542254915826626, 0.0010862059146848483, 0.017949647606469887, -0.016820264948129528, -0.008659355944036174, -0.001886099725479592, -0.004560567322094681, 0.005259643582734131, 0.005412420443131948, -0.0056663345436710685, -0.005969956255722483, 0.006433894874121118, -0.006591011737078399, -0.003095800324658371, 0.0077878904224484525, -0.01609431618758935, 0.008478324580257211, 0.008545257767298128, -0.004354487878421424, 0.011200553295510904, 0.01717567264858107, 0.021714786429161085, 0.007923485530879635, -0.0009255864382401434, 0.011084757044747838, 0.004499348983516756, 0.005398869031123641, -0.0011785810639667364, 0.021334376107471537, -0.010341505072907337, 0.005900485089419259, 0.014129433675276517, 0.012381757142739615, -0.012330198200713327, -0.003729307043677331, 0.007337340035205265, -0.00921183595182235, -0.003526423209258564, -0.001454774186159201, 0.007965185008807689, -0.002621215274956105, 0.006835771249662113, -0.008631088436823765, -0.0018655395421403108, -0.024503649242569175, 0.0013265261774756463, 0.0183052382442231, -0.006064997895354482, 0.006120291359345945, 0.0016036093904801979, 0.0037671367883308055, 0.0049953110292624515, 0.007761240922526307, 0.030247623150660544, 0.00029442567545660613, 0.019346059735656777, -0.00236810954147452, -0.01663079990429831, 0.0048225651751826895, 0.006907926396489359, -0.0017351775140556915, 0.011941297836399816, 0.008863386209788365, 0.019255069782949455, -0.003458605478771258, 0.004558915339403301, -0.01685824998595306, 0.005530358677777176, -0.011609144913921152, -0.0031256307836989095, -0.015190770681503707, 0.010042610788115669, -4.9795231307032034e-05, -0.011127247359916236, 0.008769585609679822, 0.00130425274703046, 0.009163411670403217, 0.005678370141030351, 0.007520428452567719, -0.007098429608793535, 0.006599122385650396, 0.0019265819015248356, -0.002176530578534152, 0.013147621024255228, -0.011750496554479224, 0.007700362395458532, 0.005392606252060602, 0.020015777338574434, 0.015051958246562759, -0.029164379315848695, 0.0015120617944329728, 0.0003883443885161072, 0.011120981926963995, 0.0050853439928453025, 0.003934839344966275, 0.0016071797754727364, 0.011841747714276296, -3.2856203509404016e-05, -0.005541993675353229, -0.019743277906856094, 0.009676377681038576, -0.011359871115116214, 0.0025415357873697962, 0.002933632795624805, -0.007564145351192714, 0.001744433991525495, -0.005327473323534411, -0.002651759844799752, -0.004280373093407481, 0.0068244375342161115, -0.004181141437426405, -0.03159341855031249, -0.0091436548237512, 0.0021752709009904255, 0.007755378410035353, -0.008168294508602075, -0.018574209310202018, 0.010756527553823555, -0.01756695998909543, 0.006173070399862386, 0.008934178038005718, -0.0007011139918365193, -0.002231322589015725, -0.0169617022445153, -0.0020068568406904665, -0.0032006846712735243, -0.0035165988181135592], [0.0005835669900049586, 0.001200994865709428, -0.011513506810559706, -0.0018288071895538865, 0.01511994671524916, 0.006819005758244222, 0.003994424461808745, 0.0007148985828684752, 0.00047895900464830935, -0.012422933174573715, 0.0020609188099015704, -0.0012381976085415647, -0.008178535600865088, -0.005699515215008638, 0.01194947817295418, 0.011926914419673243, -0.010268535632393213, -0.012589544562622453, 0.016303716831888547, -0.008934672315870985, 0.014516597762023294, 0.003621855896521987, 0.011047939711340986, 0.007468338509502089, -0.0001492050639547377, 0.011240136767230846, 0.002894139990529268, -0.00980721550584923, 0.0011330362498220728, 0.005243345548110872, -0.0027653434909319, 0.01917510541764781, 0.01941700049180783, -0.02642587494497333, -0.006901300648353825, 0.014883220741740049, 0.0011129574475400457, 0.0062067557646196085, -0.0010262741253248883, -0.002017298849593153, -0.014460491183334662, -0.0063350740538445, 0.020242189231890723, 0.006808730533141225, -0.022833067650240783, -0.008757592542572433, -0.002017413800887665, 0.010115102814145236, 0.0015444244780856591, -0.008734993761714334, 0.00032129783108885687, 0.003590985027652248, 0.001596822975905122, -0.004163657441903686, -0.0007353641353768207, -0.012000853392364648, 0.020987745594121067, 0.004357505669692683, 0.0017977071325144184, 0.011615324023849679, -0.0029363656957311552, -0.013220726204628835, 0.00024865809804056695, 0.008149910097252116, 0.014783907518622484, -0.01290574755143901, 0.018503015802448168, 0.0026821117541781783, 0.020852557595830795, 0.010608419957785293, -0.012465855593301886, 0.006024495533075039, 0.01469247823240649, -0.0072144186943313175, -0.0076551059464750396, 0.009182764260623557, -0.002760164442227001, 0.014306431240427917, -0.003097806694661825, 0.011470184363513618, 0.016584434078818436, 0.00536738058225991, -0.016096505985001917, 0.001843993524547339, -0.012103469284139681, -0.0011595537195034312, -0.012439136153406288, -0.0009051216234110779, 0.008116774422265733, -0.004230788399542975, -0.011114584786916988, -0.0026727193389125005, -0.006094229551130385, 0.011066645790952548, 0.020549326591796275, 0.005061322714798642, -0.015333354239527171, 0.01241612738189374, 0.006801009147380875, 0.006555832206579825, 0.009768684975744095, -0.011221854204639989, -0.011233169245416353, 0.010632403157881403, 0.003690867445151255, 0.01454935318966355, 0.005202400499009932, 0.0025422100099685547, -0.008640256424360669, 0.003121304512676305, 0.0070436122594802735, 0.008478117554464764, -0.023792422336599953, -0.016317586316121506, -0.003701759393988806, 0.006510555559376668, 0.003950434360759207, -0.004994161160586728, 0.0012416238509540406, -0.012708671988002714, 0.0026720533645468955, 0.009203013014457856, 0.0006944822841151583, 0.009494546606991169, -0.0012970553259208332, 0.001476925156394759, -0.014194379628158693, 0.016845708470778948], [-0.004225754810849384, 0.011279383355808305, -0.01254704808958574, 0.007731589806277116, -0.01619040644809215, -0.002911311048910121, 0.009177497089446264, 0.0008818400393255409, 0.008843917148646517, -0.0043306381281024405, 0.008202097576159443, -0.009887355150702241, 0.002180027241485095, -0.011463703931811986, 0.009426729902033852, -0.007378688304017531, 0.010070071840514316, 0.01777357352447578, -0.014365086762002906, 0.000804045242091436, -0.0032013720762367466, -0.0013714137507362288, 0.006203234578064542, -0.00047410986873125356, -0.010574584822461557, 0.005255499591437792, 0.0019519681057250026, 0.009122272460133054, -0.007142005580749641, -0.006951386932128596, 0.004235865544804327, -0.00295263115855671, 0.004917168435224461, 0.007056505055693384, 0.005007402184022957, -0.004084011456820257, 0.008326653648594827, 0.003153616095582703, -0.0025634628329591442, -0.004366447755051834, 0.0030184816485968632, -0.004586518192083325, -0.012454763761886076, -0.0184717365590167, -0.016041359884842156, -0.0026383279057424196, -0.010748345425651286, 0.0016098834927670172, 0.011577787444163979, -0.0012869138682038315, 0.0015555230764132389, 0.0028953159454470473, -0.009172423832021227, 0.005676972152778041, -0.011280485224750616, 0.008804656976572933, -0.007404112652139649, -0.00030448484541622796, 0.0010881800088797457, 0.006221111674923311, 0.016814361827871657, 0.003602965111949053, 0.005625426458438133, -0.008324673430538783, 0.006392102983384388, -0.001250062931534075, -0.009059393668580563, -0.0008663383585921419, 0.006066565275652057, 4.9278570397500566e-05, -0.012927492432102356, -0.003984953521186804, 0.018873318020149802, -0.0023678539271378704, -0.0008827278370559311, -0.01609585813584233, -0.004777693031122257, 0.007237805808678173, 0.0075051243117036865, 0.00021995789951148703, 0.007639416015266812, -0.010025229984800802, 0.008545349564339482, -0.001757554712105124, -0.021472159009091638, -0.009758436195499492, 0.00238756035545465, -0.005221517613790712, -0.019311825868063105, -0.013261701559973558, -0.0063017622170100695, -0.0021178686068834525, -0.0009696497931303249, 0.0062595335151772605, -0.0035008226490258025, -0.0037652717490605525, -0.014841048947920822, 0.009594925233241835, 0.014845283553191424, 0.002043744923784231, 0.01509931449980717, 0.00628197050116548, 0.011585194815270426, -0.004151285931262714, -0.0038824971704136788, 0.0035106877103272915, 0.006358547964028398, 0.0016724211913604968, 0.013555461825796629, -0.0013386741241945288, -0.0027547608349010374, -0.0019824760571406684, 0.00995474799530034, 0.011268418500349398, 0.01179218694990225, -0.012644655548449494, -0.007358156354392834, 0.009866689107380784, 0.016439007298747817, -0.00012032696206024863, -0.002769432465517617, -0.013089749577251435, 0.010539739095516157, -0.012878205582029635, -0.0033600488939630273, -0.010375782573631951, 0.000977241885676464, -0.007471594045063795], [0.010436983065682337, -0.006352191357420557, 0.013943496966096754, 0.0026352313379966992, 0.0024503107685739742, -0.00384668522241432, -0.0006692921785753181, -0.007552116237125216, -0.007532749104785985, 0.0034460859106785024, 0.015040098589112982, 0.004390319096786424, -0.012120476970702348, -0.0012078244216687118, -0.005246606438331696, 0.006261304898058316, -0.0167897078466104, -0.00024163766273398055, 0.001201523801839844, -0.009501911102247209, -0.001382552854435066, 0.016008672283486344, -0.0005083306024344392, 0.007225959563393688, 0.006954083918999268, -0.0068350328254392695, 0.007776454501638595, 0.0028605036086730602, -0.006067990874576948, 0.014252598616405168, -0.009102167359631935, -0.0038905599582941997, 0.007977589652479584, -0.031905358306083695, -0.012249380100536136, 0.004265072789442257, -0.0047189832175315435, 0.006783369665767793, -0.004838265847761386, -0.0009514679057078015, 0.003831927138528993, -0.0073477004273671724, 0.002875641600057748, -0.005829117018344004, -0.005923512785494166, 0.006814379999754983, -0.00213899490413375, -0.0009346620884803893, 0.00561975942126713, 0.00665147581381081, 0.0049580343898756865, 0.00549113736720646, -0.0037071636700419662, -0.01568476852106531, -0.002236164001980864, 0.0038147033092030265, 0.004098594799616839, 0.005925052587302074, 0.003481658730220832, -0.007896637804754962, -0.009266733100652512, -0.006028923887310374, 0.0027116631405575114, -0.0023835547481689395, 0.011353306075328829, 0.01138399474852763, -0.0029903609860898244, 0.008659048019749708, -0.0003937673197036254, -0.000613421270634777, 0.01536904768525008, 0.013419451728689018, 0.01487925871495502, -0.0013719669944504437, 0.004666939195084708, -0.0024812585566379654, 0.003477797912404549, -0.010105246768508163, 0.0027996410687543484, -0.01392827133426955, 0.007373991434384143, 0.0008079157579415565, -0.019941290244593984, -0.006498551059840645, -0.013639049651661943, 0.008704562457862343, -0.005278329644887685, -0.01469098595976922, -0.019681955387241882, 0.011987443607724666, 0.01119966490703646, 0.008194101483418315, -0.0004120017495290113, -0.013470221121601386, 0.0062939316888978745, 0.0020733523062164954, 0.006968413784832389, 0.0009963110140339371, 0.022000060093870576, -0.016289097926604424, 0.01031919109136154, -0.0035868056866928157, -0.0028685764701007798, 0.00162226283350584, 0.00534844075441801, 0.010372180695969855, -0.013861279955945839, -0.02611700032076985, -0.00669836461179979, 0.01074984895092682, 0.00019412521452540435, -0.007529724365488547, -0.008087898928293678, -0.0096502413201008, -0.0040349209331976875, -0.001867034694331137, -0.001722845036076681, 0.021753440564332746, 0.01152689231964825, 0.003203415084731346, -0.005058023397003625, 0.0037531115800069305, -0.0018197530602977205, -0.0077051254595581495, -0.01549302187271789, -0.005212781608088353, -0.004104556866672037, -0.0005754885097812744], [-0.0013252162552963383, 0.0028755137928187873, -0.001261348834584512, 0.0052743621782071134, -0.006892006849953342, 0.005338957616680931, 0.0034954908478373194, 0.009190400862644306, -0.002556771616272288, 0.005638163665786, -0.0008239314198949057, 0.0014434320253079573, 0.001295669237889832, -0.0028715481844368094, -0.008162316676117191, -0.011938883263260456, -0.005872595949359931, 0.006715820478864151, 0.012576092211685291, 0.0035148485904711656, 0.004689785437177595, 0.030240865658414457, 0.004051632580278987, -0.0157349452764847, -0.024222887516514875, -0.010668463291602252, 0.012108394230901556, 0.0029141177771198554, 0.01002616625945938, -0.0093929936153402, -0.01460222188514861, 0.0237044752370755, 0.015544265106353164, -0.00541676828949241, -0.0024046652367524365, 0.007581756141098623, 0.009302436566700717, -0.005411351214746137, 0.005034182106598609, -0.0005619187852627874, -0.010828151011104119, -0.01453113618895195, 0.00607635295029846, 0.022606307087402626, -0.026887256623476102, -0.013772396051782914, -0.00840143019147249, 0.0033365444310051668, 0.0067845178604810374, 0.01003555421937544, 0.00125449207865793, -0.006588831561055081, 0.0017808166286707163, 0.012680682329386772, -0.002682852466338075, 0.01194820275787028, 0.001145569986352158, 0.002960790674315534, -0.009811752939401784, 0.009653820808971016, -0.004118111463240613, 0.005656602455049026, 0.009255175175765833, 0.0048757143324659755, -0.005841423317301814, 0.006529636554515663, 0.003804828193950165, 0.008186962681710482, 0.011505801962873699, -0.005976634784999125, 0.022584179335451485, -0.002295080771176979, 0.010866406599473355, 0.018427230056062834, 0.007139120382186104, -0.010873081537003683, -0.0034512527107273564, -0.010890777705960837, -0.004222670546124934, -0.007659603885976485, -0.020724695642739207, 0.0055139404169182536, 0.009551086126125945, -0.0071716888013809614, -0.006009513932891586, -0.00174306331358913, 0.0075998890608899175, -0.018457036074260937, 0.005133947503957989, 0.017184912792306318, -0.009449396779266418, 0.0021790370260958308, -0.004135716700338931, 0.00019623542601728884, 0.009076172185853312, -0.004030869358910458, 0.006881265198541645, 0.0018296290166309268, -0.0002622361081755127, -0.008238180843478956, 0.005942513216710462, 0.0011568841559719874, -0.003786036097524828, 0.0013512399559680874, 0.005214959016967377, 0.009462087449881328, -0.010113321038560639, 0.03089604032303383, -0.000823100316770741, 0.01498327219276962, -0.002947934104470368, 0.0010056643562168673, 0.01572534733481471, -0.0022711991825425304, -0.004013811951264184, 0.0034935565841888784, -0.004805277552251214, 0.01812109268919311, 0.006821699630790445, 0.01656676699645529, 0.01135666082959013, -0.0031480566779681584, -0.0061730023346238255, 0.01722225428366104, -0.011543585397605367, 0.0010369382314980437, -0.002604287818649945, 0.008375166039188912], [0.005609967466094902, 0.01863291334945023, -0.004121834216001906, -0.0014725329703933377, -0.003422173454843194, -0.004474064556403004, 0.009978905695379438, -0.007866654807830734, -0.0017387978625944378, 0.023140507424366408, 0.0019913997768173292, -0.009348637377397112, -0.0208876967764411, -0.0071554342232009235, 0.00449013015675703, -0.014253864841689348, -0.0035652037927347033, -0.003998573660175129, 0.008984673361523813, 0.02564686258646009, -0.014401622937147397, 0.0005864297011048945, -0.008471107387041273, -0.0004774221397517884, 0.012444364289517038, 0.0028574052547286127, -0.007608702759577917, -0.008642978130744702, 0.003900033470160647, -0.009608814018737121, 0.0054026530175754935, 0.00010037551622435254, -0.009170067034776753, 0.004467437433236278, 0.003659758486829344, 0.0027920269688442518, 0.004974308560296784, 0.013138566506204949, -0.013770846154800674, -0.003452157873223243, 0.006780545615142093, 0.014794207947596512, -0.0029231349009188144, 0.013010670522448817, -0.01665675709328096, 0.005680539835629053, -0.00936695081783787, 0.0065578709099423016, 0.009042448204377131, 0.00037236157926090046, 0.003510610079047198, 0.006067041662089783, -0.00991547916912017, 0.02209056435041353, -0.009072068352200301, -0.004610543619722578, 0.00016047688775068582, 0.012176191683117961, 5.09558533255371e-05, -0.0015254914095889209, -0.005841175299911653, 0.002941985876809, 0.0016883388968484002, 0.006036097062858854, 0.0008548179886539104, -0.011784119892096273, -0.005177121366201745, 0.012472545155884356, 0.020582502445898366, 0.020815342835046945, 0.024996873117162994, 0.004683162838839617, 0.010492912493770124, 0.0015582533798446413, 0.0020805786599575747, 0.004182527312913347, 0.00035741028456446266, -0.010850043372048469, 0.010262482468290906, 0.00898890468572029, 0.0013820979243753357, 0.020876197252976753, -0.0056811742788713164, -0.006578395006139567, 0.008221097885464436, 0.003937668144025488, 0.00811540909245622, 0.0023333017247205655, -0.005758928156909704, -0.010420442566278913, -0.003244182534325617, -0.004658252882553726, 0.01308042170838832, -0.0007740323419138047, -0.005206270757995161, -0.007812193345759712, 0.005148050872768366, -0.0036927241415556393, -0.00626773176394645, -0.004280980810152665, -0.0032783096406953914, -0.0014598026515585552, 0.005890962791390583, -0.011716811914583911, -0.0012065331302724641, -0.011088587086961997, -0.0027127794995911213, 0.012181848458657895, 0.0005144281426586751, -0.00260847141291332, 0.0015366118492432103, 0.01572811548997163, -0.013109009611687745, -0.0005259287081448376, 0.01755205070073359, -0.010348072656129902, 0.002115000402626264, -0.03339344345948797, 0.00216468836452479, 0.0020527932314212405, -0.007465818851078762, 0.007306074778949727, -0.0010220890740807304, -0.007879495515334794, -0.00038150477107383197, -0.008243577079638156, 0.01753900159466557, -0.012976526723585034], [0.004816196255604636, -0.013369128373931012, 0.005197754446806381, -0.0069973315529616885, 0.004523026603802697, 0.005742426350245194, -0.004947069991160539, 0.00854650172928599, 0.012791012578990226, -0.006966346284724466, 0.0003955892506038382, 0.012260645124559636, -0.009842722731532954, 0.005033791193657424, 0.011035373918715608, -0.0019678238103688866, 0.009084813374881612, 0.009801268592321884, -0.008445852154753434, 0.0035527923685505177, -0.009369381815665883, 0.001915254095922557, 0.01779467329045197, -0.0037406293702922622, 0.0016218550512368836, -0.014449871316214013, -0.009099176211117648, -0.01762770583388064, 0.0014109431761141922, -0.0033710039353483127, 0.00114689584904395, -0.004139905780252468, 0.0020017832495579815, -0.010642357909117698, -0.0022685588740707493, -0.007104285307695774, 0.008138139139338056, -0.01327800970447432, -0.0022745674653729285, -0.021275759402935558, -0.017909960738917992, 0.001150251175693682, -0.01722303974413223, -0.0076503322768336, 0.009443231149747195, 0.0023524166073275055, -0.0014154273281441387, -0.004631337475787664, 0.010594739807787098, 0.00952212162952537, -0.003189052975119488, -0.008600080185553966, -0.0031252464087125997, -0.004391004215830456, -0.006373496891956945, -0.003341299951577452, 0.02131636786892635, -0.009687157390618744, -0.011266752596984965, 0.02490847069217269, 0.0023527621955342966, 0.008589349773173587, -0.0067596668482575225, 0.008751292216673721, 0.0017535249755918877, -0.0006200670552547522, 0.0030098270090369006, -0.005893227655427939, 0.010756212540017426, 0.013547564663588758, -0.01237094731505754, -0.002004735053917227, 0.01150355700502603, -0.00035912369441251147, 0.008366170110777426, 0.0025247026754563013, 0.0032515594937321353, 0.0023639509774399975, -0.023792035859710604, -0.00949288303450022, 0.002137647873265777, -0.00013467511125919208, 0.00141681804410868, 0.00791339480703743, 0.0027052176277522987, -0.0015240178568727042, -0.006396879415159838, 0.00801592481521304, 0.0025193456182966557, 0.007506398975610855, -0.0001342596902736178, 0.005064571908574836, -0.005039954090431191, 0.006308627180471689, 0.0026862059051314608, -0.006463673402004357, 0.028741093856900143, 0.0008950026024042989, -0.008679897996787648, 0.0041464510077286205, 0.00457478619360799, -0.0058295644952401915, -0.013353212722481914, 0.0004822547717642882, -0.002221947335953554, 0.00032110898795899653, 0.015239700390157705, 0.013774509122979317, 0.01361010790968424, -0.0008958159700295776, -0.013648618082537622, -0.017152334871882696, 0.025467647221177024, -0.011327844345546371, -0.002441358279606449, -0.004541136965769988, -0.006442602623842312, 0.019446515468369337, -0.0101748229378321, -0.004856345590519671, 0.00146739230938374, 0.008845948334448324, 0.002283447016225258, 0.0038543083160563663, -0.0001507736269942565, 0.0041163783789496195, 0.006188744173860666, 0.00969474773055543], [0.0092219180929072, -0.009553581720196965, -0.011395666774425647, 0.009883636569381722, -0.004453094142222373, -0.0007691007617834138, 0.007736570627659988, 0.003920413764342493, 0.002184934688092486, -0.0012569948017100232, -0.003452854977628437, -0.0026163657305599154, -0.014071756104620343, 0.001883519111291881, -0.006264460101281288, -0.0021565198155640624, -0.013425009061948235, -0.012610486321848228, -0.002205446641709349, -0.014177703364813192, -0.004154296319796108, 0.00274651279954723, 0.008633821374214588, -0.016811626710874963, 0.0036014104454706137, -0.0025741530952738054, 0.0005626876686301023, 0.010829625219737269, 0.004434751787862254, -0.004547208945488518, 0.012288014052853067, -0.006343441969108572, -0.010605110774263331, 0.009159201329784865, 0.008227217525956393, -0.004767309023359909, 0.0020748228283304668, -0.0026357802513326655, 0.003513767432116909, 0.019499936582207295, 0.013980985795143694, -0.009012930211186584, 0.00460745611965135, 0.011268663291344926, 0.0017079015232385976, -0.012218995320970472, -0.0057683477054655905, 0.012391028461643389, -0.021321169985598326, 0.002084403063541197, -0.002917220852129437, 0.0045770200485879195, 0.005228900292787119, -0.016761049534090702, 0.005137676719824558, -0.021648816088793398, -0.007447052758886441, 0.0010628071360617131, 0.0036885854844611954, 0.0017456958715920577, 0.008981129627410243, -0.0009532151823038326, -0.0012281471945050652, -0.014300762915398661, -0.0068576998576332345, -0.0007709654689830088, 0.014509100872767959, 0.0029122678955013637, -0.005983522646641052, 0.009475284536416825, -0.00031344575845971694, 0.01594134035492688, 0.002241524827819098, 0.00047750761392945356, 0.016879694179328456, 0.0032836721276790176, 0.004355269660179274, -0.012396384191701854, -0.006918709016551839, -0.008639057092603446, -0.01106414651521424, 0.02575029548918302, -0.01163610884704296, 0.0036651723780681176, 0.020320085629659767, -0.006329232268182996, -0.0026582258486177878, 0.0007816148856646518, -0.018058375458124578, -0.0006337428347541335, -0.0022833423296990136, 0.002443138078038128, -0.006366762937089906, 0.011199812446523438, 0.011553678296176904, 0.011140064928275229, -0.009651573268730335, 0.02247574978688558, 0.012975614103856318, -0.001081045128338512, -0.00949621460350743, -0.0009384958433784351, -0.00706534425861672, -0.00434034720728636, -0.004509264609412574, -0.012631237101916673, 0.006451544568956747, -0.009380945196382714, -0.01801089154115962, -0.01962584025706398, 0.00478470337045008, 0.002253876444488438, -0.008921866209708272, 0.011902316910439489, -0.0059880150047521355, -0.00870772574983127, -0.011160148869439897, 0.007214442970905748, -0.001033058782211217, 0.010571010796043863, 0.011646839946577826, -0.010279425879074178, 0.005133546122256166, 0.006108181331066365, 0.0003316710197992969, 0.009397453371165694, -0.006207015242556178, 0.009851531180191744], [-0.01116997353375339, 0.012267987895597547, -0.026601616829630775, -0.009949937434850249, -0.004130050874015588, 0.00044790596675939727, 0.00874278521856188, -0.0012108281451934269, 0.0023305469472726446, -0.005668747031345629, 0.003296860938695757, -0.028006556733074017, -0.004011324149792391, 0.012103213648347157, -0.019006593848860494, -0.00020058757696454025, 0.010564412097185172, -0.014145103808427543, -0.004061627295493821, 0.014212708512524909, -0.011603113502545668, 0.0058985768543720184, 0.014068562715305594, -0.000315595093283877, -0.006092388618850087, -0.004514066052778542, 0.0066913113213361245, 0.009005688922960586, 0.0016585896636777773, 0.00642525594701931, 0.0028145345236882877, -0.004220679975180102, -0.010740222145164412, 0.0002768901614809309, -0.0044622457790932145, -0.017511454789349755, -0.006034462182719023, -0.004476474602738158, 0.004524854058929818, -0.020802364137809847, 0.0033175219609684337, 0.0115424976952807, 0.008185515332722373, 0.0043895968446741335, -0.005547748085247718, -0.000696843269789933, 0.011215254319413944, 0.003729196905289895, 0.01526464023589422, 0.003437231154186231, -0.00016450431417263314, -0.0015481007556529865, -0.002217591635813719, -0.003334866326348134, 0.008632101354827164, -0.012147208679094688, -0.006556829669195502, 0.00997353369854203, 0.0091384231745505, 0.004977980476511235, 0.0026250169606376727, -0.004137906188985587, -0.012900030798023706, -0.002221441528349679, -0.007047062486170477, -0.0017393733576035063, -0.008380417476452073, -0.00326098862968975, 0.007663069370697823, -0.0075745947817044135, 0.014026097245969885, -0.0013601875285019027, 0.010359127467486604, 0.015657452814271076, 0.009167527828892932, 0.009436190256224898, -0.011224732563292253, 0.004187555875371489, 0.0012236673029196602, -0.011881285886338118, -0.013090997681382603, 0.00036354969956287997, -0.006060240450401466, 0.000982577255686988, -0.0036256383082668518, 0.00015246697586047958, -0.0007287927603577868, 0.005185814845699392, -0.0009952325693765526, -0.001371934809905076, -0.011359048734253595, 0.005891401049419106, -0.004308301384456772, -0.006207898848937083, -0.00805855857331347, -0.01295433063632668, 0.011840845282065946, -0.005097736407638448, 0.016191223216405946, 0.028071689492697574, -0.011422852637272754, 0.005239956017829705, 0.006396125571005993, -0.007346963950348147, -0.005452255770227894, -0.0031262602497013994, 0.005463440573505591, 0.01623727419549642, 0.004791532419173035, -0.0012864298171364646, 0.03059973782033211, 0.022927576816700886, 0.003925964396261088, 0.004534224404179892, -0.011315589065464477, 0.02322048498192509, -0.0008806331168499039, -0.00042691072108974604, 0.015639361752458218, 0.01117185702804036, 0.008374096852291889, 0.009637821496552141, 0.013203202037657532, 0.0067032789695420985, 0.004369378465814807, -0.0004471864683334443, 0.008084039019512903, -0.0040008505441374255], [0.020173079497635506, 0.011214551507210586, 0.0030193844762442523, -0.0059142885519296645, 0.00474298777942844, 0.015346478328837955, 0.004939992914972663, 0.010773974387026406, 0.0027057635043006385, -0.00813273092321312, 0.005948420236660021, 0.00231236154207206, -0.006207798369886402, -0.0011896709950546993, 0.006979357705344892, -0.007560042205999914, 0.0032146705662085676, 0.00774421121919727, -0.004612009157504327, 0.007675599402948926, -0.005316634337073649, 0.015604764413566508, -0.0012091399028988804, 0.002832403977824208, -0.006959133093218294, 0.009732940769726159, -0.013092783600331049, 0.003469213892646398, 0.013270803818298758, -0.002478246675351938, -0.014730513129405778, 0.0016795842214094086, -0.0014587256282242369, 0.00027330918250121033, -0.00591946755488467, 0.013586811299312603, 0.010739342368553326, 0.013658208765816308, 0.0024290788210486647, 0.00834882240356626, 0.002276021337944075, 0.011276677604221982, -0.013667739233612477, -0.016794596783782898, -0.011120439521922968, 0.013698813030785472, 0.013249674322831344, 0.0057054537609021105, 0.010947792927549545, 0.010173555915045162, 0.01049560005415274, -0.0023840146507514808, -0.00765318387704678, 0.006663379540658825, -0.00853715521970724, -0.015494244187392672, -0.0012331217719001447, -0.009393666141272197, -0.007293148962696441, 0.012514472683513127, 0.0019701555321835294, -0.0039107597054145165, 0.00838089856346665, -0.011695486541522256, 0.012703463756375022, -0.0025695528170738757, -0.004530686974095814, 0.006001948922793013, 0.0029280035428870432, 0.0011402229096387376, 0.007704042163323774, 0.006590287132023886, 0.0029584328835319065, -0.009856698708102978, 0.003994874874399522, -0.00347054730448373, 0.00899763000418852, -0.0107101517204502, -0.0049714322886729384, 0.012108496276895035, -0.001720049379603275, 0.0034275964451166165, -0.0064080875132325466, 0.0020706810469851423, 0.003494558605683111, -0.014479465877744005, -0.001955189310423725, 0.00519258869308926, 0.00407459762506979, -0.015130719088275029, 0.010458505832081225, 0.019746362747607465, 0.016723045641293306, 0.02304799090873564, -0.006620519602764699, 0.013175147246403281, -0.0024791431335291457, 0.002936776043539435, 0.004615747087437656, 0.021664321667718894, -0.000882222845108855, -0.00963406214152556, 0.0019349769752730072, -0.0008895697493016304, 0.0012972663513115287, -0.011740263270514249, -0.00464052859593234, -0.009097811312774859, -0.001930647498059405, -0.0015787623289289924, -0.010352107567387041, -0.028638538720651776, 0.01684064172854705, -0.011726961355935489, -0.0016223102191706624, -0.0026280374279670222, -0.012747740284645643, 0.008720873222022352, -0.012448197881419577, 0.0058148097119195335, -0.005757777917242019, 0.0009413598847146515, 0.004020385362517696, -0.00506742753085666, -0.011921954568264484, -0.002600379207081581, 0.014441644398678578, 0.011294906588016919], [0.0035330122117520142, -0.013153895523345865, -0.01272653807956736, -0.010384699161175721, 0.006405463596541459, 0.0030428633844177787, -0.01744553243364249, -0.009650966506649365, -0.002138807062986714, 0.014179948098057149, -0.023087824676832003, -0.01203506125684202, 0.00588907286316663, -0.002254653827217239, 0.0165609429929771, -0.001240538193233576, -0.012656049135155016, 0.006806062329014228, -0.009494958745684338, -0.021015975902216693, -0.012525041602785864, -0.01625449775757496, 0.0034218907843036033, 0.01610069909889686, 0.0044373647664670635, 0.0004579851009451053, 0.0036669013894732078, 0.005843185354272513, 0.013678996175311866, -0.007675567987152267, 0.01723473152569604, 0.0027703535547551465, -0.0005064343200184135, -0.006044728801110081, -0.0023038088359233653, -0.0077133804119009705, -0.004753827036841578, -0.01103633364644849, -0.004278693238078897, 0.0034033185874731767, 0.01164750448753257, -0.009232767446972321, 0.0061060524452298945, 0.00552787858166471, 0.01325464947302937, 0.002353542151134754, 0.00300492165409418, 0.0031108819274050774, 0.007338148058902655, 0.013091176077478733, -0.0077214731445127815, 0.008940731986060796, 0.010747231601971968, -0.012950595238238941, -0.001268077537532107, 0.010214491953607671, 0.01473938415202556, -0.0026772336152069334, 0.007687527162217668, 0.004282808979981648, 0.01235133593122565, 0.02285549972147145, 0.004076874482852429, -0.01668945989855684, 0.01791936028436113, 0.022920122987698126, 0.003990403041472225, -0.0166716095224842, 0.0006243145817323189, -0.0018960153319413924, 0.001350111715234761, -0.0011031123543204062, -0.013191459415900806, 0.0021167575564158873, -0.007196514348431404, 0.005329925706840131, 0.020188374139653832, -0.016485122409135737, 0.011476717559504076, -0.00128983921725581, 0.0041459929792044495, 0.004908252810541668, 0.005269516852110252, -0.004234797750057801, -0.001793042205649696, 0.0028585791018098574, -0.018222313075824403, 0.010574570494915322, 0.004959436065038573, 0.027045430296057583, -0.0005174192527292455, -0.00869511870575466, 0.010436576755922576, -0.014449237709499381, 0.013890119658421674, 0.014553980449105476, 0.005419953007687762, 0.009662646752677022, -0.003048515436659942, -0.00016164570607901676, 0.004071616222013237, -0.00017380869907973837, -0.015961171629979242, 0.007791235012899481, -0.015265598437463142, 0.002774673237356542, -0.011162437268167296, 0.012341744126796646, -0.005687434782580561, -2.381264980268034e-05, -0.00930226643937336, 0.0007073743976386776, -0.001350726194316402, 0.00583766952872402, -0.007068939558995558, 0.010188099695170703, -0.013451348167139396, 0.02687689337332319, 0.009145408729601427, -0.009754780364273664, 0.019641535212885544, -0.0019225333519041431, -0.012473983601784637, 0.019707375550911028, -0.007576281677332488, -0.00046834018850371376, 0.008078568578447375, -0.00661348110399217], [0.0071953348028628555, -0.008915851443788763, -0.020971253918531295, -0.0075384506205512965, 0.001128101745813766, 0.008976187160378148, -0.003761624786392908, 0.019239643684730773, 0.007689039167574452, -0.0034333074744495092, -0.010608646466522495, -0.011891757814824874, -0.004021060977379978, -0.01300944848807014, 0.010446025859134282, -0.007590330339564058, 0.0018070798983766821, -0.011841358943895373, -0.011739327370717242, -0.006357315422939281, 0.0002831848752597837, -0.001763393685741497, -0.006940817370420643, 0.020919425661443124, 0.01733233855594665, 0.0009343116166959864, -0.01346791038131361, -0.003727472584267667, -0.0013692827687684919, 0.014398506252890663, 0.0015876563745607373, 0.003304252851958114, -0.009398282356883201, 0.005323699404434082, 0.027001540673115818, 0.019460085811665473, 0.0061074075975778835, 0.002130700619507655, 0.0060754224998972855, -0.005357439612464021, 0.0032959436000648593, 0.0066190192537640795, 0.000779538513876488, -0.00706452865700183, -0.018393657890992367, 0.018738164819221123, -0.005004949599138711, 0.015706550652058594, -0.01037063069064964, 0.019325675899963143, -0.030472418734003907, -0.007722131041907915, 0.014348471664516436, -0.0016692488361209734, -0.009482765049681768, 0.006709198099419838, -0.0016764977098922857, 0.0029679861484882887, -0.004025228140382004, -0.009516599757378518, 0.017336028833910586, 0.008572887708569355, -0.01092029522471609, 0.0005479860561427314, 0.003877097341066797, 0.002716449649292042, -0.0012836054668237203, 0.001002396078607889, 0.0037883906948974365, -0.0222662437574578, 0.011438932795618596, 0.02380178034770221, 0.00828507711442746, 0.011328398720368208, 0.0003253015958314752, -0.0007743145656460657, 0.008576251689680908, 0.006335287104513653, 0.026886406131952163, 0.004899527480542008, 0.006221753042440962, 0.005312526277351055, -0.004787506741707797, 0.024584471414338935, -0.009990858825924868, -0.005532539175354028, -0.012488310609067913, -0.006614207333552837, -0.003385307972590619, 0.01538272846212279, 0.0007992701702548526, -0.005424424186625528, -0.007973697783085622, 0.0015867556029232745, 0.015590017396343261, -0.012230728134804431, -0.0017528107716610793, 0.008036182478603524, -0.02060223037233214, -0.02303823663255769, -0.013392064554898801, 0.014828733804723746, -0.02168965295025187, -0.008530238216135154, 0.00511681494711824, -0.0034945353299982757, 0.016484483856176405, -0.003691342977619006, 0.015564892700958375, -0.004061815674121188, 0.008276178316704564, 0.010045279708456556, -0.0033969755790896426, -0.004474875698261631, -0.010982915607394287, -0.0020708399892510687, 0.01745420684050126, -0.01599126624069208, -0.002023574575152265, 0.014513420396550498, -0.018466583491443707, 0.023993696598999515, 0.010722707994616493, -0.00023808847755806245, 0.0021789111425809813, 0.01050067556700602, -0.005250104031137828, 0.011229025472061525], [-0.013044029700105068, 0.012430852795505772, 0.007229312181028695, 0.028219649737000668, -0.00299630485613968, 0.008401564135594519, 0.005766515176542221, -0.006316247258637709, -0.008007407532899833, 0.014213028550180173, -0.0008510038997921435, -0.0013754403176984066, 0.01243489615271579, 0.0011421659134888602, 0.004049991122098197, -0.023400485767967313, 0.001451410417906284, -0.011302251937441861, 0.01784085451911135, 0.00870996162090338, 0.0018864326749901755, 0.011463395118936402, 0.0205006220229013, -0.011264068504762612, -0.0059164240233683186, -0.017644750510923655, -0.0003492265645716755, -0.0020626917669878293, 0.0021940161443582675, 0.0028531274346905696, -0.011285414059306215, 0.00098742928813881, 0.009662621707338226, -0.002860604792753335, 0.021470621393067293, -0.0009192355374125479, 0.004219671863905139, -0.004249300041361503, -0.0023013147074471842, 0.005463390172927501, 0.002793625071208914, 0.006845759890254082, 0.012890680103916119, -0.008690550548064557, -0.009020563376210766, 0.01559213151671462, -0.0048096960214868666, -0.00020795381740905934, -0.0065626256134437, -0.003775839770519338, 0.001533166420040073, -0.009161885565756237, 0.004661861542716333, 0.0027107062912072343, -0.007387971595590238, -0.016012856621768844, -0.00867708158274476, -0.008530329419326086, 0.008378108684741148, 0.009971115935461518, 0.016900552845652783, -0.0067191909402696025, 0.002016670158173772, -0.015216075944685223, -0.024800335397094843, 0.0048709308544508945, 0.0034672109846466377, 0.010244149834933249, -0.0019023404506727795, 0.00541085818991708, -0.01195502051399804, -0.0019004480233896256, 0.0048352062223601285, -0.012700760488495787, 0.0009806643539516794, 0.019012842241348263, -0.018845273730869055, -0.016686299175368326, 0.0020142946771721216, -0.018726802471273275, -0.0034268552821373763, 0.012318966365938634, 0.00923972877342317, -0.009803812798445949, -0.0017334941002281712, 0.00848184796453991, 0.0013234899265049701, 0.01855298135590423, -0.009507717098776465, -0.019057044041743305, -1.7498823744846478e-05, 0.005638321534567594, -0.010214620518844942, 0.006996680291547494, -0.009013461771661124, -0.018432797390461237, 0.014506414696533318, -0.009106696208772852, -0.013291277993599976, -0.01206232481049457, 0.015317546302544149, -0.01338546427529974, 0.003736965067255249, -0.004176245884230883, -0.0022849390238208252, 0.004141774884206011, -0.005926301388610314, 0.0012515932299638436, 0.005321536876848268, 0.01933461944156692, -0.0009580074407470842, -0.011933716881810053, 0.0007017048100978028, -0.010794064960850922, -0.017670914800690697, 0.012200120128759573, 0.009179387713846819, 0.00253070160252961, 0.0019035954462042104, 0.005162327616608606, -0.012920613472358738, 0.0075809773970414145, -0.003568993304466868, 0.010357397687580415, 0.004958467693066055, 0.006458943900529926, -0.011756840859023355, -0.0046028551903380815], [-0.011937322600926526, -0.007145547218923608, 0.01874925256607408, -0.002048725561880646, -0.0017334687966721767, -0.016586178121672047, -0.010140885694472268, -0.004908046467394358, -0.002603486422743167, 0.007339338898633514, 0.005785035523720087, 0.0027217433051837177, -0.021584304924994045, -0.035622724500415176, -0.01567689788195868, -0.005680626778325617, -0.0157858829820478, 0.006242989482711848, 0.0031369151831713506, -0.00218188006532158, -0.0023267830984730242, 0.005881916631790647, -0.01927063405859095, 0.011521739120114812, -0.001162272533005467, -0.006397776202025914, 0.006871949766338854, 0.005258188515551147, 0.01554253414662007, -0.0075909914691827856, 0.015427512706657476, 0.0029526229935837784, 0.015229450779376302, 0.011737478156857729, -0.005518688272581927, -0.005110317338817755, -0.011986897912720361, 0.03551051454556076, -0.006552408392817741, 0.00015005253096547094, 0.004425511499082715, 0.0016461485662140614, -0.0005546348528765893, -0.012979195626159038, 0.0040024792344609, 0.004721099942732269, 0.0031486465997935943, 0.008129056921605576, 0.0011888002792952864, 0.004626374088070839, -0.004116484570521054, 0.003316073429450577, 0.0011137634693667705, 0.002957425575787009, 0.0014323213141095856, -0.012515798145010864, -0.003076382323344701, 0.0033981797239296656, 0.009967596749759337, -0.014772694777448083, -0.008141299430914276, -0.013095154010768323, -0.008489087833971848, -0.004360758010215352, -0.0041304729806333875, -0.00461629614327964, 0.003804609840063277, 0.004405616056983099, -0.015573251831869073, -0.0158112174290976, 0.0013655842702892888, 0.000494229096320222, -0.01988213831330336, 0.006559483277065935, -0.005330079992925519, 0.0019654870905478393, 0.005389887213959182, -0.012097324884595494, 0.019565812701489632, 0.020168903194167167, -0.010169602625262637, -1.483693713461627e-05, 0.007731368271506219, -0.0003906743928308095, -0.005067111778763963, -0.0006748097793674926, 0.006597848370358139, -0.006143868287175849, -0.005808801894426482, 0.013831911186354734, -0.017744318697483222, -0.005730063006925195, 0.013090692588497885, -0.005578083338322966, 0.0037768316658175127, 0.005642625286183472, 0.00439334978196634, 0.004625966494087643, -0.004790190538889639, 0.006674733505163139, 0.011767195644399169, -0.00601597527665501, 0.012561229271400581, 0.00946817574273177, 0.02340057044243133, 0.022281136036131032, 0.008097129171963912, 0.0027999102793806086, 0.0018836495361581143, 0.017834891167994596, 0.014052665679125451, 0.0034074894986147754, -0.016038148189294422, -0.01963718581968372, -0.021880325578334952, -0.004967075842486331, 0.007711252093499578, -0.006273078096011777, 0.009133054090735308, 0.011178247857386229, 0.005269414652751228, 0.00416428828121544, -0.0017759315500979263, -0.00029556590295803627, -0.004798021410425688, -0.001166594471867665, 0.003925897552139675, 0.0015720125906944077], [-0.0026735535321571473, -0.010930808307440582, -0.010897720300044551, -0.025566889664789805, -0.010956186192618247, 0.009619270811865923, -0.017301771019664382, 0.007066601260827484, 0.016720984642100443, -0.0018619442884847855, 0.0036143450400516154, 0.005092781887277517, 0.011299996620416182, -0.003579513835025694, 0.01826101814092776, 0.006868989674951097, -0.009990183277364383, -0.0061948552335905375, -0.0013271357964409673, -0.0016283313046359306, -0.014150825361709607, 0.0041614632957567305, -0.0005987259539159122, 0.0005453281827050183, -0.004000030790540159, 0.014357161866557305, -0.017402828082481458, -0.019144222409068316, -0.007739819198467975, -0.006106124879576524, -0.007891498363293897, 0.0029823163344305874, -0.0009167112468463386, 0.014737989111625811, 0.0038078936467717678, 0.0011888484517429336, -0.007913782664975133, 0.0004851160511870637, 0.008435840462813865, 0.015679201927069543, 0.01318333011546457, 0.006423106126000721, 0.004912525057605114, 0.004178557126827863, 0.003873437033194234, -0.009620120299609345, -0.0024814818493599155, -0.00984673372005818, -0.004970578700436944, -0.005555250935918913, 0.0017504017019446137, 0.014284210262089488, 0.007785435763989464, -0.004712995816412407, -0.013142143019686978, -0.01950851874708625, -0.005904913837135105, 0.009009244330093662, -0.009842162411652675, -0.009415887273202575, 0.007358354024102265, 0.015031326043443835, 0.018263546019673314, -0.008038716995829469, 0.02812260224790783, -0.005926096295299024, 0.009776077172346579, 0.00689423600057374, 0.0029590431331938225, -0.019543852798336002, -0.0020205170560709, -0.002463901824419399, 0.018043746985802, 0.0026411308480530724, -0.020522703867177597, 0.004945644657782573, -0.009427370854525375, -0.0024620107188871193, -0.0034430054631133388, 0.008380735190073004, -0.013846197776681488, 0.0018737110032759237, -0.018294260331015583, -0.005370061354748438, -0.004633465302762472, -0.009401003714783128, -0.005286979333875633, 0.013457221166507563, -0.005063192038943443, -0.014702537160017489, 0.011837036272635016, 0.0052916039105370405, 0.017607831611547893, 0.005271555955832784, -0.010989591499282162, -0.02197299726273608, 0.005724404323951365, 0.007537214538996935, 0.018554719922923155, -0.009277841531813005, -0.0019482999224860074, -0.004407508172131252, -0.003035679280727544, 0.015108508558280161, -0.01856784050767843, -0.0038526303796763196, 0.01701566225793752, 0.000345106231531769, -0.006170371294672906, -0.011722427684369556, -0.0020079576300555063, -0.0005332589854717529, -0.015781853848925873, -0.006113433278041228, -0.0065320846434956305, -0.010655599814725969, 0.008384308207526713, -0.0017463347586985606, -0.009744684732177428, -0.006418776059710666, 0.005774971583992672, -0.011953168246180255, 0.006430226269423886, -0.007257998907601661, 0.0018247291149037913, 0.005197775416135977, 0.007080534119799622, 0.01712110598403708], [-0.004758709391349516, -0.011297775525158121, -0.0015512511026300685, 0.021819991141151667, -0.0025227866205336166, -0.005824866651516567, -0.011934654891173022, 0.011061500228804073, 0.02195660048892631, -0.003187184672052984, -0.006930977981533815, 0.008069861687686294, 0.002702915788933658, -0.004564313081799749, 0.018365845512540727, -0.0056655044614414, -0.0004227548729516978, -0.00388256990845474, -0.005897056211839151, 0.00964530339460702, -0.0013290267387031222, 0.0005387045049591766, 0.011864739487175624, 0.010592258543618324, -0.013504638913944133, 0.003204366081889782, 0.00423284247671438, 0.007460115177934724, -0.005030619193315414, -0.0037234129338278884, -0.020829107309407045, 4.470565209479244e-05, -0.004065293334802672, 0.019757820478929572, -0.0037643178459249946, -0.01026729596907353, -9.301913771906471e-05, 0.016909202555474543, -0.0018764562569877589, -0.015782908259644585, 0.008984952153698413, 0.010968523125359357, -0.005822918581263953, 0.004176667219047621, 0.007081892645739944, 0.010001009034605357, 0.01361579745682688, -0.0006825735337135827, 0.0029386647119012837, -0.008297656945614395, 0.007517088693381553, 0.02541188288994808, 0.00470830407976893, 0.003225591654873894, 0.0005453558804916327, 0.004897813335062624, 0.014404630010615009, -0.005020346908200705, -0.018437003812978376, -0.0032868628855898274, -0.01688609012807137, 0.0005682666685621282, -0.0022824609501501487, 0.0014818021982049723, 0.0031216012207004205, -0.025606796491636, -0.01208146401734022, 0.00942960929823608, -0.020925436969262683, -0.004059748769951997, 0.01696125340642667, -0.0023893953878432197, 0.0003837668734707887, -0.004394653999544169, -0.006561316100052304, 0.014467555914887574, 0.016225175905957248, -0.00048173766369452706, -0.009235400342901403, -0.00023353812510255696, -0.022742629418891814, -0.005543587538661812, 0.00907599083917381, 0.0016534753014198335, 0.01052509195231261, -0.007975866963174712, -0.010912046054824546, 0.0006103125074954602, -0.00043264683808768336, -0.004634948112005616, -0.0028483890828894455, -0.018120590298767857, -0.01225839071171472, 0.007229147805077593, -0.008310770921280792, 0.016326293751224435, -0.022481597897651348, -0.005666225259740384, 0.01949738528339942, -0.0015897465126553855, 0.005008539832169104, 0.015091442369121624, 0.000549133546419367, -0.0077201176319892885, 0.0034032578846742976, 0.02894189285508501, -0.010895072274228909, 0.014838665537376127, -0.007123450772734679, -0.008515505564832252, 0.015640170930491654, 0.006164495055768463, -0.005889448341632336, 0.0017663762495308366, -0.029707001574057295, 0.0008910474621134551, -0.008022334999791835, -0.010989714741115217, -0.012086094890639153, -0.0070839324442989425, -0.0073364153341191765, -0.015024149290813612, -0.009539952491486677, 0.01572778624291066, -0.003202522612532477, 0.010256394329317957, -0.006507756814582349, -0.0062541997246892515], [0.0025899168645086884, 0.008708261970407808, -0.005552798973692996, 0.0224560684016263, -0.00427679321423787, 0.011477510451264265, 0.004584746732985774, 0.003373399984467399, -0.004394110348118297, -0.010590143941369638, 0.009859429541673645, 0.0032319033377978643, 0.022684417126511324, 0.002949958961153886, 0.0075567969373782394, 0.008049050625230274, 0.005293375499884295, 0.0115510207480092, -0.0014797841061410342, -0.008698921728013329, 0.006368136608846488, -0.009150332355840798, -0.006882705459524726, -0.0022269812475111768, -0.0050093098955042905, -0.008249350424256147, -0.00010459382092735064, -0.001830496478982939, -0.024289609470834368, -0.0006215134816352693, -0.016658718282558924, 0.018568113337864494, -0.005019208569122262, 0.010548213544385919, -0.021973299800387813, -0.00141386636874163, -0.013818551576732414, -0.012922815007151011, -0.01541775878343927, -0.0013562126434650114, -0.008222089180119928, -0.007841474364961328, 0.006660924408940478, 0.008252610491218308, -0.0012627378389188585, -0.0009535130818808532, 0.0005546921376126691, 0.013217358831359433, -0.004561832481606288, -0.010316554675459003, -0.0037396541480849022, -0.006324856068329286, -0.0025122574254369616, 0.01593547016708337, -0.008127379460192593, 0.00944861313174224, -0.011313815967126776, -0.005371877600266419, 0.0022238226176969672, -0.011672922818171805, 0.007101362698780706, -0.00892924909914342, 0.009471774770149776, 0.01733611664585132, 0.007755639857748538, 0.01608508658137409, -0.013827134345391165, 0.0048673387404544405, 0.006843174824647767, 0.00029965340812989087, 0.010035223139590502, -0.00017007685197586913, -0.01139262488582994, 0.003872113329634542, -0.011595852099456428, -0.024630405302764422, -0.0016471139848729579, 0.002555400402809073, 0.01083743734213788, -0.009809507781911876, 0.00660780456449678, -0.006085665118715096, -0.0006547554929269861, -0.0007545585432954682, 0.014490797678644836, 0.0026624477592199687, -0.003103380447155222, -0.006653249977791501, 0.014725735499880415, -0.003558545676293927, 0.0007731999004400591, 0.003740461678836954, 0.015918028824670562, -0.004474745621067238, -0.019212054369083992, 0.009822667325939253, 0.004283589380710374, 0.010055907718820943, 0.013215062032891094, 0.0016414482663755945, 0.004038872259724172, 0.010046770624998837, -0.0022068062297826312, -0.018215495213386876, -0.013867457463008387, -0.011933450410620862, -0.00388672084589708, -0.01024381120521305, 0.01830517320273455, 0.018521560570134512, 0.01106333474370153, -0.01299414285261271, -0.009706851247709307, -0.004985557142294769, -0.00537981548356093, 0.022674742920943597, -0.006208825508512155, 0.00809051764170725, -0.0015716900634028905, -0.0020892586207971594, -0.001647179284162905, -0.005914153777081582, -0.007621254106408068, 0.0030666041719474902, -0.0026703319543742486, 0.002448774362873988, -0.011452444198232816, 0.004673216987227172], [-0.00043133073591942664, 0.0009550833797593135, -0.0057045176127327145, -0.00316238699543595, -0.0005495602964159623, 0.0010107064847262005, -0.010413310553435386, 0.014446518060755123, 0.006609650796835799, -0.0036221187869838775, -0.019111873363898083, 0.006751953988121764, 0.007803825078993324, -0.006697155782464716, -0.002461188868313894, 0.002989376069886827, 0.00733032553107471, -0.017911322624408414, 0.0013719351196108914, -0.009338304298590628, 0.014691745145914521, 0.0021516747986981256, 0.006046387017886883, 0.004307737018283104, -0.024609075346458485, 0.007238514583503599, 0.004403261617698733, -0.0038726589142345003, -0.01121512756953861, -0.003877064536776208, -0.005534862944119152, 0.007942396485893165, 0.0051398068027677666, -0.002062149723838534, 0.007122905321255332, 0.00300516832191475, -0.0022117399287110923, 0.0026397888491454533, -0.004536919305719252, -0.027171818061798216, -0.0015526817815097176, -0.006349761874530473, -0.001949309003439823, 0.005702349201205919, -0.005653155125899845, -0.005104652850445815, 0.015185101318653202, 0.005482151045831857, 0.008920983003797957, 0.00864718070067606, 0.008603253259479663, -0.01959456703417209, -0.002900701621489327, 0.02800997285083267, 0.008311289266023928, 0.004172416727254364, -0.0024890797475436077, 0.0020150670379098785, 0.0019205822272923437, 5.911107762956772e-06, -0.016055418905907753, 0.010656714349116043, -0.013280570524413596, 0.005633154590415495, -0.012143417054530531, 0.0020231052766062543, -0.004940955237789752, -0.018686253661635965, 0.016665423652530067, -0.001847716621812479, 0.006270338472642478, 0.008247189562545424, -0.0010175492211050236, -0.0009678677872636926, -0.00622083466065138, -0.012820955368444296, -0.03031965543871255, -0.011150053987792627, 0.010063595994520636, -0.02157689779836224, -0.011092997257308583, -0.007093229808596007, -0.002144629012952108, 0.006228497722282934, -0.015020501399673246, 0.007976315767630601, -0.0009133339291830441, -0.0030268932112770025, -0.0016496413353284446, 0.013798364340927525, 0.0010177331403522216, -0.0024678565282397072, -0.01832163381346357, 0.001997112012753003, 0.0035528639032750735, -0.008734392855619597, -0.004539745115061947, 0.00826733055360346, -0.007185616613234407, -0.006288486080166365, -0.0010579872001447565, 0.008500911207956619, -0.006502532729696389, 0.002806265348735561, -0.0007116939395425519, 0.001631963270431621, 0.004434362053603893, -0.010283548646385046, 0.002598596158353605, 0.008207256413096076, -0.004379340062959378, 0.018700345845367634, -0.0010020539001192135, 0.01963245382337002, 0.001220314702195433, 0.001120747893445268, 0.004481316486436996, 0.008484644547620279, 0.004969042799820023, -0.0017053128134181142, 0.0015276951828937847, -0.019284757539614915, 0.001899856620256791, 0.007506597089695521, 0.00217609497986064, 0.006223245695671364, -0.0006325083375487951, -0.0065679730958466236], [0.017126244431898117, -0.004234907641055112, 0.0036861506640805163, -0.0054754773927368815, 0.00010315624971725565, -0.007961576430725864, -0.0020779596564127084, 0.0008275388021993227, -0.009984030615693685, -0.022315681621921973, -0.010786077029681375, 0.004317191355333911, -0.01627606410908935, -0.006075296484915423, 0.0023253230059660257, 0.013528598356802049, -0.011886884134763954, 0.009514080288480874, -0.01477795366011821, 0.01773219919946502, -0.005865214788791783, 0.005319375120718992, -0.0056559088552323306, 0.006377846671420714, -0.0016800386204863307, 0.004112442579321406, 0.004774927024942737, -0.0008116801288871593, 0.009808160429713796, 0.0015593468063922662, -0.009647895547253638, 0.002427338504927004, 0.006224437250075524, 0.02423569239211844, 0.016958644272188784, -0.01940959938663306, -0.003652392740775963, -0.008024508614665343, 0.007835678383758541, -0.001769993162664965, 0.0050904169717425184, -0.027681693896302956, -0.006010821810412328, 0.00014597599058685642, 0.008090105010855251, 0.006418986977867068, 0.001064716000197089, -0.001400615511255927, 0.0004376116965128081, 0.0030053144244167524, -0.003955924458219136, -0.0010947467355371927, -0.0009686293196380306, 0.003340510351832175, 0.01055589418438275, 0.011318847456904153, -0.0045819484962953015, 0.0029169522516037756, -0.007104352088563279, -0.00394271940566849, 0.00016172993112274187, -0.02342088464923242, 0.0057755762373553985, 0.0012519510987267812, -0.00016902510355396377, 0.011258595244333812, 0.017440713220904867, -0.00745503463743808, -0.008418361329457964, 0.0036354838316674356, 0.016402087804487046, -0.010553237444645985, -0.01180377750677693, 0.0031831332199296564, -0.026413773112484315, 0.006864839467722922, 0.003768098442872006, 0.001375584610134146, -0.0033085827024347454, 0.001703288520616774, 0.019540852252416117, 0.0024828304007964443, -0.0058638876726979615, 0.0106643091788532, 0.0027307088913779507, -0.020249764124560036, 0.0038998809001798093, -0.001660621438443791, 0.00822899960049822, -0.0022420504780703058, -0.008951927987506474, 0.0050908267389507805, 0.0065692249934262495, 0.0005254942418204686, 0.0004136730277350239, -0.003617418400973763, 0.009868694722701353, 0.015527598534715937, 0.007548638017658642, -0.026010005715060607, -0.0004769401911173967, -0.009585063473117977, 0.01873431414256179, -0.0010860698004906061, 0.020978695298707647, 0.013022811422310597, -0.0018735667499794207, 0.005239249953960987, -0.0033168533061879303, 0.004847355573141391, -0.014797070344211275, 0.003411985278098461, 0.00907163133031578, -0.004827336877218623, -0.015971586118791885, -0.012840276919776884, -0.0104135878905811, -0.004265869363608097, -0.000589934093437724, -0.010140740778761263, 0.011320166387953953, 0.01729869910765858, -0.00746281734952639, 0.002963324418502156, 0.003814773264046824, 0.002716952426596698, 0.006127790236387211, -0.011002763981793985], [0.005802869816979801, -0.0005301658805920047, -0.0001919754803978175, -0.008378924180888586, -0.00510217564640861, 0.0005032318775573038, 0.0003412945932160594, 0.005095141982294931, 0.008344993509911532, 0.0024022355881258874, -0.007502445458973788, 0.015145462335068452, -0.0037287141737049547, 0.027872295625579798, 0.010776961183672957, 0.020179075959231393, 0.01240687879230387, 0.004729788163202676, -0.010123622488231579, 0.010432128121422439, 0.006651426294132146, 0.008296139513183972, 0.0075532870855297505, -0.02306590231617619, -0.01386975276158517, 0.009086969551860294, 0.010921521233278624, -0.005344185060198212, -0.003844622304751563, -0.010240561984810345, 0.0015684418739087568, 0.003252052150365504, 0.0036898793888677497, -0.011620038911609468, 0.001179040837481828, 0.009004684517285222, 0.005686243763173118, 0.012117475640860183, 0.000658663139167291, -0.00974452063505608, 0.013686255178757524, -0.01655559324405868, -0.007394019038805596, 0.0020138858183924462, -0.02174381030366667, -0.010138472225129973, -0.019170980464986078, -0.004212227223664996, -0.015536341862888816, -0.01220645437581243, -0.01602015318654864, -0.007409440991629298, -0.011545406120054058, 0.003154959730683609, 0.004727877640354102, -0.005835787636052451, -0.0005462345825685714, 0.0058326106774559345, 0.005131924808395296, -0.00319985352189063, 0.0024354725738569656, -0.004594210451674307, -0.0008846403274070183, 0.003696264655327656, 0.005383594508093881, -0.011993563805245019, 0.016027216323609986, 0.00011082555500407885, -0.011460189513614468, 0.006704600184715977, 0.0060014436875931235, 0.0019093859424278484, -0.010438900382014666, -0.009655483153660263, -0.0024243225653673645, -0.006954152229288531, -0.0037886656495146193, -0.012152205733043537, 0.004164053795673696, 0.011751845397937976, 0.0037404555456582384, -0.017974637517067297, -0.0036086315703074204, 0.017813633594775103, 0.009284901921798405, 0.00912313944045696, -0.019010311157154715, 0.01662189392152099, -0.0021464261011097815, 0.003920484627521193, 0.011821408704536409, 0.0097070652651372, 0.016869047217705914, 0.0033492506429057376, -0.007394217013787437, -0.013543559583033757, -0.0019115582509863346, -0.008240563626063208, -0.01476204411811349, -0.012525945990317295, 0.0007425485613104137, 0.012868261246159087, 0.01678204571996288, -0.021677093921604967, -0.006144155750749855, -8.1707016050386e-05, -0.009143923718748715, 0.0008442360062703785, 0.008258909672837916, 0.003264166305811328, -0.004997990666597327, -0.0028766105831062993, 0.014605329895019146, 0.010242432201664396, 0.022356209996952398, 0.00933450035723176, -0.007318245483877246, 0.01006586698110476, -0.002245629875951466, 0.0066039540839160854, -0.015869205635215988, 0.018966257692044564, 0.015111957980049147, -0.007851202295932785, -0.008002503591886678, -0.006864625598616328, -0.0010346609049703365, 0.02463387509245505], [-0.006922964492761463, 0.0030317372509573908, -0.009585663621166907, -0.010993813688004237, 0.020863495753207326, -0.012355384218865062, -0.0199275177668252, -0.007151088152405428, -0.0074924871801832615, -0.0007612092593896959, 0.003495563483816503, -0.007723937273599422, 0.009254616717085313, -0.014107519248189074, 0.0008703058780891722, 0.006379975947361913, -0.009237892321265175, -0.0011134624630945995, -0.0119271052560305, 0.0046650490940400025, -0.011253649039493751, -0.007918735702681593, -0.0015518044434585615, 0.017244656114082, 0.004230775027130313, 0.003919844637881464, 0.00032393600313870743, 0.0014491314955649268, 0.0020610461540394908, -0.00044930782067618914, -0.018606274865699386, -0.0060857500941635875, -0.004457932507566715, -0.013303609712844243, -0.004295081809837616, -0.008759774989200966, -0.007642744199073693, -0.007282328012771854, 0.0022180582994704603, 0.00767382427575974, 0.018966994843632547, -0.002325942379594778, 0.0030717350716521286, -0.009026548450750536, -0.0002817331005025518, 0.0033393693873582844, -0.0014397382070754122, -0.021058217874868487, 0.010094416070606092, 0.004316762543312134, 0.015797853604120452, 0.0004907219453689758, 0.005236752728520874, 0.009454072989224778, 0.014453990072258062, -0.025285270768057786, -0.001655315208368741, -0.003289329132110897, -0.0025301333084338023, 1.971194470323707e-05, 0.006740263052524715, 0.0043365980186854565, 0.0016359972053291275, 0.008257073387886556, -7.14545888423947e-05, 0.007133597527993108, -0.004565746835614298, -0.00580845421475623, 0.01062976391733995, -0.00033374587599848223, 0.005844002172510827, -0.01163225402081884, 0.004545375360239178, 0.006808410916214789, -0.013056021471087656, -0.012922630772197494, 0.0022490023284038652, 0.002504514465078267, 0.020196504300483902, 0.01291876666596733, -0.006052199568678966, -0.0021629092253348287, -0.007496414873006806, -0.005104833081857141, 0.010556398498741905, -0.014716006347626539, 0.00524651546744141, -0.020751594481442356, 0.015981644675117004, 0.00197965870795063, 0.006629227248404591, -0.013691087193655464, 0.012712689397189558, 0.005933196035460596, -0.001576335032399722, 0.006941923482562966, -0.0029866252763409607, -0.004180977399514657, -0.0016671188254992894, -0.008818976192897773, 0.011006004368458585, -0.010398954460639754, 0.0010825702958074976, -0.012148704499025994, -0.008109355140841166, -0.007784815756128152, -0.007230353962172455, 0.013083360762989946, -0.006302486788423062, -0.006476374855689371, -0.012768597599705816, 0.0030362365798951487, -0.0002705363907748497, -0.004913245832968491, 0.0037533524305624, 0.00387069312747867, -0.016204311143882873, -0.003971504503994131, -0.004619057394933404, 0.011194442476812339, -0.018053810059397393, -0.0057341058368991105, -0.011136665734407927, 0.003641503070115756, 0.005088992331854661, 0.007572223309581614, -0.0039450558581842435, 0.00923055163801261], [1.0668135477435883e-05, 0.02559748336654562, 0.010013333974347475, 0.002371508811515198, -0.003677444399576262, 0.007733759078127672, -0.013398675477353612, 0.007305518134075661, -0.010970847626164588, -0.009884571479594047, 0.003600994869167562, 0.0020059338800518453, -0.004973569696675308, -0.0001566309715535403, 0.002696407540823677, 0.001752952308565821, 0.008613897989052604, 0.008663155348929433, 0.00453372876448235, -0.0022748234959059635, 0.016562299836906075, -0.0187540960026008, 0.008641546073849246, -0.0041911623291919905, -0.010150126122025685, 0.016219392997534166, 0.003624794012768453, 0.009410202380017735, 0.0055352383810806805, -0.006904994995145772, -0.0028854695677320795, 6.716954141893456e-06, 0.009120460234241299, 0.0016662118775714726, 0.014097253182713725, -0.007068997235830892, 0.010099304381458282, 0.015277509542735511, -0.027456665165076524, 0.012936005635211419, 0.004421807329342873, 0.004934321106310381, -0.018402720454092022, -0.0007502612051854342, -0.0025214350095973453, -0.013054722004311257, -0.006363981917038767, -0.015737835922606566, 0.0043745435974911, -0.00868155848262985, 0.010364380545607938, -0.008271555459098183, -0.0016862595710332754, -0.001649255908078355, -0.021991287296487725, 0.01113952314626929, -0.00870041991929634, -0.01027792371785217, 0.002416897557231748, -0.008544990781032774, -0.003947713075767539, 0.0018468329351830875, 0.005252483511829768, 0.00613340805304929, -0.01606615136970162, 0.01145073305880634, 0.0025882138585101976, -0.01620353569506129, 0.012876456916409243, 0.008787355484400503, -0.016224546077863305, -0.00489778830687657, 0.01305184005518468, 0.008251915445034837, 0.006910477090094557, 0.009739119802466997, 0.0013136653216013568, -0.008104981217098125, 0.0038638338746881415, -0.0193704953119139, 0.017607495436333335, 0.013831311588236044, -0.0013102842464458191, -0.005553694617697846, 0.0015777905759549894, -0.0011761674127234252, 0.009980510522234629, 0.0055568867306220685, -0.0049782011476627724, 0.014795680535298792, -0.00562576897986161, -0.02394911081234891, 0.00839263319128182, 0.005330549653599205, -0.009520025674100707, 0.010570327443790089, 0.006774864872399854, -0.012230911456759749, 0.00033842537987433023, 0.0012250431446984037, -0.014119584104133966, -0.0003565883569106166, -0.005802540524593357, -0.009402215917044005, -0.0020350024878245123, 0.026660339602971966, -0.013135849925057928, -0.0029181055638434275, 0.0006873728063164686, -0.014351396062303873, 0.028693139309898426, -0.00924073855086495, 0.006852677295291967, -0.005288148685396211, 0.012984186979085474, 0.0035776341921511146, 0.020393176345384244, 0.010928639234491081, 0.0001974871072577243, -0.01146116751452408, -0.007719659677479387, 0.007611395421953398, 0.002950309291320708, 0.001405228122645507, 0.003219278130357627, 0.010808553580880684, -0.005444747525984787, -0.011187614084548568], [0.010276025120701837, 0.005512689593040909, -0.005844344554690504, 0.004008235693362287, -0.014172242983737267, -0.004713925539630873, -0.004336238025151197, -0.0032932093968258483, 0.005482349402670798, 0.00837789466440085, 0.01573850524905142, 0.013661683539864238, -0.006261135881381235, -0.00630618723010776, -0.005457053743540703, -0.004964900683581071, 0.007623073057619382, -0.007774942380138027, -0.009809168547136279, -0.009067758977003855, -0.005676563506989589, 0.002809248900417301, 0.006822986455860207, -0.015702267049060373, -0.008550393199649432, 0.007015360158650635, 0.003964580638479252, 0.00267169283369371, -0.0056431661140811055, -0.0076354241670759495, -0.010241774151308213, 0.0043341969162038274, -0.004892105848638229, -0.003207809790833599, -0.0062235186897271685, -0.0004293157543110174, -0.01694168233961221, 0.02078394780272806, 0.010537060073728585, -0.016792612321039513, 0.009090422492520131, -0.0012012594152600985, 0.010722607689850075, -0.022104819710600417, -0.015109395280250997, 0.016032433003505625, -0.004793627844371944, 0.0008245580817522194, 0.005461922815322855, -0.009475599756468918, -0.006899844392393125, -0.004778911127548539, 0.00016474627076017422, -0.0007248451354464515, -0.003907817064283293, -0.0032819710713861625, -0.002168929657680031, 0.0065197504491871444, -0.007647671155655818, 0.007238853697330532, 0.010848234903158612, -0.006012281596200569, -0.0034992823819756332, 0.005656252944806564, -0.0001725116992305093, 0.011044839548288206, -0.008242100399196537, -0.002460145856495886, 0.0035699513586796637, 0.010773658271780269, -0.0015752235649690454, -0.0004997998918866842, 0.003276350788161391, 0.0020006616920177638, 0.0038076258762560814, -0.011395667572578282, -0.010124138954847877, -0.005999578211358878, 0.008145119914943953, 0.014127789588328176, -0.00507546825279983, 0.007682759948787267, -0.020148339177751065, -0.0025147640325953527, 0.013584110830742116, 0.0003628764208106738, -0.0030777874257967765, -0.005319759835263945, 0.017053195410990804, -0.008952759712919114, 0.011592899296661999, 0.0013567974309156867, -0.005081126010419815, -0.008237131977658015, -0.009673021911110365, 0.01825098635268559, -0.0100216084628413, -0.005235019265736481, 0.007368432949885733, 0.00517746869432688, 0.01163065863725703, 0.010536251678708036, -0.0024689559195308817, 0.008941102629515533, -0.020290182237028, -0.004306926462697001, -0.010599568945431306, 0.018680876439599176, -0.013211037264373567, 0.0005449217798902786, 0.01324762477227151, -0.005811932715339959, -0.0037294509431256328, 0.008385166949573726, -0.001886739139244151, 0.007367311065064771, -0.0034762807412231623, -0.00010058262794240115, -0.011239152849480315, 0.0047484015476805495, -0.00494038109288641, 0.009539154790719066, -0.011920287742907461, -0.0020277293866535033, 0.025725773647549292, 0.004839457685758772, -0.017968946029307868, -0.0016717987592526184], [-0.005755955736921777, -0.008224837887165246, -0.012272768965199798, -0.009740417058404878, 0.0004677074021059162, -0.002152165846091502, 0.011378935698509, 0.0013868042935646977, 0.010641369353981063, 0.0022457601667282773, 0.013810134943484789, 0.013229574256826913, 0.012368922937584972, -0.020827426867140623, -0.005265431470291245, -0.0023790734208368005, 0.008288316988746245, -0.009294119447263873, 0.0007067917125542714, 0.001295930338407489, 0.0030040324435832867, 0.008037961831921403, 0.013388983769146413, -0.016739745380863452, 0.002677738364774982, -0.012109963209992839, -0.0009453211907585376, -0.0014910794807703, -0.013875244339325072, -0.008506028716231313, -0.00394360200405418, 0.001421021669372214, 0.0022155113270260424, 0.001531337017778846, -0.008495225117303495, -0.013303649800519428, 0.011272261945335302, 0.008949497987842926, -0.010245001268196136, -0.0007153071187270301, 0.005761533366945585, 0.007960529774884777, -0.01635280463838871, 0.011924974230432163, 0.005801414007993477, 0.002551092155951049, 0.01314146558583683, 0.005618635156713173, 0.010563000977916705, 0.022036351254518236, 0.01426717919494168, 0.0177909665211422, -0.0011290986830480494, -0.0023325705805914234, -0.008429186505281024, 0.001251734692306785, -0.004594457764709544, 0.0005154180554700955, -0.003638381397485189, 0.009978720855596203, 0.011427870313727011, 0.005567509674179328, -0.0015198088705328505, 0.0010148329834164676, 0.010930686305065933, -0.0005672207193133659, 0.009797726031823318, -0.011978503915313937, -0.00905489507899501, 0.0028961233913583294, -0.003883447688042303, -0.005936763108775647, -0.0020867193841932388, 0.007120194778047221, -0.004273026578163531, -0.006813266966774687, -0.014067671473338915, -0.0007216332655186356, 0.00854729110925386, -0.006882403795954314, 0.009655670658101212, -0.009778606265182134, 0.0028421901961667288, -0.006325218915119689, 0.008112566510556736, -0.00040978394291440903, -0.0031387996206741955, -0.019013432364345047, 0.02622692720467658, -0.004887327075752596, -0.006049344931350175, 0.010393697914239122, 0.000978388093800963, -0.008026576950846232, -0.0060505462347302105, -0.007112350123792051, -0.013034370605564513, 3.4177443972994265e-06, 0.013192762216947665, 0.007403213448530956, -0.003981889569982163, 0.017892503528664776, 0.009041049185536951, -0.0006260400619927705, 0.013629528110422484, -0.0026021891838316174, 0.008048688654389829, -0.01058989050206695, 0.011683191944091805, -0.011560857615116554, 0.010054908580253317, -0.004273678524236993, 0.017107427710015364, 0.002653778404702278, -0.0029693017528240415, 0.009313704383913643, 0.010719026314220432, 0.007658184082448815, 0.01161524408433219, 0.028732849073315733, -0.0012043160501065931, 0.010323177714684722, 0.012027400548197164, -0.012393436477241284, -0.0017185948876613732, 0.007384568265137613, 0.018276813161784575, 0.0022730235361669475], [0.002307074018447844, 0.0023673403657463545, 0.007465270933218446, -0.0038914092255495723, 0.00704700633531587, 0.021169675174487042, -0.006717514735439936, 0.004801129291108354, -0.009527107597751099, 0.0032581024440656806, 0.0014233913877875033, 0.0029524218607024848, -0.004843072517256552, 0.017006265729813, -0.005167123140640784, 0.010840656723119, 0.0016574029236558479, -0.017591712332859073, 0.007393669828537612, -0.011425685910760592, 0.002550818478493134, 0.014062647707070757, -0.0034797846675435644, 0.007813672489133965, -0.008541471570722332, -0.015549492275334573, -0.0022082098532769166, 0.00794021372860634, 0.0011331908293834069, -0.006779062827702961, -0.0072568190290571745, -0.0005446993504357184, -0.002790823270935355, 0.006081579160027176, 0.004755587701659414, -0.009356707264743138, -0.00621795495415925, 0.003998633937348806, -0.0076747169449691045, 0.0027727801211083784, -0.008426109920281201, 0.001825924079021062, 0.0029492515282817386, -0.01623872548760447, -0.010035842573482336, 0.013883715695690602, 0.0013787991681603207, -0.005304111114896102, -0.004604631853097934, -0.005031713869654916, 0.0035805850268270777, -0.0036261514243263273, 0.004144567383267723, 0.00014666968684578195, 0.0007014930307459845, 0.01961738910104459, 0.007451862527013662, 0.005530116992447423, 0.015554323694256807, 0.0021635233827381334, -0.0021803466171309905, 0.021828407921102043, 0.006686761194261964, -0.02161493368139816, -0.011252912839141262, -0.017435067863849095, -0.01168353271601433, 0.002410521170893005, -0.019692847779838495, -0.012541202405219587, 0.009659246338172204, -0.02461386034796168, -0.0025644778968204676, 0.01220398632139519, 0.013022708910626754, -0.002629541725829662, 0.004927492350216922, -0.008114247311364028, -0.015212862593240836, 0.004466340058317765, 0.00302673493797539, 0.0021850869116346165, -0.0037929614142091176, 0.0022611687303391737, -0.014503033499209264, -0.012054196280530083, 0.02300015498942597, -0.0030531795743604572, -0.003608528247893564, -0.011693741666084983, 0.007391186130977711, 0.000376273803677215, 0.004381512971121467, -0.004557573378356367, -0.0040639943857847995, -0.0019004836782643222, 0.013960753362649191, -0.013473324694409114, -0.013189981602661098, 0.0007915356031325014, 0.004229971461279785, -0.0030475862324871317, 0.0007910856848676504, 0.013851252919432828, 0.0037388166445976156, -0.013346415594374196, 0.006280506207392453, -0.004108548837553198, 0.0038405397928720645, -0.005167420303258372, -0.002450738754151702, 0.020834203418098784, 0.0022926818799213593, 0.008958789821847996, -0.002724556164682797, -0.007255928469627748, -0.00716855572881054, 0.0011268237521226132, -0.002092522425616659, 0.013665244780637742, -0.0033597647563263326, 0.004966505775743714, -0.002879944452981056, -0.010471031431080226, 0.008966961595394533, 0.017834940583652672, 0.001706394215848619, 0.0012235837340343087], [-0.005992484356414983, -0.010200205511774732, -0.0052124501649700805, 0.006052522814266985, -0.010998916235389858, -0.011269936159857937, 0.003987598754866587, -0.006199862911153823, -0.0204917136322619, 0.014917703195023764, -0.011704683211606254, 0.0004856335312063173, 0.005563677781149677, 0.010342605364479037, 0.0021188901520787775, 0.002778453209571985, 0.013336433090974618, -0.007006546012729567, 0.007152146039281466, 0.0022232255781458273, -0.004345132266118721, 0.009075569854121899, -0.007945448669171348, 0.008004559887805102, -0.005840347870549344, 0.012869079302579864, 0.021857852661025905, -0.001008186781636829, 0.0063787483758759355, -0.0010370592078045478, -0.0071679144237312645, 0.005478512333977591, -0.006895478443153895, 0.008472634076256714, -0.0013445951464613499, -0.002556375253762429, -0.02114842092403704, 0.008979974824934149, 0.009829210476000562, 0.02545606223631817, -0.012192353460894801, -0.007314577821713987, 0.008917236580965224, 0.004347819983813454, 0.003852522926390255, 0.012913981791114236, 0.0012335370359427282, 0.004678021871426889, -0.0017441304945167864, 0.005393225332429268, 0.007611273699340085, -0.012716281710802179, -0.023869476683500306, 0.0165642048647217, -0.006895713755070179, 0.0006708502651861094, 0.01434861751430943, 0.0009303823787225933, -0.00861650055628769, -0.005115430578575575, -0.004636504900730018, -0.010360499323269233, 0.030683158967900498, -0.010499719616813378, 0.002314647768232698, -0.0015155947552050791, 0.0025633169058936044, 0.010528546995642755, -0.0012895105356050848, 0.010556548665354748, -0.007042146866951922, -0.009255752780809349, -0.013187190676291462, -0.011895521320360175, 0.015038621384860252, -0.010078567587865284, 0.008687481507923365, 0.001969156327862804, 0.009249244658450874, 0.009896682140066494, 0.014140079129971965, -0.020278570656705394, 0.005742239599993375, 0.0005353375029394183, 0.016544815984280967, -0.0034789794478002557, 0.005502248347196298, 0.008819776321613168, 0.004476985466715856, -8.261326476442081e-05, -0.009469443951892833, 0.006731758175677463, -0.002986313322038992, -0.01076548020781324, 0.003458325220535723, 0.005863055212800133, -0.00783028820836141, 0.005095745976622008, 0.002703428632498283, 0.0048347073365176026, -0.013185576724174392, 0.0028986200181562245, 0.0038371198283851213, -0.012930902266748158, 0.004764401257725108, 0.0012826572297753797, -0.011255439452900601, 0.010279230586644365, 0.01632905325333978, -0.01994086399848117, 0.018564783951390315, -0.0061850408990143995, 0.015367444943969463, -0.020435704479461383, 0.003706684176452212, -0.022692609045696026, 0.0021467736006395483, 0.004095238259511875, -0.018502462186393162, 0.026534696151603157, -0.003655998816704919, -0.0018754316113793633, -0.0016470631305112026, 0.005611657800191055, -0.005338963633727023, -0.016462379003223025, 0.00402136369672329, -0.007175593783511454], [0.01827488431987593, 0.019490000040806983, -0.012968943517394027, -0.012880365577593166, 0.02171837160917496, -0.000350747174421935, 0.012480588736892033, -0.004531046552505786, -0.008956592496141664, 0.0009454954109401184, -0.008443372679403736, 0.011353642944897135, -0.007483422913874271, -0.015136987303145128, -0.0055172780683155915, -0.008153173387420219, 0.0007120859320309443, 0.0027082025735192007, 0.007558498579400984, -0.0070836386216913405, 0.002783855221347383, -0.006387673980984971, -0.00331409239321927, 0.004254900405520173, -0.005301036310423583, 0.013569443872076016, -0.0033484377028362923, 0.0011226543506729432, 0.010006883093185991, 0.0029187969609436137, -0.009469427974555232, 0.0010012708307154039, 0.01727013165546208, 0.00997711498032262, 0.006264565068642754, -0.00850034101797333, 0.015607611568698722, 0.0006441441863646971, -0.009575305265284205, 0.003949061131324111, -0.014881711328987503, -0.005581098501890316, 0.00813690354043881, -0.014943305952359147, 0.02639252217778219, 0.005625886420651335, 0.010868577403190744, -0.006936319162458553, -0.01005251973187935, 0.016282907630231044, -0.00565969449764004, -0.0039076235472271835, -0.009169794218778367, -0.003810205197072627, -0.0013456299055728867, -0.013851262812902724, 0.0007992712932341347, -0.015998659957172322, -0.014224997490711011,