{"type": "sequential", "layers": [{"type": "dense", "biases": [[0.0002719172077349428, 1.0293741330823927e-05, 0.0004122791708406875, 0.0003862129057771934, 0.00027292410387215135, 0.00028199289577981074, 4.466532111267216e-05, 0.0004046951942017949, 0.0003172976467387714, -8.292633814906712e-05, -0.0003292462576448404, 0.0002705879160741958, 7.9562332219731e-05, 0.00042913420937569453, 0.0006956753160616229, -1.6545808075752076e-05, 0.0004756867520760183, -0.0001092846091129857, 0.00030596239006739517, 9.481500172078877e-05, -0.0001193613565891837, 0.00022433749676144564, 0.0002697707610074247, 5.5251289767401036e-05, 3.1125511348067084e-05, -0.0002782032707383389, 1.6389708430874e-06, 1.4303566960993714e-05, 0.00019074927749544534, 7.635108482661445e-07, 0.0003126403395061486, 7.993388253148993e-05, 8.382954835100176e-05, 0.00014080716651598357, -0.00030116231756801816, -0.0002024822757464735, 5.2456554175478436e-05, -0.00011552715012489737, 0.00015370802807664457, 2.5201635339245774e-05, 0.0007512636717934426, 8.69856152584707e-05, -0.00010544068634717738, 0.000372591027608637, 0.00029020019497694096, -0.00043843510745295326, -0.0001812608466709344, 0.0001824852293391854, 0.00017053682892773152, 0.000156658020256628, 0.00018135936433912286, 0.0002792893334590729, 0.0002425113667920118, 0.0003111826723085912, 0.00038534173989558093, 1.426160884783507e-05, 0.0004229065896996193, -1.78504299308516e-05, 7.141189542211587e-06, 0.00024021610770044404, -4.432029161069203e-05, 0.00030879589540499993, -0.00022196365445994955, 0.00031426640522184507, -0.00016494464831354368, -0.00034248198454355915, 9.855536104129711e-05, 6.962550265660624e-05, 0.0005669630828908563, 0.00038092146043071823, -0.00040692213301185933, 0.0006260357636778474, -0.00010119738036789388, 0.0001702964015149092, 0.00035572603021389833, -0.0002272659649977004, -7.850327272469796e-05, 0.00030275324444398356, 4.757846212180617e-05, 2.822368063333284e-05, 0.00015474240944041628, 0.00011208170766533941, 0.0004046057645486869, -4.2309048809826804e-05, -4.438755231714042e-05, 0.0001911463380823932, 9.312473173800728e-05, 9.189585877801275e-05, 0.0002170544903754907, 0.00021504597968385474, 4.494157161144325e-05, 5.3667723388490154e-05, -0.00018146083395334438, 0.0001518077569499868, 6.428790110648117e-05, 9.893802177229909e-05, -1.2218884836689173e-05, 9.113652312579496e-05, 0.0002537489866140232, -0.00012649207531396022, 4.7239118214585554e-05, 9.626519151862484e-05, -0.0001257249676725238, -0.00031473314178197357, -3.414213292856655e-05, 0.00027717322251127473, 0.00020668716308371376, 9.742584312037564e-05, 0.00026705647071854726, 1.488549990493883e-05, 4.972922533634708e-05, 0.00018336065719007258, 0.0001338089399727616, 1.648969346605236e-05, 0.00020067487615144097, 0.0001955366479029771, 0.00020413919120740035, -0.00046952588023577976, -0.00015596338901376547, 0.00028924046121996415, -0.00024931597667699883, -4.256414862393735e-05, 8.04926181954878e-05, 0.00018980042225099578, -0.0002588899970917759, 0.0003047199314387977, -0.00015845332864132395, 6.465401187114008e-05]], "weights": [[0.01340894914999693, 0.007685866857329068, -0.011423603852867465, 0.017433554089805715, 0.017773765931440373, 0.0006169281439625486, 0.014030993367415074, 0.0021980662218296356, 5.68477572748678e-05, 0.017021399383627896, 0.009931667655470041, -0.01377061625629831, -0.010697355688972898, -0.0036253381941357917, -0.000737265717236634, -0.0007774613575740729, 0.004835437324364564, 0.017295655073571094, -0.013704257922924375, -0.006432629864017237, -0.01791560577524546, 0.0058752982039962445, 0.010740441767229705, -0.0021949959234349764, 0.012152024827968769, -0.002043708696308024, 0.012678192130252187, 0.008049058827524479, 0.0008654903836564854, -0.000191857661321332, -0.006627053130419592, -0.003731534458211097, -0.0005931218941320108, -0.0009808185839513938, 0.012973745838659534, -0.002632572952817312, -0.005773141422835817, -0.017301483781528886, 0.007472758764850409, 0.01264784391399344, -0.005361144527389282, 0.005320194822312759, 0.00842470519595303, -0.006214450260641125, -0.009231136634671509, 0.00040785570512369537, -0.00826828187658682, 0.005428054138948023, 0.012992334525144708, 0.008403301055802916, 0.020092446757770374, -0.007855595473316448, 0.006438706656116324, -0.002209109085155885, 0.016711071601731495, -0.006647570536415457, 0.004559397625647608, -0.01220222895942127, -0.016205924212176214, 0.012379688820646809, 0.01039768497384339, -0.011522591287655625, 0.0033500262197944113, -0.006632490759770577, 0.0033023295437937003, -0.0038770799945772962, 0.0035343471841730667, -0.005238145994292862, 0.022714336333849967, 0.004922558813828718, 0.00026330438864027454, 0.021911685769742856, -0.002742263587434859, 0.020253362194846438, 0.002422600807888071, 0.014904017556524785, -0.0015934289566184245, -0.008662736411719683, -0.003082398856286821, -0.0018743110038085217, -0.002933059648474975, -0.015379220795015126, -0.012806999111821777, -0.010380943201154761, 0.015539156535255937, 0.017447682296509323, -0.009128014550342236, 0.004432652844374078, -0.010034538023407818, -0.02627171519074592, -0.01563575164996662, 0.012093748443872659, 0.004314318718937251, -0.006500253734080018, 0.00010070618284567908, -0.008129830964096989, -0.004643086913224634, 0.012247111647216279, 0.0054162003402392755, 0.005850313434431943, -0.022630248382200444, -0.008323118490869951, 0.007072388979478105, -0.0032718762743572157, 0.006504824319187925, -0.009283163273423193, -0.013326815365418082, 0.004765091542094614, -0.002997933380025095, -0.014274847713441908, -0.008348647004390575, -0.013190321483958142, -0.004567317386565938, -0.008614427665031486, -0.011714679020132868, 0.002797110758615008, 0.0011006963163491023, 0.004128115262687636, 0.0018985056841786482, -0.007730084521070819, 0.002194366402200525, 0.014832969345134037, 9.954473384029861e-05, 0.007829640710641038, -0.004814785050987063, -0.0030661664011185515, 0.0038314790189761362, -0.0019085606723696958], [0.006883696578239979, 0.017203651062017215, 0.012555668117800131, -0.00011872031646290944, 0.00019961173325708058, -0.01330337008826404, 0.010720040864551821, -0.007894107239340368, -0.009554303754071337, 0.02955056843059129, 0.00487493336912068, 0.009876689809404388, 0.020560306341573086, 0.0034844473845276726, -0.013736120062591362, -0.0010313138590373658, 0.010077828101933256, 0.009568349229264762, -0.00291454999105708, -0.006683469495212682, -0.0004379341666752172, -0.006656566618968877, -0.005928030545290471, 0.0006412400021143299, -0.007958769546412009, -0.015791363130124084, 0.001704993560784849, -0.013054266405356243, 0.0006811258222055296, -0.004383121027737345, -0.0015232775475638553, -0.004771870388402515, -0.010154324952064813, 0.007884936628409493, -0.01115247272060854, 0.006512770527486563, -0.028585378649699344, -0.0013564086726681594, -0.002014575988439873, 0.02141929779691902, 0.008776971410244314, 0.00018363490841025965, 0.02083882732463632, 0.0029136116032250654, -0.024669827967574165, 0.02594446126178197, -0.016545932059470053, -0.009854794656454575, -0.002250950490190764, 0.014022329838297607, -0.010313568362521633, 0.01239471752988871, -0.010583168971941661, -0.004312350913049474, 0.013086730343042724, 0.010048080593115518, -0.006316059379491467, -0.01411196382233632, 0.0085965758793454, -0.0016640028906319093, -0.01173276704466241, 0.007625108966179056, -0.005513879403101448, -0.00461417960600023, 0.016803482526063417, -0.005975540115518877, 0.0036188705634662287, 0.002271376164449674, -0.004633521845414826, -0.008001058409394338, 0.009918657120932636, -0.011761673527729624, -0.000658023128213059, -0.006795873477464796, 0.01716284043147208, -0.011786289061608033, -0.01082615692237601, 0.009319286002709506, -0.0058414460130010604, -0.011570632871913369, -0.004122931466127812, 0.00866308395618129, 0.0031003265417036603, -0.0028403650184960316, 0.004997620389709981, 0.016198144596091268, 0.01913142051472387, 0.0012549826880199776, 0.0052180744433863715, -0.00432770120071762, 0.002830178868582232, -0.003726017167717033, 0.0007841906697062647, -0.0006303584537365737, 0.0011617030175790832, 0.009508929594915377, -0.009292330600585689, -0.023244771579044345, 0.001664833517584549, -0.014117144559189556, -0.006935676047299001, -0.013446570775148624, 0.007462819898235221, 0.000778535659258174, 0.01707031411066884, -0.014423945799220007, 0.0018824271959671213, 0.012733648152227106, 0.021468081372482586, -0.014637106409761727, 0.010514917651716098, -0.007391626085693979, -0.021026534959712993, -0.00627906045669575, 0.02176790433307352, -0.008128048575176176, -0.0118723629644765, -0.00044000239976816854, 0.019507404948292534, 0.007322366996193636, 0.004834263758526754, -0.019698924770339014, -0.008744432303057964, 0.004208202530248347, 0.003787172605444506, -0.009543463980141397, 0.008949018050989146, -0.003226197972384173], [0.008097057609748328, -0.007494907966963627, -0.00868129703544431, -0.007849591009450324, -0.000812459466071285, 0.0018468285943539593, 0.012973395464113462, -0.009019407229929001, -0.01016672287858427, 0.005652325318009453, 0.017740411672122838, -0.0009843019415701722, -0.014414165219608316, 0.00016069353712340855, -0.006523475330495991, 0.0027856047377431393, -0.011587882614854226, -0.001663070319844909, 0.006724354179827712, -0.002819017065423657, -0.015949739730904175, -0.005921767991814926, -0.013022662424020113, -0.0059085704093964474, 0.0017276658278700258, -0.005397841350756177, -0.008187180656248249, 0.0008588711956918565, 0.007235902923791392, 0.0027391037018384963, 0.008506290855088165, 0.016543865544070255, 0.00031928394895142765, -0.01477579438825217, 0.014972559168688272, 0.0020222814416645707, -0.000829386771649617, 0.007210348104535952, -0.005428277532490321, 0.0022397477536311608, -0.008447616126381164, -0.01888649722654566, 0.0013834089211282787, -0.010836747581158377, 0.01575349289705622, -0.011461508038355068, 0.0006943325735048678, 0.009204183946586687, -0.0016235065713651878, -0.018739831387641542, -0.013557573809289918, -0.025875243210437875, -0.005698290629877129, 0.009489003595446103, 0.00585298545018443, -0.0030283230192467846, -0.002927845023009585, -0.017093824149911802, 0.0029746206493040566, 0.011531981217742966, -0.0038675156522815254, -0.011048161492038322, 0.006379912405593224, -0.007858493167767546, 0.009453543849524897, 0.013095023116113935, -0.0040489735034390986, 0.0016670513143455742, -0.011083107433757245, 0.011726058910025566, 0.004114757216994559, 0.00607311034835558, 0.005648659180121442, -0.008213369554310027, 0.007646285076908989, -0.006130586647463775, -0.007368953212665449, 0.0009345427939633503, 0.008561790431220007, 0.013972581335536624, 0.00038537440314901424, -0.0005464840847195723, 0.02654007236755692, -0.0017751930704303493, 0.00010889538170692322, -0.004139495903141847, 0.013529934144507774, 0.011260800525417653, 0.015443515008349099, -0.00660578669624406, 0.012825577929226471, -0.0027647246651725135, 0.011915760535017939, -0.002110991871048198, 0.013682522479200307, -0.003252796903306785, -0.008098010215808726, 0.006527289241414067, 0.000986599223426226, 0.007723171199996677, -0.003649903446760892, 0.017787902893492025, -0.007198799758100523, -0.017867067866701003, 0.007075393642905984, 0.002138819641779948, 0.017148043349894934, -0.015146472093138954, -0.008825936037889425, 0.011349424638313422, -0.004939111347530891, -0.012578891052103578, -0.02260861258496644, 0.002329213775171202, 0.00753786063682953, 0.013945460344129551, -0.007654738136532142, -0.010080869787036517, -0.010559233123014208, 0.003864504174626707, -0.008907514397318331, -0.0018648129162400784, -0.014870835888732208, -0.002252338343981878, -0.007728115841411796, -0.006032189119767288, -0.0029660847436908146, 0.008201541334283522], [-0.0015756340607005698, 0.004541182265690189, -0.0009766929385772844, -0.011910944010046031, -0.008638775554114778, -0.02196960397195098, 0.011661539971915505, -0.006419903314737027, 0.0035928928248715403, -0.00435090751241217, -0.006055078624777737, 0.0008369049114839423, -0.002653739104120676, 0.02020756770130007, 0.004715227850192165, 0.0027482172178388267, -0.0021501371625623, -0.004382750008422174, -0.016890345406838238, -0.012174643994459926, -0.00398421372261432, 0.011432550494663666, -0.01334456716912658, 0.012976546299678598, -0.00020354613793710207, 0.006354501790439837, 0.006211633015025525, -0.012270019743236524, 0.003855297663554433, 0.009905231839432444, 0.0007612890029424664, -0.013495669243599134, -0.004323999074157779, -0.008073869313361378, 0.012114665951513146, 0.011300559862572397, -0.0034183174915295455, -0.0070082950502529185, 0.021888876025815733, 0.01038173727006762, -0.0040152912047298275, 0.0003613883661827111, -0.013236471133537073, 0.012619563878589684, 0.02589007742305484, 0.011442203431166713, 0.0068332575154121675, 0.018595709104494613, 7.220010293754e-05, 0.0063961082679833406, 0.0029504923494570222, -0.00331567341806688, 0.006534808318375608, -0.008300350406544633, -0.007385424756111714, -0.006282155027792377, 0.021262876204739847, 0.0005684810234035217, 0.012337235220202483, 0.011634164844415092, -0.002073656875168022, -0.01768022139003359, 0.010807610795489354, -0.0073286202278206305, -0.0012172593005687336, -0.008438875223021102, 0.0008048282163521311, 0.015449085290529586, 0.0019262539285340994, 0.0032968923628670923, 0.0005272929125328684, 0.016982432307847645, 0.009736360488690574, 0.0013220126904835885, -0.01584946769809999, -0.014278514901071782, -0.0165203970722631, -0.011837532382384353, -0.007093627335732545, 0.001650403239059903, -0.022671452397298265, 0.010857111926477621, -0.002843251866360332, -0.0048908736225232044, -0.01455967957871279, 0.0022301407681264117, 0.012301955089726004, -0.005950281568860436, 0.0030253634110518337, 0.0016521796693346649, 0.007528807997358789, -0.0007141619304371259, -0.012278384525191342, 0.016778415398256332, 0.0022805404494855653, 0.009847033396038575, -0.002919058814963623, 0.001452288572409887, 0.02120841901439368, -0.0014937531819072866, 0.0035307827682296384, 0.003177075306619438, -0.018343430511327016, 0.008354089601140318, 0.005982417962886455, 0.004304596444506885, 0.017378002723021292, -0.0074097895382923135, 0.003438578386120586, -0.009318105906888573, 0.012317479115726416, 0.017656970759549005, 0.003673514129803014, -0.01769584458615533, 0.005570411180682533, 0.00956623725798935, -0.0011276994510705793, -0.0014282764825794695, -0.03387450218444847, -0.007299615396088882, 0.008962520527966474, 0.0006837700770724235, -0.0011153015730605348, 0.006793682351273342, 0.0012329799733141308, 0.012952167661865561, -0.005734538091623704, 0.013884507437913134], [-0.0003215330804373865, 0.010126440903202765, -0.005906164003367899, -0.011852752376183774, -0.005473015740003638, 0.001483531364921265, 0.02108318965327906, 0.012823541334803588, 0.0045987853074194365, 0.007645401131609375, -0.0006688092905743254, -0.012005926964609242, -0.0005684941592483635, -0.006393577663868334, -0.008168992892092008, 0.015512756969194436, 0.004881174956012623, -0.009470736018676543, 0.0006144772599984178, 0.015371713106245447, 0.031308463868519085, -0.004894395543923878, 0.0014908777622845283, 0.007002487644747451, -0.0071948096113623175, -0.004333746903260603, -0.005476273393910808, 0.015958387754465654, -0.008919486142334338, 0.0012672262039140458, 0.01430204909669934, -0.0055515797911136425, -0.01885494662591167, 0.0018262791358637643, 0.009656578854792198, -0.009465648574808777, 0.018517888369437213, 0.001918811513740349, -0.008006720605853525, -0.01961783521634829, 0.01958078378337722, 0.006842171341232327, 0.008912100549561094, -0.015766434353501804, -0.005280831595056268, 0.0005650021788617509, -0.01083299336570058, 0.005500553728051581, -0.008036124241360555, 0.004511267820299343, -0.011956152990849584, 0.006653719868191612, 0.007313954028455914, 0.003760306552816804, 0.0050579152955556855, 0.008547532766607883, -0.0034328292542277674, 0.004660390317120658, 0.00046554726509084106, 0.00731309954413044, -0.019013751388985395, 0.004126085191165646, 0.0056589806077762365, -0.003766181648106056, 0.011169405560104382, 0.0005814134143254109, 0.014485635158988746, -0.007535040880210985, 0.000497514968211539, 0.009924987893205308, -0.006277345259568784, 0.006446466721258345, 0.005619717973266282, 0.007612996126611129, 0.007697032103525702, 0.005911966387322453, 0.0022355080890729758, 5.211310551466264e-06, -0.011502475212860018, -0.00410545158272933, 0.003348786852222261, 0.025988286798587956, 0.01848926328242017, -0.003964130615391595, -0.002855775564943518, 0.0023229961096130933, 0.002020638471255727, -0.009653930480098405, 5.004305104111262e-05, -0.004616168617970147, 0.014718616116949235, 0.005695145808670726, -0.0010431373560749301, 0.008407230931404674, 0.007351849453962375, 0.006255840395456912, 0.0056737421486157315, -0.00331618355550974, 0.0022973943043194615, 0.001774515010276392, 0.007157921913589991, 0.02151868510715081, -0.011275091448582611, 0.011239574363152673, 0.005919819082009565, -0.0011028265256796082, 0.0039228882844795894, -0.00361924769575695, 0.02581785059255037, -0.006939841115650876, -0.009384953504761238, 0.01418990720549287, 0.0024178090156230132, -0.010704844254716064, 0.011357693719426229, 0.0072210886088159626, -0.009170956681120264, -0.002391107671790687, -0.0017188167668127261, 0.0007132316555527067, 0.004538667249893529, 0.015312566802688098, -0.005814402146229187, -0.01921369307217252, -0.012948034667500828, 0.0019170609985675999, 0.014310202009826254, -0.0017927105464370307], [0.005909967639846932, 0.002309624521526875, -0.008101845487709845, 0.0028119068175430167, -0.00487344091976383, 0.002111252823373261, 0.00971767733832988, -0.003043294164434474, 0.0063103715958197, -0.01493458194098976, -0.0019182413679878396, -0.0043493754972768, 0.00021057099250932504, -0.005865461598121846, 0.006352098845554333, -0.0015829227873246992, 0.024150989402598234, 0.013506479184230528, -0.00949128909051212, -0.014049386170075473, 0.004915365371961118, -0.0031711835612303254, 0.00653826456722238, 0.0006745755763086057, 0.020921392932705993, 0.010667506369384383, -0.019087710152425604, 0.0011962372872534584, 0.01781483814664785, -0.005355558288565032, -0.006574354504237623, -0.009829562479389714, -0.0038414800575636786, -0.005531961127907491, 0.005367712416060536, 0.00013000064660541755, -0.002603320823184841, -0.015416280489984153, -0.018463389926424788, 0.0010410576096647685, -0.009083128600473464, -0.004301865980780881, -0.015407552926731414, 0.0068561020418134435, -0.0048452448666316235, -0.004513764274071612, 0.0008088296437920687, 0.0016984217257110714, -0.014478424297128274, -0.016659382195179834, 0.003156638102810497, -0.0026926314602024972, -0.004645071827067802, 0.01855936006040263, 0.0030461881274277815, 0.00157532580357164, -0.00039600944435632155, -0.013028947282313479, -0.004412509952518486, 0.008167820173010579, -0.006147645365812935, 0.0057910858346945735, -0.010420492974829101, 0.0027520570436918245, 0.0034363652595629933, 0.008399292378762326, 0.005189632805165933, -0.013192163532077805, 0.015716732030638197, -0.0067987502724558, -0.009613721657405414, -0.006023214872136731, -0.0009189299569979856, 0.0030303914962307586, -0.018077802765639524, 0.013575011038400572, -0.011724944907904012, 2.1642759213969884e-05, 0.008299545505981266, 0.005625674702432285, -0.0029979194927740142, -0.010166043276081178, -0.013291086119054035, 0.0027437759459514413, -0.006369326276975622, -0.005996045574162341, -0.014745350569629896, 0.006302672048457544, -0.012572929579743201, -0.007576118521679754, -0.003529817698432527, -0.0019437818881453475, -0.012720866872311307, 0.005905152889854167, -0.009169350268957925, 0.0010421482808684345, -0.005654528268072346, 0.007528015898665898, -0.005401328562896766, 0.0031487422176870255, 0.0018153916696488671, 0.007558875183070495, 0.021703418430637306, 0.008944219726172452, -0.014322203120691074, 0.0037458294393368716, -0.005165299475615233, 0.0003387658087369696, -0.007587235065669769, 0.0015673175298933232, 0.0005302690839489548, -0.017854184900991523, -0.008782046406069858, 0.001755367116093222, 0.030788985281627945, -0.007183732511647405, -0.012017978551622253, -0.004723120732617646, 0.005991809573212781, 0.008567561025978087, 0.0031612744855905855, -0.0009596868346861518, 0.011145154991651193, 0.0014759058538904124, -0.022962704830942884, 0.000858147761464169, -0.003433213629519101, 0.002594826328109496], [0.023640607885716727, -0.003251031842485322, -0.0016113982473203584, 0.001977130179518516, -0.008984445285076038, -0.004068712581201624, -0.013187268687219556, -0.003951131693151719, -0.0074696058328114455, 0.008499070542949065, 0.0020980519726394435, -0.0011179169862400417, -0.005400235913556507, -0.025342318892948128, -0.009915630719062478, 0.0028161987825310116, -0.0005655798365892132, 0.005949007372375728, -0.0014889162430460803, -0.009079345692572481, -0.010575528813664511, 0.0012597918235503084, -0.018919996223513758, -0.03287328311421555, -0.01714979143919516, 0.010295844167883617, -0.0035082965066555285, 0.00599583105836224, -0.01764891171365965, 0.024292254776455708, -0.0025776125938985956, -0.004067069728259298, 0.006954007584266253, 0.01814949059191552, -0.004289674234116996, 0.003535623075614766, 0.012819614817915761, 0.01743197462222425, 0.004660948813109051, 0.010922435292337497, -0.0080329895901571, -0.0009465316417090598, 0.000323374977931955, -0.006951022417221643, 0.006871525818162486, -0.0029392959909948137, -0.005349240751039752, 0.011077005428136286, 0.0007762013929099403, -0.002560448317250381, 0.007450428044713115, 0.010054908099895534, -0.01110223015499687, -0.004616019426996055, -0.0045179583563206985, -0.008049613030487974, -0.005127737823302534, 0.009858220896324286, 0.004130622146323535, -0.004890060486285803, 0.0007546766853371693, -0.014155650914779435, 0.018485668498613977, 0.010436690453627486, 0.0018274379603950195, -0.01036210354418877, -0.003264575966891479, -0.009758198145306153, 0.006524169655240485, -0.013986236728346976, -0.010477120789810222, 0.008887283096271622, 0.011334954976596477, -0.005076092668987877, -0.0038319275885410494, 0.009931248473871846, -0.007846402295709647, -0.017046614966413035, -0.006950820239090537, 0.003368640639267615, -0.012950719498854636, 0.012579238746613035, -0.00023533229480066596, -0.019914704025367016, -0.01765386881059506, 0.011879655489592217, 0.013613655625815886, -0.01071888368116009, 0.010107285962170736, -0.004309105771091189, 0.007933177053675912, -0.009138616591769708, 0.0019137609241617248, -0.004848625644337649, 0.0014501921523597894, 0.007305567794570437, -0.011425224385106843, -0.012532579745526445, 0.015298718405291512, -0.005757180483470707, -0.013331444489166056, 0.003770137076674287, -0.009731662159520888, -0.009652530787941099, 0.0030872150206264167, -0.0065560660045027985, 0.021213971320926124, 0.015404300413814707, 0.01771125335926907, -0.009959094556762643, -0.0020086419239912206, -0.008240821043394133, 0.010263952566542136, 0.012584300379324809, -0.018652722316483926, -0.009509939450727234, 0.00419837806395519, 0.008099721775589935, 0.00017021907398965676, -0.014043478412549104, -0.019268727902686595, -0.009223353179760857, -0.002568778884509309, -0.0019344445817284616, 0.0036275280103278498, 0.013490368249428076, 0.0006448273742857602, 0.002642907873325559], [0.010591642515838686, 0.006542254915826626, 0.0010862059146848483, 0.017949647606469887, -0.016820264948129528, -0.008659355944036174, -0.001886099725479592, -0.004560567322094681, 0.005259643582734131, 0.005412420443131948, -0.0056663345436710685, -0.005969956255722483, 0.006433894874121118, -0.006591011737078399, -0.003095800324658371, 0.0077878904224484525, -0.01609431618758935, 0.008478324580257211, 0.008545257767298128, -0.004354487878421424, 0.011200553295510904, 0.01717567264858107, 0.021714786429161085, 0.007923485530879635, -0.0009255864382401434, 0.011084757044747838, 0.004499348983516756, 0.005398869031123641, -0.0011785810639667364, 0.021334376107471537, -0.010341505072907337, 0.005900485089419259, 0.014129433675276517, 0.012381757142739615, -0.012330198200713327, -0.003729307043677331, 0.007337340035205265, -0.00921183595182235, -0.003526423209258564, -0.001454774186159201, 0.007965185008807689, -0.002621215274956105, 0.006835771249662113, -0.008631088436823765, -0.0018655395421403108, -0.024503649242569175, 0.0013265261774756463, 0.0183052382442231, -0.006064997895354482, 0.006120291359345945, 0.0016036093904801979, 0.0037671367883308055, 0.0049953110292624515, 0.007761240922526307, 0.030247623150660544, 0.00029442567545660613, 0.019346059735656777, -0.00236810954147452, -0.01663079990429831, 0.0048225651751826895, 0.006907926396489359, -0.0017351775140556915, 0.011941297836399816, 0.008863386209788365, 0.019255069782949455, -0.003458605478771258, 0.004558915339403301, -0.01685824998595306, 0.005530358677777176, -0.011609144913921152, -0.0031256307836989095, -0.015190770681503707, 0.010042610788115669, -4.9795231307032034e-05, -0.011127247359916236, 0.008769585609679822, 0.00130425274703046, 0.009163411670403217, 0.005678370141030351, 0.007520428452567719, -0.007098429608793535, 0.006599122385650396, 0.0019265819015248356, -0.002176530578534152, 0.013147621024255228, -0.011750496554479224, 0.007700362395458532, 0.005392606252060602, 0.020015777338574434, 0.015051958246562759, -0.029164379315848695, 0.0015120617944329728, 0.0003883443885161072, 0.011120981926963995, 0.0050853439928453025, 0.003934839344966275, 0.0016071797754727364, 0.011841747714276296, -3.2856203509404016e-05, -0.005541993675353229, -0.019743277906856094, 0.009676377681038576, -0.011359871115116214, 0.0025415357873697962, 0.002933632795624805, -0.007564145351192714, 0.001744433991525495, -0.005327473323534411, -0.002651759844799752, -0.004280373093407481, 0.0068244375342161115, -0.004181141437426405, -0.03159341855031249, -0.0091436548237512, 0.0021752709009904255, 0.007755378410035353, -0.008168294508602075, -0.018574209310202018, 0.010756527553823555, -0.01756695998909543, 0.006173070399862386, 0.008934178038005718, -0.0007011139918365193, -0.002231322589015725, -0.0169617022445153, -0.0020068568406904665, -0.0032006846712735243, -0.0035165988181135592], [0.0005835669900049586, 0.001200994865709428, -0.011513506810559706, -0.0018288071895538865, 0.01511994671524916, 0.006819005758244222, 0.003994424461808745, 0.0007148985828684752, 0.00047895900464830935, -0.012422933174573715, 0.0020609188099015704, -0.0012381976085415647, -0.008178535600865088, -0.005699515215008638, 0.01194947817295418, 0.011926914419673243, -0.010268535632393213, -0.012589544562622453, 0.016303716831888547, -0.008934672315870985, 0.014516597762023294, 0.003621855896521987, 0.011047939711340986, 0.007468338509502089, -0.0001492050639547377, 0.011240136767230846, 0.002894139990529268, -0.00980721550584923, 0.0011330362498220728, 0.005243345548110872, -0.0027653434909319, 0.01917510541764781, 0.01941700049180783, -0.02642587494497333, -0.006901300648353825, 0.014883220741740049, 0.0011129574475400457, 0.0062067557646196085, -0.0010262741253248883, -0.002017298849593153, -0.014460491183334662, -0.0063350740538445, 0.020242189231890723, 0.006808730533141225, -0.022833067650240783, -0.008757592542572433, -0.002017413800887665, 0.010115102814145236, 0.0015444244780856591, -0.008734993761714334, 0.00032129783108885687, 0.003590985027652248, 0.001596822975905122, -0.004163657441903686, -0.0007353641353768207, -0.012000853392364648, 0.020987745594121067, 0.004357505669692683, 0.0017977071325144184, 0.011615324023849679, -0.0029363656957311552, -0.013220726204628835, 0.00024865809804056695, 0.008149910097252116, 0.014783907518622484, -0.01290574755143901, 0.018503015802448168, 0.0026821117541781783, 0.020852557595830795, 0.010608419957785293, -0.012465855593301886, 0.006024495533075039, 0.01469247823240649, -0.0072144186943313175, -0.0076551059464750396, 0.009182764260623557, -0.002760164442227001, 0.014306431240427917, -0.003097806694661825, 0.011470184363513618, 0.016584434078818436, 0.00536738058225991, -0.016096505985001917, 0.001843993524547339, -0.012103469284139681, -0.0011595537195034312, -0.012439136153406288, -0.0009051216234110779, 0.008116774422265733, -0.004230788399542975, -0.011114584786916988, -0.0026727193389125005, -0.006094229551130385, 0.011066645790952548, 0.020549326591796275, 0.005061322714798642, -0.015333354239527171, 0.01241612738189374, 0.006801009147380875, 0.006555832206579825, 0.009768684975744095, -0.011221854204639989, -0.011233169245416353, 0.010632403157881403, 0.003690867445151255, 0.01454935318966355, 0.005202400499009932, 0.0025422100099685547, -0.008640256424360669, 0.003121304512676305, 0.0070436122594802735, 0.008478117554464764, -0.023792422336599953, -0.016317586316121506, -0.003701759393988806, 0.006510555559376668, 0.003950434360759207, -0.004994161160586728, 0.0012416238509540406, -0.012708671988002714, 0.0026720533645468955, 0.009203013014457856, 0.0006944822841151583, 0.009494546606991169, -0.0012970553259208332, 0.001476925156394759, -0.014194379628158693, 0.016845708470778948], [-0.004225754810849384, 0.011279383355808305, -0.01254704808958574, 0.007731589806277116, -0.01619040644809215, -0.002911311048910121, 0.009177497089446264, 0.0008818400393255409, 0.008843917148646517, -0.0043306381281024405, 0.008202097576159443, -0.009887355150702241, 0.002180027241485095, -0.011463703931811986, 0.009426729902033852, -0.007378688304017531, 0.010070071840514316, 0.01777357352447578, -0.014365086762002906, 0.000804045242091436, -0.0032013720762367466, -0.0013714137507362288, 0.006203234578064542, -0.00047410986873125356, -0.010574584822461557, 0.005255499591437792, 0.0019519681057250026, 0.009122272460133054, -0.007142005580749641, -0.006951386932128596, 0.004235865544804327, -0.00295263115855671, 0.004917168435224461, 0.007056505055693384, 0.005007402184022957, -0.004084011456820257, 0.008326653648594827, 0.003153616095582703, -0.0025634628329591442, -0.004366447755051834, 0.0030184816485968632, -0.004586518192083325, -0.012454763761886076, -0.0184717365590167, -0.016041359884842156, -0.0026383279057424196, -0.010748345425651286, 0.0016098834927670172, 0.011577787444163979, -0.0012869138682038315, 0.0015555230764132389, 0.0028953159454470473, -0.009172423832021227, 0.005676972152778041, -0.011280485224750616, 0.008804656976572933, -0.007404112652139649, -0.00030448484541622796, 0.0010881800088797457, 0.006221111674923311, 0.016814361827871657, 0.003602965111949053, 0.005625426458438133, -0.008324673430538783, 0.006392102983384388, -0.001250062931534075, -0.009059393668580563, -0.0008663383585921419, 0.006066565275652057, 4.9278570397500566e-05, -0.012927492432102356, -0.003984953521186804, 0.018873318020149802, -0.0023678539271378704, -0.0008827278370559311, -0.01609585813584233, -0.004777693031122257, 0.007237805808678173, 0.0075051243117036865, 0.00021995789951148703, 0.007639416015266812, -0.010025229984800802, 0.008545349564339482, -0.001757554712105124, -0.021472159009091638, -0.009758436195499492, 0.00238756035545465, -0.005221517613790712, -0.019311825868063105, -0.013261701559973558, -0.0063017622170100695, -0.0021178686068834525, -0.0009696497931303249, 0.0062595335151772605, -0.0035008226490258025, -0.0037652717490605525, -0.014841048947920822, 0.009594925233241835, 0.014845283553191424, 0.002043744923784231, 0.01509931449980717, 0.00628197050116548, 0.011585194815270426, -0.004151285931262714, -0.0038824971704136788, 0.0035106877103272915, 0.006358547964028398, 0.0016724211913604968, 0.013555461825796629, -0.0013386741241945288, -0.0027547608349010374, -0.0019824760571406684, 0.00995474799530034, 0.011268418500349398, 0.01179218694990225, -0.012644655548449494, -0.007358156354392834, 0.009866689107380784, 0.016439007298747817, -0.00012032696206024863, -0.002769432465517617, -0.013089749577251435, 0.010539739095516157, -0.012878205582029635, -0.0033600488939630273, -0.010375782573631951, 0.000977241885676464, -0.007471594045063795], [0.010436983065682337, -0.006352191357420557, 0.013943496966096754, 0.0026352313379966992, 0.0024503107685739742, -0.00384668522241432, -0.0006692921785753181, -0.007552116237125216, -0.007532749104785985, 0.0034460859106785024, 0.015040098589112982, 0.004390319096786424, -0.012120476970702348, -0.0012078244216687118, -0.005246606438331696, 0.006261304898058316, -0.0167897078466104, -0.00024163766273398055, 0.001201523801839844, -0.009501911102247209, -0.001382552854435066, 0.016008672283486344, -0.0005083306024344392, 0.007225959563393688, 0.006954083918999268, -0.0068350328254392695, 0.007776454501638595, 0.0028605036086730602, -0.006067990874576948, 0.014252598616405168, -0.009102167359631935, -0.0038905599582941997, 0.007977589652479584, -0.031905358306083695, -0.012249380100536136, 0.004265072789442257, -0.0047189832175315435, 0.006783369665767793, -0.004838265847761386, -0.0009514679057078015, 0.003831927138528993, -0.0073477004273671724, 0.002875641600057748, -0.005829117018344004, -0.005923512785494166, 0.006814379999754983, -0.00213899490413375, -0.0009346620884803893, 0.00561975942126713, 0.00665147581381081, 0.0049580343898756865, 0.00549113736720646, -0.0037071636700419662, -0.01568476852106531, -0.002236164001980864, 0.0038147033092030265, 0.004098594799616839, 0.005925052587302074, 0.003481658730220832, -0.007896637804754962, -0.009266733100652512, -0.006028923887310374, 0.0027116631405575114, -0.0023835547481689395, 0.011353306075328829, 0.01138399474852763, -0.0029903609860898244, 0.008659048019749708, -0.0003937673197036254, -0.000613421270634777, 0.01536904768525008, 0.013419451728689018, 0.01487925871495502, -0.0013719669944504437, 0.004666939195084708, -0.0024812585566379654, 0.003477797912404549, -0.010105246768508163, 0.0027996410687543484, -0.01392827133426955, 0.007373991434384143, 0.0008079157579415565, -0.019941290244593984, -0.006498551059840645, -0.013639049651661943, 0.008704562457862343, -0.005278329644887685, -0.01469098595976922, -0.019681955387241882, 0.011987443607724666, 0.01119966490703646, 0.008194101483418315, -0.0004120017495290113, -0.013470221121601386, 0.0062939316888978745, 0.0020733523062164954, 0.006968413784832389, 0.0009963110140339371, 0.022000060093870576, -0.016289097926604424, 0.01031919109136154, -0.0035868056866928157, -0.0028685764701007798, 0.00162226283350584, 0.00534844075441801, 0.010372180695969855, -0.013861279955945839, -0.02611700032076985, -0.00669836461179979, 0.01074984895092682, 0.00019412521452540435, -0.007529724365488547, -0.008087898928293678, -0.0096502413201008, -0.0040349209331976875, -0.001867034694331137, -0.001722845036076681, 0.021753440564332746, 0.01152689231964825, 0.003203415084731346, -0.005058023397003625, 0.0037531115800069305, -0.0018197530602977205, -0.0077051254595581495, -0.01549302187271789, -0.005212781608088353, -0.004104556866672037, -0.0005754885097812744], [-0.0013252162552963383, 0.0028755137928187873, -0.0012613825802262767, 0.0052743621782071134, -0.006892006849953342, 0.005338957616680931, 0.0034954908478373194, 0.009190400862644306, -0.002555453318895551, 0.005639519937377037, -0.0008236392030549478, 0.0014431145559958938, 0.001295669237889832, -0.002872655463250887, -0.008161069762670536, -0.011938883263260456, -0.005872595949359931, 0.006714799849653588, 0.012576092211685291, 0.0035148485904711656, 0.004689785437177595, 0.030240381101300354, 0.00405311015326128, -0.015736353225685753, -0.024223446541711085, -0.010668965688921131, 0.01210860764684512, 0.0029140202890671524, 0.010026958940402973, -0.0093929936153402, -0.01460222188514861, 0.0237044752370755, 0.01554359763775402, -0.00541676828949241, -0.0024046637349654874, 0.007581756141098623, 0.009302436566700717, -0.005411351214746137, 0.005034182106598609, -0.0005627793853748738, -0.010828151011104119, -0.01453113618895195, 0.006075373203693322, 0.022606307087402626, -0.0268889801681476, -0.013771562382481891, -0.008399899328741186, 0.0033355050962168634, 0.0067845178604810374, 0.01003555421937544, 0.0012554300862212158, -0.006588831561055081, 0.0017806786101977404, 0.012680682329386772, -0.002682852466338075, 0.011948041547158516, 0.0011461311724393084, 0.002960790674315534, -0.009812221631184273, 0.009653594423137325, -0.004118111463240613, 0.005654800399584089, 0.009255384871837375, 0.004875337339048951, -0.005841423317301814, 0.006529033665788661, 0.003805727850234837, 0.008186605174975638, 0.011506854123862792, -0.005976634784999125, 0.022583218240428485, -0.0022948937180322184, 0.010865967757239305, 0.01842608266351236, 0.007140507337436023, -0.010873690334732785, -0.0034513956348180804, -0.010890777705960837, -0.004222670546124934, -0.007659603885976485, -0.020724695642739207, 0.005514167204090276, 0.009551086126125945, -0.007171452246246331, -0.006009308644906231, -0.00174306331358913, 0.0075998890608899175, -0.018457036074260937, 0.005134920631200393, 0.01718498787081629, -0.009449396779266418, 0.0021790370260958308, -0.004136447746286234, 0.00019623542601728884, 0.009076937827020341, -0.004030869358910458, 0.0068802337661707435, 0.0018306749608173727, -0.00026144251388645636, -0.00823781740865602, 0.005943133403029356, 0.001157174525279032, -0.0037849128654894528, 0.0013512399559680874, 0.005213918168839983, 0.009461584014489417, -0.010113321038560639, 0.03089604032303383, -0.000823100316770741, 0.01498327219276962, -0.002949699745423752, 0.0010049285984329805, 0.01572713073238145, -0.0022711991825425304, -0.004013811951264184, 0.0034935565841888784, -0.004805475891690843, 0.01812109268919311, 0.006821573519086681, 0.016568466855945884, 0.01135666082959013, -0.0031480566779681584, -0.006174122115158863, 0.01722225428366104, -0.011543585397605367, 0.0010369382314980437, -0.0026049542829068247, 0.008375166039188912], [0.005609967466094902, 0.01863291334945023, -0.004122294721349607, -0.0014725329703933377, -0.0034219789437156863, -0.004474047741800683, 0.009978905695379438, -0.007866654807830734, -0.0017227146345981977, 0.02315705393777709, 0.0019953448352064353, -0.009352355283075223, -0.020888392248146266, -0.007168852023719942, 0.004505342500806169, -0.014253828044878267, -0.003565202008688276, -0.00401119707282539, 0.008984673361523813, 0.02564686258646009, -0.014401622937147397, 0.0005806756029206644, -0.008452944381949358, -0.0004946550952481775, 0.012437609705822803, 0.002851137539738629, -0.007605794539764072, -0.00864417785945697, 0.00390970417767251, -0.009609103498596, 0.0054027827030453685, 0.00010037551622435254, -0.009178210151686305, 0.004467437433236278, 0.0036597768086301854, 0.0027920269688442518, 0.004974308560296784, 0.013138503542238573, -0.013770846154800674, -0.0034627315175088215, 0.006780545615142093, 0.014794182277273976, -0.0029350878095015676, 0.013010670522448817, -0.016678146708403556, 0.005690719617553253, -0.0093482742925159, 0.006545191025525008, 0.009042448204377131, 0.00037236157926090046, 0.003522053771319259, 0.006067041662089783, -0.009917127377241158, 0.02209056435041353, -0.009072068352200301, -0.004612807894886135, 0.00016732335801393969, 0.01217628440177975, 4.5237813579089e-05, -0.0015278054668817413, -0.005841175299911653, 0.002920204162523761, 0.0016908971889211292, 0.006031497743171116, 0.000853976839138442, -0.011791206751440938, -0.005166145559528771, 0.012468138238380689, 0.02059549561350681, 0.020815342835046945, 0.02498538210394461, 0.004685444887205714, 0.010487497021006126, 0.0015441967560545515, 0.0020975465929284265, 0.004175153156780318, 0.0003556363810570791, -0.010850043372048469, 0.010262482468290906, 0.00898890468572029, 0.0013820979243753357, 0.02087891996601065, -0.0056811742788713164, -0.006575427495337601, 0.00822365376682019, 0.003937668144025488, 0.00811540909245622, 0.002333118853109192, -0.005747055358231059, -0.010419526608457113, -0.0032442221256680846, -0.004658252882553726, 0.013071427714567036, -0.0007740323419138047, -0.00519663842128507, -0.007812193345759712, 0.005135374503304934, -0.0036799636224810073, -0.006258114683917079, -0.0042768732225664996, -0.003270628462162926, -0.0014564241897952219, 0.005904448752795269, -0.01171665931575685, -0.0012197811916219378, -0.011094822549134393, -0.0027127794995911213, 0.012181848458657895, 0.0005142749138921771, -0.00260847141291332, 0.0015149924999115036, 0.015719347193586385, -0.013087371042535134, -0.0005259287081448376, 0.017552232146059017, -0.010348072656129902, 0.002112546005560902, -0.03339344345948797, 0.002163193877968215, 0.00207373204268133, -0.007465818851078762, 0.007306084517305472, -0.0010357503966081521, -0.007879495515334794, -0.00038150477107383197, -0.008243577079638156, 0.017530544527729782, -0.012976526723585034], [0.004813796399280051, -0.013369128373931012, 0.005196551777224472, -0.0069973315529616885, 0.0045285668360659365, 0.0057384309173268006, -0.004943602676648499, 0.00854650172928599, 0.01279114440872789, -0.006964947184811903, 0.00040493250863429207, 0.012264427353028151, -0.009859811464859073, 0.005037022721469817, 0.011031363513788835, -0.001965287428045869, 0.009084857211451091, 0.009796666858543496, -0.008445852154753434, 0.0035527923685505177, -0.009366428755045087, 0.0019190756060013562, 0.01779933938144508, -0.003741588238352538, 0.0016216565978414848, -0.014454076715616972, -0.009091671756378334, -0.01762705922300573, 0.0014110224442085509, -0.0033762149413525855, 0.0011500824063036823, -0.0041410039862524155, 0.0020040365802311486, -0.010642357909117698, -0.002267032888885905, -0.007103649412103614, 0.008138139139338056, -0.01328111105094418, -0.002276277886982935, -0.021277671683220697, -0.017909960738917992, 0.0011496204191970582, -0.017223348133771535, -0.0076503322768336, 0.009435411626307294, 0.0023491284693601937, -0.0014131352704769217, -0.004631441409266491, 0.010590268618240162, 0.00952212162952537, -0.0031850477905040354, -0.008600080185553966, -0.0031234690798161496, -0.004391372634607549, -0.006373496891956945, -0.0033474081918966783, 0.02132157071472649, -0.00968487916064306, -0.011269010684974027, 0.02491945236488758, 0.00235381658554794, 0.008591903047312298, -0.006760815102330684, 0.00875020941509919, 0.001738416932851589, -0.000613532787347339, 0.0030120988959755545, -0.005894377360137806, 0.010761495894587051, 0.013547564663588758, -0.012367010349652171, -0.0020013910854948837, 0.011501655996140678, -0.00036067425709269236, 0.008365523079895349, 0.00252676659164062, 0.003248428678815186, 0.0023639509774399975, -0.023795191433881507, -0.00949288303450022, 0.002137647873265777, -0.00013754771958956482, 0.0014199049913760108, 0.007911623158362812, 0.0027065003400821037, -0.0015240178568727042, -0.006396879415159838, 0.008011431398476416, 0.0025199931384736625, 0.007506986910766657, -0.00013523250611710878, 0.005064571908574836, -0.005040855556486142, 0.006308627180471689, 0.002695249049248838, -0.00646240311994235, 0.02874134095755406, 0.0008951071968229435, -0.008681410136087966, 0.0041384692701248406, 0.004577671603099989, -0.0058335662483967885, -0.013358443933768687, 0.0004838542263134771, -0.0022355586838497385, 0.00031875997766830455, 0.015238645142583282, 0.013770865310689858, 0.013606342859993164, -0.000892392581538832, -0.013648928786108586, -0.017147298854026997, 0.02546490448095463, -0.011326172630077675, -0.002436640889658097, -0.004541136965769988, -0.006447247741916587, 0.019446515468369337, -0.0101737525330829, -0.004851248407187647, 0.00146739230938374, 0.008843878024581453, 0.0022851695394282205, 0.0038543083160563663, -0.00015233618188819254, 0.0041163783789496195, 0.00618179043769916, 0.009693229530368958], [0.009221950214647251, -0.009553655867566345, -0.011396669643149794, 0.009883636569381722, -0.004448861613140636, -0.0007687404488765766, 0.0077364439395362136, 0.003920413764342493, 0.0021849183904184893, -0.0012569265711820218, -0.003444612502446122, -0.0026130395892229544, -0.014086659069730332, 0.0018852653861950361, -0.006264687446829515, -0.0021557496143033176, -0.013425021916081385, -0.012614140561739885, -0.002205446641709349, -0.014177703364813192, -0.004154278725686995, 0.00274988776971311, 0.008636748955208029, -0.016812955771012533, 0.003602889275125754, -0.0025771801540540452, 0.0005693260788547427, 0.010829497954468968, 0.004434751787862254, -0.004553405055532177, 0.012290552786006948, -0.006343442337765984, -0.010605077955967972, 0.009159170511538183, 0.008227304935930362, -0.004767241990248866, 0.002074794081780405, -0.002637085113431992, 0.00351379375645852, 0.01949828605659862, 0.013980868277402077, -0.009013516421261386, 0.004607397128257375, 0.011268663291344926, 0.0017000955120809041, -0.01221872610015645, -0.005768293575243693, 0.012391028461643389, -0.02132117911508151, 0.0020843947906260224, -0.0029172037576386625, 0.0045769967655919334, 0.005229716307672161, -0.0167610490055084, 0.005137680985607052, -0.021655267311562212, -0.007447086375413866, 0.0010648130031461265, 0.00368858001947026, 0.0017554178195522082, 0.008981139689392821, -0.0009489069831403258, -0.0012281742676481181, -0.014300829188645186, -0.00687582193052477, -0.0007650564535657365, 0.01450925444580944, 0.0029112150959862675, -0.005980225030149295, 0.009475261775446997, -0.0003083309770041668, 0.01594137746927416, 0.0022402863658314287, 0.00047619761041214795, 0.016880738848141386, 0.0032849111297971797, 0.004354570977524579, -0.012396384191701854, -0.00691867901989599, -0.008639074444437346, -0.011064286202082814, 0.025749439700897027, -0.011636118266572905, 0.0036668931519504514, 0.02032119320689019, -0.006329232268182996, -0.0026582258486177878, 0.0007775487787714414, -0.018058297093711387, -0.0006340067560901154, -0.0022843411836047946, 0.002443144408058532, -0.0063684259423449656, 0.011199868480700183, 0.011559995798696448, 0.011140071239720759, -0.009653723164437538, 0.02247574705801881, 0.012974057402237954, -0.0010880234478627033, -0.009493863459186881, -0.0009421168148685595, -0.007070015409006785, -0.004336893463134752, -0.004521125393344775, -0.012633273302168579, 0.006451544568956747, -0.009381007405848707, -0.01801421947375639, -0.019625839481687155, 0.004782932148924872, 0.002258364628786604, -0.008924393348849374, 0.011902049737227614, -0.0059840339678155175, -0.008707764203145021, -0.011161033048106131, 0.007214428403297799, -0.001032174872398878, 0.010575399774145806, 0.011646839946577826, -0.010279147127758952, 0.005133420253335788, 0.006108163373989049, 0.00033163583774068535, 0.009397467245869264, -0.006213979337558742, 0.009851521152373043], [-0.01116983300114067, 0.012274042485556219, -0.02660294709690583, -0.009949937434850249, -0.004123000799958207, 0.00044832695186752765, 0.00874208748121013, -0.0012108281451934269, 0.0023323902871774872, -0.0056602002023206175, 0.003305070146545741, -0.02800399874021523, -0.004026301222090624, 0.012095083447045442, -0.019007919276563465, -0.00020340947213631964, 0.010566046760395869, -0.014150463276220734, -0.004061627295493821, 0.014211528489537379, -0.011599850132352221, 0.00590213734597913, 0.01407152930264201, -0.00032115991211389456, -0.006088706814521874, -0.004520934292260892, 0.006699029945567399, 0.00900635663960744, 0.0016616191912612376, 0.006423303232600421, 0.0028128158944003092, -0.004220681588056264, -0.01073763030149624, 0.0002767553316517218, -0.004459970599879643, -0.01751071026630682, -0.006035182819026157, -0.004478326083856905, 0.00452498283477247, -0.02080315978671924, 0.0033158440506859924, 0.011545445799681866, 0.008185260911444442, 0.0043895968446741335, -0.005557795002390204, -0.0006925600054774754, 0.011220286236118739, 0.003729196905289895, 0.015264600294405286, 0.0034364038626687296, -0.00016440337527471815, -0.001548202618760392, -0.0022122523507805947, -0.0033348640138006346, 0.008632953248179085, -0.012156537333225284, -0.006557539315129534, 0.009977237980341854, 0.009137876675457046, 0.004986610456167986, 0.0026221435778246943, -0.004139245942972582, -0.012908063785861242, -0.0022231971277664265, -0.007064793216173821, -0.0017366993970890324, -0.008376538468355612, -0.0032590577140599, 0.007667383547181323, -0.007574694360947398, 0.014030571971401602, -0.001358960432850433, 0.010357038045257103, 0.015650841080043436, 0.0091720625936316, 0.009439341918520371, -0.01122714084779719, 0.004187555875371489, 0.0012264708571803377, -0.011881361800611391, -0.013091888395256376, 0.0003709028548054095, -0.006058742144627036, 0.0009847452044659368, -0.003622101256571731, 0.00015246697586047958, -0.0007284933507443054, 0.005181305945103209, -0.0009899926690845227, -0.0013777507953168404, -0.011361709380299624, 0.005891428743258364, -0.004314685176666059, -0.006203282774145165, -0.008052077316360363, -0.012954303023752533, 0.011834260427757991, -0.005094581383687683, 0.016186619557860722, 0.02806850641900102, -0.01141980096929035, 0.005236244319647632, 0.006391443734838316, -0.007345045271614744, -0.005463388648075546, -0.003128812632129484, 0.005463440573505591, 0.016231727988600647, 0.004785731977947358, -0.0012859955348191636, 0.03059113785012081, 0.02293115553406036, 0.0039232462654793954, 0.004531903461670897, -0.011313370154041135, 0.02322031674867741, -0.000882006840386501, -0.0004275752943324319, 0.015637434204918674, 0.011183327970533353, 0.008374096852291889, 0.009642411818506889, 0.013192965420255309, 0.006694650607299372, 0.004365860259953674, -0.00044712576650539083, 0.008079777394798355, -0.004002880769401247], [0.020173621551998904, 0.01121610661323022, 0.0030153077280644053, -0.0059142885519296645, 0.004738774627088154, 0.015347128182572166, 0.004939339507508129, 0.010773974387026406, 0.0027205580274286072, -0.008124995388501801, 0.005963128182045711, 0.002313469072922199, -0.006228484448651696, -0.0011974406646913071, 0.006978943712570496, -0.007559812728629936, 0.003208501298900497, 0.0077416243964207425, -0.004612009157504327, 0.007670263646831387, -0.0053164831941493376, 0.015610403652566562, -0.0012082524072174572, 0.002828906810986747, -0.006965578723428414, 0.009728528229241024, -0.013081035714656162, 0.003454595249663775, 0.013284502551719628, -0.002485397493456059, -0.014724875046484403, 0.001679578000315609, -0.0014615958134711472, 0.00027278912458854706, -0.005913773484286095, 0.013586896171644595, 0.01073616742288344, 0.013652911645760357, 0.0024295275799294013, 0.008343588487682754, 0.0022722551651540943, 0.011283409808808102, -0.013666419107860896, -0.016794596783782898, -0.011123180797514095, 0.01370338331131264, 0.013248543850831197, 0.0057054537609021105, 0.010947638867520815, 0.010173514550469295, 0.010495617962666879, -0.0023844075513086106, -0.007652692653865253, 0.006663388460484895, -0.008533591674158797, -0.015500130744949556, -0.0012249023790335478, -0.00939192226322572, -0.0072931762876511175, 0.012521192015261261, 0.0019569047329543506, -0.003909317431141844, 0.008380885475786908, -0.011695613275571391, 0.012681885194306089, -0.002558874291152549, -0.004530534201877183, 0.006001107232860218, 0.002938533546851559, 0.001139838818272926, 0.007704720960503885, 0.006594119280123461, 0.002954615958348765, -0.009856938591894468, 0.003996037453236023, -0.003470431710654526, 0.00898789236482696, -0.0107101517204502, -0.004961673234898728, 0.01210820346469819, -0.0017219541253619228, 0.003433458734672575, -0.006403799783221785, 0.0020728338535881776, 0.0034948146572024823, -0.014479465877744005, -0.0019540885397859235, 0.005188923445876924, 0.004075408376781667, -0.015131174413426872, 0.01045276236222261, 0.019746469566701747, 0.016730452749531877, 0.023051056339475767, -0.00661696610924103, 0.01317525375204642, -0.0024824876802548193, 0.002952089529908116, 0.004615592773346414, 0.021666475304839807, -0.0008736996167432884, -0.009640058031202107, 0.0019333992330767982, -0.0008964794938604408, 0.0012926283038007008, -0.011739245719035875, -0.00464052859593234, -0.009098206151309685, -0.0019456290503375498, -0.001576818507682835, -0.010370593553401686, -0.0286327124900185, 0.01683609254039782, -0.01173234211693823, -0.0016254426745066393, -0.0026286863276366408, -0.012748526364525462, 0.008718241885998535, -0.012447155808941141, 0.00582227542076825, -0.005757777917242019, 0.0009516511022524254, 0.004011362126569848, -0.00506780431539527, -0.011922130478557533, -0.0026001450714590894, 0.014434045931446796, 0.01128605150606405], [0.0035314190957646684, -0.013150606381270493, -0.0127335623231481, -0.010382075963765667, 0.006399594404880384, 0.003042999709259366, -0.017442901569415113, -0.009652809110051286, -0.0021234967658355828, 0.014191198820209163, -0.023073853554115443, -0.012034964491869752, 0.005869838664493795, -0.00226385522285569, 0.016557391379030492, -0.0012401264924669219, -0.012664242968058534, 0.006806195981922722, -0.009495228279551455, -0.021021502932534946, -0.012524685235594912, -0.016249260218614267, 0.0034240120151133794, 0.016098050768484886, 0.004427750557574271, 0.00045438440671735473, 0.0036767445051730796, 0.005829241195371201, 0.013695329280544453, -0.007683093628768026, 0.017241045833952452, 0.0027684310458631987, -0.0005095740996333063, -0.006044744210233422, -0.00229816740572009, -0.0077132081032216014, -0.00475704853614605, -0.011043848476655353, -0.004278849961580617, 0.003397548676725086, 0.011641699455706606, -0.009225129569836083, 0.006106895253401727, 0.00552857441722202, 0.013252197197295616, 0.002357110970664325, 0.003004079176022543, 0.003110843651217568, 0.0073338479924826665, 0.013091176077478733, -0.00772090932236739, 0.008940720344562796, 0.010747665267215418, -0.01295067297921374, -0.0012639389186474641, 0.010209544926263575, 0.014751045512021997, -0.0026754084991429897, 0.007687102710254143, 0.004287010105553238, 0.012335533141025007, 0.022854064244237384, 0.004076539345905123, -0.016691014522939817, 0.017907155130621223, 0.022932093656395394, 0.003989716606651787, -0.016672138229506802, 0.0006357863386404782, -0.0018960267124263047, 0.0013480565546757587, -0.0010979573106529902, -0.013195842684543662, 0.002114952253975817, -0.007196448053358815, 0.005331022326719294, 0.020177073500234115, -0.016484787409697704, 0.011486462528986871, -0.001289847893172754, 0.004145160276343447, 0.004914751850259697, 0.005274975850783016, -0.00423537880788306, -0.0017954940336334727, 0.0028585791018098574, -0.018221202930999585, 0.01057159068316589, 0.004959622990149319, 0.027043401188289795, -0.000523524770237978, -0.00869428955437447, 0.010445464811410392, -0.014448172767984564, 0.01389040863140615, 0.014554124747279571, 0.005418532204396306, 0.00968120658312213, -0.0030462403047548238, -0.00015643522126877223, 0.004080745196315871, -0.00017901372272745162, -0.015961562410750543, 0.00778401450309269, -0.01526343726902306, 0.0027771647169198763, -0.011162638458184902, 0.012340468866118474, -0.005705060606063371, -2.2475723622564834e-05, -0.009322877260070648, 0.0007121727209279476, -0.00135634301365315, 0.00583345733422831, -0.007071961978634109, 0.01018530340489149, -0.013451804848573468, 0.02687377420731061, 0.00914405624941407, -0.009749183831836225, 0.01964137303529488, -0.0019116358883897126, -0.012480872737265378, 0.019707352119927003, -0.007576492695922827, -0.0004729478119857403, 0.008074010679135987, -0.006623163462629937], [0.007192578582603298, -0.008912752472208714, -0.02097710071435011, -0.007538606507766034, 0.001122824150832502, 0.008971342171802036, -0.0037588743663946626, 0.019239313106634914, 0.007704195364019684, -0.003422999273097262, -0.010595170347442392, -0.011891756685323072, -0.004039821808866529, -0.01301725535669703, 0.010440680995785098, -0.007588842504368758, 0.001799160282514016, -0.01184173965761842, -0.01174060070724076, -0.006363629371122322, 0.0002867936810730623, -0.0017572474337871067, -0.006937525984820407, 0.020917225374771233, 0.0173219812808636, 0.0009300334383472358, -0.01345709438711309, -0.0037412056002405604, -0.0013530125367677021, 0.014395475458765706, 0.001593855783328876, 0.0033030129788322662, -0.009398787025118066, 0.005323021171522078, 0.027009045379739617, 0.019460933548060784, 0.006101965802701242, 0.002122541138005293, 0.00607337574479853, -0.005363349930865101, 0.003292634280153286, 0.006625414507738272, 0.00078037567297598, -0.00706355143398562, -0.01839314795461169, 0.018738292059622175, -0.005002019794538526, 0.015706823870454547, -0.010376082000260509, 0.019325675899963143, -0.030468131025682167, -0.007722131041907915, 0.014349459298001764, -0.001669724499749509, -0.009480822098662554, 0.006706597610074532, -0.0016596924900919064, 0.0029681084441175827, -0.004027968290694879, -0.009514585259038862, 0.017322227711989126, 0.008570536696242094, -0.010921689344421507, 0.000547048091269486, 0.0038728189491329694, 0.002724062021952924, -0.0012819667218183452, 0.0010017966428867353, 0.0038009399051765354, -0.02226624290415734, 0.011434126476978874, 0.02381068262271539, 0.008279883023724139, 0.011328358421462813, 0.00032453557115326865, -0.0007750190035640857, 0.008563427171791524, 0.0063353151347530865, 0.02689408927424989, 0.004899527480542008, 0.006220865001716217, 0.005316852942544872, -0.004779256351729377, 0.024580248348119782, -0.0099918030649735, -0.005532539175354028, -0.012487680863740133, -0.006615116649697674, -0.003384663050697138, 0.015381728233363624, 0.0007932017858177619, -0.005424386325479652, -0.007964121334639775, 0.0015901245370580418, 0.015591433880859772, -0.012229218764780059, -0.0017500075808095069, 0.008054225870336966, -0.020599431763502984, -0.023032610887145026, -0.0133818667922493, 0.014823306799431012, -0.021691484853818117, -0.008542980179679914, 0.005119911201125517, -0.003492066786350978, 0.016483070568581927, -0.00369552258824433, 0.015549723505705063, -0.004055502870549429, 0.00825800094774904, 0.010048714452189338, -0.003402561939998525, -0.004477260706937508, -0.010988768774805518, -0.0020710463492224027, 0.01744965905285718, -0.015997492330717723, -0.002023698239722874, 0.014518125776248916, -0.01846662101231692, 0.0240014117162455, 0.010715112260009043, -0.0002381080033780865, 0.00217703426616913, 0.010500635396257594, -0.005254193400866017, 0.011216854818772102], [-0.013043891087738672, 0.012434133927698963, 0.007219948832472968, 0.02822695052499257, -0.0029826276521380955, 0.008399933983829344, 0.005767289747335304, -0.006330326076384699, -0.007994918773012631, 0.014235317468933726, -0.0008398355572137464, -0.0013754403176984066, 0.012419749746589614, 0.001134330055357711, 0.004057116694097063, -0.02341209466477902, 0.0014507833205435145, -0.011301486137405326, 0.01783601096330885, 0.008704445600432048, 0.0018864326749901755, 0.011479165299330752, 0.0205046257862617, -0.011267610463063439, -0.005916353879512961, -0.017641605566242027, -0.0003460522028118547, -0.0020540238388586374, 0.00220851156415736, 0.002846522862183079, -0.011280037249079538, 0.00098656006149564, 0.00965912579837762, -0.002865184182367781, 0.02147126740233876, -0.0009199173362482921, 0.004196275813486574, -0.0042588245845893305, -0.002300994318837181, 0.0054621832304163325, 0.0028038471833138926, 0.006849371500550331, 0.012885957398999582, -0.008671555816608792, -0.009021293249536048, 0.015601342085557421, -0.004810445824958799, -0.0002055264929617914, -0.006560354140844417, -0.003775839770519338, 0.0015116954792909647, -0.00916188376378435, 0.004654339807344984, 0.0027111146488984507, -0.0073851175764300435, -0.016025334705884128, -0.008694986443994964, -0.008540404432594772, 0.008378386638311313, 0.009975452618854847, 0.016885543349805823, -0.006710490277960353, 0.0020170428752506477, -0.015202680900789764, -0.024818022044171804, 0.004864887371754783, 0.0034664345454950333, 0.010249661978668584, -0.001897531951658761, 0.005409457709683784, -0.011954235053981783, -0.001897769413260657, 0.004823397194583027, -0.012702536986537677, 0.0009899951040941404, 0.019005989919958294, -0.018852098676957717, -0.016686286524660924, 0.002026454732434313, -0.018726838848031724, -0.003436483448711078, 0.012324979777722338, 0.00924427903055569, -0.009812137229292346, -0.0017310376660719191, 0.00848184796453991, 0.0013226540637766623, 0.018556942426705, -0.009506731537240522, -0.01906172652935138, -2.2892465946581774e-05, 0.005638363188727413, -0.010208294330662367, 0.007002259776927849, -0.009015347440547399, -0.01843346965662978, 0.014506482100609093, -0.009090690767583749, -0.013288698419170025, -0.012058128781331867, 0.015329443946979797, -0.013388206704110112, 0.003722940169664543, -0.004178879096723491, -0.002274986878483596, 0.004144002065001739, -0.0059259540296110365, 0.001251614006574043, 0.0053129287315847795, 0.019327926591892586, -0.0009605862045497032, -0.01192802489882626, 0.0006891483553549767, -0.010798192991528203, -0.017672280599519426, 0.012194676808029109, 0.009190395853367488, 0.002492375511561505, 0.0019120989199362766, 0.0051675174375198744, -0.012920643023012017, 0.007585287527936335, -0.003612157720319408, 0.010357381578778897, 0.0049600080545993686, 0.006456290260558625, -0.011768428823318524, -0.004599952314496566], [-0.011943676959763788, -0.007145039018252513, 0.018750597409304553, -0.0020483063196371862, -0.0017226323582423847, -0.01658984825279852, -0.010138186782318648, -0.004924161898560273, -0.002601669875850478, 0.007347598051094051, 0.005781880864997083, 0.0027217433051837177, -0.02157706523964737, -0.035623864261597894, -0.015676497938556223, -0.005703052228309906, -0.015780508147963283, 0.006246307542292761, 0.0031293819257796297, -0.002182433613287615, -0.00232675659287431, 0.005884170378725069, -0.019268425135060423, 0.011517807343475642, -0.0011593921217217017, -0.0063948409376072286, 0.006859689478953478, 0.005269436874007237, 0.015544654393738856, -0.007590179164445941, 0.0154276127860406, 0.0029477112171622725, 0.015227966847157895, 0.011739529345547369, -0.005518956116836006, -0.0051135310455053835, -0.011994022325049567, 0.03551680226276323, -0.006550273440094901, 0.0001508203693506882, 0.0044366541956754905, 0.001643884868503201, -0.000556281914703901, -0.012979123642915742, 0.00400257271992664, 0.004720176729042522, 0.003151217737424432, 0.008126107515059123, 0.001198518479009267, 0.004626438127729832, -0.004123595473457352, 0.003316077033394334, 0.0011140895139042195, 0.002959441298858536, 0.0014346766193112695, -0.012520738781690294, -0.0030853727253174466, 0.0033848368999655617, 0.009967375573998676, -0.014763889037022887, -0.008132773881623132, -0.013089948784822556, -0.0084872031056332, -0.004360465769911476, -0.004131973014086039, -0.004622934740629849, 0.003804500969926418, 0.004404937174230739, -0.015585430044835247, -0.015814108970135417, 0.0013721769564676637, 0.0004987147460841934, -0.01988388092809118, 0.006552361652442951, -0.0053226137994187425, 0.001970358165324925, 0.005392499936824614, -0.012097299583180739, 0.019573164825376167, 0.020168830440650345, -0.010170206141409323, -1.2266030519479299e-05, 0.007732044567444299, -0.0004055861079629122, -0.0050762265842083645, -0.000674809991754127, 0.006596233217142236, -0.006144234498640016, -0.0058086763451862325, 0.013826682411221992, -0.017745109424657967, -0.005733474178769803, 0.013081903420687654, -0.005577349710185072, 0.003776878632124237, 0.00564121749705693, 0.00439422798408185, 0.004628251699498222, -0.004789809834279941, 0.006670203418256902, 0.0117661859142625, -0.006015214704866546, 0.012556065854843257, 0.009479504797402375, 0.023401282827604904, 0.022281467522483077, 0.008102264170986589, 0.0028014259112581798, 0.0019003571222634122, 0.01783201751714147, 0.014059647394846997, 0.0034111481138110827, -0.016037964003120585, -0.019637814253766345, -0.02188102202893743, -0.004963652317603295, 0.007722802811367264, -0.006269958004845825, 0.009134932425308002, 0.011185436170757524, 0.005269413703877034, 0.004163899676952147, -0.0017981468339266346, -0.00029566721310087267, -0.004794793348429797, -0.0011792804690650047, 0.00392280780360528, 0.001580721477825656], [-0.0026691698623683728, -0.010930401970907087, -0.01089978767293045, -0.025567961017518324, -0.010954715277968947, 0.009619270811865923, -0.017307683098683763, 0.0070690622619067, 0.016720984642100443, -0.001854983294430142, 0.003615976694532253, 0.005092781887277517, 0.011300065488876326, -0.003579513835025694, 0.018260280877303775, 0.006869393594056444, -0.00998978689707865, -0.006196482593133067, -0.001328791889326229, -0.0016283313046359306, -0.01415058440172131, 0.004161770970460652, -0.0005969576574217255, 0.000543779525836285, -0.00400141078984718, 0.014356858065836144, -0.017401564014726496, -0.019142183821901082, -0.007739819198467975, -0.0061073924865530805, -0.007892133418632083, 0.002983422583679159, -0.0009167325115381252, 0.01474051635101482, 0.0038069794529814924, 0.0011856861370864462, -0.007918035352118212, 0.0004813116511110348, 0.008435554612738282, 0.015680631798410487, 0.01318505330187101, 0.006423865957099116, 0.004910207591229858, 0.004178944575939359, 0.003873437033194234, -0.009616994175934507, -0.0024817764727124276, -0.00984670026490665, -0.0049706237719092305, -0.005554668757200805, 0.0017470199504854658, 0.014284210262089488, 0.0077832338304819485, -0.0047108671433411815, -0.013143026693598256, -0.019510889022687695, -0.005907974778393752, 0.009008641256834498, -0.009841655462258958, -0.009413454930902688, 0.007356685384323445, 0.015030784778568012, 0.01826502037452572, -0.008038716995829469, 0.028120786564589967, -0.005928029596146862, 0.009776077172346579, 0.00689423600057374, 0.002960117619077124, -0.019543125767939543, -0.0020217974005064584, -0.0024645253248338048, 0.018041832199273047, 0.0026396964656267034, -0.020518646066604057, 0.004941390936314055, -0.00942686570594445, -0.002461811079372865, -0.0034384162425577427, 0.008380735190073004, -0.013846834356846308, 0.0018762389859153198, -0.01829409630489877, -0.005371622045032595, -0.004632971792478744, -0.009401005645570715, -0.005286599274405471, 0.013457586652518165, -0.005063192038943443, -0.014702801428691964, 0.011836914927270334, 0.0052915368535436935, 0.01760730840366106, 0.005273764853909363, -0.010990725496562354, -0.02197299726273608, 0.0057210318990375585, 0.007537214538996935, 0.018554630931211145, -0.009277652544930359, -0.0019464080175817043, -0.004406871323635035, -0.0030373897469355648, 0.015106318963484917, -0.01856784050767843, -0.0038526923872973197, 0.017016592594816637, 0.00034434268196002846, -0.006169709696871963, -0.011723976493717252, -0.002009009012229169, -0.0005319308323317753, -0.015781507487034514, -0.006113714034778857, -0.006532050440213392, -0.01065765350800263, 0.008385582019433213, -0.0017478945832216856, -0.009742536676992567, -0.0064182981514175706, 0.00577574648106971, -0.011951841115566903, 0.006422247811575498, -0.007258919908900167, 0.001825711227890745, 0.005197296159542808, 0.007076394779707242, 0.01712130225954035], [-0.004758498472395582, -0.011297775525158121, -0.0015515567667483531, 0.021819724873366295, -0.0025224925412614114, -0.005824866651516567, -0.011935740543492657, 0.011061445669649807, 0.02195660048892631, -0.0031866851858938687, -0.006930552951214108, 0.008069861687686294, 0.002702915788933658, -0.004564313081799749, 0.01836474890892343, -0.005664953209020503, -0.00042261834196439613, -0.0038826219830067, -0.005897099808999862, 0.00964530339460702, -0.0013290267387031222, 0.0005388104818016374, 0.01186485836866865, 0.010592016126576889, -0.013504970134366832, 0.0032043422751907706, 0.004233051324648499, 0.00745994307625713, -0.005030619193315414, -0.0037239306447029523, -0.020829465523892865, 4.480076396891807e-05, -0.004065402557992302, 0.019758035927506846, -0.0037644918578470547, -0.010267575417625697, -9.34993117690058e-05, 0.016908961204768886, -0.0018765599221523116, -0.015783389606729606, 0.008984979235672675, 0.010968235168719883, -0.0058230678350419994, 0.004176891252540213, 0.007081892645739944, 0.010001312222112311, 0.013615187000067223, -0.0006821654203180706, 0.002938124448929602, -0.008297656945614395, 0.0075168161466446165, 0.02541188288994808, 0.004708124330094846, 0.003225765424104196, 0.0005457672797769442, 0.0048971864316464655, 0.014404380077511061, -0.005021280139501725, -0.018437003812978376, -0.0032868491839085265, -0.01688596265581348, 0.0005684949505623169, -0.0022822641420356935, 0.0014818021982049723, 0.003120676045726569, -0.025607238287145867, -0.01208146401734022, 0.00942960929823608, -0.020925547589169185, -0.004059701514504213, 0.01696156655874356, -0.002389523163302303, 0.000383596555163845, -0.004395292274662031, -0.006561035335311394, 0.014467385382593484, 0.016225387790332616, -0.00048071224255313253, -0.009234760858580625, -0.00023353812510255696, -0.022742940633451867, -0.005543233784691508, 0.00907599083917381, 0.0016529796765901686, 0.010525404539426395, -0.007975866963174712, -0.010911486327820763, 0.0006104006208997266, -0.00043264683808768336, -0.004634957579583598, -0.002849012356808073, -0.018120052945417197, -0.01225788142813668, 0.007230087401153175, -0.008310810162101027, 0.016326293751224435, -0.022482322904230138, -0.005666225259740384, 0.01949692818960578, -0.001589368944752033, 0.005008421278358424, 0.015091353718062181, 0.0005487683125608567, -0.007719748363157886, 0.0034032578846742976, 0.028941574361395352, -0.01089498814260449, 0.014838665537376127, -0.007123703298370779, -0.008515537962060008, 0.015639711938526403, 0.006165118041994398, -0.005889133637865724, 0.0017650898666591, -0.029706503110597107, 0.0008909700689150062, -0.008022081832337677, -0.010989714741115217, -0.012085846640072824, -0.0070839324442989425, -0.00733614842512597, -0.015023599403440899, -0.009540994992484097, 0.01572778624291066, -0.003202184329170306, 0.01025624071224927, -0.006508290487439053, -0.006254439509907877], [0.002588275020002572, 0.008708261970407808, -0.005548905996988612, 0.02244593572663104, -0.004276218023267026, 0.01147467434538089, 0.0045762207355941435, 0.003368803495986009, -0.004394110348118297, -0.010591884064641684, 0.009865060086244328, 0.0032319033377978643, 0.022684417126511324, 0.002949958961153886, 0.0075560482020806535, 0.008050942058458896, 0.005296475937291848, 0.01155424938510261, -0.0014897326593391188, -0.008698921728013329, 0.006362968107247428, -0.009150327784662777, -0.006884179029972794, -0.002228240058988752, -0.005006716998539665, -0.008248128703503756, -9.906207306889777e-05, -0.0018355635107471738, -0.024292461271891823, -0.0006259727080757665, -0.016658718282558924, 0.018569318559752454, -0.005019537763923629, 0.010548213544385919, -0.02197444056435747, -0.0014137671343276382, -0.013818551576732414, -0.012917758795451737, -0.01541775878343927, -0.0013561136324596057, -0.008222167968276899, -0.007844654084498756, 0.006660890018006922, 0.00825486551497714, -0.0012632891977466816, -0.0009494635216891543, 0.000556096417798776, 0.013217230083764603, -0.004559664333570947, -0.010316554675459003, -0.003739821801912147, -0.006323849593207867, -0.0025171748019417973, 0.015935847734736153, -0.008129096069061344, 0.009446851435497516, -0.01131415789838089, -0.005372528746920375, 0.002222584610590236, -0.011673143065366334, 0.007103416028350745, -0.008923982309384055, 0.00947920739524063, 0.01733613425678148, 0.007748559772231405, 0.0160845813607488, -0.013827134345391165, 0.004867360492054844, 0.006843174824647767, 0.00029968057680204366, 0.010037185459702032, -0.00017009436923570104, -0.011391716217241549, 0.0038725502307476053, -0.01159844382701987, -0.02462909451646718, -0.0016501588124046695, 0.00256894325303357, 0.010844189017748387, -0.009807884741981776, 0.006606498327640257, -0.0060830354376865845, -0.0006547554929269861, -0.0007540041363402265, 0.014493421815609609, 0.002662658257142555, -0.003103380447155222, -0.006653512094191617, 0.014725864748519803, -0.003559021933302681, 0.0007714851371707498, 0.003740570520766358, 0.015918877865945348, -0.004477356433857742, -0.01921260915901069, 0.009822933951199033, 0.004279258681304306, 0.010054870791099272, 0.013215856097916052, 0.001643248115520761, 0.0040389884629511656, 0.010049511965183316, -0.0022069738811659424, -0.018214197577355012, -0.013867404362208175, -0.011933613927804851, -0.00388672084589708, -0.010244532978055772, 0.018310317475675787, 0.018521387797394814, 0.011065420271580197, -0.01299655085482316, -0.009711865733457009, -0.004985557142294769, -0.005380312518019616, 0.022675500692885087, -0.006208825508512155, 0.008090509422660567, -0.001567445193910795, -0.002084757177471498, -0.001647179284162905, -0.005914825727638874, -0.007620285966972012, 0.0030714834706848265, -0.002667008620180313, 0.0024519033496969165, -0.011455544216483387, 0.004671388648348111], [-0.0004314819584397273, 0.0009550833797593135, -0.005697058623333986, -0.0031808619415502047, -0.0005485482858295234, 0.0010104452644474704, -0.010429130643866377, 0.014438799948315855, 0.006609650796835799, -0.003622273120265869, -0.01910082417056948, 0.006751953988121764, 0.007803825078993324, -0.006697155782464716, -0.0024625206351956736, 0.002993295601013032, 0.007335840243512719, -0.017903784124634548, 0.0013540223738981302, -0.009338304298590628, 0.014682551991430967, 0.0021516747986981256, 0.006047122209836359, 0.004303708771666034, -0.024606743402534534, 0.00723862196027682, 0.004413135458518251, -0.0038809221011080817, -0.011216754929601648, -0.0038850423688917544, -0.005534862944119152, 0.007944408146611077, 0.005139768620853958, -0.002062149723838534, 0.007120943913553066, 0.00300516832191475, -0.0022117399287110923, 0.0026492089691209884, -0.004536919305719252, -0.027171674137757028, -0.0015526817815097176, -0.006355409756353581, -0.001949309003439823, 0.005706407206037128, -0.005656447243720441, -0.0050961825432722764, 0.015193780865486731, 0.005482039706122153, 0.008921181529339755, 0.00864718070067606, 0.008603231542335044, -0.019594474332516206, -0.00290965586813367, 0.02801000762680068, 0.00830814273267677, 0.004169347356853888, -0.0024890797475436077, 0.0020139088508286515, 0.001920481709962836, 1.0861866578310566e-05, -0.01605349704337772, 0.0106662144911363, -0.013267234485984868, 0.005633154590415495, -0.012158088446866147, 0.0020230715727084995, -0.004940955237789752, -0.018686253661635965, 0.016665423652530067, -0.001847716621812479, 0.006273660258589681, 0.00824791334360168, -0.0010184064810992472, -0.0009678275463716997, -0.00622107337240064, -0.012820834638127445, -0.03031994196939207, -0.011125965475508082, 0.010076751872245385, -0.02157674830784236, -0.011093430143267583, -0.007088552425127271, -0.002144629012952108, 0.006229408217102507, -0.015020252625000256, 0.007976315767630601, -0.0009133339291830441, -0.003027308316285756, -0.0016496413353284446, 0.01379802784132419, 0.0010131271778626185, -0.0024678465033251586, -0.01832155561229351, 0.0019925703798513027, 0.003552217547737115, -0.008734368298029873, -0.004551529553243605, 0.00826723504710278, -0.007185519331614815, -0.006288320304587205, -0.0010579764972159557, 0.008501163699815715, -0.006502532729696389, 0.002807047672158853, -0.0007116939395425519, 0.0016319482096383588, 0.004434362053603893, -0.01028360739929929, 0.0026066585249418053, 0.008207256413096076, -0.004379182335300986, 0.018696070081178347, -0.0010055446497730883, 0.01963245382337002, 0.0012192936131901972, 0.001120817688229354, 0.004481316486436996, 0.008484644547620279, 0.0049731094062503345, -0.0016972075554437763, 0.0015276951828937847, -0.019284818551216953, 0.0018999457909943242, 0.00751901686179223, 0.002181512237121484, 0.006229193618002023, -0.0006400660125514618, -0.006571225141229865], [0.017126244431898117, -0.004234907641055112, 0.0036905323182875303, -0.005486289918803752, 0.0001037485324107011, -0.007961576430725864, -0.00208721841901518, 0.0008230217502187396, -0.009984030615693685, -0.022315681621921973, -0.010779581616824296, 0.004317191355333911, -0.01627606410908935, -0.006075296484915423, 0.0023245435847955823, 0.01353089227594042, -0.011883656630249534, 0.009518549028535592, -0.014788437156457022, 0.01773219919946502, -0.005870595114226866, 0.005319375120718992, -0.005655367579409764, 0.006375431469614771, -0.0016787360786681702, 0.004112442579321406, 0.004780705724408536, -0.0008164704818203746, 0.009807308583443362, 0.0015546777525734903, -0.009647895547253638, 0.002428505427024087, 0.006224437250075524, 0.02423569239211844, 0.01695750134033622, -0.01940959938663306, -0.003652392740775963, -0.008018975560024422, 0.007835678383758541, -0.001769908930622419, 0.0050904169717425184, -0.027684999338660234, -0.006010821810412328, 0.00014835095193968498, 0.008088097144680464, 0.006423984761843831, 0.0010699903536576382, -0.0014006806732058449, 0.0004376116965128081, 0.0030053144244167524, -0.003955924458219136, -0.0010947467355371927, -0.0009738698234344922, 0.003340510351832175, 0.010554052664866202, 0.011317051097268849, -0.0045819484962953015, 0.002916274418611535, -0.007104352088563279, -0.003939659908497162, 0.00016280344574541122, -0.023415324658280483, 0.00578337100954183, 0.0012519510987267812, -0.00017766845697503598, 0.011258595244333812, 0.017440713220904867, -0.00745503463743808, -0.008418361329457964, 0.0036354838316674356, 0.016404035079914166, -0.01055278459018642, -0.011804353800491944, 0.0031831332199296564, -0.026413773112484315, 0.006864839467722922, 0.003768098442872006, 0.0013896824952039112, -0.0033008475366903423, 0.001703288520616774, 0.019540659326804728, 0.002485567855637595, -0.0058638876726979615, 0.010664842049093235, 0.0027307088913779507, -0.020249764124560036, 0.0038998809001798093, -0.0016608643800848585, 0.00822899960049822, -0.002242247415626172, -0.008954673372172232, 0.0050908267389507805, 0.0065692249934262495, 0.0005228362354678587, 0.0004133018490190077, -0.003617418400973763, 0.009861677022888704, 0.015527598534715937, 0.007548638017658642, -0.026010005715060607, -0.0004769401911173967, -0.009585063473117977, 0.01873431414256179, -0.001085647863154468, 0.020978695298707647, 0.013022811422310597, -0.0018735667499794207, 0.005239249953960987, -0.0033121590166353887, 0.004847355573141391, -0.014797070344211275, 0.0034094828723287016, 0.009069759377876711, -0.004827336877218623, -0.015972183714661324, -0.012840276919776884, -0.0104135878905811, -0.004265869363608097, -0.0005876698339915567, -0.01013599714851822, 0.011320166387953953, 0.01729869910765858, -0.00746281734952639, 0.002970702694734901, 0.0038179264708845936, 0.0027204456915314694, 0.006123305979306389, -0.011004667252594306], [0.005802869816979801, -0.0005301658805920047, -0.00019194097918358915, -0.008379009318889099, -0.005102170982765354, 0.0005032318775573038, 0.0003412216895735199, 0.005095106414956506, 0.008344993509911532, 0.0024022355881258874, -0.007502394313990657, 0.015145462335068452, -0.0037287141737049547, 0.027872295625579798, 0.010776955046498398, 0.020179094021586814, 0.012406904205725246, 0.004729823350132241, -0.01012370503544684, 0.010432128121422439, 0.006651383929364938, 0.008296139513183972, 0.007553291347544096, -0.023065921333513248, -0.013869742505350379, 0.009086969551860294, 0.010921566734849224, -0.005344222779512642, -0.003844629012202513, -0.01024059874901365, 0.0015684418739087568, 0.0032520613387284725, 0.0036898793888677497, -0.011620038911609468, 0.001179031838018422, 0.009004684517285222, 0.005686243763173118, 0.012117519208219562, 0.000658663139167291, -0.009744519971811654, 0.013686255178757524, -0.01655561927116385, -0.007394019038805596, 0.0020139045188755384, -0.021743826113636552, -0.010138432872500245, -0.019170938934643864, -0.004212227736751208, -0.015536341862888816, -0.01220645437581243, -0.01602015318654864, -0.007409440991629298, -0.011545447383863493, 0.003154959730683609, 0.004727863140200426, -0.005835801780616513, -0.0005462345825685714, 0.005832605340188276, 0.005131924808395296, -0.0031998294313617236, 0.002435481026728012, -0.004594166672217993, -0.0008845789512480705, 0.003696264655327656, 0.005383526450192925, -0.011993563805245019, 0.016027216323609986, 0.00011082555500407885, -0.011460189513614468, 0.006704600184715977, 0.006001459020470494, 0.0019093895082109937, -0.010438904919760454, -0.009655483153660263, -0.0024243225653673645, -0.006954152229288531, -0.0037886656495146193, -0.012152094726074474, 0.004164114702490576, 0.011751845397937976, 0.0037404540265589376, -0.017974615962304784, -0.0036086315703074204, 0.017813637790603756, 0.009284901921798405, 0.00912313944045696, -0.019010311157154715, 0.016621892008594662, -0.0021464261011097815, 0.003920483076831778, 0.011821387087334323, 0.0097070652651372, 0.016869047217705914, 0.0033492297137218538, -0.007394219936454499, -0.013543559583033757, -0.0019116135084651744, -0.008240563626063208, -0.01476204411811349, -0.012525945990317295, 0.0007425485613104137, 0.012868261246159087, 0.01678204571996288, -0.02167709059926374, -0.006144155750749855, -8.1707016050386e-05, -0.009143923718748715, 0.0008442360062703785, 0.008258946635747775, 0.003264166305811328, -0.004997990666597327, -0.0028766302870887406, 0.014605315155236161, 0.010242432201664396, 0.022356205291473086, 0.00933450035723176, -0.007318245483877246, 0.01006586698110476, -0.0022456120471369308, 0.006603991435335322, -0.015869205635215988, 0.018966257692044564, 0.015111957980049147, -0.007851144199269544, -0.008002478763486389, -0.006864598092593217, -0.0010346962140812077, 0.024633860106070788], [-0.006922964492761463, 0.0030317372509573908, -0.009585663621166907, -0.010993813688004237, 0.020863495753207326, -0.012355384218865062, -0.0199275177668252, -0.007151088152405428, -0.0074924871801832615, -0.0007612092593896959, 0.003495563483816503, -0.007723937273599422, 0.009254616717085313, -0.014107519248189074, 0.0008703058780891722, 0.006379975947361913, -0.009237892321265175, -0.0011134624630945995, -0.0119271052560305, 0.0046650490940400025, -0.011253649039493751, -0.007918735702681593, -0.0015518044434585615, 0.017244656114082, 0.004230775027130313, 0.003919844637881464, 0.00032393600313870743, 0.0014491314955649268, 0.0020610461540394908, -0.00044930782067618914, -0.018606274865699386, -0.0060857500941635875, -0.004457932507566715, -0.013303609712844243, -0.004295081809837616, -0.008759774989200966, -0.007642744199073693, -0.007282328012771854, 0.0022180582994704603, 0.00767382427575974, 0.018966994843632547, -0.002325942379594778, 0.0030717350716521286, -0.009026548450750536, -0.0002817331005025518, 0.0033393693873582844, -0.0014397382070754122, -0.021058217874868487, 0.010094416070606092, 0.004316762543312134, 0.015797853604120452, 0.0004907219453689758, 0.005236752728520874, 0.009454072989224778, 0.014453990072258062, -0.025285270768057786, -0.001655315208368741, -0.003289329132110897, -0.0025301333084338023, 1.971194470323707e-05, 0.006740263052524715, 0.0043365980186854565, 0.0016359972053291275, 0.008257073387886556, -7.14545888423947e-05, 0.007133597527993108, -0.004565746835614298, -0.00580845421475623, 0.01062976391733995, -0.00033374587599848223, 0.005844002172510827, -0.01163225402081884, 0.004545375360239178, 0.006808410916214789, -0.013056021471087656, -0.012922630772197494, 0.0022490023284038652, 0.002504514465078267, 0.020196504300483902, 0.01291876666596733, -0.006052199568678966, -0.0021629092253348287, -0.007496414873006806, -0.005104833081857141, 0.010556398498741905, -0.014716006347626539, 0.00524651546744141, -0.020751594481442356, 0.015981644675117004, 0.00197965870795063, 0.006629227248404591, -0.013691087193655464, 0.012712689397189558, 0.005933196035460596, -0.001576335032399722, 0.006941923482562966, -0.0029866252763409607, -0.004180977399514657, -0.0016671188254992894, -0.008818976192897773, 0.011006004368458585, -0.010398954460639754, 0.0010825702958074976, -0.012148704499025994, -0.008109355140841166, -0.007784815756128152, -0.007230353962172455, 0.013083360762989946, -0.006302486788423062, -0.006476374855689371, -0.012768597599705816, 0.0030362365798951487, -0.0002705363907748497, -0.004913245832968491, 0.0037533524305624, 0.00387069312747867, -0.016204311143882873, -0.003971504503994131, -0.004619057394933404, 0.011194442476812339, -0.018053810059397393, -0.0057341058368991105, -0.011136665734407927, 0.003641503070115756, 0.005088992331854661, 0.007572223309581614, -0.0039450558581842435, 0.00923055163801261], [1.0668135477435883e-05, 0.02559748336654562, 0.010013333974347475, 0.002371508811515198, -0.003677444399576262, 0.007733759078127672, -0.013398675477353612, 0.007305518134075661, -0.010970847626164588, -0.009884571479594047, 0.003600994869167562, 0.0020059338800518453, -0.004973569696675308, -0.0001566309715535403, 0.002696407540823677, 0.001752952308565821, 0.008613897989052604, 0.008663155348929433, 0.00453372876448235, -0.0022748234959059635, 0.016562299836906075, -0.0187540960026008, 0.008641546073849246, -0.0041911623291919905, -0.010150126122025685, 0.016219392997534166, 0.003624794012768453, 0.009410202380017735, 0.0055352383810806805, -0.006904994995145772, -0.0028854695677320795, 6.716954141893456e-06, 0.009120460234241299, 0.0016662118775714726, 0.014097253182713725, -0.007068997235830892, 0.010099304381458282, 0.015277509542735511, -0.027456665165076524, 0.012936005635211419, 0.004421807329342873, 0.004934321106310381, -0.018402720454092022, -0.0007502612051854342, -0.0025214350095973453, -0.013054722004311257, -0.006363981917038767, -0.015737835922606566, 0.0043745435974911, -0.00868155848262985, 0.010364380545607938, -0.008271555459098183, -0.0016862595710332754, -0.001649255908078355, -0.021991287296487725, 0.01113952314626929, -0.00870041991929634, -0.01027792371785217, 0.002416897557231748, -0.008544990781032774, -0.003947713075767539, 0.0018468329351830875, 0.005252483511829768, 0.00613340805304929, -0.01606615136970162, 0.01145073305880634, 0.0025882138585101976, -0.01620353569506129, 0.012876456916409243, 0.008787355484400503, -0.016224546077863305, -0.00489778830687657, 0.01305184005518468, 0.008251915445034837, 0.006910477090094557, 0.009739119802466997, 0.0013136653216013568, -0.008104981217098125, 0.0038638338746881415, -0.0193704953119139, 0.017607495436333335, 0.013831311588236044, -0.0013102842464458191, -0.005553694617697846, 0.0015777905759549894, -0.0011761674127234252, 0.009980510522234629, 0.0055568867306220685, -0.0049782011476627724, 0.014795680535298792, -0.00562576897986161, -0.02394911081234891, 0.00839263319128182, 0.005330549653599205, -0.009520025674100707, 0.010570327443790089, 0.006774864872399854, -0.012230911456759749, 0.00033842537987433023, 0.0012250431446984037, -0.014119584104133966, -0.0003565883569106166, -0.005802540524593357, -0.009402215917044005, -0.0020350024878245123, 0.026660339602971966, -0.013135849925057928, -0.0029181055638434275, 0.0006873728063164686, -0.014351396062303873, 0.028693139309898426, -0.00924073855086495, 0.006852677295291967, -0.005288148685396211, 0.012984186979085474, 0.0035776341921511146, 0.020393176345384244, 0.010928639234491081, 0.0001974871072577243, -0.01146116751452408, -0.007719659677479387, 0.007611395421953398, 0.002950309291320708, 0.001405228122645507, 0.003219278130357627, 0.010808553580880684, -0.005444747525984787, -0.011187614084548568], [0.01027605187952609, 0.005512663693458226, -0.005844343622411885, 0.004008235695170037, -0.014172242866100438, -0.004713887585840951, -0.004336211004595199, -0.003293211966083701, 0.005482352145520411, 0.008378082116961871, 0.01573857469539629, 0.013661588498145376, -0.006261277704100808, -0.006306221280120446, -0.005457128243075226, -0.004964835161932292, 0.007623153157497773, -0.0077749479086184434, -0.00980924018184979, -0.009067876800919096, -0.005676650179357876, 0.0028093046555868885, 0.006822884688479047, -0.01570223903421436, -0.008550267147945585, 0.007015407460829742, 0.003964606113650505, 0.00267164887701052, -0.005643136654467526, -0.007635449157013835, -0.010241850676553489, 0.004334156483296263, -0.004892171312176659, -0.003207700040033632, -0.006223519046871752, -0.0004293718331210392, -0.016941682515719134, 0.02078399843503615, 0.010537079239982233, -0.01679251620707371, 0.009090422399617593, -0.0012012454335365572, 0.010722608016281826, -0.022104721453965453, -0.015109532731424924, 0.01603249776782404, -0.004793690101806824, 0.0008246704201941962, 0.005461924111332378, -0.009475493751645666, -0.0068998460461251465, -0.004778903714012946, 0.00016468883045651694, -0.0007248465541546128, -0.003907848925520671, -0.0032819590391590255, -0.0021688343120899642, 0.006519731350598301, -0.0076477110520382745, 0.007238953703269192, 0.010848234722518701, -0.006012226811158485, -0.0034992903220630927, 0.00565621838357442, -0.00017250206204953532, 0.011044995271923104, -0.008242177853048658, -0.0024601824513832125, 0.0035699533349379726, 0.0107736690819999, -0.0015751260395787104, -0.0004998864342730408, 0.0032763537812837643, 0.002000672511708849, 0.003807626390894516, -0.011395682753528966, -0.010124080301790125, -0.005999487607596843, 0.008145086466837967, 0.014127789748082762, -0.005075594579464118, 0.00768274899054458, -0.020148446766452385, -0.002514728952549134, 0.013584100334790773, 0.00036292690123220726, -0.003077651469487595, -0.0053197560746282915, 0.017053193096142838, -0.008952758964777716, 0.011592902774358382, 0.0013567930994584163, -0.005081098202073729, -0.008237066928758852, -0.009673026819551645, 0.01825104958859791, -0.010021564921396544, -0.005234984254932185, 0.007368279890185481, 0.005177356502405711, 0.011630642335729337, 0.010536212910404736, -0.00246894638177236, 0.008941117924028314, -0.02029018674174984, -0.004306983898123588, -0.010599607089765177, 0.01868093064877678, -0.013211042030728844, 0.0005450247180838102, 0.013247624765256736, -0.005811857510651068, -0.003729531151069517, 0.008384964477625852, -0.001886737804100617, 0.007367326853982007, -0.003476266723105586, -0.00010065877361986635, -0.011239123509952287, 0.004748462870475675, -0.004940426198562769, 0.0095393367933631, -0.011920246274738953, -0.0020276429992973446, 0.02572580172900157, 0.004839392378899555, -0.017968948205723725, -0.0016717399069664837], [-0.005753872748660931, -0.008226397030641009, -0.012272668439261537, -0.009738604515619462, 0.0004678728869297059, -0.002152658135591648, 0.011379550111718371, 0.0013866383643814362, 0.010642818654111064, 0.002246379746103719, 0.013812450233760633, 0.013229701319301582, 0.01236502126271866, -0.020829318605318312, -0.0052653552589034, -0.0023768765977689307, 0.008289544978084058, -0.009295008507796342, 0.0007063852346288422, 0.0012910870172858809, 0.0030013690073975373, 0.008037855947581172, 0.013385547894425932, -0.01673586463923496, 0.00268052829798016, -0.012109593740239774, -0.0009421840043624831, -0.0014934741057955306, -0.01387377099204383, -0.008506655661717613, -0.003944153687358182, 0.0014200931640475254, 0.002213052861183287, 0.0015345637667317214, -0.008495104778031328, -0.013305700234823015, 0.011272824751272508, 0.008952103887274666, -0.010245240065916308, -0.0007132873614049041, 0.005759735361688404, 0.007961199394716994, -0.0163517576666214, 0.011925313527471297, 0.00580128723520539, 0.0025526285698574827, 0.01314039631379046, 0.005619311270157305, 0.010562348849614718, 0.022036944623973598, 0.014266281655472278, 0.01779088608305706, -0.0011284687831385413, -0.002330575698728627, -0.008429124002131656, 0.001251726143594627, -0.004593770211800213, 0.0005154161316920164, -0.0036386523068921354, 0.009977735091328072, 0.011427358503783585, 0.005567128460579041, -0.0015198260931899331, 0.0010142698428003813, 0.010929133990791632, -0.000567813462091356, 0.009794971116273199, -0.01197817266086569, -0.009053436839361233, 0.002896870059752077, -0.0038833173622801562, -0.005939375281306083, -0.002085601783668582, 0.007120700252980369, -0.00427279378251437, -0.006814728619000607, -0.014067284491712509, -0.0007223632977590354, 0.008546146712799223, -0.006883266987692016, 0.00965556939842793, -0.009777879912619799, 0.0028397183629591772, -0.006322096017648451, 0.008114991301274724, -0.0004102627996080204, -0.0031385819054044624, -0.019014614860113445, 0.026227506383188614, -0.004887256225617383, -0.006049238642933753, 0.01039358740000663, 0.0009792294061060016, -0.008025371960510097, -0.00605068678164434, -0.00711256122026488, -0.013034200531434644, 4.044279553275155e-06, 0.013192427172263483, 0.007402864806028459, -0.0039817519594536905, 0.017894148775350994, 0.009040688594411123, -0.0006241103956875811, 0.013630985860932894, -0.0026047195541178004, 0.008048652586702435, -0.010588739388053423, 0.011683313043748082, -0.011558933530144777, 0.010055232100300154, -0.004272789079289212, 0.01710751308930161, 0.0026478998097079908, -0.0029689878384548565, 0.009314644434035579, 0.010718501370012123, 0.00765907884010346, 0.011616281614737177, 0.02873272694111862, -0.0012047594127928987, 0.010325366672542443, 0.012028016730874279, -0.012393354486447888, -0.0017192676981375203, 0.007384485113541489, 0.018277259166951103, 0.002274008523402143], [0.0023124617657429582, 0.002367452899029359, 0.007469344796477802, -0.0038878614859353742, 0.0070441890597126725, 0.021171250757953387, -0.006724838232141466, 0.004810747613693671, -0.009514522584231366, 0.003257460603145613, 0.0014235971727712727, 0.00295971195435339, -0.004848792158187325, 0.01700945411881434, -0.005169025515640837, 0.010848629284698189, 0.0016660377474442421, -0.017603858083837045, 0.007400142790426419, -0.011436021543216317, 0.002534831234708781, 0.014062035950212055, -0.0034861929582356505, 0.007814182749858884, -0.008540942169314942, -0.015546478795482177, -0.0021974922492842687, 0.007916542950657295, 0.0011429413005841472, -0.006773858876832144, -0.007257354404851249, -0.000544462307146124, -0.00280397296280332, 0.006092421700467195, 0.004762994962616753, -0.009355418347986746, -0.006211964387359877, 0.004004114326798706, -0.007674173542891031, 0.0027716788347408043, -0.008435152253137717, 0.001828766478122646, 0.00296323875359548, -0.016236096024564557, -0.01003273819424176, 0.013880609510466829, 0.0013864845373573926, -0.005307594853978368, -0.004604793627536796, -0.005026256185794549, 0.003586197884725561, -0.003633622993986105, 0.004145762639049405, 0.00013809556851079326, 0.0007022826868640645, 0.01961529132494256, 0.007459187909791562, 0.005533527172699336, 0.015549520101528156, 0.0021477796139934514, -0.0021817044131194423, 0.0218244912871781, 0.006687511857011963, -0.02161804751805058, -0.011248443451130376, -0.017435075485551135, -0.011692881760931983, 0.002414684368408992, -0.019690081653317638, -0.012536688875870351, 0.009642155943956282, -0.024625906430929996, -0.0025615424471637244, 0.012206261332291, 0.0130260687031839, -0.002630259043155379, 0.004925857451744494, -0.008117491312557316, -0.015220909750532807, 0.004461446978767547, 0.003028051249577572, 0.0021834088572769013, -0.0037925089613467973, 0.0022793825847718355, -0.014491674654248785, -0.01205639650388108, 0.02299438639666241, -0.0030578938453284677, -0.003600046260511512, -0.011691486166747334, 0.007392817242721917, 0.00038061872423663404, 0.004382162466804271, -0.004553696080674021, -0.0040633916465706325, -0.0019038493648059767, 0.013951737174725136, -0.013472946108177118, -0.013182320464396878, 0.0007917704448921329, 0.004234122226803268, -0.0030424016213639665, 0.0007915395572332285, 0.01384538679469083, 0.0037437019271282772, -0.013347644783297844, 0.006290935194609417, -0.004106745035248082, 0.003842829181048882, -0.005152394142238449, -0.002448448313830603, 0.020833510532107496, 0.0023056566655192596, 0.008950028785704032, -0.0027217854019596552, -0.007249781132877627, -0.00716672321174806, 0.0011329401687064473, -0.0020935201321095106, 0.013665424470617778, -0.003358947571741048, 0.004968468393805107, -0.0028722047689013, -0.010466793223385463, 0.008966784383364925, 0.017836661373182544, 0.0017075158053010044, 0.0012184584454871016], [-0.005990856073527191, -0.01019587926147537, -0.005206636345424124, 0.00605963653241146, -0.011001343603799325, -0.011268925053673573, 0.003984027871893852, -0.006187173286331811, -0.020473316743287125, 0.014909790321065278, -0.011701171455447941, 0.0005015586689196273, 0.005561948829693883, 0.01035342511972384, 0.002119844323810375, 0.0027844424388742415, 0.013337158859797783, -0.007023715998869644, 0.0071638767326215914, 0.0022129290407330187, -0.004355363673468774, 0.009084115158524027, -0.007946465566483723, 0.008003506144321057, -0.005843926917593112, 0.012867329623349513, 0.021865332994144365, -0.0010239357801499658, 0.00639416864442802, -0.001032971560585359, -0.007171909719320955, 0.00547868904897785, -0.006892256639440598, 0.008482700628685004, -0.0013362355224293266, -0.0025616309583826264, -0.021150992767918746, 0.008974016123693957, 0.009827498171952907, 0.02545991119771817, -0.012201937774925852, -0.007294509677796088, 0.008927061046226066, 0.004349961633337788, 0.003866986639735347, 0.012897956461986066, 0.0012397390953551063, 0.004675102597480781, -0.0017467620907512217, 0.005388535348840457, 0.0076259707169022105, -0.012725053572971882, -0.02387445581444917, 0.01655363752344931, -0.006900916133127228, 0.0006730071738260854, 0.014360700419549734, 0.0009369550576151393, -0.008621296585018104, -0.005132325252981402, -0.0046363316200297815, -0.010366329433367327, 0.030681408040346442, -0.010504024783540148, 0.002318731072254539, -0.0015017994949293985, 0.0025551261338867194, 0.010533194002903848, -0.0012857504910177276, 0.010560418584150626, -0.00704308168634035, -0.009255441148685081, -0.013180583463311992, -0.011898119328880926, 0.01504194832045481, -0.01007662143124583, 0.008679423598546353, 0.0019683876432471763, 0.009240666407799154, 0.009892219476972544, 0.014138674091857213, -0.02028162796999443, 0.005749259947814053, 0.0005429626182620788, 0.016549964979307618, -0.0034874276870908946, 0.005488989913922991, 0.00881314487133827, 0.0044845106772295005, -7.500634843102735e-05, -0.009465668031018134, 0.006736037585451806, -0.0029943186470582925, -0.010764081452977775, 0.0034536293777015785, 0.005862363199571442, -0.007848062299054704, 0.005101845732496548, 0.0027184652631932296, 0.004832436525259428, -0.013192238504381299, 0.0028943296180331092, 0.0038368778375610694, -0.012940682657138772, 0.004767565866617641, 0.0012778046788681355, -0.011245635895141824, 0.010279148622369208, 0.01632097375395977, -0.019936694206548526, 0.018569210300500266, -0.006179409904229695, 0.015373630414334255, -0.02043597559869182, 0.0037067744832982807, -0.022682025470058015, 0.0021422527627478548, 0.004115966838137738, -0.018513235579988227, 0.026530779201959752, -0.0036535015646396657, -0.0018759192410738334, -0.0016360788668219985, 0.0056142709688634645, -0.00533163187937182, -0.016456072418750908, 0.004034252683236898, -0.007177524482083852], [0.01827442679075928, 0.01949567341109092, -0.012971619743868708, -0.01287027677767019, 0.021715723234703707, -0.0003571978836159947, 0.012476869769168099, -0.004529231395748466, -0.0089299131563151, 0.0009471141243121133, -0.008437524091167733, 0.011362528328147702, -0.007468984981455503, -0.015121947989543999, -0.005520985201837771, -0.008146503768944212, 0.0007057411354621884, 0.0026923307224413317, 0.0075773705986458195, -0.0070932545550141755, 0.0027813084971107984, -0.006386356956001748, -0.0033176355160679577, 0.004254267583836847, -0.005305972255884366, 0.013564964157042184, -0.0033412003408277357, 0.0010960774330124833, 0.010014526494015541, 0.002925370834230046, -0.00947529110714498, 0.0009996751268353658, 0.017267851950732205, 0.009971822054840932, 0.006283788116554121, -0.008500325491464112, 0.015616015142829936, 0.0006422011814937614, -0.009568408436326127, 0.003952558462697749, -0.014894480080942947, -0.005561376710247301, 0.008151356069409841, -0.014944147972109682, 0.026399355060751358, 0.0056096239130699645, 0.01087345404092054, -0.006925836911535481, -0.010084676927314599, 0.016283847735805566, -0.005638309801875373, -0.003910963069984517, -0.0091596616929629, -0.003811430170574085, -0.0013543618418743167, -0.013848308293184886, 0.0008235277304964281, -0.015988461647124728, -0.014230501141526445, 